{"learner":{"attributes":{"scikit_learn":"{\"_estimator_type\": \"classifier\"}"},"feature_names":[],"feature_types":[],"gradient_booster":{"model":{"cats":{"enc":[],"feature_segments":[],"sorted_idx":[]},"gbtree_model_param":{"num_parallel_tree":"1","num_trees":"1500"},"iteration_indptr":[0,1,2,3,4,5,6,7,8,9,10,11,12,13,14,15,16,17,18,19,20,21,22,23,24,25,26,27,28,29,30,31,32,33,34,35,36,37,38,39,40,41,42,43,44,45,46,47,48,49,50,51,52,53,54,55,56,57,58,59,60,61,62,63,64,65,66,67,68,69,70,71,72,73,74,75,76,77,78,79,80,81,82,83,84,85,86,87,88,89,90,91,92,93,94,95,96,97,98,99,100,101,102,103,104,105,106,107,108,109,110,111,112,113,114,115,116,117,118,119,120,121,122,123,124,125,126,127,128,129,130,131,132,133,134,135,136,137,138,139,140,141,142,143,144,145,146,147,148,149,150,151,152,153,154,155,156,157,158,159,160,161,162,163,164,165,166,167,168,169,170,171,172,173,174,175,176,177,178,179,180,181,182,183,184,185,186,187,188,189,190,191,192,193,194,195,196,197,198,199,200,201,202,203,204,205,206,207,208,209,210,211,212,213,214,215,216,217,218,219,220,221,222,223,224,225,226,227,228,229,230,231,232,233,234,235,236,237,238,239,240,241,242,243,244,245,246,247,248,249,250,251,252,253,254,255,256,257,258,259,260,261,262,263,264,265,266,267,268,269,270,271,272,273,274,275,276,277,278,279,280,281,282,283,284,285,286,287,288,289,290,291,292,293,294,295,296,297,298,299,300,301,302,303,304,305,306,307,308,309,310,311,312,313,314,315,316,317,318,319,320,321,322,323,324,325,326,327,328,329,330,331,332,333,334,335,336,337,338,339,340,341,342,343,344,345,346,347,348,349,350,351,352,353,354,355,356,357,358,359,360,361,362,363,364,365,366,367,368,369,370,371,372,373,374,375,376,377,378,379,380,381,382,383,384,385,386,387,388,389,390,391,392,393,394,395,396,397,398,399,400,401,402,403,404,405,406,407,408,409,410,411,412,413,414,415,416,417,418,419,420,421,422,423,424,425,426,427,428,429,430,431,432,433,434,435,436,437,438,439,440,441,442,443,444,445,446,447,448,449,450,451,452,453,454,455,456,457,458,459,460,461,462,463,464,465,466,467,468,469,470,471,472,473,474,475,476,477,478,479,480,481,482,483,484,485,486,487,488,489,490,491,492,493,494,495,496,497,498,499,500,501,502,503,504,505,506,507,508,509,510,511,512,513,514,515,516,517,518,519,520,521,522,523,524,525,526,527,528,529,530,531,532,533,534,535,536,537,538,539,540,541,542,543,544,545,546,547,548,549,550,551,552,553,554,555,556,557,558,559,560,561,562,563,564,565,566,567,568,569,570,571,572,573,574,575,576,577,578,579,580,581,582,583,584,585,586,587,588,589,590,591,592,593,594,595,596,597,598,599,600,601,602,603,604,605,606,607,608,609,610,611,612,613,614,615,616,617,618,619,620,621,622,623,624,625,626,627,628,629,630,631,632,633,634,635,636,637,638,639,640,641,642,643,644,645,646,647,648,649,650,651,652,653,654,655,656,657,658,659,660,661,662,663,664,665,666,667,668,669,670,671,672,673,674,675,676,677,678,679,680,681,682,683,684,685,686,687,688,689,690,691,692,693,694,695,696,697,698,699,700,701,702,703,704,705,706,707,708,709,710,711,712,713,714,715,716,717,718,719,720,721,722,723,724,725,726,727,728,729,730,731,732,733,734,735,736,737,738,739,740,741,742,743,744,745,746,747,748,749,750,751,752,753,754,755,756,757,758,759,760,761,762,763,764,765,766,767,768,769,770,771,772,773,774,775,776,777,778,779,780,781,782,783,784,785,786,787,788,789,790,791,792,793,794,795,796,797,798,799,800,801,802,803,804,805,806,807,808,809,810,811,812,813,814,815,816,817,818,819,820,821,822,823,824,825,826,827,828,829,830,831,832,833,834,835,836,837,838,839,840,841,842,843,844,845,846,847,848,849,850,851,852,853,854,855,856,857,858,859,860,861,862,863,864,865,866,867,868,869,870,871,872,873,874,875,876,877,878,879,880,881,882,883,884,885,886,887,888,889,890,891,892,893,894,895,896,897,898,899,900,901,902,903,904,905,906,907,908,909,910,911,912,913,914,915,916,917,918,919,920,921,922,923,924,925,926,927,928,929,930,931,932,933,934,935,936,937,938,939,940,941,942,943,944,945,946,947,948,949,950,951,952,953,954,955,956,957,958,959,960,961,962,963,964,965,966,967,968,969,970,971,972,973,974,975,976,977,978,979,980,981,982,983,984,985,986,987,988,989,990,991,992,993,994,995,996,997,998,999,1000,1001,1002,1003,1004,1005,1006,1007,1008,1009,1010,1011,1012,1013,1014,1015,1016,1017,1018,1019,1020,1021,1022,1023,1024,1025,1026,1027,1028,1029,1030,1031,1032,1033,1034,1035,1036,1037,1038,1039,1040,1041,1042,1043,1044,1045,1046,1047,1048,1049,1050,1051,1052,1053,1054,1055,1056,1057,1058,1059,1060,1061,1062,1063,1064,1065,1066,1067,1068,1069,1070,1071,1072,1073,1074,1075,1076,1077,1078,1079,1080,1081,1082,1083,1084,1085,1086,1087,1088,1089,1090,1091,1092,1093,1094,1095,1096,1097,1098,1099,1100,1101,1102,1103,1104,1105,1106,1107,1108,1109,1110,1111,1112,1113,1114,1115,1116,1117,1118,1119,1120,1121,1122,1123,1124,1125,1126,1127,1128,1129,1130,1131,1132,1133,1134,1135,1136,1137,1138,1139,1140,1141,1142,1143,1144,1145,1146,1147,1148,1149,1150,1151,1152,1153,1154,1155,1156,1157,1158,1159,1160,1161,1162,1163,1164,1165,1166,1167,1168,1169,1170,1171,1172,1173,1174,1175,1176,1177,1178,1179,1180,1181,1182,1183,1184,1185,1186,1187,1188,1189,1190,1191,1192,1193,1194,1195,1196,1197,1198,1199,1200,1201,1202,1203,1204,1205,1206,1207,1208,1209,1210,1211,1212,1213,1214,1215,1216,1217,1218,1219,1220,1221,1222,1223,1224,1225,1226,1227,1228,1229,1230,1231,1232,1233,1234,1235,1236,1237,1238,1239,1240,1241,1242,1243,1244,1245,1246,1247,1248,1249,1250,1251,1252,1253,1254,1255,1256,1257,1258,1259,1260,1261,1262,1263,1264,1265,1266,1267,1268,1269,1270,1271,1272,1273,1274,1275,1276,1277,1278,1279,1280,1281,1282,1283,1284,1285,1286,1287,1288,1289,1290,1291,1292,1293,1294,1295,1296,1297,1298,1299,1300,1301,1302,1303,1304,1305,1306,1307,1308,1309,1310,1311,1312,1313,1314,1315,1316,1317,1318,1319,1320,1321,1322,1323,1324,1325,1326,1327,1328,1329,1330,1331,1332,1333,1334,1335,1336,1337,1338,1339,1340,1341,1342,1343,1344,1345,1346,1347,1348,1349,1350,1351,1352,1353,1354,1355,1356,1357,1358,1359,1360,1361,1362,1363,1364,1365,1366,1367,1368,1369,1370,1371,1372,1373,1374,1375,1376,1377,1378,1379,1380,1381,1382,1383,1384,1385,1386,1387,1388,1389,1390,1391,1392,1393,1394,1395,1396,1397,1398,1399,1400,1401,1402,1403,1404,1405,1406,1407,1408,1409,1410,1411,1412,1413,1414,1415,1416,1417,1418,1419,1420,1421,1422,1423,1424,1425,1426,1427,1428,1429,1430,1431,1432,1433,1434,1435,1436,1437,1438,1439,1440,1441,1442,1443,1444,1445,1446,1447,1448,1449,1450,1451,1452,1453,1454,1455,1456,1457,1458,1459,1460,1461,1462,1463,1464,1465,1466,1467,1468,1469,1470,1471,1472,1473,1474,1475,1476,1477,1478,1479,1480,1481,1482,1483,1484,1485,1486,1487,1488,1489,1490,1491,1492,1493,1494,1495,1496,1497,1498,1499,1500],"tree_info":[0,0,0,0,0,0,0,0,0,0,0,0,0,0,0,0,0,0,0,0,0,0,0,0,0,0,0,0,0,0,0,0,0,0,0,0,0,0,0,0,0,0,0,0,0,0,0,0,0,0,0,0,0,0,0,0,0,0,0,0,0,0,0,0,0,0,0,0,0,0,0,0,0,0,0,0,0,0,0,0,0,0,0,0,0,0,0,0,0,0,0,0,0,0,0,0,0,0,0,0,0,0,0,0,0,0,0,0,0,0,0,0,0,0,0,0,0,0,0,0,0,0,0,0,0,0,0,0,0,0,0,0,0,0,0,0,0,0,0,0,0,0,0,0,0,0,0,0,0,0,0,0,0,0,0,0,0,0,0,0,0,0,0,0,0,0,0,0,0,0,0,0,0,0,0,0,0,0,0,0,0,0,0,0,0,0,0,0,0,0,0,0,0,0,0,0,0,0,0,0,0,0,0,0,0,0,0,0,0,0,0,0,0,0,0,0,0,0,0,0,0,0,0,0,0,0,0,0,0,0,0,0,0,0,0,0,0,0,0,0,0,0,0,0,0,0,0,0,0,0,0,0,0,0,0,0,0,0,0,0,0,0,0,0,0,0,0,0,0,0,0,0,0,0,0,0,0,0,0,0,0,0,0,0,0,0,0,0,0,0,0,0,0,0,0,0,0,0,0,0,0,0,0,0,0,0,0,0,0,0,0,0,0,0,0,0,0,0,0,0,0,0,0,0,0,0,0,0,0,0,0,0,0,0,0,0,0,0,0,0,0,0,0,0,0,0,0,0,0,0,0,0,0,0,0,0,0,0,0,0,0,0,0,0,0,0,0,0,0,0,0,0,0,0,0,0,0,0,0,0,0,0,0,0,0,0,0,0,0,0,0,0,0,0,0,0,0,0,0,0,0,0,0,0,0,0,0,0,0,0,0,0,0,0,0,0,0,0,0,0,0,0,0,0,0,0,0,0,0,0,0,0,0,0,0,0,0,0,0,0,0,0,0,0,0,0,0,0,0,0,0,0,0,0,0,0,0,0,0,0,0,0,0,0,0,0,0,0,0,0,0,0,0,0,0,0,0,0,0,0,0,0,0,0,0,0,0,0,0,0,0,0,0,0,0,0,0,0,0,0,0,0,0,0,0,0,0,0,0,0,0,0,0,0,0,0,0,0,0,0,0,0,0,0,0,0,0,0,0,0,0,0,0,0,0,0,0,0,0,0,0,0,0,0,0,0,0,0,0,0,0,0,0,0,0,0,0,0,0,0,0,0,0,0,0,0,0,0,0,0,0,0,0,0,0,0,0,0,0,0,0,0,0,0,0,0,0,0,0,0,0,0,0,0,0,0,0,0,0,0,0,0,0,0,0,0,0,0,0,0,0,0,0,0,0,0,0,0,0,0,0,0,0,0,0,0,0,0,0,0,0,0,0,0,0,0,0,0,0,0,0,0,0,0,0,0,0,0,0,0,0,0,0,0,0,0,0,0,0,0,0,0,0,0,0,0,0,0,0,0,0,0,0,0,0,0,0,0,0,0,0,0,0,0,0,0,0,0,0,0,0,0,0,0,0,0,0,0,0,0,0,0,0,0,0,0,0,0,0,0,0,0,0,0,0,0,0,0,0,0,0,0,0,0,0,0,0,0,0,0,0,0,0,0,0,0,0,0,0,0,0,0,0,0,0,0,0,0,0,0,0,0,0,0,0,0,0,0,0,0,0,0,0,0,0,0,0,0,0,0,0,0,0,0,0,0,0,0,0,0,0,0,0,0,0,0,0,0,0,0,0,0,0,0,0,0,0,0,0,0,0,0,0,0,0,0,0,0,0,0,0,0,0,0,0,0,0,0,0,0,0,0,0,0,0,0,0,0,0,0,0,0,0,0,0,0,0,0,0,0,0,0,0,0,0,0,0,0,0,0,0,0,0,0,0,0,0,0,0,0,0,0,0,0,0,0,0,0,0,0,0,0,0,0,0,0,0,0,0,0,0,0,0,0,0,0,0,0,0,0,0,0,0,0,0,0,0,0,0,0,0,0,0,0,0,0,0,0,0,0,0,0,0,0,0,0,0,0,0,0,0,0,0,0,0,0,0,0,0,0,0,0,0,0,0,0,0,0,0,0,0,0,0,0,0,0,0,0,0,0,0,0,0,0,0,0,0,0,0,0,0,0,0,0,0,0,0,0,0,0,0,0,0,0,0,0,0,0,0,0,0,0,0,0,0,0,0,0,0,0,0,0,0,0,0,0,0,0,0,0,0,0,0,0,0,0,0,0,0,0,0,0,0,0,0,0,0,0,0,0,0,0,0,0,0,0,0,0,0,0,0,0,0,0,0,0,0,0,0,0,0,0,0,0,0,0,0,0,0,0,0,0,0,0,0,0,0,0,0,0,0,0,0,0,0,0,0,0,0,0,0,0,0,0,0,0,0,0,0,0,0,0,0,0,0,0,0,0,0,0,0,0,0,0,0,0,0,0,0,0,0,0,0,0,0,0,0,0,0,0,0,0,0,0,0,0,0,0,0,0,0,0,0,0,0,0,0,0,0,0,0,0,0,0,0,0,0,0,0,0,0,0,0,0,0,0,0,0,0,0,0,0,0,0,0,0,0,0,0,0,0,0,0,0,0,0,0,0,0,0,0,0,0,0,0,0,0,0,0,0,0,0,0,0,0,0,0,0,0,0,0,0,0,0,0,0,0,0,0,0,0,0,0,0,0,0,0,0,0,0,0,0,0,0,0,0,0,0,0,0,0,0,0,0,0,0,0,0,0,0,0,0,0,0,0,0,0,0,0,0,0,0,0,0,0,0,0,0,0,0,0,0,0,0,0,0,0,0,0,0,0,0,0,0,0,0,0,0,0,0,0,0,0,0,0,0,0,0,0,0,0,0,0,0,0,0,0,0,0,0,0,0,0,0,0,0,0,0,0,0,0,0,0,0,0,0,0,0,0,0,0,0,0,0,0,0,0,0,0,0,0,0,0,0,0,0,0,0,0,0,0,0,0,0,0,0,0,0,0,0,0,0,0,0,0,0,0,0,0,0,0,0,0,0,0,0,0,0,0,0,0,0,0,0,0,0,0,0,0,0,0,0,0,0,0,0,0,0,0,0,0,0,0,0,0,0,0,0,0,0,0,0,0,0,0,0,0,0,0,0,0,0,0,0,0,0,0,0,0,0,0,0,0,0,0,0,0,0,0,0,0,0,0,0,0,0,0,0,0,0,0,0,0,0,0,0,0,0,0,0,0,0,0,0,0,0,0,0,0,0,0,0,0,0,0,0,0,0,0,0,0,0,0,0,0,0,0,0,0,0,0,0,0,0,0,0,0,0,0,0,0,0,0,0,0,0,0,0,0,0,0,0,0,0,0,0,0,0,0,0],"trees":[{"base_weights":[1.7248768E-2,-1.0328519E0,2.1534483E0,-1.0672677E-2,5.222158E-1,1.2742759E0,2.3979127E-2,-5.526079E-3,1.4173954E-2,-9.9307895E-2,1.9287934E0,5.515119E-3,-6.798339E-3,4.757131E-3,2.0098574E-2],"categories":[],"categories_nodes":[],"categories_segments":[],"categories_sizes":[],"default_left":[0,0,0,0,0,0,0,0,0,0,0,0,0,0,0],"id":0,"left_children":[1,3,5,-1,7,9,-1,-1,-1,11,13,-1,-1,-1,-1],"loss_changes":[8.673504E1,1.2669479E1,6.588726E0,0E0,8.1126E0,6.9267187E0,0E0,0E0,0E0,2.3027997E0,2.886303E0,0E0,0E0,0E0,0E0],"parents":[2147483647,0,0,1,1,2,2,4,4,5,5,9,9,10,10],"right_children":[2,4,6,-1,8,10,-1,-1,-1,12,14,-1,-1,-1,-1],"split_conditions":[4.5843855E-1,5E-1,6.791079E-1,-1.0672677E-2,3.3404094E-1,3.3134705E-1,2.3979127E-2,-5.526079E-3,1.4173954E-2,1.856572E-1,1.1883728E-1,5.515119E-3,-6.798339E-3,4.757131E-3,2.0098574E-2],"split_indices":[19,2,19,0,49,46,0,0,0,5,11,0,0,0,0],"split_type":[0,0,0,0,0,0,0,0,0,0,0,0,0,0,0],"sum_hessian":[3.71717E1,2.5180828E1,1.199087E1,2.1183872E1,3.9969568E0,6.794827E0,5.196044E0,2.1983263E0,1.7986306E0,2.3981743E0,4.3966527E0,1.1990871E0,1.1990871E0,1.7986306E0,2.598022E0],"tree_param":{"num_deleted":"0","num_feature":"60","num_nodes":"15","size_leaf_vector":"1"}},{"base_weights":[-1.5678655E-1,-1.0811478E0,1.9150727E0,-1.2380574E0,3.5930388E-3,1.09784335E-1,2.4956603E0,-1.0619723E-2,1.4186443E-3,-6.867851E-3,7.6211975E-3,2.1949679E-2,5.4267757E-3],"categories":[],"categories_nodes":[],"categories_segments":[],"categories_sizes":[],"default_left":[0,0,0,0,0,0,0,0,0,0,0,0,0],"id":1,"left_children":[1,3,5,7,-1,9,11,-1,-1,-1,-1,-1,-1],"loss_changes":[6.574026E1,6.0969963E0,1.0915695E1,2.9169044E0,0E0,3.3608434E0,2.207672E0,0E0,0E0,0E0,0E0,0E0,0E0],"parents":[2147483647,0,0,1,1,2,2,3,3,5,5,6,6],"right_children":[2,4,6,8,-1,10,12,-1,-1,-1,-1,-1,-1],"split_conditions":[4.8783666E-1,5.574401E-1,4.6590674E-1,5.5248195E-1,3.5930388E-3,1.5559633E-1,3.6376333E-1,-1.0619723E-2,1.4186443E-3,-6.867851E-3,7.6211975E-3,2.1949679E-2,5.4267757E-3],"split_indices":[19,3,2,6,0,10,7,0,0,0,0,0,0],"split_type":[0,0,0,0,0,0,0,0,0,0,0,0,0],"sum_hessian":[3.2765667E1,2.290515E1,9.860516E0,2.0904856E1,2.000295E0,2.616512E0,7.2440033E0,1.9706608E1,1.1982485E0,1.2112074E0,1.4053047E0,6.0375967E0,1.2064068E0],"tree_param":{"num_deleted":"0","num_feature":"60","num_nodes":"13","size_leaf_vector":"1"}},{"base_weights":[-6.1255973E-3,-8.0086225E-1,1.8997627E0,-1.1099561E0,6.782312E-1,1.0763965E-1,2.5767524E0,-1.2058754E0,2.8021603E-3,1.613188E-2,-6.4946115E-1,7.5300974E-3,-6.841745E-3,2.3353202E-2,2.7502915E-3,-1.0436045E-2,-6.03197E-1,-1.7596218E-3,-6.3994364E-3,1.5239068E-3,-7.997337E-3],"categories":[],"categories_nodes":[],"categories_segments":[],"categories_sizes":[],"default_left":[0,0,0,0,0,0,0,0,0,0,0,0,0,0,0,0,0,0,0,0,0],"id":2,"left_children":[1,3,5,7,9,11,13,15,-1,-1,17,-1,-1,-1,-1,-1,19,-1,-1,-1,-1],"loss_changes":[4.855525E1,1.0905467E1,1.1238071E1,2.9770947E0,8.75617E0,3.3082285E0,4.457691E0,4.793129E-1,0E0,0E0,4.664409E-2,0E0,0E0,0E0,0E0,0E0,1.3780259E0,0E0,0E0,0E0,0E0],"parents":[2147483647,0,0,1,1,2,2,3,3,4,4,5,5,6,6,7,7,10,10,16,16],"right_children":[2,4,6,8,10,12,14,16,-1,-1,18,-1,-1,-1,-1,-1,20,-1,-1,-1,-1],"split_conditions":[5.503623E-1,4.7340545E-1,4.253498E-1,5.232725E-1,2.4806947E-1,1.9789642E-1,4.9689353E-1,4.6251184E-1,2.8021603E-3,1.613188E-2,3.4528965E-1,7.5300974E-3,-6.841745E-3,2.3353202E-2,2.7502915E-3,-1.0436045E-2,1.6236709E-1,-1.7596218E-3,-6.3994364E-3,1.5239068E-3,-7.997337E-3],"split_indices":[16,19,4,2,14,7,48,5,0,0,2,0,0,0,0,0,15,0,0,0,0],"split_type":[0,0,0,0,0,0,0,0,0,0,0,0,0,0,0,0,0,0,0,0,0],"sum_hessian":[3.0553102E1,2.1868855E1,8.684249E0,1.8243574E1,3.625279E0,2.61941E0,6.064839E0,1.7241648E1,1.0019281E0,1.6116831E0,2.0135958E0,1.4129385E0,1.2064717E0,5.0586805E0,1.0061584E0,1.4066274E1,3.1753733E0,1.0014163E0,1.0121794E0,1.1875987E0,1.9877746E0],"tree_param":{"num_deleted":"0","num_feature":"60","num_nodes":"21","size_leaf_vector":"1"}},{"base_weights":[-2.9259655E-3,-8.7473446E-1,2.5182066E0,-1.0698897E0,1.2694332E-2,6.5045744E-1,2.4035987E-2,-1.2783672E0,-1.437236E-1,1.1791129E-2,-2.729683E-3,-1.0573544E-2,-2.660958E-3,9.729096E-3,-8.8483655E-1,-8.362339E-3,-1.7506606E-3],"categories":[],"categories_nodes":[],"categories_segments":[],"categories_sizes":[],"default_left":[0,0,0,0,0,0,0,0,0,0,0,0,0,0,0,0,0],"id":3,"left_children":[1,3,5,7,-1,9,-1,11,13,-1,-1,-1,-1,-1,15,-1,-1],"loss_changes":[8.3093285E1,1.4766748E1,7.357342E0,4.9738903E0,0E0,2.7974663E0,0E0,5.5184937E-1,6.5609064E0,0E0,0E0,0E0,0E0,0E0,2.6973343E-1,0E0,0E0],"parents":[2147483647,0,0,1,1,2,2,3,3,5,5,7,7,8,8,14,14],"right_children":[2,4,6,8,-1,10,-1,12,14,-1,-1,-1,-1,-1,16,-1,-1],"split_conditions":[5.1439273E-1,5.919521E-1,5.276041E-1,7.180411E-1,1.2694332E-2,1.4986649E-1,2.4035987E-2,4.9770635E-1,5.1178026E-1,1.1791129E-2,-2.729683E-3,-1.0573544E-2,-2.660958E-3,9.729096E-3,4.087676E-1,-8.362339E-3,-1.7506606E-3],"split_indices":[2,0,18,41,0,6,0,2,53,0,0,0,0,0,4,0,0],"split_type":[0,0,0,0,0,0,0,0,0,0,0,0,0,0,0,0,0],"sum_hessian":[3.6303352E1,2.7339218E1,8.964132E0,2.5723797E1,1.6154225E0,2.2139568E0,6.750175E0,2.0764544E1,4.959254E0,1.010325E0,1.2036319E0,1.956989E1,1.1946536E0,1.5797911E0,3.3794627E0,2.3791475E0,1.0003152E0],"tree_param":{"num_deleted":"0","num_feature":"60","num_nodes":"17","size_leaf_vector":"1"}},{"base_weights":[-6.9324456E-2,-8.343148E-1,2.3362324E0,-1.0456362E0,1.4841053E-2,6.495753E-1,2.2954507E-2,-1.1580812E0,7.3257703E-3,1.3507004E-2,-6.3351616E-3,-1.277893E0,3.7317087E-3,-1.0562307E-2,-2.5640044E-3],"categories":[],"categories_nodes":[],"categories_segments":[],"categories_sizes":[],"default_left":[0,0,0,0,0,0,0,0,0,0,0,0,0,0,0],"id":4,"left_children":[1,3,5,7,-1,9,-1,11,-1,-1,-1,13,-1,-1,-1],"loss_changes":[6.3318855E1,1.6263481E1,6.0717773E0,6.229044E0,0E0,5.441968E0,0E0,5.0469513E0,0E0,0E0,0E0,5.841217E-1,0E0,0E0,0E0],"parents":[2147483647,0,0,1,1,2,2,3,3,5,5,7,7,11,11],"right_children":[2,4,6,8,-1,10,-1,12,-1,-1,-1,14,-1,-1,-1],"split_conditions":[5.2855414E-1,5.855898E-1,4.940074E-1,1.3955986E0,1.4841053E-2,3.6849436E-1,2.2954507E-2,5.379249E-1,7.3257703E-3,1.3507004E-2,-6.3351616E-3,5.195203E-1,3.7317087E-3,-1.0562307E-2,-2.5640044E-3],"split_indices":[16,4,3,56,0,14,0,2,0,0,0,1,0,0,0],"split_type":[0,0,0,0,0,0,0,0,0,0,0,0,0,0,0],"sum_hessian":[3.2863766E1,2.530607E1,7.5576963E0,2.388753E1,1.4185398E0,2.21461E0,5.3430862E0,2.2882816E1,1.0047133E0,1.2124145E0,1.0021955E0,2.1460148E1,1.4226688E0,2.0277914E1,1.1822336E0],"tree_param":{"num_deleted":"0","num_feature":"60","num_nodes":"15","size_leaf_vector":"1"}},{"base_weights":[6.607198E-2,-9.1813946E-1,2.6542659E0,-1.0464559E-2,-6.9322854E-2,7.30857E-3,2.3709338E-2,-9.097098E-3,7.65733E-1,-4.240795E-1,1.7680719E0,-7.247371E-3,2.813675E-3,1.7408496E-2,5.4287324E-3],"categories":[],"categories_nodes":[],"categories_segments":[],"categories_sizes":[],"default_left":[0,0,0,0,0,0,0,0,0,0,0,0,0,0,0],"id":5,"left_children":[1,3,5,-1,7,-1,-1,-1,9,11,13,-1,-1,-1,-1],"loss_changes":[9.331171E1,8.728287E0,3.402008E0,0E0,8.818829E0,0E0,0E0,0E0,7.225526E0,1.4200344E0,3.0492115E-1,0E0,0E0,0E0,0E0],"parents":[2147483647,0,0,1,1,2,2,4,4,8,8,9,9,10,10],"right_children":[2,4,6,-1,8,-1,-1,-1,10,12,14,-1,-1,-1,-1],"split_conditions":[5.9344816E-1,4.1511637E-1,4.8315346E-1,-1.0464559E-2,3.8120222E-1,7.30857E-3,2.3709338E-2,-9.097098E-3,1.8165995E-1,1E0,2.5859708E-1,-7.247371E-3,2.813675E-3,1.7408496E-2,5.4287324E-3],"split_indices":[2,17,4,0,54,0,0,0,9,32,10,0,0,0,0],"split_type":[0,0,0,0,0,0,0,0,0,0,0,0,0,0,0],"sum_hessian":[3.5163666E1,2.5826557E1,9.33711E0,1.7418867E1,8.407688E0,1.8565685E0,7.4805417E0,3.5705683E0,4.83712E0,2.4095635E0,2.4275565E0,1.4087707E0,1.0007929E0,1.2219535E0,1.2056031E0],"tree_param":{"num_deleted":"0","num_feature":"60","num_nodes":"15","size_leaf_vector":"1"}},{"base_weights":[-3.722482E-2,-8.8660675E-1,2.073597E0,-1.1216514E0,1.158194E0,-6.5597296E-3,2.4391592E0,-1.2365066E0,7.093333E-3,1.4308946E-3,1.3494162E-2,-1.9476998E-3,2.7693925E0,-1.0520535E-2,-2.8407028E-1,5.5411244E-3,2.420889E-2,2.7423166E-3,-6.3286023E-3],"categories":[],"categories_nodes":[],"categories_segments":[],"categories_sizes":[],"default_left":[0,0,0,0,0,0,0,0,0,0,0,0,0,0,0,0,0,0,0],"id":6,"left_children":[1,3,5,7,9,-1,11,13,-1,-1,-1,-1,15,-1,17,-1,-1,-1,-1],"loss_changes":[6.8121025E1,1.3984653E1,1.3036144E1,6.5105286E0,1.4094076E0,0E0,9.250683E0,1.4885979E0,0E0,0E0,0E0,0E0,3.1463165E0,0E0,1.0799054E0,0E0,0E0,0E0,0E0],"parents":[2147483647,0,0,1,1,2,2,3,3,4,4,6,6,7,7,12,12,14,14],"right_children":[2,4,6,8,10,-1,12,14,-1,-1,-1,-1,16,-1,18,-1,-1,-1,-1],"split_conditions":[5.195203E-1,8.808409E-1,7.366347E-2,7.76114E-1,2.3004197E-1,-6.5597296E-3,1E0,5.482551E-1,7.093333E-3,1.4308946E-3,1.3494162E-2,-1.9476998E-3,4.947665E-1,-1.0520535E-2,1.294352E-1,5.5411244E-3,2.420889E-2,2.7423166E-3,-6.3286023E-3],"split_indices":[1,43,13,15,15,0,25,17,0,0,0,0,2,0,13,0,0,0,0],"split_type":[0,0,0,0,0,0,0,0,0,0,0,0,0,0,0,0,0,0,0],"sum_hessian":[3.647595E1,2.631994E1,1.0156007E1,2.391013E1,2.409812E0,1.0345876E0,9.12142E0,2.2889324E1,1.0208051E0,1.1965898E0,1.2132221E0,1.0213815E0,8.100039E0,2.0881401E1,2.0079234E0,1.1962657E0,6.9037724E0,1.0064592E0,1.0014642E0],"tree_param":{"num_deleted":"0","num_feature":"60","num_nodes":"19","size_leaf_vector":"1"}},{"base_weights":[1.6362105E-1,-8.1790566E-1,2.393728E0,-1.0697854E0,7.9333836E-1,1.1849492E-3,2.6364949E0,-1.1823384E0,3.911652E-3,-7.147715E-3,1.5071645E-2,2.2102205E-2,6.755843E-3,-1.2647799E0,1.5428094E-3,-2.4740587E-3,-1.0466499E-2],"categories":[],"categories_nodes":[],"categories_segments":[],"categories_sizes":[],"default_left":[0,0,0,0,0,0,0,0,0,0,0,0,0,0,0,0,0],"id":7,"left_children":[1,3,5,7,9,-1,11,13,-1,-1,-1,-1,-1,15,-1,-1,-1],"loss_changes":[8.646326E1,1.1805954E1,6.2806473E0,4.665291E0,8.899528E0,0E0,7.0254517E-1,2.7582455E0,0E0,0E0,0E0,0E0,0E0,5.921097E-1,0E0,0E0,0E0],"parents":[2147483647,0,0,1,1,2,2,3,3,4,4,6,6,7,7,13,13],"right_children":[2,4,6,8,10,-1,12,14,-1,-1,-1,-1,-1,16,-1,-1,-1],"split_conditions":[5.262348E-1,5.1776963E-1,1E0,5.944981E-1,3.6992246E-1,1.1849492E-3,3.2524744E-1,1.045666E0,3.911652E-3,-7.147715E-3,1.5071645E-2,2.2102205E-2,6.755843E-3,2.8811678E-2,1.5428094E-3,-2.4740587E-3,-1.0466499E-2],"split_indices":[1,4,22,17,5,0,10,42,0,0,0,0,0,14,0,0,0],"split_type":[0,0,0,0,0,0,0,0,0,0,0,0,0,0,0,0,0],"sum_hessian":[3.8079777E1,2.6771772E1,1.1308004E1,2.3370403E1,3.4013696E0,1.221026E0,1.0086979E1,2.196544E1,1.4049629E0,1.3888633E0,2.012506E0,9.043416E0,1.0435628E0,2.0779917E1,1.185524E0,1.1702974E0,1.960962E1],"tree_param":{"num_deleted":"0","num_feature":"60","num_nodes":"17","size_leaf_vector":"1"}},{"base_weights":[1.08348735E-1,-1.002964E0,1.7580172E0,-1.2620325E0,1.5128763E-2,-3.8557827E-1,2.1549194E0,-1.0445535E-2,-1.7642966E-3,2.4633156E-3,-6.925962E-3,8.9403594E-1,2.661948E0,1.7495654E0,-4.291954E-3,6.9684894E-3,2.3433013E-2,2.7376597E-3,1.8246852E-2],"categories":[],"categories_nodes":[],"categories_segments":[],"categories_sizes":[],"default_left":[0,0,0,0,0,0,0,0,0,0,0,0,0,0,0,0,0,0,0],"id":8,"left_children":[1,3,5,7,-1,9,11,-1,-1,-1,-1,13,15,17,-1,-1,-1,-1,-1],"loss_changes":[6.892887E1,1.8668037E1,1.3483536E1,7.4399567E-1,0E0,1.1981398E0,6.441639E0,0E0,0E0,0E0,0E0,6.6026735E0,2.2962456E0,1.8013382E0,0E0,0E0,0E0,0E0,0E0],"parents":[2147483647,0,0,1,1,2,2,3,3,5,5,6,6,11,11,12,12,13,13],"right_children":[2,4,6,8,-1,10,12,-1,-1,-1,-1,14,16,18,-1,-1,-1,-1,-1],"split_conditions":[4.5621783E-1,1.4198122E0,3.570859E-2,8.238923E-1,1.5128763E-2,2.0470676E-1,4.10583E-1,-1.0445535E-2,-1.7642966E-3,2.4633156E-3,-6.925962E-3,2.0311804E-1,5.795274E-1,1.3637252E-1,-4.291954E-3,6.9684894E-3,2.3433013E-2,2.7376597E-3,1.8246852E-2],"split_indices":[2,43,8,54,0,52,15,0,0,0,0,12,16,11,0,0,0,0,0],"split_type":[0,0,0,0,0,0,0,0,0,0,0,0,0,0,0,0,0,0,0],"sum_hessian":[3.6126965E1,2.1761301E1,1.4365663E1,2.0361532E1,1.3997686E0,2.247692E0,1.211797E1,1.9359722E1,1.0018097E0,1.0296484E0,1.2180437E0,4.0697474E0,8.0482235E0,2.4420273E0,1.6277202E0,1.4596195E0,6.5886035E0,1.0071712E0,1.4348563E0],"tree_param":{"num_deleted":"0","num_feature":"60","num_nodes":"19","size_leaf_vector":"1"}},{"base_weights":[-6.6456767E-3,-1.0383478E0,1.6887054E0,-1.2540784E0,9.389466E-3,-9.235993E-4,1.9429759E0,-2.4318772E-3,-1.0394575E-2,7.371533E-1,2.057459E-2,-2.3133174E-1,1.4979247E-2,-7.3180743E-3,4.736892E-3],"categories":[],"categories_nodes":[],"categories_segments":[],"categories_sizes":[],"default_left":[0,0,0,0,0,0,0,0,0,0,0,0,0,0,0],"id":9,"left_children":[1,3,5,7,-1,-1,9,-1,-1,11,-1,13,-1,-1,-1],"loss_changes":[6.2423607E1,1.1690239E1,6.3626633E0,5.882149E-1,0E0,0E0,7.584297E0,0E0,0E0,5.9567223E0,0E0,2.3374748E0,0E0,0E0,0E0],"parents":[2147483647,0,0,1,1,2,2,3,3,6,6,9,9,11,11],"right_children":[2,4,6,8,-1,-1,10,-1,-1,12,-1,14,-1,-1,-1],"split_conditions":[4.7328836E-1,1.4888266E0,1E0,1.9416561E-2,9.389466E-3,-9.235993E-4,1.11794055E-1,-2.4318772E-3,-1.0394575E-2,6.999394E-1,2.057459E-2,1.0409325E-1,1.4979247E-2,-7.3180743E-3,4.736892E-3],"split_indices":[2,57,34,12,0,0,10,0,0,15,0,11,0,0,0],"split_type":[0,0,0,0,0,0,0,0,0,0,0,0,0,0,0],"sum_hessian":[3.4187164E1,2.1434124E1,1.2753039E1,1.9825428E1,1.6086963E0,1.6259202E0,1.112712E1,1.1643184E0,1.866111E1,4.372319E0,6.7548003E0,2.6817162E0,1.6906031E0,1.4199983E0,1.2617178E0],"tree_param":{"num_deleted":"0","num_feature":"60","num_nodes":"15","size_leaf_vector":"1"}},{"base_weights":[4.3877834E-3,-1.0112566E0,2.3491466E0,-1.2216299E0,5.7832754E-1,3.696103E-1,2.7627373E0,-1.2588036E0,-1.8060401E-3,-6.402714E-3,1.0849386E-2,1.1370864E-2,-6.6428087E-3,6.772716E-3,2.3424001E-2,-2.4404202E-3,-1.0403054E-2],"categories":[],"categories_nodes":[],"categories_segments":[],"categories_sizes":[],"default_left":[0,0,0,0,0,0,0,0,0,0,0,0,0,0,0,0,0],"id":10,"left_children":[1,3,5,7,9,11,13,15,-1,-1,-1,-1,-1,-1,-1,-1,-1],"loss_changes":[8.951885E1,9.301765E0,8.535439E0,6.5338135E-1,4.647683E0,4.4558516E0,1.0800552E0,5.907669E-1,0E0,0E0,0E0,0E0,0E0,0E0,0E0,0E0,0E0],"parents":[2147483647,0,0,1,1,2,2,3,3,4,4,5,5,6,6,7,7],"right_children":[2,4,6,8,10,12,14,16,-1,-1,-1,-1,-1,-1,-1,-1,-1],"split_conditions":[5.420324E-1,5E-1,5.2153856E-1,5.8001477E-1,1.8122554E-1,6.526749E-1,1E0,1.0416525E-2,-1.8060401E-3,-6.402714E-3,1.0849386E-2,1.1370864E-2,-6.6428087E-3,6.772716E-3,2.3424001E-2,-2.4404202E-3,-1.0403054E-2],"split_indices":[18,1,0,4,40,19,24,6,0,0,0,0,0,0,0,0,0],"split_type":[0,0,0,0,0,0,0,0,0,0,0,0,0,0,0,0,0],"sum_hessian":[3.6092045E1,2.548125E1,1.0610797E1,2.26564E1,2.8248498E0,2.079257E0,8.53154E0,2.165023E1,1.0061687E0,1.0110897E0,1.8137602E0,1.0343168E0,1.04494E0,1.0420024E0,7.4895372E0,1.1655898E0,2.0484642E1],"tree_param":{"num_deleted":"0","num_feature":"60","num_nodes":"17","size_leaf_vector":"1"}},{"base_weights":[-2.3578547E-1,-1.0439792E0,1.738456E0,-1.2202078E0,5.052549E-1,5.037351E-1,2.405354E0,-2.304266E-3,-1.2583748E0,1.1604164E-2,-3.5569898E-3,1.3960335E0,-4.957271E-3,6.2927403E-3,2.0860214E-2,-1.0399208E-2,-2.4601235E-3,2.2345176E-3,1.5428114E-2],"categories":[],"categories_nodes":[],"categories_segments":[],"categories_sizes":[],"default_left":[0,0,0,0,0,0,0,0,0,0,0,0,0,0,0,0,0,0,0],"id":11,"left_children":[1,3,5,7,9,11,13,-1,15,-1,-1,17,-1,-1,-1,-1,-1,-1,-1],"loss_changes":[5.8663925E1,7.5474243E0,7.9126816E0,5.649605E-1,3.3397315E0,5.365823E0,6.731453E-1,0E0,5.835686E-1,0E0,0E0,1.2925882E0,0E0,0E0,0E0,0E0,0E0,0E0,0E0],"parents":[2147483647,0,0,1,1,2,2,3,3,4,4,5,5,6,6,8,8,11,11],"right_children":[2,4,6,8,10,12,14,-1,16,-1,-1,18,-1,-1,-1,-1,-1,-1,-1],"split_conditions":[4.947665E-1,5.050801E-1,1.2454119E-1,2.0737706E-2,3.3890453E-1,1.710279E-1,4.8765983E-2,-2.304266E-3,9.933169E-1,1.1604164E-2,-3.5569898E-3,1E0,-4.957271E-3,6.2927403E-3,2.0860214E-2,-1.0399208E-2,-2.4601235E-3,2.2345176E-3,1.5428114E-2],"split_indices":[19,4,12,8,13,7,9,0,43,0,0,26,0,0,0,0,0,0,0],"split_type":[0,0,0,0,0,0,0,0,0,0,0,0,0,0,0,0,0,0,0],"sum_hessian":[3.516366E1,2.5200676E1,9.962982E0,2.2769844E1,2.4308326E0,3.955718E0,6.007264E0,1.1477469E0,2.1622097E1,1.0202467E0,1.4105859E0,2.1031733E0,1.8525449E0,1.0742166E0,4.9330473E0,2.0453535E1,1.1685628E0,1.0482332E0,1.0549401E0],"tree_param":{"num_deleted":"0","num_feature":"60","num_nodes":"19","size_leaf_vector":"1"}},{"base_weights":[1.24672E-1,-9.0380883E-1,1.6914314E0,-1.2393956E0,6.4950186E-1,-3.8722653E-2,2.2748778E0,-1.0291325E-2,-1.9665007E-3,-7.564536E-3,1.53623335E-2,8.821879E-3,-8.145767E-3,5.8583345E-4,2.5598605E0,6.0893544E-3,2.1767927E-2],"categories":[],"categories_nodes":[],"categories_segments":[],"categories_sizes":[],"default_left":[0,0,0,0,0,0,0,0,0,0,0,0,0,0,0,0,0],"id":12,"left_children":[1,3,5,7,9,11,13,-1,-1,-1,-1,-1,-1,-1,15,-1,-1],"loss_changes":[5.9673626E1,1.2288546E1,1.4859634E1,6.3606644E-1,1.0431825E1,5.7986536E0,6.7434998E0,0E0,0E0,0E0,0E0,0E0,0E0,0E0,1.2557259E0,0E0,0E0],"parents":[2147483647,0,0,1,1,2,2,3,3,4,4,5,5,6,6,14,14],"right_children":[2,4,6,8,10,12,14,-1,-1,-1,-1,-1,-1,-1,16,-1,-1],"split_conditions":[4.689627E-1,7.013265E-1,5.195203E-1,4.4330245E-1,1.3760418E-1,1.8765022E-1,9.9066705E-2,-1.0291325E-2,-1.9665007E-3,-7.564536E-3,1.53623335E-2,8.821879E-3,-8.145767E-3,5.8583345E-4,3.3514846E-2,6.0893544E-3,2.1767927E-2],"split_indices":[19,42,1,19,2,7,5,0,0,0,0,0,0,0,9,0,0],"split_type":[0,0,0,0,0,0,0,0,0,0,0,0,0,0,0,0,0],"sum_hessian":[3.5571045E1,2.1666002E1,1.3905042E1,1.7941402E1,3.7246006E0,3.6831717E0,1.0221869E1,1.691966E1,1.021742E0,1.7366877E0,1.987913E0,1.6573815E0,2.0257902E0,1.279528E0,8.942342E0,1.0881648E0,7.854177E0],"tree_param":{"num_deleted":"0","num_feature":"60","num_nodes":"17","size_leaf_vector":"1"}},{"base_weights":[-1.1082653E-1,-7.412536E-1,1.9186381E0,-1.1175668E0,6.087999E-1,2.0648576E-3,2.1274707E0,-1.0267692E-2,-4.157163E-1,1.6222367E-2,6.646939E-2,9.946332E-1,2.0493133E-2,-8.787064E-3,7.653524E-3,-7.293077E-1,8.602986E-1,1.3919063E-2,-2.553282E-3,-1.7957734E-3,-7.1059787E-3,-2.1182136E-3,1.2244686E-2],"categories":[],"categories_nodes":[],"categories_segments":[],"categories_sizes":[],"default_left":[0,0,0,0,0,0,0,0,0,0,0,0,0,0,0,0,0,0,0,0,0,0,0],"id":13,"left_children":[1,3,5,7,9,-1,11,-1,13,-1,15,17,-1,-1,-1,19,21,-1,-1,-1,-1,-1,-1],"loss_changes":[4.625669E1,1.44764185E1,2.563612E0,2.1336842E0,4.8839946E0,0E0,1.7869148E0,0E0,5.725364E0,0E0,3.9209888E0,3.6564722E0,0E0,0E0,0E0,1.0189283E-1,2.6254845E0,0E0,0E0,0E0,0E0,0E0,0E0],"parents":[2147483647,0,0,1,1,2,2,3,3,4,4,6,6,8,8,10,10,11,11,15,15,16,16],"right_children":[2,4,6,8,10,-1,12,-1,14,-1,16,18,-1,-1,-1,20,22,-1,-1,-1,-1,-1,-1],"split_conditions":[6.088388E-1,4.7180465E-1,4.913888E-1,7.784466E-1,1E0,2.0648576E-3,6.526749E-1,-1.0267692E-2,2.0032291E-1,1.6222367E-2,5.4944223E-1,5.1576746E-1,2.0493133E-2,-8.787064E-3,7.653524E-3,3.0550817E-1,7.521557E-2,1.3919063E-2,-2.553282E-3,-1.7957734E-3,-7.1059787E-3,-2.1182136E-3,1.2244686E-2],"split_indices":[2,16,4,40,38,0,19,0,12,0,19,15,0,0,0,50,11,0,0,0,0,0,0],"split_type":[0,0,0,0,0,0,0,0,0,0,0,0,0,0,0,0,0,0,0,0,0,0,0],"sum_hessian":[3.4570465E1,2.6740072E1,7.830394E0,2.1012276E1,5.7277966E0,1.0620974E0,6.7682962E0,1.6492477E1,4.5197983E0,1.0157715E0,4.712025E0,2.5591438E0,4.2091527E0,3.1183894E0,1.4014087E0,2.3835676E0,2.3284574E0,1.477686E0,1.0814577E0,1.0039561E0,1.3796115E0,1.0387137E0,1.2897437E0],"tree_param":{"num_deleted":"0","num_feature":"60","num_nodes":"23","size_leaf_vector":"1"}},{"base_weights":[-2.2725941E-1,-8.670511E-1,1.8053932E0,-1.2157723E0,2.2357826E-1,2.3478177E0,-4.581482E-3,-1.0342139E-2,-3.9757645E-1,1.7449172E-2,-3.5919523E-1,3.838874E-3,2.1483116E-2,2.7718912E-3,-6.998957E-3,-8.5402393E-1,1.1304267E-2,-9.17583E-3,1.4046613E-3],"categories":[],"categories_nodes":[],"categories_segments":[],"categories_sizes":[],"default_left":[0,0,0,0,0,0,0,0,0,0,0,0,0,0,0,0,0,0,0],"id":14,"left_children":[1,3,5,7,9,11,-1,-1,13,-1,15,-1,-1,-1,-1,17,-1,-1,-1],"loss_changes":[5.312881E1,1.1953262E1,1.3659573E1,1.0965157E0,9.848937E0,4.162056E0,0E0,0E0,1.330562E0,0E0,6.955799E0,0E0,0E0,0E0,0E0,1.9189477E0,0E0,0E0,0E0],"parents":[2147483647,0,0,1,1,2,2,3,3,4,4,5,5,8,8,10,10,15,15],"right_children":[2,4,6,8,10,12,-1,-1,14,-1,16,-1,-1,-1,-1,18,-1,-1,-1],"split_conditions":[5.424807E-1,6.451366E-1,4.865071E-1,4.5552817E-1,4.2988363E-1,5.13078E-1,-4.581482E-3,-1.0342139E-2,4.9465024E-1,1.7449172E-2,1.7281024E0,3.838874E-3,2.1483116E-2,2.7718912E-3,-6.998957E-3,4.867978E-1,1.1304267E-2,-9.17583E-3,1.4046613E-3],"split_indices":[16,56,51,15,49,3,0,0,15,0,41,0,0,0,0,4,0,0,0],"split_type":[0,0,0,0,0,0,0,0,0,0,0,0,0,0,0,0,0,0,0],"sum_hessian":[3.920064E1,3.0143002E1,9.057642E0,2.2774845E1,7.3681564E0,7.3831396E0,1.674503E0,2.041839E1,2.3564548E0,1.2184136E0,6.1497426E0,1.4080118E0,5.9751277E0,1.0012027E0,1.3552521E0,5.111209E0,1.0385339E0,3.912488E0,1.1987209E0],"tree_param":{"num_deleted":"0","num_feature":"60","num_nodes":"19","size_leaf_vector":"1"}},{"base_weights":[1.2621339E-1,-6.593109E-1,1.9957137E0,-1.0265626E0,3.539757E-1,-3.7661695E-3,1.9337129E-2,-1.1729004E0,7.2178333E-3,-2.0556408E-1,1.3553148E-2,-2.3417068E-3,-9.76138E-3,-8.416421E-3,5.346616E-1,-3.5046763E-3,1.0355502E-2],"categories":[],"categories_nodes":[],"categories_segments":[],"categories_sizes":[],"default_left":[0,0,0,0,0,0,0,0,0,0,0,0,0,0,0,0,0],"id":15,"left_children":[1,3,5,7,9,-1,-1,11,-1,13,-1,-1,-1,-1,15,-1,-1],"loss_changes":[5.316297E1,9.792111E0,1.1973473E1,6.147602E0,5.782413E0,0E0,0E0,4.7928238E-1,0E0,4.095599E0,0E0,0E0,0E0,0E0,3.104519E0,0E0,0E0],"parents":[2147483647,0,0,1,1,2,2,3,3,4,4,7,7,9,9,14,14],"right_children":[2,4,6,8,10,-1,-1,12,-1,14,-1,-1,-1,-1,16,-1,-1],"split_conditions":[5.1776963E-1,4.6148694E-1,2.8456727E-1,1.2578909E0,3.0105686E-1,-3.7661695E-3,1.9337129E-2,1.647231E-2,7.2178333E-3,8.880123E-2,1.3553148E-2,-2.3417068E-3,-9.76138E-3,-8.416421E-3,1.885603E-1,-3.5046763E-3,1.0355502E-2],"split_indices":[4,0,15,57,12,0,0,14,0,7,0,0,0,0,10,0,0],"split_type":[0,0,0,0,0,0,0,0,0,0,0,0,0,0,0,0,0],"sum_hessian":[3.47793E1,2.4831242E1,9.948059E0,1.8218407E1,6.6128345E0,1.4388859E0,8.509173E0,1.7206842E1,1.0115638E0,5.1130295E0,1.4998053E0,1.151954E0,1.6054888E1,2.2379112E0,2.875118E0,1.4001061E0,1.475012E0],"tree_param":{"num_deleted":"0","num_feature":"60","num_nodes":"17","size_leaf_vector":"1"}},{"base_weights":[1.9914968E-2,-8.458279E-1,2.0439496E0,-1.1469389E0,4.4670334E-1,-2.019183E-3,2.2977405E0,-1.2337931E0,1.6225758E-3,-5.3296846E-1,1.31552E-2,5.697589E-3,2.4355042E0,-1.0230993E-2,-2.4621424E-3,2.7754805E-3,-7.83924E-3,6.4256843E-3,2.0633448E-2],"categories":[],"categories_nodes":[],"categories_segments":[],"categories_sizes":[],"default_left":[0,0,0,0,0,0,0,0,0,0,0,0,0,0,0,0,0,0,0],"id":16,"left_children":[1,3,5,7,9,-1,11,13,-1,15,-1,-1,17,-1,-1,-1,-1,-1,-1],"loss_changes":[6.475698E1,1.0462988E1,6.886055E0,2.6745949E0,7.031834E0,0E0,8.925209E-1,5.412674E-1,0E0,1.6529347E0,0E0,0E0,5.403786E-1,0E0,0E0,0E0,0E0,0E0,0E0],"parents":[2147483647,0,0,1,1,2,2,3,3,4,4,6,6,7,7,9,9,12,12],"right_children":[2,4,6,8,10,-1,12,14,-1,16,-1,-1,18,-1,-1,-1,-1,-1,-1],"split_conditions":[5.420324E-1,4.8087946E-1,3.0875376E-1,6.017866E-1,4.5568427E-1,-2.019183E-3,4.677986E-2,9.0702623E-1,1.6225758E-3,5.2115E-2,1.31552E-2,5.697589E-3,3.3767432E-1,-1.0230993E-2,-2.4621424E-3,2.7754805E-3,-7.83924E-3,6.4256843E-3,2.0633448E-2],"split_indices":[18,3,0,47,45,0,45,42,0,11,0,0,15,0,0,0,0,0,0],"split_type":[0,0,0,0,0,0,0,0,0,0,0,0,0,0,0,0,0,0,0],"sum_hessian":[3.5465603E1,2.5146318E1,1.0319284E1,2.046356E1,4.6827583E0,1.0273894E0,9.291895E0,1.9286926E1,1.1766331E0,2.8047938E0,1.8779643E0,1.1127203E0,8.179175E0,1.8119074E1,1.1678538E0,1.0013008E0,1.803493E0,1.0615737E0,7.1176014E0],"tree_param":{"num_deleted":"0","num_feature":"60","num_nodes":"19","size_leaf_vector":"1"}},{"base_weights":[-9.96807E-2,-8.775859E-1,2.0683331E0,-1.1164999E0,1.1470722E0,-7.312645E-3,2.0798244E-2,-1.2498167E0,1.543222E-1,1.608017E-2,-3.2362368E-4,-1.0302477E-2,-2.3227609E-3,1.1503764E-2,-7.4856402E-3],"categories":[],"categories_nodes":[],"categories_segments":[],"categories_sizes":[],"default_left":[0,0,0,0,0,0,0,0,0,0,0,0,0,0,0],"id":17,"left_children":[1,3,5,7,9,-1,-1,11,13,-1,-1,-1,-1,-1,-1],"loss_changes":[6.816794E1,1.5316738E1,1.8715664E1,4.7065697E0,3.6502066E0,0E0,0E0,6.1092377E-1,5.5203476E0,0E0,0E0,0E0,0E0,0E0,0E0],"parents":[2147483647,0,0,1,1,2,2,3,3,4,4,7,7,8,8],"right_children":[2,4,6,8,10,-1,-1,12,14,-1,-1,-1,-1,-1,-1],"split_conditions":[6.176135E-1,5.617975E-1,2.7153632E-1,4.947665E-1,1.53393E-1,-7.312645E-3,2.0798244E-2,6.114185E-1,5.045838E-1,1.608017E-2,-3.2362368E-4,-1.0302477E-2,-2.3227609E-3,1.1503764E-2,-7.4856402E-3],"split_indices":[18,16,4,19,7,0,0,46,18,0,0,0,0,0,0],"split_type":[0,0,0,0,0,0,0,0,0,0,0,0,0,0,0],"sum_hessian":[3.8862347E1,2.892881E1,9.933539E0,2.6176355E1,2.752454E0,1.4207096E0,8.51283E0,2.3702246E1,2.4741092E0,1.2932308E0,1.4592233E0,2.2552563E1,1.1496841E0,1.0262097E0,1.4478993E0],"tree_param":{"num_deleted":"0","num_feature":"60","num_nodes":"15","size_leaf_vector":"1"}},{"base_weights":[-4.8915308E-2,-9.51861E-1,1.9380994E0,-1.1872572E0,5.8400416E-1,-2.2710552E-3,2.207622E0,-1.0234966E-2,2.4464957E-3,-6.6242567E-3,1.2225316E-2,9.935177E-1,1.9695073E-2,1.1034567E-2,1.6889258E-3],"categories":[],"categories_nodes":[],"categories_segments":[],"categories_sizes":[],"default_left":[0,0,0,0,0,0,0,0,0,0,0,0,0,0,0],"id":18,"left_children":[1,3,5,7,9,-1,11,-1,-1,-1,-1,13,-1,-1,-1],"loss_changes":[6.022394E1,8.854052E0,6.754429E0,3.076456E0,5.70348E0,0E0,1.0809135E0,0E0,0E0,0E0,0E0,6.547959E-1,0E0,0E0,0E0],"parents":[2147483647,0,0,1,1,2,2,3,3,4,4,6,6,11,11],"right_children":[2,4,6,8,10,-1,12,-1,-1,-1,-1,14,-1,-1,-1],"split_conditions":[5.2855414E-1,1.0667512E0,4.9828764E-2,5.759004E-1,2.9743645E-1,-2.2710552E-3,6.095514E-1,-1.0234966E-2,2.4464957E-3,-6.6242567E-3,1.2225316E-2,5.262348E-1,1.9695073E-2,1.1034567E-2,1.6889258E-3],"split_indices":[16,58,7,4,19,0,17,0,0,0,0,17,0,0,0],"split_type":[0,0,0,0,0,0,0,0,0,0,0,0,0,0,0],"sum_hessian":[3.2045364E1,2.2301682E1,9.743683E0,1.9485455E1,2.8162272E0,1.0497175E0,8.693966E0,1.8454279E1,1.0311742E0,1.1654656E0,1.6507616E0,2.1427753E0,6.5511904E0,1.0518894E0,1.0908859E0],"tree_param":{"num_deleted":"0","num_feature":"60","num_nodes":"15","size_leaf_vector":"1"}},{"base_weights":[4.947637E-2,-7.547719E-1,2.3072894E0,-1.2258751E0,3.1906426E-1,4.265386E-3,2.0268822E-2,-1.0194463E-2,-2.1903305E-3,-4.162716E-1,1.7237941E0,-9.648243E-1,1.145499E-2,1.731252E-2,5.0661294E-3,-1.9894317E-3,-8.838478E-3],"categories":[],"categories_nodes":[],"categories_segments":[],"categories_sizes":[],"default_left":[0,0,0,0,0,0,0,0,0,0,0,0,0,0,0,0,0],"id":19,"left_children":[1,3,5,7,9,-1,-1,-1,-1,11,13,15,-1,-1,-1,-1,-1],"loss_changes":[6.711169E1,1.4097251E1,2.882763E0,6.2002563E-1,9.747596E0,0E0,0E0,0E0,0E0,7.5815797E0,5.130749E-1,3.3796692E-1,0E0,0E0,0E0,0E0,0E0],"parents":[2147483647,0,0,1,1,2,2,3,3,4,4,9,9,10,10,11,11],"right_children":[2,4,6,8,10,-1,-1,-1,-1,12,14,16,-1,-1,-1,-1,-1],"split_conditions":[5.877459E-1,4.483379E-1,1E0,5.571468E-1,3.699445E-1,4.265386E-3,2.0268822E-2,-1.0194463E-2,-2.1903305E-3,1.1423819E0,4.9698958E-1,4.9575347E-1,1.145499E-2,1.731252E-2,5.0661294E-3,-1.9894317E-3,-8.838478E-3],"split_indices":[16,45,33,6,3,0,0,0,0,42,54,45,0,0,0,0,0],"split_type":[0,0,0,0,0,0,0,0,0,0,0,0,0,0,0,0,0],"sum_hessian":[3.54897E1,2.6536499E1,8.953201E0,1.8370834E1,8.165667E0,1.2976433E0,7.655558E0,1.7240004E1,1.1308306E0,5.7063193E0,2.4593468E0,4.6766834E0,1.0296359E0,1.2260486E0,1.2332982E0,1.1051645E0,3.5715191E0],"tree_param":{"num_deleted":"0","num_feature":"60","num_nodes":"17","size_leaf_vector":"1"}},{"base_weights":[1.21824466E-1,-8.533284E-1,1.9391401E0,-1.1722144E0,3.156569E-1,-4.1044864E-4,2.1939707E0,-1.2147162E0,-1.7903305E-3,-7.507142E-1,1.2379303E0,1.2618026E0,2.0452812E-2,-1.0104554E-2,-2.3995512E-3,-1.7942751E-3,-7.3329885E-3,-1.756916E-5,1.7009953E-2,1.9733566E-1,1.7236926E-2,-7.0949113E-3,9.402455E-3],"categories":[],"categories_nodes":[],"categories_segments":[],"categories_sizes":[],"default_left":[0,0,0,0,0,0,0,0,0,0,0,0,0,0,0,0,0,0,0,0,0,0,0],"id":20,"left_children":[1,3,5,7,9,-1,11,13,-1,15,17,19,-1,-1,-1,-1,-1,-1,-1,21,-1,-1,-1],"loss_changes":[6.661071E1,9.420357E0,6.734379E0,5.792961E-1,6.4479394E0,0E0,1.5151176E0,5.3089714E-1,0E0,1.2344456E-1,3.7696548E0,4.186581E0,0E0,0E0,0E0,0E0,0E0,0E0,0E0,3.9500928E0,0E0,0E0,0E0],"parents":[2147483647,0,0,1,1,2,2,3,3,4,4,6,6,7,7,9,9,10,10,11,11,19,19],"right_children":[2,4,6,8,10,-1,12,14,-1,16,18,20,-1,-1,-1,-1,-1,-1,-1,22,-1,-1,-1],"split_conditions":[5.0251454E-1,5E-1,2.4723577E-1,6.4920396E-1,3.5536507E-1,-4.1044864E-4,1.8238702E-1,5.0172865E-1,-1.7903305E-3,1.926484E-1,4.9908808E-1,3.4249207E-1,2.0452812E-2,-1.0104554E-2,-2.3995512E-3,-1.7942751E-3,-7.3329885E-3,-1.756916E-5,1.7009953E-2,6.627018E-1,1.7236926E-2,-7.0949113E-3,9.402455E-3],"split_indices":[19,2,4,52,16,0,11,14,0,4,57,48,0,0,0,0,0,0,0,0,0,0,0],"split_type":[0,0,0,0,0,0,0,0,0,0,0,0,0,0,0,0,0,0,0,0,0,0,0],"sum_hessian":[3.6136993E1,2.3776566E1,1.2360426E1,1.8679058E1,5.0975084E0,1.4708471E0,1.0889579E1,1.7676346E1,1.0027122E0,2.428773E0,2.6687355E0,3.9907513E0,6.8988276E0,1.6517693E1,1.1586522E0,1.0047119E0,1.424061E0,1.4260502E0,1.2426853E0,2.2381096E0,1.7526418E0,1.0945443E0,1.1435653E0],"tree_param":{"num_deleted":"0","num_feature":"60","num_nodes":"23","size_leaf_vector":"1"}},{"base_weights":[4.3245643E-2,-6.140763E-1,1.9182761E0,-9.605482E-1,6.0040724E-1,7.7019805E-1,1.813951E-2,-1.0110966E-2,-2.2035418E-2,-6.859257E-1,1.2017055E0,-6.9261235E-3,1.4779197E-2,7.829226E-1,-8.420355E-3,-1.7781922E-3,-6.798208E-3,1.769479E0,-3.1437671E-3,-1.7275893E-3,1.3383614E-2,1.3607618E-3,1.8704401E-2],"categories":[],"categories_nodes":[],"categories_segments":[],"categories_sizes":[],"default_left":[0,0,0,0,0,0,0,0,0,0,0,0,0,0,0,0,0,0,0,0,0,0,0],"id":21,"left_children":[1,3,5,7,9,11,-1,-1,13,15,17,-1,-1,19,-1,-1,-1,21,-1,-1,-1,-1,-1],"loss_changes":[5.158639E1,1.3488716E1,3.0436707E0,6.9335365E0,6.3021135E0,7.6643043E0,0E0,0E0,6.2009587E0,7.244456E-2,5.3023343E0,0E0,0E0,4.012656E0,0E0,0E0,0E0,3.3666105E0,0E0,0E0,0E0,0E0,0E0],"parents":[2147483647,0,0,1,1,2,2,3,3,4,4,5,5,8,8,9,9,10,10,13,13,17,17],"right_children":[2,4,6,8,10,12,-1,-1,14,16,18,-1,-1,20,-1,-1,-1,22,-1,-1,-1,-1,-1],"split_conditions":[5.1776963E-1,5.0671875E-1,5.175485E-1,4.1446632E-1,3.699445E-1,2.9971814E-1,1.813951E-2,-1.0110966E-2,5.7486904E-1,5.4944223E-1,2.4380024E-1,-6.9261235E-3,1.4779197E-2,7.4713147E-1,-8.420355E-3,-1.7781922E-3,-6.798208E-3,9.729714E-2,-3.1437671E-3,-1.7275893E-3,1.3383614E-2,1.3607618E-3,1.8704401E-2],"split_indices":[4,16,16,46,3,41,0,0,54,19,9,0,0,41,0,0,0,9,0,0,0,0,0],"split_type":[0,0,0,0,0,0,0,0,0,0,0,0,0,0,0,0,0,0,0,0,0,0,0],"sum_hessian":[4.0388313E1,3.0278183E1,1.0110128E1,2.3679604E1,6.598579E0,2.9184344E0,7.1916943E0,1.7699282E1,5.980323E0,2.0683293E0,4.5302496E0,1.2171464E0,1.7012879E0,3.458774E0,2.5215487E0,1.0015737E0,1.0667558E0,3.2801592E0,1.2500905E0,1.8973842E0,1.5613898E0,1.1157998E0,2.1643593E0],"tree_param":{"num_deleted":"0","num_feature":"60","num_nodes":"23","size_leaf_vector":"1"}},{"base_weights":[1.5492202E-1,-6.966247E-1,2.0160227E0,-9.183244E-1,1.5612142E-2,-2.3424313E-3,2.2451053E0,-1.2147465E0,-1.2605838E-1,4.2193597E-3,1.9376282E-2,-1.0082036E-2,-1.8397482E-3,-9.712301E-1,1.109884E0,-8.80489E-3,-2.0610455E-3,1.7517304E-2,-3.329149E-3],"categories":[],"categories_nodes":[],"categories_segments":[],"categories_sizes":[],"default_left":[0,0,0,0,0,0,0,0,0,0,0,0,0,0,0,0,0,0,0],"id":22,"left_children":[1,3,5,7,-1,-1,9,11,13,-1,-1,-1,-1,15,17,-1,-1,-1,-1],"loss_changes":[6.4255516E1,1.7734718E1,7.216343E0,6.0549088E0,0E0,0E0,2.5826912E0,6.3554573E-1,9.154609E0,0E0,0E0,0E0,0E0,2.6236248E-1,6.606895E0,0E0,0E0,0E0,0E0],"parents":[2147483647,0,0,1,1,2,2,3,3,6,6,7,7,8,8,13,13,14,14],"right_children":[2,4,6,8,-1,-1,10,12,14,-1,-1,-1,-1,16,18,-1,-1,-1,-1],"split_conditions":[5.709532E-1,1.1865854E0,1.4195366E-1,3.1846488E-1,1.5612142E-2,-2.3424313E-3,6.324555E-1,5.076798E-1,3.6277586E-1,4.2193597E-3,1.9376282E-2,-1.0082036E-2,-1.8397482E-3,4.90052E-1,4.3201673E-1,-8.80489E-3,-2.0610455E-3,1.7517304E-2,-3.329149E-3],"split_indices":[0,57,4,4,0,0,0,0,47,0,0,0,0,5,51,0,0,0,0],"split_type":[0,0,0,0,0,0,0,0,0,0,0,0,0,0,0,0,0,0,0],"sum_hessian":[3.912989E1,2.71683E1,1.1961589E1,2.5521576E1,1.6467249E0,1.060874E0,1.0900715E1,1.828165E1,7.2399244E0,1.2967927E0,9.603922E0,1.7273611E1,1.0080388E0,4.3950806E0,2.8448439E0,3.3761966E0,1.0188837E0,1.4750074E0,1.3698364E0],"tree_param":{"num_deleted":"0","num_feature":"60","num_nodes":"19","size_leaf_vector":"1"}},{"base_weights":[-1.5360064E-2,-1.0295007E0,1.3362284E0,-1.1632594E0,7.1840007E-3,-2.3805273E-1,1.968308E0,-1.0067614E-2,2.7555157E-3,6.938924E-3,-6.7627305E-1,8.004322E-1,2.2016304E0,-8.5514635E-3,2.117851E-3,-2.979293E-3,1.299754E-2,1.8538294E-2,6.3678348E-3],"categories":[],"categories_nodes":[],"categories_segments":[],"categories_sizes":[],"default_left":[0,0,0,0,0,0,0,0,0,0,0,0,0,0,0,0,0,0,0],"id":23,"left_children":[1,3,5,7,-1,9,11,-1,-1,-1,13,15,17,-1,-1,-1,-1,-1,-1],"loss_changes":[4.958484E1,6.1102734E0,1.5786093E1,3.1448517E0,0E0,2.9166176E0,1.716156E0,0E0,0E0,0E0,1.7207711E0,3.3876467E0,5.7590485E-2,0E0,0E0,0E0,0E0,0E0,0E0],"parents":[2147483647,0,0,1,1,2,2,3,3,5,5,6,6,10,10,11,11,12,12],"right_children":[2,4,6,8,-1,10,12,-1,-1,-1,14,16,18,-1,-1,-1,-1,-1,-1],"split_conditions":[4.8783666E-1,5.809632E-1,2.2330402E-1,1.1668469E0,7.1840007E-3,5.045838E-1,6.606539E-2,-1.0067614E-2,2.7555157E-3,6.938924E-3,1.7348608E-1,9.288762E-1,4.61034E-1,-8.5514635E-3,2.117851E-3,-2.979293E-3,1.299754E-2,1.8538294E-2,6.3678348E-3],"split_indices":[19,3,5,43,0,18,45,0,0,0,5,19,49,0,0,0,0,0,0],"split_type":[0,0,0,0,0,0,0,0,0,0,0,0,0,0,0,0,0,0,0],"sum_hessian":[3.4672104E1,1.991098E1,1.47611265E1,1.8896994E1,1.0139853E0,4.362717E0,1.0398409E1,1.7891367E1,1.0056278E0,1.0300161E0,3.332701E0,2.284829E0,8.113581E0,2.2795393E0,1.0531616E0,1.1127013E0,1.1721276E0,7.047318E0,1.0662625E0],"tree_param":{"num_deleted":"0","num_feature":"60","num_nodes":"19","size_leaf_vector":"1"}},{"base_weights":[-1.056569E-1,-8.371281E-1,1.8567623E0,-1.0019175E0,8.660526E-3,-6.3650785E-3,2.2293506E0,-1.109384E0,6.281521E-3,6.101708E-3,1.9678764E-2,2.2404576E-3,-1.1884186E0,-1.0171509E-2,1.2440919E-3],"categories":[],"categories_nodes":[],"categories_segments":[],"categories_sizes":[],"default_left":[0,0,0,0,0,0,0,0,0,0,0,0,0,0,0],"id":24,"left_children":[1,3,5,7,-1,-1,9,11,-1,-1,-1,-1,13,-1,-1],"loss_changes":[5.150737E1,9.05887E0,1.0971359E1,5.3381786E0,0E0,0E0,1.5512848E0,2.8105526E0,0E0,0E0,0E0,0E0,2.6261654E0,0E0,0E0],"parents":[2147483647,0,0,1,1,2,2,3,3,6,6,7,7,12,12],"right_children":[2,4,6,8,-1,-1,10,12,-1,-1,-1,-1,14,-1,-1],"split_conditions":[5.482551E-1,1.2041109E0,2.6509917E-1,6.6262543E-1,8.660526E-3,-6.3650785E-3,1E0,2.0737706E-2,6.281521E-3,6.101708E-3,1.9678764E-2,2.2404576E-3,5.045838E-1,-1.0171509E-2,1.2440919E-3],"split_indices":[17,58,2,3,0,0,26,8,0,0,0,0,18,0,0],"split_type":[0,0,0,0,0,0,0,0,0,0,0,0,0,0,0],"sum_hessian":[3.4320183E1,2.5314526E1,9.005659E0,2.3643496E1,1.6710298E0,1.0043416E0,8.001318E0,2.2570648E1,1.0728481E0,1.5256132E0,6.475704E0,1.1121027E0,2.1458544E1,2.0248188E1,1.2103572E0],"tree_param":{"num_deleted":"0","num_feature":"60","num_nodes":"15","size_leaf_vector":"1"}},{"base_weights":[5.3793237E-2,-8.230123E-1,2.0308475E0,-1.1601186E0,2.7310866E-1,1.5126832E-3,2.2188413E0,-1.9005232E-3,-1.2054815E0,-4.4798085E-1,1.6235465E-2,5.0567775E-3,1.8965388E-2,-4.3012146E-3,-1.0034519E-2,-9.023411E-1,6.1037294E-3,-8.492375E-3,-1.8811073E-3],"categories":[],"categories_nodes":[],"categories_segments":[],"categories_sizes":[],"default_left":[0,0,0,0,0,0,0,0,0,0,0,0,0,0,0,0,0,0,0],"id":25,"left_children":[1,3,5,7,9,-1,11,-1,13,15,-1,-1,-1,-1,-1,17,-1,-1,-1],"loss_changes":[6.2861187E1,9.5323715E0,3.5408134E0,5.962963E-1,8.943749E0,0E0,1.2935295E0,0E0,9.063721E-2,3.3989644E0,0E0,0E0,0E0,0E0,0E0,2.5396943E-1,0E0,0E0,0E0],"parents":[2147483647,0,0,1,1,2,2,3,3,4,4,6,6,8,8,9,9,15,15],"right_children":[2,4,6,8,10,-1,12,-1,14,16,-1,-1,-1,-1,-1,18,-1,-1,-1],"split_conditions":[5.921332E-1,4.7573745E-1,2.8966683E-1,2.401428E-2,2.1510664E-1,1.5126832E-3,2.3646995E-2,-1.9005232E-3,3.6162876E-2,7.6675534E-1,1.6235465E-2,5.0567775E-3,1.8965388E-2,-4.3012146E-3,-1.0034519E-2,4.0570524E-1,6.1037294E-3,-8.492375E-3,-1.8811073E-3],"split_indices":[16,0,14,18,10,0,9,0,10,0,0,0,0,0,0,14,0,0,0],"split_type":[0,0,0,0,0,0,0,0,0,0,0,0,0,0,0,0,0,0,0],"sum_hessian":[3.4789604E1,2.4404305E1,1.0385298E1,1.8630733E1,5.7735724E0,1.1012065E0,9.284092E0,1.092391E0,1.7538342E1,4.4891667E0,1.284406E0,1.1489687E0,8.135123E0,1.8088261E0,1.5729516E1,3.4033344E0,1.0858325E0,2.389806E0,1.0135282E0],"tree_param":{"num_deleted":"0","num_feature":"60","num_nodes":"19","size_leaf_vector":"1"}},{"base_weights":[1.330459E-3,-8.02974E-1,1.7824163E0,-9.995232E-3,4.3588832E-2,-3.0661924E-3,2.0827315E0,-8.660914E-1,7.528283E-1,1.0332004E0,1.970058E-2,-1.8835511E-3,-8.163981E-3,1.3494338E0,-6.9091213E-3,-2.914371E-3,1.34318685E-2,1.6273117E-2,-2.5699988E-3],"categories":[],"categories_nodes":[],"categories_segments":[],"categories_sizes":[],"default_left":[0,0,0,0,0,0,0,0,0,0,0,0,0,0,0,0,0,0,0],"id":26,"left_children":[1,3,5,-1,7,-1,9,11,13,15,-1,-1,-1,17,-1,-1,-1,-1,-1],"loss_changes":[5.1334457E1,9.371027E0,7.8491364E0,0E0,6.4559994E0,0E0,2.0411491E0,2.4830031E-1,6.2727895E0,4.0007524E0,0E0,0E0,0E0,5.5023246E0,0E0,0E0,0E0,0E0,0E0],"parents":[2147483647,0,0,1,1,2,2,4,4,6,6,7,7,8,8,9,9,13,13],"right_children":[2,4,6,-1,8,-1,10,12,14,16,-1,-1,-1,18,-1,-1,-1,-1,-1],"split_conditions":[5.393156E-1,4.0721905E-1,4.4628736E-1,-9.995232E-3,3.0893156E-1,-3.0661924E-3,1.4276648E-1,1.1032341E-1,7.7629346E-1,7.3099405E-1,1.970058E-2,-1.8835511E-3,-8.163981E-3,2.5293282E-1,-6.9091213E-3,-2.914371E-3,1.34318685E-2,1.6273117E-2,-2.5699988E-3],"split_indices":[2,51,18,0,18,0,12,12,54,2,0,0,0,12,0,0,0,0,0],"split_type":[0,0,0,0,0,0,0,0,0,0,0,0,0,0,0,0,0,0,0],"sum_hessian":[3.433537E1,2.3937517E1,1.0397852E1,1.5438973E1,8.498544E0,1.2410405E0,9.156812E0,3.6504986E0,4.8480453E0,3.1747596E0,5.982052E0,1.0904315E0,2.560067E0,3.6315951E0,1.2164503E0,1.1067114E0,2.0680485E0,2.4601684E0,1.1714265E0],"tree_param":{"num_deleted":"0","num_feature":"60","num_nodes":"19","size_leaf_vector":"1"}},{"base_weights":[1.0214446E-1,-8.634866E-1,2.1531322E0,-1.0307161E0,7.032973E-3,1.9335741E-2,-2.4345557E-3,-1.1330194E0,1.4040619E-3,-9.723661E-3,2.3977708E-3],"categories":[],"categories_nodes":[],"categories_segments":[],"categories_sizes":[],"default_left":[0,0,0,0,0,0,0,0,0,0,0],"id":27,"left_children":[1,3,5,7,-1,-1,-1,9,-1,-1,-1],"loss_changes":[7.368312E1,8.06748E0,8.266228E0,3.0462303E0,0E0,0E0,0E0,2.8412495E0,0E0,0E0,0E0],"parents":[2147483647,0,0,1,1,2,2,3,3,7,7],"right_children":[2,4,6,8,-1,-1,-1,10,-1,-1,-1],"split_conditions":[5.7640135E-1,5.091548E-1,5.3595644E-1,6.6971207E-1,7.032973E-3,1.9335741E-2,-2.4345557E-3,1.227629E0,1.4040619E-3,-9.723661E-3,2.3977708E-3],"split_indices":[3,4,54,17,0,0,0,57,0,0,0],"split_type":[0,0,0,0,0,0,0,0,0,0,0],"sum_hessian":[3.5750286E1,2.4601725E1,1.11485615E1,2.2727108E1,1.8746172E0,1.0078839E1,1.0697222E0,2.0992214E1,1.7348936E0,1.9957619E1,1.034595E0],"tree_param":{"num_deleted":"0","num_feature":"60","num_nodes":"11","size_leaf_vector":"1"}},{"base_weights":[1.4889553E-1,-6.931821E-1,1.788249E0,-1.0096427E0,3.705802E-1,-2.584549E-3,1.7522594E-2,-1.1457878E0,6.285027E-3,-4.6983096E-1,1.3736664E-2,-9.86404E-3,-5.39913E-1,-8.184336E-3,4.59918E-3,-7.7088377E-3,1.8864092E-3],"categories":[],"categories_nodes":[],"categories_segments":[],"categories_sizes":[],"default_left":[0,0,0,0,0,0,0,0,0,0,0,0,0,0,0,0,0],"id":28,"left_children":[1,3,5,7,9,-1,-1,11,-1,13,-1,-1,15,-1,-1,-1,-1],"loss_changes":[5.2079716E1,8.703107E0,1.1382683E1,5.4374065E0,7.7174034E0,0E0,0E0,4.7385788E-1,0E0,3.0180266E0,0E0,0E0,1.3705807E0,0E0,0E0,0E0,0E0],"parents":[2147483647,0,0,1,1,2,2,3,3,4,4,7,7,9,9,12,12],"right_children":[2,4,6,8,10,-1,-1,12,-1,14,-1,-1,16,-1,-1,-1,-1],"split_conditions":[5.774836E-1,5.732435E-1,3.701181E-1,5.699845E-1,2.3100172E-1,-2.584549E-3,1.7522594E-2,4.689678E-1,6.285027E-3,1.5415374E0,1.3736664E-2,-9.86404E-3,2.8339675E-1,-8.184336E-3,4.59918E-3,-7.7088377E-3,1.8864092E-3],"split_indices":[19,56,4,15,12,0,0,15,0,57,0,0,40,0,0,0,0],"split_type":[0,0,0,0,0,0,0,0,0,0,0,0,0,0,0,0,0],"sum_hessian":[3.6302807E1,2.4269367E1,1.2033441E1,1.873424E1,5.535127E0,1.9486015E0,1.0084839E1,1.7665873E1,1.0683674E0,3.7086818E0,1.8264453E0,1.4764217E1,2.9016554E0,2.4349046E0,1.2737772E0,1.759152E0,1.1425033E0],"tree_param":{"num_deleted":"0","num_feature":"60","num_nodes":"17","size_leaf_vector":"1"}},{"base_weights":[1.4700897E-1,-1.0820845E0,1.4750564E0,-1.1622444E0,2.4294506E-3,-7.442912E-3,1.6984125E0,-1.2056848E0,-1.6979451E-3,6.138311E-1,2.0162594E0,-9.984007E-3,-1.9914922E-3,-4.9315602E-1,1.3918445E-2,8.9507514E-1,2.1769278E0,2.6976771E-3,-7.821623E-3,-2.6843688E-3,1.4563531E-2,6.156874E-3,1.8119767E-2],"categories":[],"categories_nodes":[],"categories_segments":[],"categories_sizes":[],"default_left":[0,0,0,0,0,0,0,0,0,0,0,0,0,0,0,0,0,0,0,0,0,0,0],"id":29,"left_children":[1,3,5,7,-1,-1,9,11,-1,13,15,-1,-1,17,-1,19,21,-1,-1,-1,-1,-1,-1],"loss_changes":[6.808107E1,2.676672E0,1.1937008E1,6.6155815E-1,0E0,0E0,5.475956E0,5.6118965E-1,0E0,7.235471E0,1.0675354E0,0E0,0E0,1.555379E0,0E0,3.9124038E0,1.4918137E-1,0E0,0E0,0E0,0E0,0E0,0E0],"parents":[2147483647,0,0,1,1,2,2,3,3,6,6,7,7,9,9,10,10,13,13,15,15,16,16],"right_children":[2,4,6,8,-1,-1,10,12,-1,14,16,-1,-1,18,-1,20,22,-1,-1,-1,-1,-1,-1],"split_conditions":[4.7328836E-1,1.4232103E0,1.2634411E-1,5.640404E-1,2.4294506E-3,-7.442912E-3,1.2454119E-1,5.13078E-1,-1.6979451E-3,5.619304E-1,4.2085433E-1,-9.984007E-3,-1.9914922E-3,7.186803E-2,1.3918445E-2,5.335909E-1,1.12513624E-1,2.6976771E-3,-7.821623E-3,-2.6843688E-3,1.4563531E-2,6.156874E-3,1.8119767E-2],"split_indices":[2,41,4,11,0,0,12,3,0,17,17,0,0,12,0,41,5,0,0,0,0,0,0],"split_type":[0,0,0,0,0,0,0,0,0,0,0,0,0,0,0,0,0,0,0,0,0,0,0],"sum_hessian":[4.022543E1,2.0963158E1,1.926227E1,1.9931208E1,1.0319511E0,1.4349227E0,1.7827349E1,1.8866644E1,1.0645629E0,4.5386457E0,1.3288702E1,1.784889E1,1.0177543E0,2.5011683E0,2.0374773E0,2.2833223E0,1.100538E1,1.0057219E0,1.4954464E0,1.185199E0,1.0981233E0,1.0781239E0,9.927257E0],"tree_param":{"num_deleted":"0","num_feature":"60","num_nodes":"23","size_leaf_vector":"1"}},{"base_weights":[-2.042102E-1,-8.993613E-1,1.4644402E0,-1.1635649E0,1.7553532E-1,-1.9316274E-1,1.7180907E-2,-1.6916305E-3,-9.653755E-3,-8.176662E-3,1.1940478E0,-8.6888485E-3,9.384429E-3,6.9868704E-4,1.4406004E-2],"categories":[],"categories_nodes":[],"categories_segments":[],"categories_sizes":[],"default_left":[0,0,0,0,0,0,0,0,0,0,0,0,0,0,0],"id":30,"left_children":[1,3,5,7,9,11,-1,-1,-1,-1,13,-1,-1,-1,-1],"loss_changes":[4.2721813E1,7.497963E0,1.2616156E1,6.656494E-1,7.9344335E0,5.6638894E0,0E0,0E0,0E0,0E0,2.2023053E0,0E0,0E0,0E0,0E0],"parents":[2147483647,0,0,1,1,2,2,3,3,4,4,5,5,10,10],"right_children":[2,4,6,8,10,12,-1,-1,-1,-1,14,-1,-1,-1,-1],"split_conditions":[5.4508543E-1,4.788288E-1,1E0,2.2147037E-2,4.856283E-1,5.759004E-1,1.7180907E-2,-1.6916305E-3,-9.653755E-3,-8.176662E-3,1.405494E-1,-8.6888485E-3,9.384429E-3,6.9868704E-4,1.4406004E-2],"split_indices":[0,2,27,8,41,4,0,0,0,0,7,0,0,0,0],"split_type":[0,0,0,0,0,0,0,0,0,0,0,0,0,0,0],"sum_hessian":[3.522871E1,2.511267E1,1.0116039E1,2.0108297E1,5.004374E0,3.1094444E0,7.0065947E0,1.0637562E0,1.904454E1,2.2987542E0,2.7056196E0,1.9734137E0,1.1360307E0,1.2618285E0,1.443791E0],"tree_param":{"num_deleted":"0","num_feature":"60","num_nodes":"15","size_leaf_vector":"1"}},{"base_weights":[4.8362885E-2,-1.0337859E0,1.3719949E0,-1.2009982E0,1.0226224E-2,-8.0526286E-1,1.7663339E0,-1.6686043E-3,-9.9691395E-3,-7.837219E-3,-1.9077158E-3,-2.5200879E-3,1.9365388E0,2.1225595E0,-2.1360582E-3,7.952584E-1,2.3515384E0,-2.76146E-3,1.3138313E-2,2.0148158E-2,8.821751E-3],"categories":[],"categories_nodes":[],"categories_segments":[],"categories_sizes":[],"default_left":[0,0,0,0,0,0,0,0,0,0,0,0,0,0,0,0,0,0,0,0,0],"id":31,"left_children":[1,3,5,7,-1,9,11,-1,-1,-1,-1,-1,13,15,-1,17,19,-1,-1,-1,-1],"loss_changes":[5.7211346E1,9.654657E0,1.6482143E1,7.413311E-1,0E0,1.4784837E-1,5.925865E0,0E0,0E0,0E0,0E0,0E0,6.317116E0,2.6514854E0,0E0,3.4157226E0,2.0949173E-1,0E0,0E0,0E0,0E0],"parents":[2147483647,0,0,1,1,2,2,3,3,5,5,6,6,12,12,13,13,15,15,16,16],"right_children":[2,4,6,8,-1,10,12,-1,-1,-1,-1,-1,14,16,-1,18,20,-1,-1,-1,-1],"split_conditions":[4.4869488E-1,5.1439273E-1,1E0,1.5233508E-2,1.0226224E-2,3.1362283E-1,3.170179E-2,-1.6686043E-3,-9.9691395E-3,-7.837219E-3,-1.9077158E-3,-2.5200879E-3,1.3104922E0,6.21027E-2,-2.1360582E-3,6.5217936E-1,9.1733813E-1,-2.76146E-3,1.3138313E-2,2.0148158E-2,8.821751E-3],"split_indices":[0,2,25,19,0,9,6,0,0,0,0,0,40,9,0,2,0,0,0,0,0],"split_type":[0,0,0,0,0,0,0,0,0,0,0,0,0,0,0,0,0,0,0,0,0],"sum_hessian":[3.844917E1,2.1244635E1,1.7204536E1,2.0147917E1,1.096717E0,2.5183685E0,1.4686167E1,1.0600276E0,1.908789E1,1.5080748E0,1.0102937E0,1.0619589E0,1.3624208E1,1.2589023E1,1.0351851E0,2.34585E0,1.0243173E1,1.1891456E0,1.1567044E0,8.362476E0,1.8806964E0],"tree_param":{"num_deleted":"0","num_feature":"60","num_nodes":"21","size_leaf_vector":"1"}},{"base_weights":[-6.23047E-4,-6.739191E-1,1.9679425E0,-8.8783103E-1,9.3868256E-1,5.5179438E-3,1.7419718E-2,-1.1174368E0,5.3621596E-1,9.308179E-4,1.1061056E-2,-9.983309E-3,-5.1465976E-1,-4.325264E-3,1.3537455E-2,3.2466108E-3,-8.225946E-3],"categories":[],"categories_nodes":[],"categories_segments":[],"categories_sizes":[],"default_left":[0,0,0,0,0,0,0,0,0,0,0,0,0,0,0,0,0],"id":32,"left_children":[1,3,5,7,9,-1,-1,11,13,-1,-1,-1,15,-1,-1,-1,-1],"loss_changes":[4.5310738E1,9.412E0,1.2068939E0,7.9288025E0,1.101538E0,0E0,0E0,1.0867214E0,5.2707996E0,0E0,0E0,0E0,2.5939398E0,0E0,0E0,0E0,0E0],"parents":[2147483647,0,0,1,1,2,2,3,3,4,4,7,7,8,8,12,12],"right_children":[2,4,6,8,10,-1,-1,12,14,-1,-1,-1,16,-1,-1,-1,-1],"split_conditions":[6.0329384E-1,6.65136E-1,3.784391E-1,5.643261E-1,2.0431957E-1,5.5179438E-3,1.7419718E-2,3.947345E-1,2.519325E-1,9.308179E-4,1.1061056E-2,-9.983309E-3,2.030984E-1,-4.325264E-3,1.3537455E-2,3.2466108E-3,-8.225946E-3],"split_indices":[1,15,4,46,9,0,0,5,7,0,0,0,7,0,0,0,0],"split_type":[0,0,0,0,0,0,0,0,0,0,0,0,0,0,0,0,0],"sum_hessian":[3.2685303E1,2.4722773E1,7.9625287E0,2.2124971E1,2.5978014E0,1.5747399E0,6.387789E0,1.9192034E1,2.9329388E0,1.2426311E0,1.3551705E0,1.5117092E1,4.074941E0,1.7250937E0,1.2078451E0,1.5157146E0,2.5592265E0],"tree_param":{"num_deleted":"0","num_feature":"60","num_nodes":"17","size_leaf_vector":"1"}},{"base_weights":[2.845374E-1,-1.0156649E0,1.4670086E0,-1.1941555E0,7.6052663E-3,1.4106826E-1,2.072996E0,-9.905399E-3,-2.9843368E-3,-8.568894E-1,1.0694802E0,2.18376E0,2.4070074E-3,-1.876415E-3,-8.123086E-3,-3.0017209E-3,1.3678526E-2,5.1092883E-3,1.8243166E-2],"categories":[],"categories_nodes":[],"categories_segments":[],"categories_sizes":[],"default_left":[0,0,0,0,0,0,0,0,0,0,0,0,0,0,0,0,0,0,0],"id":33,"left_children":[1,3,5,7,-1,9,11,-1,-1,13,15,17,-1,-1,-1,-1,-1,-1,-1],"loss_changes":[6.6963715E1,8.166262E0,1.8049423E1,3.5622978E-1,0E0,8.040594E0,2.5594711E0,0E0,0E0,2.3973966E-1,4.593292E0,1.074997E0,0E0,0E0,0E0,0E0,0E0,0E0,0E0],"parents":[2147483647,0,0,1,1,2,2,3,3,5,5,6,6,9,9,10,10,11,11],"right_children":[2,4,6,8,-1,10,12,-1,-1,14,16,18,-1,-1,-1,-1,-1,-1,-1],"split_conditions":[4.2293194E-1,5.4948086E-1,4.9065545E-1,5.632728E-1,7.6052663E-3,3.9480323E-1,8.745624E-1,-9.905399E-3,-2.9843368E-3,3.2826385E-1,7.3058255E-2,4.7605556E-2,2.4070074E-3,-1.876415E-3,-8.123086E-3,-3.0017209E-3,1.3678526E-2,5.1092883E-3,1.8243166E-2],"split_indices":[3,47,18,45,0,54,41,0,0,14,8,6,0,0,0,0,0,0,0],"split_type":[0,0,0,0,0,0,0,0,0,0,0,0,0,0,0,0,0,0,0],"sum_hessian":[4.207815E1,2.009177E1,2.1986382E1,1.8689754E1,1.4020163E0,7.18648E0,1.4799902E1,1.737723E1,1.3125246E0,3.4913633E0,3.695117E0,1.3765305E1,1.0345972E0,1.0862157E0,2.4051476E0,1.2301759E0,2.4649413E0,1.1461598E0,1.2619145E1],"tree_param":{"num_deleted":"0","num_feature":"60","num_nodes":"19","size_leaf_vector":"1"}},{"base_weights":[2.3521987E-1,-9.2107123E-1,1.802059E0,-1.1101693E0,6.3444832E-3,2.0444894E0,3.600371E-1,-3.007059E-1,-9.759186E-3,4.4249934E-3,2.1760883E0,1.107443E-2,-6.5979594E-3,-6.2857E-3,2.7697035E-3,5.385243E-3,1.8565971E-2],"categories":[],"categories_nodes":[],"categories_segments":[],"categories_sizes":[],"default_left":[0,0,0,0,0,0,0,0,0,0,0,0,0,0,0,0,0],"id":34,"left_children":[1,3,5,7,-1,9,11,13,-1,-1,15,-1,-1,-1,-1,-1,-1],"loss_changes":[5.7285625E1,6.590186E0,4.128277E0,1.2161083E0,0E0,1.3152084E0,4.299251E0,1.1451585E0,0E0,0E0,1.0305023E0,0E0,0E0,0E0,0E0,0E0,0E0],"parents":[2147483647,0,0,1,1,2,2,3,3,5,5,6,6,7,7,10,10],"right_children":[2,4,6,8,-1,10,12,14,-1,-1,16,-1,-1,-1,-1,-1,-1],"split_conditions":[4.8870933E-1,5.037644E-1,6.739352E-1,5.2613363E-2,6.3444832E-3,3.791766E-2,5.3349E-1,1E0,-9.759186E-3,4.4249934E-3,4.8143095E-1,1.107443E-2,-6.5979594E-3,-6.2857E-3,2.7697035E-3,5.385243E-3,1.8565971E-2],"split_indices":[16,0,41,17,0,53,16,23,0,0,17,0,0,0,0,0,0],"split_type":[0,0,0,0,0,0,0,0,0,0,0,0,0,0,0,0,0],"sum_hessian":[3.018231E1,1.7544203E1,1.2638106E1,1.6039076E1,1.5051273E0,1.0550953E1,2.0871534E0,2.2495573E0,1.3789519E1,1.171952E0,9.379002E0,1.0516657E0,1.0354877E0,1.1937058E0,1.0558516E0,1.1957514E0,8.183249E0],"tree_param":{"num_deleted":"0","num_feature":"60","num_nodes":"17","size_leaf_vector":"1"}},{"base_weights":[-1.9465393E-1,-9.934445E-1,1.2420691E0,-9.824964E-3,-3.321458E-1,2.6405662E-2,1.7718676E0,6.590626E-3,-9.2949307E-1,-8.289811E-1,1.2161658E-2,3.0654352E-3,1.6080009E-2,-1.8206151E-3,-8.639838E-3,-2.0256736E-3,-7.941418E-3],"categories":[],"categories_nodes":[],"categories_segments":[],"categories_sizes":[],"default_left":[0,0,0,0,0,0,0,0,0,0,0,0,0,0,0,0,0],"id":35,"left_children":[1,3,5,-1,7,9,11,-1,13,15,-1,-1,-1,-1,-1,-1,-1],"loss_changes":[4.0868603E1,3.2300835E0,8.189264E0,0E0,5.4051194E0,6.870602E0,2.3596783E0,0E0,3.4009886E-1,1.3515353E-1,0E0,0E0,0E0,0E0,0E0,0E0,0E0],"parents":[2147483647,0,0,1,1,2,2,4,4,5,5,6,6,8,8,9,9],"right_children":[2,4,6,-1,8,10,12,-1,14,16,-1,-1,-1,-1,-1,-1,-1],"split_conditions":[4.65677E-1,5.459421E-1,1.2023275E-1,-9.824964E-3,4.1198403E-1,6.200412E-1,5.3797233E-1,6.590626E-3,4.8081377E-1,1.01629786E-1,1.2161658E-2,3.0654352E-3,1.6080009E-2,-1.8206151E-3,-8.639838E-3,-2.0256736E-3,-7.941418E-3],"split_indices":[19,41,10,0,49,19,1,0,46,7,0,0,0,0,0,0,0],"split_type":[0,0,0,0,0,0,0,0,0,0,0,0,0,0,0,0,0],"sum_hessian":[3.405458E1,2.2034962E1,1.2019616E1,1.5789036E1,6.245927E0,3.887296E0,8.13232E0,2.0310748E0,4.2148523E0,2.6841033E0,1.2031928E0,1.476844E0,6.6554766E0,1.0767522E0,3.1381E0,1.0170233E0,1.6670799E0],"tree_param":{"num_deleted":"0","num_feature":"60","num_nodes":"17","size_leaf_vector":"1"}},{"base_weights":[9.288527E-2,-5.739289E-1,1.800649E0,-1.1207534E0,2.7848944E-1,2.1339825E-3,2.0338192E0,-1.4930735E-3,-1.1718701E0,-8.0643315E-3,6.937522E-1,6.128537E-3,1.763809E-2,-9.7790025E-3,-1.9212526E-3,-1.5206437E-1,1.3229486E0,1.0739253E-2,-8.812018E-3,1.708975E-2,1.9903912E-1,1.0178375E-2,-7.075815E-3],"categories":[],"categories_nodes":[],"categories_segments":[],"categories_sizes":[],"default_left":[0,0,0,0,0,0,0,0,0,0,0,0,0,0,0,0,0,0,0,0,0,0,0],"id":36,"left_children":[1,3,5,7,9,-1,11,-1,13,-1,15,-1,-1,-1,-1,17,19,-1,-1,-1,21,-1,-1],"loss_changes":[4.4259384E1,1.330013E1,3.4931526E0,6.584892E-1,6.697935E0,0E0,7.599945E-1,0E0,5.416775E-1,0E0,5.0363045E0,0E0,0E0,0E0,0E0,7.619751E0,4.563347E0,0E0,0E0,0E0,4.413467E0,0E0,0E0],"parents":[2147483647,0,0,1,1,2,2,3,3,4,4,6,6,8,8,10,10,15,15,16,16,20,20],"right_children":[2,4,6,8,10,-1,12,-1,14,-1,16,-1,-1,-1,-1,18,20,-1,-1,-1,22,-1,-1],"split_conditions":[6.2659484E-1,4.456496E-1,2.0721216E-1,2.2470491E-2,3.577709E-1,2.1339825E-3,4.9261874E-1,-1.4930735E-3,1.2735624E0,-8.0643315E-3,3.3145154E-1,6.128537E-3,1.763809E-2,-9.7790025E-3,-1.9212526E-3,9.4792254E-2,3.9477652E-1,1.0739253E-2,-8.812018E-3,1.708975E-2,1.2006847E-1,1.0178375E-2,-7.075815E-3],"split_indices":[3,16,5,12,3,0,16,0,58,0,41,0,0,0,0,56,51,0,0,0,12,0,0],"split_type":[0,0,0,0,0,0,0,0,0,0,0,0,0,0,0,0,0,0,0,0,0,0,0],"sum_hessian":[3.743562E1,2.72813E1,1.0154321E1,1.6475931E1,1.0805368E1,1.5520724E0,8.602248E0,1.0358013E0,1.544013E1,2.3754253E0,8.429943E0,1.510565E0,7.0916834E0,1.4424264E1,1.015866E0,3.8385687E0,4.5913744E0,1.3706551E0,2.4679136E0,2.2718892E0,2.3194854E0,1.0996119E0,1.2198734E0],"tree_param":{"num_deleted":"0","num_feature":"60","num_nodes":"23","size_leaf_vector":"1"}},{"base_weights":[4.0257793E-2,-9.534592E-1,1.4534277E0,-9.77438E-3,-6.9967615E-3,-7.613173E-2,1.7673317E0,-8.0201775E-1,1.0725105E-2,-6.8213358E-3,6.875522E-3,3.0328333E-3,1.9261576E0,-2.0161003E-3,-7.6748645E-3,9.329915E-1,1.725583E-2,-3.1517134E-3,1.4112876E-2],"categories":[],"categories_nodes":[],"categories_segments":[],"categories_sizes":[],"default_left":[0,0,0,0,0,0,0,0,0,0,0,0,0,0,0,0,0,0,0],"id":37,"left_children":[1,3,5,-1,7,9,11,13,-1,-1,-1,-1,15,-1,-1,17,-1,-1,-1],"loss_changes":[4.744283E1,5.0360165E0,6.7938976E0,0E0,6.313336E0,2.7964656E0,2.009346E0,1.3904119E-1,0E0,0E0,0E0,0E0,8.341713E-1,0E0,0E0,4.104988E0,0E0,0E0,0E0],"parents":[2147483647,0,0,1,1,2,2,4,4,5,5,6,6,7,7,12,12,15,15],"right_children":[2,4,6,-1,8,10,12,14,-1,-1,-1,-1,16,-1,-1,18,-1,-1,-1],"split_conditions":[4.8087946E-1,3.577709E-1,3.1423008E-1,-9.77438E-3,5.512105E-1,6.1520374E-1,5.2115E-2,9.468071E-2,1.0725105E-2,-6.8213358E-3,6.875522E-3,3.0328333E-3,1.393182E-1,-2.0161003E-3,-7.6748645E-3,4.6106637E-1,1.725583E-2,-3.1517134E-3,1.4112876E-2],"split_indices":[3,3,17,0,58,3,7,45,0,0,0,0,10,0,0,13,0,0,0],"split_type":[0,0,0,0,0,0,0,0,0,0,0,0,0,0,0,0,0,0,0],"sum_hessian":[3.229407E1,1.910426E1,1.3189811E1,1.4714316E1,4.3899426E0,2.34269E0,1.0847121E1,2.952062E0,1.4378809E0,1.3164678E0,1.0262222E0,1.3743877E0,9.4727335E0,1.0906875E0,1.8613744E0,2.4995084E0,6.9732246E0,1.1145364E0,1.3849721E0],"tree_param":{"num_deleted":"0","num_feature":"60","num_nodes":"19","size_leaf_vector":"1"}},{"base_weights":[-2.4552548E-2,-1.0500654E0,1.3548524E0,-1.1731083E0,8.4485457E-4,-3.4651812E-3,1.550805E0,-9.754978E-3,-1.9802644E-3,5.147566E-1,1.8648232E0,-4.1416454E-1,1.2445036E-2,1.6293915E-2,6.2973406E-3,2.6278242E-3,-7.537958E-3],"categories":[],"categories_nodes":[],"categories_segments":[],"categories_sizes":[],"default_left":[0,0,0,0,0,0,0,0,0,0,0,0,0,0,0,0,0],"id":38,"left_children":[1,3,5,7,-1,-1,9,-1,-1,11,13,15,-1,-1,-1,-1,-1],"loss_changes":[5.2020824E1,3.0908241E0,6.0000305E0,5.921879E-1,0E0,0E0,3.9328995E0,0E0,0E0,4.7012014E0,7.7789307E-1,1.3684527E0,0E0,0E0,0E0,0E0,0E0],"parents":[2147483647,0,0,1,1,2,2,3,3,6,6,9,9,10,10,11,11],"right_children":[2,4,6,8,-1,-1,10,-1,-1,12,14,16,-1,-1,-1,-1,-1],"split_conditions":[4.8507124E-1,4.8783666E-1,3.4843487E-1,5.466623E-1,8.4485457E-4,-3.4651812E-3,1.0252908E-1,-9.754978E-3,-1.9802644E-3,6.2468576E-1,4.1904002E-1,5.0251454E-1,1.2445036E-2,1.6293915E-2,6.2973406E-3,2.6278242E-3,-7.537958E-3],"split_indices":[2,19,3,48,0,0,8,0,0,19,49,19,0,0,0,0,0],"split_type":[0,0,0,0,0,0,0,0,0,0,0,0,0,0,0,0,0],"sum_hessian":[3.5270004E1,2.0332762E1,1.4937241E1,1.836604E1,1.9667231E0,1.385665E0,1.3551576E1,1.7265001E1,1.101038E0,3.6124318E0,9.939144E0,2.1474903E0,1.4649415E0,7.9960685E0,1.9430754E0,1.0102507E0,1.1372395E0],"tree_param":{"num_deleted":"0","num_feature":"60","num_nodes":"17","size_leaf_vector":"1"}},{"base_weights":[-1.6704687E-1,-5.786427E-1,1.9062308E0,-9.6048653E-1,3.745377E-1,4.3226015E-3,1.707733E-2,-1.0743349E0,6.923926E-3,-8.235748E-3,9.8171324E-1,-1.1504412E0,2.24255E-3,-2.6028803E-1,1.6613284E0,-1.1864806E0,-2.02045E-3,-7.911335E-3,5.1197778E-3,1.6930418E-2,1.0223308E-3,-2.942159E-3,-9.853713E-3],"categories":[],"categories_nodes":[],"categories_segments":[],"categories_sizes":[],"default_left":[0,0,0,0,0,0,0,0,0,0,0,0,0,0,0,0,0,0,0,0,0,0,0],"id":39,"left_children":[1,3,5,7,9,-1,-1,11,-1,-1,13,15,-1,17,19,21,-1,-1,-1,-1,-1,-1,-1],"loss_changes":[3.3264515E1,1.2022501E1,1.1540012E0,5.5338573E0,9.091265E0,0E0,0E0,2.5341892E0,0E0,0E0,6.40854E0,4.6123314E-1,0E0,2.5721974E0,3.1185923E0,4.0750885E-1,0E0,0E0,0E0,0E0,0E0,0E0,0E0],"parents":[2147483647,0,0,1,1,2,2,3,3,4,4,7,7,10,10,11,11,13,13,14,14,15,15],"right_children":[2,4,6,8,10,-1,-1,12,-1,-1,14,16,-1,18,20,22,-1,-1,-1,-1,-1,-1,-1],"split_conditions":[6.774389E-1,4.8367473E-1,8.444461E-2,1.2703224E0,3.48389E-1,4.3226015E-3,1.707733E-2,5.9674305E-1,6.923926E-3,-8.235748E-3,9.081532E-2,5.1007026E-1,2.24255E-3,6.519146E-1,2.5065354E-1,2.142734E-2,-2.02045E-3,-7.911335E-3,5.1197778E-3,1.6930418E-2,1.0223308E-3,-2.942159E-3,-9.853713E-3],"split_indices":[3,15,9,57,1,0,0,19,0,0,9,16,0,14,9,12,0,0,0,0,0,0,0],"split_type":[0,0,0,0,0,0,0,0,0,0,0,0,0,0,0,0,0,0,0,0,0,0,0],"sum_hessian":[3.7261543E1,3.154064E1,5.720903E0,2.2515276E1,9.025363E0,1.1813204E0,4.5395823E0,2.1484465E1,1.0308112E0,2.5672767E0,6.458086E0,2.044869E1,1.0357747E0,2.4476836E0,4.0104027E0,1.9427832E1,1.0208594E0,1.3119738E0,1.1357096E0,2.8730175E0,1.1373849E0,1.3757149E0,1.8052116E1],"tree_param":{"num_deleted":"0","num_feature":"60","num_nodes":"23","size_leaf_vector":"1"}},{"base_weights":[-2.030395E-1,-1.1426939E0,9.680087E-1,-1.3838909E-3,-9.864689E-3,3.6143613E-1,1.8921782E0,-3.5380727E-1,9.437149E-1,5.2398783E-3,1.6500713E-2,7.884536E-3,-9.75412E-1,-1.7960307E-1,1.5997938E0,-2.7783008E-3,-9.08115E-3,5.40725E-3,-7.6967375E-3,1.5179475E-2,4.251308E-3],"categories":[],"categories_nodes":[],"categories_segments":[],"categories_sizes":[],"default_left":[0,0,0,0,0,0,0,0,0,0,0,0,0,0,0,0,0,0,0,0,0],"id":40,"left_children":[1,3,5,-1,-1,7,9,11,13,-1,-1,-1,15,17,19,-1,-1,-1,-1,-1,-1],"loss_changes":[4.1394962E1,1.6629658E0,8.914691E0,0E0,0E0,4.865177E0,3.5446548E-1,5.3151183E0,4.867765E0,0E0,0E0,0E0,1.20292425E-1,2.497196E0,5.350561E-1,0E0,0E0,0E0,0E0,0E0,0E0],"parents":[2147483647,0,0,1,1,2,2,5,5,6,6,7,7,8,8,12,12,13,13,14,14],"right_children":[2,4,6,-1,-1,8,10,12,14,-1,-1,-1,16,18,20,-1,-1,-1,-1,-1,-1],"split_conditions":[4.3386093E-1,2.733709E-2,6.7581624E-1,-1.3838909E-3,-9.864689E-3,6.193756E-1,5.9882265E-1,2.7963716E-1,1.3362148E-1,5.2398783E-3,1.6500713E-2,7.884536E-3,5.044489E-1,6.505491E-1,8.2884115E-1,-2.7783008E-3,-9.08115E-3,5.40725E-3,-7.6967375E-3,1.5179475E-2,4.251308E-3],"split_indices":[18,10,4,0,0,16,17,14,9,0,0,0,16,18,16,0,0,0,0,0,0],"split_type":[0,0,0,0,0,0,0,0,0,0,0,0,0,0,0,0,0,0,0,0,0],"sum_hessian":[3.611485E1,2.0047112E1,1.6067736E1,1.8957025E0,1.815141E1,1.033062E1,5.737115E0,4.768053E0,5.562567E0,1.1343491E0,4.6027656E0,1.3722088E0,3.3958442E0,2.2517967E0,3.3107705E0,1.1711385E0,2.2247057E0,1.1245087E0,1.127288E0,2.1342075E0,1.1765629E0],"tree_param":{"num_deleted":"0","num_feature":"60","num_nodes":"21","size_leaf_vector":"1"}},{"base_weights":[-1.5676066E-1,-1.1055937E0,9.4630927E-1,-9.675482E-3,-1.0317928E-3,-5.172025E-1,1.3227335E0,-7.6484843E-3,2.569189E-3,1.5763205E0,-1.1850408E-3,3.2323637E-4,1.7768747E0,5.5387253E-3,1.9364159E0,1.6960576E-2,6.082662E-3],"categories":[],"categories_nodes":[],"categories_segments":[],"categories_sizes":[],"default_left":[0,0,0,0,0,0,0,0,0,0,0,0,0,0,0,0,0],"id":41,"left_children":[1,3,5,-1,-1,7,9,-1,-1,11,-1,-1,13,-1,15,-1,-1],"loss_changes":[3.2534294E1,1.571907E0,8.463455E0,0E0,0E0,1.5149208E0,4.5353603E0,0E0,0E0,3.0373611E0,0E0,0E0,5.273247E-1,0E0,3.689499E-1,0E0,0E0],"parents":[2147483647,0,0,1,1,2,2,5,5,6,6,9,9,12,12,14,14],"right_children":[2,4,6,-1,-1,8,10,-1,-1,12,-1,-1,14,-1,16,-1,-1],"split_conditions":[4.0713426E-1,4.793021E-1,4.079085E-1,-9.675482E-3,-1.0317928E-3,3.506735E-1,5.099444E-1,-7.6484843E-3,2.569189E-3,5.002406E-2,-1.1850408E-3,3.2323637E-4,2.1227725E-1,5.5387253E-3,3.2879797E-1,1.6960576E-2,6.082662E-3],"split_indices":[19,16,1,0,0,5,46,0,0,6,0,0,5,0,7,0,0],"split_type":[0,0,0,0,0,0,0,0,0,0,0,0,0,0,0,0,0],"sum_hessian":[2.9585114E1,1.5903557E1,1.3681557E1,1.4213481E1,1.690076E0,2.7416637E0,1.0939893E1,1.7304877E0,1.011176E0,9.2852745E0,1.6546184E0,1.1764777E0,8.108797E0,1.5534426E0,6.555354E0,5.1492596E0,1.4060947E0],"tree_param":{"num_deleted":"0","num_feature":"60","num_nodes":"17","size_leaf_vector":"1"}},{"base_weights":[-2.171449E-1,-1.0234916E0,1.5709658E0,-1.1962832E0,3.6283433E-1,-4.2580287E-3,1.963552E0,-9.868379E-3,-1.9175215E-3,-6.8139615E-3,9.6196085E-3,4.15871E-3,1.6970271E-2],"categories":[],"categories_nodes":[],"categories_segments":[],"categories_sizes":[],"default_left":[0,0,0,0,0,0,0,0,0,0,0,0,0],"id":42,"left_children":[1,3,5,7,9,-1,11,-1,-1,-1,-1,-1,-1],"loss_changes":[5.184888E1,6.233135E0,1.0041718E1,5.6614494E-1,4.1422153E0,0E0,1.3610001E0,0E0,0E0,0E0,0E0,0E0,0E0],"parents":[2147483647,0,0,1,1,2,2,3,3,4,4,6,6],"right_children":[2,4,6,8,10,-1,12,-1,-1,-1,-1,-1,-1],"split_conditions":[5.2304286E-1,5.4661554E-1,4.9770635E-1,1.3666974E0,1.5673766E-1,-4.2580287E-3,4.617505E-2,-9.868379E-3,-1.9175215E-3,-6.8139615E-3,9.6196085E-3,4.15871E-3,1.6970271E-2],"split_indices":[4,16,2,42,7,0,8,0,0,0,0,0,0],"split_type":[0,0,0,0,0,0,0,0,0,0,0,0,0],"sum_hessian":[3.437392E1,2.3911682E1,1.0462239E1,2.135305E1,2.5586302E0,1.6037228E0,8.858517E0,2.0343431E1,1.0096196E0,1.041367E0,1.5172632E0,1.1898298E0,7.668687E0],"tree_param":{"num_deleted":"0","num_feature":"60","num_nodes":"13","size_leaf_vector":"1"}},{"base_weights":[2.8870262E-2,-7.689536E-1,1.9985272E0,-1.108415E0,2.5151703E-1,1.7235097E-2,4.354068E-3,-9.6406E-3,-3.7117794E-1,-7.8045875E-3,9.328064E-1,-6.7957714E-3,2.5473177E-3,1.6107311E-2,3.60996E-2,-7.3498753E-3,6.9141556E-3],"categories":[],"categories_nodes":[],"categories_segments":[],"categories_sizes":[],"default_left":[0,0,0,0,0,0,0,0,0,0,0,0,0,0,0,0,0],"id":43,"left_children":[1,3,5,7,9,-1,-1,-1,11,-1,13,-1,-1,-1,15,-1,-1],"loss_changes":[5.142091E1,8.283375E0,1.2580795E0,9.2079544E-1,6.057568E0,0E0,0E0,0E0,1.2343242E0,0E0,4.322944E0,0E0,0E0,0E0,3.1517103E0,0E0,0E0],"parents":[2147483647,0,0,1,1,2,2,3,3,4,4,8,8,10,10,14,14],"right_children":[2,4,6,8,10,-1,-1,-1,12,-1,14,-1,-1,-1,16,-1,-1],"split_conditions":[6.528764E-1,4.5223027E-1,1.0070828E0,6.400268E-1,2.5004995E-1,1.7235097E-2,4.354068E-3,-9.6406E-3,1E0,-7.8045875E-3,3.9223227E-1,-6.7957714E-3,2.5473177E-3,1.6107311E-2,1.8299367E-1,-7.3498753E-3,6.9141556E-3],"split_indices":[0,19,0,43,4,0,0,0,30,0,14,0,0,0,9,0,0],"split_type":[0,0,0,0,0,0,0,0,0,0,0,0,0,0,0,0,0],"sum_hessian":[3.1238716E1,2.255845E1,8.680264E0,1.687899E1,5.679461E0,7.5139027E0,1.1663617E0,1.4501717E1,2.3772733E0,1.9119064E0,3.7675548E0,1.3010182E0,1.0762551E0,1.2850064E0,2.4825482E0,1.1149993E0,1.367549E0],"tree_param":{"num_deleted":"0","num_feature":"60","num_nodes":"17","size_leaf_vector":"1"}},{"base_weights":[-1.5536908E-2,-9.4064873E-1,1.1828444E0,-1.0944563E0,6.7453417E-3,-6.7141363E-3,1.4288008E0,-9.647208E-3,-2.64195E-1,1.6857343E0,4.906282E-5,2.757399E-3,-6.094976E-3,6.9794303E-4,1.9005373E0,1.7331056E-2,8.900495E-1,2.7096734E-4,1.1008414E-2],"categories":[],"categories_nodes":[],"categories_segments":[],"categories_sizes":[],"default_left":[0,0,0,0,0,0,0,0,0,0,0,0,0,0,0,0,0,0,0],"id":44,"left_children":[1,3,5,7,-1,-1,9,-1,11,13,-1,-1,-1,-1,15,-1,17,-1,-1],"loss_changes":[3.3729546E1,5.4009705E0,7.4936657E0,1.2532387E0,0E0,0E0,4.414633E0,0E0,1.0662875E0,3.3933964E0,0E0,0E0,0E0,0E0,9.7029877E-1,0E0,1.274373E0,0E0,0E0],"parents":[2147483647,0,0,1,1,2,2,3,3,6,6,8,8,9,9,14,14,16,16],"right_children":[2,4,6,8,-1,-1,10,-1,12,14,-1,-1,-1,-1,16,-1,18,-1,-1],"split_conditions":[4.9594694E-1,5.8696556E-1,2.2878507E-1,5.636464E-1,6.7453417E-3,-6.7141363E-3,3.4278643E-1,-9.647208E-3,1.6163173E-1,5.002406E-2,4.906282E-5,2.757399E-3,-6.094976E-3,6.9794303E-4,3.4128842E-1,1.7331056E-2,4.017362E-1,2.7096734E-4,1.1008414E-2],"split_indices":[16,4,4,54,0,0,9,0,8,6,0,0,0,0,6,0,6,0,0],"split_type":[0,0,0,0,0,0,0,0,0,0,0,0,0,0,0,0,0,0,0],"sum_hessian":[2.8921638E1,1.6412792E1,1.2508847E1,1.5376784E1,1.0360074E0,1.160304E0,1.1348543E1,1.3257874E1,2.1189108E0,9.495056E0,1.8534873E0,1.0566969E0,1.0622139E0,1.2497147E0,8.245341E0,5.848708E0,2.3966331E0,1.1583194E0,1.2383138E0],"tree_param":{"num_deleted":"0","num_feature":"60","num_nodes":"19","size_leaf_vector":"1"}},{"base_weights":[1.3261446E-1,-8.177509E-1,1.3681432E0,-1.0721631E0,9.882387E-1,6.0389304E-1,1.8273996E0,-1.1549121E0,1.3167138E-4,-2.7329423E-3,1.6195323E-2,9.8493963E-1,-7.055344E-3,3.588285E-3,1.5907707E-2,-9.639178E-3,-2.5846807E-3,1.05958596E-1,1.4682196E-2,-7.543397E-3,9.458473E-3],"categories":[],"categories_nodes":[],"categories_segments":[],"categories_sizes":[],"default_left":[0,0,0,0,0,0,0,0,0,0,0,0,0,0,0,0,0,0,0,0,0],"id":45,"left_children":[1,3,5,7,9,11,13,15,-1,-1,-1,17,-1,-1,-1,-1,-1,19,-1,-1,-1],"loss_changes":[4.291921E1,1.0317364E1,4.7395325E0,1.6831398E0,4.5828648E0,4.6565094E0,1.4492283E0,4.2435646E-1,0E0,0E0,0E0,4.327073E0,0E0,0E0,0E0,0E0,0E0,5.0568676E0,0E0,0E0,0E0],"parents":[2147483647,0,0,1,1,2,2,3,3,4,4,5,5,6,6,7,7,11,11,17,17],"right_children":[2,4,6,8,10,12,14,16,-1,-1,-1,18,-1,-1,-1,-1,-1,20,-1,-1,-1],"split_conditions":[5.044489E-1,5.743425E-1,6.852998E-1,5.076798E-1,1E0,7.587401E-1,3.746234E-2,7.0332706E-1,1.3167138E-4,-2.7329423E-3,1.6195323E-2,3.4048295E-1,-7.055344E-3,3.588285E-3,1.5907707E-2,-9.639178E-3,-2.5846807E-3,5.3741956E-1,1.4682196E-2,-7.543397E-3,9.458473E-3],"split_indices":[16,45,0,0,33,16,49,56,0,0,0,45,0,0,0,0,0,18,0,0,0],"split_type":[0,0,0,0,0,0,0,0,0,0,0,0,0,0,0,0,0,0,0,0,0],"sum_hessian":[3.5087147E1,1.9975584E1,1.5111562E1,1.7776176E1,2.1994073E0,6.3239894E0,8.787572E0,1.6477972E1,1.2982037E0,1.1833704E0,1.016037E0,5.2344146E0,1.0895749E0,1.2160034E0,7.5715685E0,1.5226621E1,1.2513516E0,2.9885952E0,2.2458193E0,1.5606966E0,1.4278985E0],"tree_param":{"num_deleted":"0","num_feature":"60","num_nodes":"21","size_leaf_vector":"1"}},{"base_weights":[-9.188991E-2,-8.033756E-1,1.3979121E0,-1.1129009E0,4.4409478E-1,1.647192E0,-1.055538E-3,-2.0481104E-3,-1.1581103E0,-5.123583E-1,1.1705934E-2,1.3507984E-3,1.8499926E0,-9.65041E-3,-1.9483214E-3,2.2798453E-3,-7.836811E-3,1.320268E-3,1.6656835E-2],"categories":[],"categories_nodes":[],"categories_segments":[],"categories_sizes":[],"default_left":[0,0,0,0,0,0,0,0,0,0,0,0,0,0,0,0,0,0,0],"id":46,"left_children":[1,3,5,7,9,11,-1,-1,13,15,-1,-1,17,-1,-1,-1,-1,-1,-1],"loss_changes":[3.7089657E1,9.490924E0,4.4824924E0,5.1903534E-1,5.6619225E0,2.702383E0,0E0,0E0,5.715122E-1,1.4217811E0,0E0,0E0,3.0815601E0,0E0,0E0,0E0,0E0,0E0,0E0],"parents":[2147483647,0,0,1,1,2,2,3,3,4,4,5,5,8,8,9,9,12,12],"right_children":[2,4,6,8,10,12,-1,-1,14,16,-1,-1,18,-1,-1,-1,-1,-1,-1],"split_conditions":[4.8367473E-1,4.947665E-1,5.332393E-1,3.1124635E-2,2.1150035E-1,3.1665018E-1,-1.055538E-3,-2.0481104E-3,3.9818624E-1,5.037644E-1,1.1705934E-2,1.3507984E-3,5.5235976E-1,-9.65041E-3,-1.9483214E-3,2.2798453E-3,-7.836811E-3,1.320268E-3,1.6656835E-2],"split_indices":[15,2,46,18,9,0,0,0,15,0,0,0,15,0,0,0,0,0,0],"split_type":[0,0,0,0,0,0,0,0,0,0,0,0,0,0,0,0,0,0,0],"sum_hessian":[3.3446507E1,2.287002E1,1.0576488E1,1.8388361E1,4.481659E0,9.04512E0,1.5313677E0,1.1719855E0,1.7216377E1,2.504333E0,1.9773258E0,1.256939E0,7.788181E0,1.6127352E1,1.0890247E0,1.0334079E0,1.4709251E0,1.0983351E0,6.6898456E0],"tree_param":{"num_deleted":"0","num_feature":"60","num_nodes":"19","size_leaf_vector":"1"}},{"base_weights":[2.2076065E-2,-8.945525E-1,1.3306674E0,-1.0503191E0,7.101594E-3,-6.9024116E-1,1.6892201E0,1.8843646E-3,-1.1379442E0,-2.0769024E-3,-6.5839225E-3,8.375254E-1,1.5833033E-2,-9.806332E-3,1.932274E-3,1.19205825E-2,-1.7867708E-3],"categories":[],"categories_nodes":[],"categories_segments":[],"categories_sizes":[],"default_left":[0,0,0,0,0,0,0,0,0,0,0,0,0,0,0,0,0],"id":47,"left_children":[1,3,5,7,-1,9,11,-1,13,-1,-1,15,-1,-1,-1,-1,-1],"loss_changes":[4.5324295E1,6.8711796E0,1.2149353E1,2.5433578E0,0E0,4.2288303E-3,2.0736084E0,0E0,2.5961418E0,0E0,0E0,3.5112364E0,0E0,0E0,0E0,0E0,0E0],"parents":[2147483647,0,0,1,1,2,2,3,3,5,5,6,6,8,8,11,11],"right_children":[2,4,6,8,-1,10,12,-1,14,-1,-1,16,-1,-1,-1,-1,-1],"split_conditions":[5E-1,1.0635315E0,1.7585514E-1,4.3222986E-2,7.101594E-3,9.358373E-2,4.9077713E-1,1.8843646E-3,5.8001477E-1,-2.0769024E-3,-6.5839225E-3,4.203396E-1,1.5833033E-2,-9.806332E-3,1.932274E-3,1.19205825E-2,-1.7867708E-3],"split_indices":[18,55,4,15,0,9,15,0,4,0,0,15,0,0,0,0,0],"split_type":[0,0,0,0,0,0,0,0,0,0,0,0,0,0,0,0,0],"sum_hessian":[3.629195E1,2.148186E1,1.4810091E1,2.0038525E1,1.4433334E0,2.1271338E0,1.2682958E1,1.1976336E0,1.884089E1,1.0235528E0,1.1035812E0,3.9615128E0,8.721444E0,1.7791462E1,1.0494303E0,2.2649195E0,1.6965933E0],"tree_param":{"num_deleted":"0","num_feature":"60","num_nodes":"17","size_leaf_vector":"1"}},{"base_weights":[1.4068907E-1,-8.3474576E-1,1.4901788E0,-1.1422E0,4.2087388E-1,-2.6638836E-2,1.7594925E0,-9.573983E-3,-1.364433E-3,1.6483674E-2,-7.0740145E-1,-6.7015016E-3,6.8586417E-3,1.8584614E-3,1.8883587E0,-1.7318464E-3,-6.9726855E-3,3.5181344E-3,1.6239367E-2],"categories":[],"categories_nodes":[],"categories_segments":[],"categories_sizes":[],"default_left":[0,0,0,0,0,0,0,0,0,0,0,0,0,0,0,0,0,0,0],"id":48,"left_children":[1,3,5,7,9,11,13,-1,-1,-1,15,-1,-1,-1,17,-1,-1,-1,-1],"loss_changes":[4.598713E1,8.215614E0,6.0112457E0,7.2393227E-1,9.510944E0,2.6497645E0,2.1181717E0,0E0,0E0,0E0,1.2075019E-1,0E0,0E0,0E0,1.6604156E0,0E0,0E0,0E0,0E0],"parents":[2147483647,0,0,1,1,2,2,3,3,4,4,5,5,6,6,10,10,14,14],"right_children":[2,4,6,8,10,12,14,-1,-1,-1,16,-1,-1,-1,18,-1,-1,-1,-1],"split_conditions":[4.9808207E-1,5.804699E-1,4.947665E-1,4.8276764E-1,4.5230642E-1,4.5015007E-1,1E0,-9.573983E-3,-1.364433E-3,1.6483674E-2,1.981056E-1,-6.7015016E-3,6.8586417E-3,1.8584614E-3,2.328548E-2,-1.7318464E-3,-6.9726855E-3,3.5181344E-3,1.6239367E-2],"split_indices":[0,42,19,45,48,43,35,0,0,0,17,0,0,0,9,0,0,0,0],"split_type":[0,0,0,0,0,0,0,0,0,0,0,0,0,0,0,0,0,0,0],"sum_hessian":[3.347688E1,1.9597525E1,1.3879357E1,1.5797143E1,3.800381E0,2.1946356E0,1.1684721E1,1.4792922E1,1.0042212E0,1.2965748E0,2.503806E0,1.1650031E0,1.0296327E0,1.0728211E0,1.06119E1,1.0633172E0,1.440489E0,1.2189009E0,9.393E0],"tree_param":{"num_deleted":"0","num_feature":"60","num_nodes":"19","size_leaf_vector":"1"}},{"base_weights":[2.1208473E-1,-8.9527875E-1,1.2583789E0,-1.0807836E0,4.7943494E-3,-6.853822E-1,1.5303411E0,-9.479273E-3,-3.0985594E-1,-6.6448576E-3,-1.9048067E-3,1.0364922E0,1.8844835E-2,3.1810566E-3,-6.543027E-3,-1.5972877E-1,1.6072313E0,-7.1456116E-3,4.4794118E-1,3.227226E-3,1.7725881E0,6.0165077E-3,-8.641847E-5,5.8227014E-3,1.5529091E-2],"categories":[],"categories_nodes":[],"categories_segments":[],"categories_sizes":[],"default_left":[0,0,0,0,0,0,0,0,0,0,0,0,0,0,0,0,0,0,0,0,0,0,0,0,0],"id":49,"left_children":[1,3,5,7,-1,9,11,-1,13,-1,-1,15,-1,-1,-1,17,19,-1,21,-1,23,-1,-1,-1,-1],"loss_changes":[4.4205734E1,5.6481133E0,1.1123741E1,1.0757484E0,0E0,4.122722E-2,5.2547264E0,0E0,1.328783E0,0E0,0E0,8.5331545E0,0E0,0E0,0E0,2.3629198E0,1.1235352E0,0E0,4.2891598E-1,0E0,1.9244576E-1,0E0,0E0,0E0,0E0],"parents":[2147483647,0,0,1,1,2,2,3,3,5,5,6,6,8,8,11,11,15,15,16,16,18,18,20,20],"right_children":[2,4,6,8,-1,10,12,-1,14,-1,-1,16,-1,-1,-1,18,20,-1,22,-1,24,-1,-1,-1,-1],"split_conditions":[4.2739376E-1,1.3104922E0,1.4027867E-1,6.5672064E-1,4.7943494E-3,1.2865528E0,5.370059E-1,-9.479273E-3,8.9678776E-1,-6.6448576E-3,-1.9048067E-3,5.9625477E-1,1.8844835E-2,3.1810566E-3,-6.543027E-3,5.195203E-1,7.2321095E-2,-7.1456116E-3,5.202632E-1,3.227226E-3,3.784391E-1,6.0165077E-3,-8.641847E-5,5.8227014E-3,1.5529091E-2],"split_indices":[2,40,4,43,0,41,58,0,40,0,0,18,0,0,0,1,9,0,16,0,4,0,0,0,0],"split_type":[0,0,0,0,0,0,0,0,0,0,0,0,0,0,0,0,0,0,0,0,0,0,0,0,0],"sum_hessian":[3.6674255E1,1.786975E1,1.8804506E1,1.6081388E1,1.7883601E0,2.168164E0,1.6636343E1,1.3812989E1,2.268399E0,1.1515236E0,1.0166405E0,1.146656E1,5.169782E0,1.0161905E0,1.2522085E0,3.8782263E0,7.588334E0,1.597543E0,2.2806833E0,1.2279956E0,6.3603387E0,1.0830984E0,1.1975849E0,1.4376614E0,4.922677E0],"tree_param":{"num_deleted":"0","num_feature":"60","num_nodes":"25","size_leaf_vector":"1"}},{"base_weights":[-3.629171E-2,-7.964512E-1,1.5918117E0,-1.0153776E0,8.1844914E-1,3.7308954E-4,1.8442961E0,-9.731089E-3,3.2568082E-1,1.3495925E-2,-1.3196649E-3,5.630042E-3,1.592204E-2,1.1741835E-2,-7.259526E-3],"categories":[],"categories_nodes":[],"categories_segments":[],"categories_sizes":[],"default_left":[0,0,0,0,0,0,0,0,0,0,0,0,0,0,0],"id":50,"left_children":[1,3,5,7,9,-1,11,-1,13,-1,-1,-1,-1,-1,-1],"loss_changes":[4.583955E1,9.541674E0,4.536934E0,6.375492E0,3.1356182E0,0E0,6.3396454E-1,0E0,5.971352E0,0E0,0E0,0E0,0E0,0E0,0E0],"parents":[2147483647,0,0,1,1,2,2,3,3,4,4,6,6,8,8],"right_children":[2,4,6,8,10,-1,12,-1,14,-1,-1,-1,-1,-1,-1],"split_conditions":[5.840483E-1,5.5284476E-1,8.94626E-2,8.808409E-1,1.9514285E-1,3.7308954E-4,4.9861926E-1,-9.731089E-3,1E0,1.3495925E-2,-1.3196649E-3,5.630042E-3,1.592204E-2,1.1741835E-2,-7.259526E-3],"split_indices":[1,17,10,43,12,0,16,0,21,0,0,0,0,0,0],"split_type":[0,0,0,0,0,0,0,0,0,0,0,0,0,0,0],"sum_hessian":[3.5520233E1,2.4475677E1,1.1044557E1,2.1798908E1,2.676769E0,1.6760235E0,9.368533E0,1.9018055E1,2.7808523E0,1.1364605E0,1.5403086E0,1.5582625E0,7.810271E0,1.3696592E0,1.4111933E0],"tree_param":{"num_deleted":"0","num_feature":"60","num_nodes":"15","size_leaf_vector":"1"}},{"base_weights":[4.66865E-2,-7.5210685E-1,1.6569977E0,-9.398544E-1,9.404465E-3,-3.7771626E-3,1.9735912E0,-1.1674284E0,3.9391795E-1,7.023665E-3,1.6935376E-2,-9.682738E-3,-3.1209954E-3,-3.982569E-3,9.223386E-3],"categories":[],"categories_nodes":[],"categories_segments":[],"categories_sizes":[],"default_left":[0,0,0,0,0,0,0,0,0,0,0,0,0,0,0],"id":51,"left_children":[1,3,5,7,-1,-1,9,11,13,-1,-1,-1,-1,-1,-1],"loss_changes":[4.371152E1,9.060306E0,8.289461E0,6.762455E0,0E0,0E0,1.682663E-1,2.546444E-1,2.8958085E0,0E0,0E0,0E0,0E0,0E0,0E0],"parents":[2147483647,0,0,1,1,2,2,3,3,6,6,7,7,8,8],"right_children":[2,4,6,8,-1,-1,10,12,14,-1,-1,-1,-1,-1,-1],"split_conditions":[6.150226E-1,7.2384286E-1,4.154763E-1,5.433832E-1,9.404465E-3,-3.7771626E-3,1.8836614E-1,5.033649E-1,5.307149E-1,7.023665E-3,1.6935376E-2,-9.682738E-3,-3.1209954E-3,-3.982569E-3,9.223386E-3],"split_indices":[2,45,16,17,0,0,5,10,1,0,0,0,0,0,0],"split_type":[0,0,0,0,0,0,0,0,0,0,0,0,0,0,0],"sum_hessian":[3.2505577E1,2.1994791E1,1.0510788E1,2.0392923E1,1.6018673E0,1.3128905E0,9.197897E0,1.7500458E1,2.8924654E0,1.682298E0,7.5155993E0,1.6188866E1,1.3115916E0,1.4486098E0,1.4438555E0],"tree_param":{"num_deleted":"0","num_feature":"60","num_nodes":"15","size_leaf_vector":"1"}},{"base_weights":[1.063727E-2,-1.035276E0,1.0564411E0,-1.1192334E0,2.471446E-3,1.741086E-1,1.7976397E0,-9.669577E-3,8.9072424E-4,-4.4277084E-1,1.6656032E-2,3.925816E-3,1.5354253E-2,-9.5238245E-1,1.2681012E-2,-9.369223E-3,9.4211346E-4],"categories":[],"categories_nodes":[],"categories_segments":[],"categories_sizes":[],"default_left":[0,0,0,0,0,0,0,0,0,0,0,0,0,0,0,0,0],"id":52,"left_children":[1,3,5,7,-1,9,11,-1,-1,13,-1,-1,-1,15,-1,-1,-1],"loss_changes":[4.4281662E1,2.5440407E0,1.3001255E1,2.216528E0,0E0,1.2543487E1,1.0294342E0,0E0,0E0,9.635643E0,0E0,0E0,0E0,1.7526188E0,0E0,0E0,0E0],"parents":[2147483647,0,0,1,1,2,2,3,3,5,5,6,6,9,9,13,13],"right_children":[2,4,6,8,-1,10,12,-1,-1,14,-1,-1,-1,16,-1,-1,-1],"split_conditions":[3.7422422E-1,9.7442234E-1,5.571468E-1,5.6911725E-1,2.471446E-3,7.338357E-1,4.3255754E-2,-9.669577E-3,8.9072424E-4,6.856305E-1,1.6656032E-2,3.925816E-3,1.5354253E-2,5.7469577E-1,1.2681012E-2,-9.369223E-3,9.4211346E-4],"split_indices":[4,54,16,17,0,43,10,0,0,2,0,0,0,1,0,0,0],"split_type":[0,0,0,0,0,0,0,0,0,0,0,0,0,0,0,0,0],"sum_hessian":[3.8983566E1,1.9494537E1,1.9489029E1,1.846666E1,1.027878E0,9.320253E0,1.0168776E1,1.7227537E1,1.2391226E0,7.4782557E0,1.8419977E0,1.1873724E0,8.981403E0,6.2942715E0,1.183984E0,5.167159E0,1.1271125E0],"tree_param":{"num_deleted":"0","num_feature":"60","num_nodes":"17","size_leaf_vector":"1"}},{"base_weights":[1.3813232E-1,-1.025115E0,1.1616399E0,-9.465344E-3,9.5107175E-2,1.4211893E0,-8.015291E-3,-5.829582E-3,6.9397623E-3,5.940477E-1,1.6158069E-2,1.8365817E0,-2.2578613E-1,1.9128038E-2,2.4937333E-3,-7.7932067E-3,3.7950435E-1,-4.0851496E-3,8.341542E-3],"categories":[],"categories_nodes":[],"categories_segments":[],"categories_sizes":[],"default_left":[0,0,0,0,0,0,0,0,0,0,0,0,0,0,0,0,0,0,0],"id":53,"left_children":[1,3,5,-1,7,9,-1,-1,-1,11,-1,13,15,-1,-1,-1,17,-1,-1],"loss_changes":[4.282101E1,3.0732899E0,1.1784964E1,0E0,2.243885E0,7.6904526E0,0E0,0E0,0E0,8.813834E0,0E0,2.3156147E0,2.8577833E0,0E0,0E0,0E0,2.577188E0,0E0,0E0],"parents":[2147483647,0,0,1,1,2,2,4,4,5,5,9,9,11,11,12,12,16,16],"right_children":[2,4,6,-1,8,10,-1,-1,-1,12,-1,14,16,-1,-1,-1,18,-1,-1],"split_conditions":[3.9223227E-1,4.8507124E-1,4.9196762E-1,-9.465344E-3,3.981373E-1,6.088388E-1,-8.015291E-3,-5.829582E-3,6.9397623E-3,1E0,1.6158069E-2,1.9270998E-1,4.8296654E-1,1.9128038E-2,2.4937333E-3,-7.7932067E-3,1.0633089E-1,-4.0851496E-3,8.341542E-3],"split_indices":[2,18,9,0,51,2,0,0,0,33,0,12,0,0,0,0,9,0,0],"split_type":[0,0,0,0,0,0,0,0,0,0,0,0,0,0,0,0,0,0,0],"sum_hessian":[3.4465996E1,1.613121E1,1.8334787E1,1.4099727E1,2.0314834E0,1.660064E1,1.7341468E0,1.0035233E0,1.0279601E0,7.5969787E0,9.003661E0,2.6502059E0,4.946773E0,1.6311361E0,1.0190698E0,2.0075936E0,2.9391792E0,1.3285197E0,1.6106596E0],"tree_param":{"num_deleted":"0","num_feature":"60","num_nodes":"19","size_leaf_vector":"1"}},{"base_weights":[-8.601362E-2,-8.4918845E-1,1.3820682E0,-9.8438776E-1,9.468487E-3,-1.0283774E-3,1.589968E0,-1.1708547E0,9.749836E-2,1.9710786E-3,1.7595757E0,-1.8860996E-3,-9.712507E-3,-7.715404E-3,9.237418E-3,6.156803E-3,1.5307048E-2],"categories":[],"categories_nodes":[],"categories_segments":[],"categories_sizes":[],"default_left":[0,0,0,0,0,0,0,0,0,0,0,0,0,0,0,0,0],"id":54,"left_children":[1,3,5,7,-1,-1,9,11,13,-1,15,-1,-1,-1,-1,-1,-1],"loss_changes":[4.1810158E1,7.607294E0,4.1671143E0,4.802679E0,0E0,0E0,2.2477646E0,5.9350586E-1,5.4716096E0,0E0,4.034443E-1,0E0,0E0,0E0,0E0,0E0,0E0],"parents":[2147483647,0,0,1,1,2,2,3,3,6,6,7,7,8,8,10,10],"right_children":[2,4,6,8,-1,-1,10,12,14,-1,16,-1,-1,-1,-1,-1,-1],"split_conditions":[5E-1,6.354267E-1,7.7762164E-2,8.212246E-1,9.468487E-3,-1.0283774E-3,7.95003E-2,2.2583254E-2,1E0,1.9710786E-3,1.06045306E-1,-1.8860996E-3,-9.712507E-3,-7.715404E-3,9.237418E-3,6.156803E-3,1.5307048E-2],"split_indices":[15,18,7,41,0,0,9,10,25,0,12,0,0,0,0,0,0],"split_type":[0,0,0,0,0,0,0,0,0,0,0,0,0,0,0,0,0],"sum_hessian":[3.5781437E1,2.3750853E1,1.2030583E1,2.2632362E1,1.1184897E0,1.4900476E0,1.0540536E1,1.9252457E1,3.3799045E0,1.3876314E0,9.1529045E0,1.064192E0,1.8188265E1,1.7189958E0,1.6609088E0,1.8362957E0,7.316609E0],"tree_param":{"num_deleted":"0","num_feature":"60","num_nodes":"17","size_leaf_vector":"1"}},{"base_weights":[-1.820219E-2,-1.0769955E0,9.8682916E-1,-9.54996E-3,-1.4706603E-3,-3.5625622E-1,1.6250437E0,-8.7068135E-1,7.4957167E-3,5.5066466E-5,1.46879945E-2,-8.219749E-3,-1.4297387E-3],"categories":[],"categories_nodes":[],"categories_segments":[],"categories_sizes":[],"default_left":[0,0,0,0,0,0,0,0,0,0,0,0,0],"id":55,"left_children":[1,3,5,-1,-1,7,9,11,-1,-1,-1,-1,-1],"loss_changes":[3.4554585E1,1.4837189E0,1.4720123E1,0E0,0E0,4.5925703E0,3.8931503E0,3.6888623E-1,0E0,0E0,0E0,0E0,0E0],"parents":[2147483647,0,0,1,1,2,2,5,5,6,6,7,7],"right_children":[2,4,6,-1,-1,8,10,12,-1,-1,-1,-1,-1],"split_conditions":[3.638098E-1,3.005009E-1,4.8507124E-1,-9.54996E-3,-1.4706603E-3,5.60258E-1,6.349481E-2,2.7301085E-1,7.4957167E-3,5.5066466E-5,1.46879945E-2,-8.219749E-3,-1.4297387E-3],"split_indices":[3,13,1,0,0,4,10,7,0,0,0,0,0],"split_type":[0,0,0,0,0,0,0,0,0,0,0,0,0],"sum_hessian":[3.097336E1,1.5057105E1,1.5916255E1,1.3093226E1,1.9638788E0,5.233662E0,1.0682592E1,3.9195647E0,1.3140975E0,1.3213658E0,9.361227E0,2.899047E0,1.020518E0],"tree_param":{"num_deleted":"0","num_feature":"60","num_nodes":"13","size_leaf_vector":"1"}},{"base_weights":[-1.7372021E-1,-8.241428E-1,1.2922041E0,-1.0339609E0,1.0209931E-2,1.6205986E0,-7.6053557E-3,-1.0950865E0,7.872947E-4,1.0020186E-3,1.4504339E-2,-1.160535E0,-2.2072005E-3,-9.643445E-3,-1.5481329E-3],"categories":[],"categories_nodes":[],"categories_segments":[],"categories_sizes":[],"default_left":[0,0,0,0,0,0,0,0,0,0,0,0,0,0,0],"id":56,"left_children":[1,3,5,7,-1,9,-1,11,-1,-1,-1,13,-1,-1,-1],"loss_changes":[3.4525204E1,1.1989176E1,9.377672E0,1.6801968E0,0E0,2.7116165E0,0E0,9.3857956E-1,0E0,0E0,0E0,6.9875526E-1,0E0,0E0,0E0],"parents":[2147483647,0,0,1,1,2,2,3,3,5,5,7,7,11,11],"right_children":[2,4,6,8,-1,10,-1,12,-1,-1,-1,14,-1,-1,-1],"split_conditions":[5.621388E-1,1.3119153E0,7.2937703E-1,6.543783E-1,1.0209931E-2,4.8507124E-1,-7.6053557E-3,5.4645216E-1,7.872947E-4,1.0020186E-3,1.4504339E-2,6.3999635E-1,-2.2072005E-3,-9.643445E-3,-1.5481329E-3],"split_indices":[3,59,40,17,0,1,0,1,0,0,0,5,0,0,0],"split_type":[0,0,0,0,0,0,0,0,0,0,0,0,0,0,0],"sum_hessian":[3.4622345E1,2.4209204E1,1.0413141E1,2.2356678E1,1.852527E0,9.264715E0,1.148426E0,2.1235102E1,1.1215754E0,1.1975474E0,8.067168E0,1.9374653E1,1.8604488E0,1.8338354E1,1.0362992E0],"tree_param":{"num_deleted":"0","num_feature":"60","num_nodes":"15","size_leaf_vector":"1"}},{"base_weights":[-8.12941E-2,-9.773424E-1,1.0561825E0,-1.0997416E0,1.4410926E-3,-1.8294747E-1,1.4263295E0,-9.164703E-3,-3.9170403E-3,8.522449E-3,-8.103314E-3,5.9825945E-1,1.4824446E-2,1.1645843E0,-1.2455548E-3,1.2746298E-2,1.8112761E-3],"categories":[],"categories_nodes":[],"categories_segments":[],"categories_sizes":[],"default_left":[0,0,0,0,0,0,0,0,0,0,0,0,0,0,0,0,0],"id":57,"left_children":[1,3,5,7,-1,9,11,-1,-1,-1,-1,13,-1,15,-1,-1,-1],"loss_changes":[3.4836617E1,2.8521824E0,7.1152515E0,6.500244E-2,0E0,5.0929246E0,3.3034382E0,0E0,0E0,0E0,0E0,2.3080707E0,0E0,9.3340254E-1,0E0,0E0,0E0],"parents":[2147483647,0,0,1,1,2,2,3,3,5,5,6,6,11,11,13,13],"right_children":[2,4,6,8,-1,10,12,-1,-1,-1,-1,14,-1,16,-1,-1,-1],"split_conditions":[4.9166802E-1,5.649383E-1,3.78363E-1,4.527243E-1,1.4410926E-3,1E0,6.095514E-1,-9.164703E-3,-3.9170403E-3,8.522449E-3,-8.103314E-3,5E-1,1.4824446E-2,1.9701687E-1,-1.2455548E-3,1.2746298E-2,1.8112761E-3],"split_indices":[17,2,3,12,0,21,17,0,0,0,0,0,0,12,0,0,0],"split_type":[0,0,0,0,0,0,0,0,0,0,0,0,0,0,0,0,0],"sum_hessian":[3.2669636E1,1.8333214E1,1.4336422E1,1.661378E1,1.7194345E0,3.3847392E0,1.0951682E1,1.4840363E1,1.7734153E0,1.266813E0,2.1179264E0,4.337046E0,6.6146364E0,2.243435E0,2.093611E0,1.1803544E0,1.0630807E0],"tree_param":{"num_deleted":"0","num_feature":"60","num_nodes":"17","size_leaf_vector":"1"}},{"base_weights":[1.2004328E-2,-8.24174E-1,1.5513753E0,-9.8930675E-1,8.179204E-3,1.6776905E0,8.8201236E-4,-1.0977013E0,7.726798E-4,7.316908E-1,1.5392171E-2,-1.1357975E0,-1.9497969E-3,9.30355E-3,-7.2070863E-4,-1.1731304E0,-2.048434E-3,-9.667782E-3,-2.7465525E-3],"categories":[],"categories_nodes":[],"categories_segments":[],"categories_sizes":[],"default_left":[0,0,0,0,0,0,0,0,0,0,0,0,0,0,0,0,0,0,0],"id":58,"left_children":[1,3,5,7,-1,9,-1,11,-1,13,-1,15,-1,-1,-1,17,-1,-1,-1],"loss_changes":[4.7815372E1,8.100889E0,2.2411232E0,2.7259007E0,0E0,1.7328644E0,0E0,4.5942688E-1,0E0,1.3836805E0,0E0,4.1262245E-1,0E0,0E0,0E0,2.2912216E-1,0E0,0E0,0E0],"parents":[2147483647,0,0,1,1,2,2,3,3,5,5,7,7,9,9,11,11,15,15],"right_children":[2,4,6,8,-1,10,-1,12,-1,14,-1,16,-1,-1,-1,18,-1,-1,-1],"split_conditions":[5.8410156E-1,6.044877E-1,5.3462946E-1,1.2259516E0,8.179204E-3,6.0202997E-2,8.8201236E-4,7.517865E-1,7.726798E-4,4.20869E-2,1.5392171E-2,5.7441986E-1,-1.9497969E-3,9.30355E-3,-7.2070863E-4,5.074472E-1,-2.048434E-3,-9.667782E-3,-2.7465525E-3],"split_indices":[17,18,45,42,0,9,0,45,0,9,0,14,0,0,0,17,0,0,0],"split_type":[0,0,0,0,0,0,0,0,0,0,0,0,0,0,0,0,0,0,0],"sum_hessian":[3.5652138E1,2.332861E1,1.2323527E1,2.1733265E1,1.5953453E0,1.12172165E1,1.1063104E0,1.9753319E1,1.9799466E0,2.9326289E0,8.284588E0,1.8672808E1,1.0805095E0,1.7191103E0,1.2135185E0,1.7672728E1,1.000081E0,1.662252E1,1.0502069E0],"tree_param":{"num_deleted":"0","num_feature":"60","num_nodes":"19","size_leaf_vector":"1"}},{"base_weights":[-1.2641768E-1,-8.7810105E-1,9.976761E-1,-1.0912094E0,5.7918954E-1,3.352713E-1,1.6843325E0,-9.04866E-3,-1.9794332E-3,-6.19E-3,1.2809869E-2,-2.7813634E-1,1.1692865E-2,1.6600939E-3,1.5808268E-2,-9.8256934E-1,6.608142E-3,-9.220048E-3,-2.3570047E-3],"categories":[],"categories_nodes":[],"categories_segments":[],"categories_sizes":[],"default_left":[0,0,0,0,0,0,0,0,0,0,0,0,0,0,0,0,0,0,0],"id":59,"left_children":[1,3,5,7,9,11,13,-1,-1,-1,-1,15,-1,-1,-1,17,-1,-1,-1],"loss_changes":[2.86151E1,6.755866E0,5.7671175E0,3.9256477E-1,5.175062E0,5.738135E0,2.4910946E0,0E0,0E0,0E0,0E0,5.058791E0,0E0,0E0,0E0,1.9372296E-1,0E0,0E0,0E0],"parents":[2147483647,0,0,1,1,2,2,3,3,4,4,5,5,6,6,11,11,15,15],"right_children":[2,4,6,8,10,12,14,-1,-1,-1,-1,16,-1,-1,-1,18,-1,-1,-1],"split_conditions":[4.7704947E-1,4.5178097E-1,1.5949045E-1,5.4944223E-1,3.882583E-1,6.995083E-1,3.9811984E-1,-9.04866E-3,-1.9794332E-3,-6.19E-3,1.2809869E-2,3.4699553E-1,1.1692865E-2,1.6600939E-3,1.5808268E-2,1.6016614E-1,6.608142E-3,-9.220048E-3,-2.3570047E-3],"split_indices":[1,14,10,19,41,3,17,0,0,0,0,46,0,0,0,11,0,0,0],"split_type":[0,0,0,0,0,0,0,0,0,0,0,0,0,0,0,0,0,0,0],"sum_hessian":[3.233792E1,1.9477448E1,1.2860474E1,1.7156897E1,2.3205512E0,7.113964E0,5.74651E0,1.6138876E1,1.0180197E0,1.0770289E0,1.2435223E0,4.971345E0,2.1426191E0,1.1595402E0,4.58697E0,3.085458E0,1.885887E0,2.0681207E0,1.0173372E0],"tree_param":{"num_deleted":"0","num_feature":"60","num_nodes":"19","size_leaf_vector":"1"}},{"base_weights":[5.0801672E-2,-8.8455445E-1,1.1190623E0,-1.0318964E0,1.4160566E-1,-2.6885873E-1,1.5698161E0,-9.408875E-3,-2.794569E-1,-7.0439065E-3,1.0541081E-2,-8.7648296E-1,7.475003E-3,2.742954E-3,1.6504849E0,6.3803457E-3,-7.5266887E-3,-2.2060832E-3,-8.421783E-3,1.3737471E-2,4.7002095E-3],"categories":[],"categories_nodes":[],"categories_segments":[],"categories_sizes":[],"default_left":[0,0,0,0,0,0,0,0,0,0,0,0,0,0,0,0,0,0,0,0,0],"id":60,"left_children":[1,3,5,7,9,11,13,-1,15,-1,-1,17,-1,-1,19,-1,-1,-1,-1,-1,-1],"loss_changes":[3.9241905E1,3.2789497E0,1.1776663E1,1.752327E0,4.8264456E0,4.365635E0,9.5502853E-1,0E0,3.3738112E0,0E0,0E0,1.8420148E-1,0E0,0E0,1.5655136E-1,0E0,0E0,0E0,0E0,0E0,0E0],"parents":[2147483647,0,0,1,1,2,2,3,3,4,4,5,5,6,6,8,8,11,11,14,14],"right_children":[2,4,6,8,10,12,14,-1,16,-1,-1,18,-1,-1,20,-1,-1,-1,-1,-1,-1],"split_conditions":[4.788288E-1,4.7573745E-1,2.1795961E-1,5.3632355E-1,3.231994E-1,1.8935992E-1,3.7867463E-1,-9.408875E-3,4.983037E-1,-7.0439065E-3,1.0541081E-2,5.035625E-1,7.475003E-3,2.742954E-3,5.6461984E-1,6.3803457E-3,-7.5266887E-3,-2.2060832E-3,-8.421783E-3,1.3737471E-2,4.7002095E-3],"split_indices":[2,0,5,44,19,10,0,0,51,0,0,2,0,0,44,0,0,0,0,0,0],"split_type":[0,0,0,0,0,0,0,0,0,0,0,0,0,0,0,0,0,0,0,0,0],"sum_hessian":[3.7780163E1,2.0211868E1,1.7568293E1,1.7670452E1,2.5414164E0,4.3810883E0,1.3187205E1,1.4474051E1,3.1964014E0,1.460535E0,1.0808812E0,3.0463665E0,1.3347218E0,1.0564646E0,1.2130741E1,1.1573483E0,2.039053E0,1.1273278E0,1.9190387E0,1.0980148E1,1.1505923E0],"tree_param":{"num_deleted":"0","num_feature":"60","num_nodes":"21","size_leaf_vector":"1"}},{"base_weights":[-6.778499E-2,-7.133226E-1,1.2846074E0,-8.582794E-1,7.2251232E-3,-5.9411906E-2,1.5601282E0,-9.654903E-1,3.4531292E-3,6.86178E-3,-7.908696E-3,1.0447536E-3,1.8224E0,-1.0943695E0,1.01976904E-4,3.683775E-3,1.58236E-2,-1.1689312E0,-2.0181174E-4,-6.7700422E-3,5.831171E-3,-1.5352455E-3,-9.731753E-3],"categories":[],"categories_nodes":[],"categories_segments":[],"categories_sizes":[],"default_left":[0,0,0,0,0,0,0,0,0,0,0,0,0,0,0,0,0,0,0,0,0,0,0],"id":61,"left_children":[1,3,5,7,-1,9,11,13,-1,-1,-1,-1,15,17,19,-1,-1,21,-1,-1,-1,-1,-1],"loss_changes":[3.6850044E1,7.2643423E0,5.1247616E0,3.9854221E0,0E0,3.230773E0,4.079403E0,3.0803623E0,0E0,0E0,0E0,0E0,1.3375549E0,1.71871E0,2.7230344E0,0E0,0E0,7.7228546E-1,0E0,0E0,0E0,0E0,0E0],"parents":[2147483647,0,0,1,1,2,2,3,3,5,5,6,6,7,7,12,12,13,13,14,14,17,17],"right_children":[2,4,6,8,-1,10,12,14,-1,-1,-1,-1,16,18,20,-1,-1,22,-1,-1,-1,-1,-1],"split_conditions":[5.129202E-1,6.7581624E-1,4.2180404E-2,7.0500547E-1,7.2251232E-3,8.109187E-2,4.5092747E-1,9.426308E-1,3.4531292E-3,6.86178E-3,-7.908696E-3,1.0447536E-3,5.1652584E-2,6.64353E-1,1.6499853E-1,3.683775E-3,1.58236E-2,1.3340448E-2,-2.0181174E-4,-6.7700422E-3,5.831171E-3,-1.5352455E-3,-9.731753E-3],"split_indices":[15,4,51,2,0,55,17,56,0,0,0,0,9,17,9,0,0,9,0,0,0,0,0],"split_type":[0,0,0,0,0,0,0,0,0,0,0,0,0,0,0,0,0,0,0,0,0,0,0],"sum_hessian":[4.0672634E1,2.7771072E1,1.2901559E1,2.580847E1,1.9626036E0,2.2949295E0,1.060663E1,2.4002178E1,1.8062906E0,1.1839732E0,1.1109563E0,1.8184526E0,8.7881775E0,2.1087563E1,2.9146163E0,1.2053012E0,7.582876E0,1.964736E1,1.4402034E0,1.2926123E0,1.6220042E0,1.0868765E0,1.8560482E1],"tree_param":{"num_deleted":"0","num_feature":"60","num_nodes":"23","size_leaf_vector":"1"}},{"base_weights":[8.717953E-2,-9.992289E-1,1.4963794E0,-9.384032E-3,-4.8727114E-2,-3.427595E-3,1.7022991E0,9.362915E-3,-7.6535298E-3,3.923743E-3,1.8092846E0,8.38686E-1,1.6270628E-2,-3.4289875E-3,1.2391912E-2],"categories":[],"categories_nodes":[],"categories_segments":[],"categories_sizes":[],"default_left":[0,0,0,0,0,0,0,0,0,0,0,0,0,0,0],"id":62,"left_children":[1,3,5,-1,7,-1,9,-1,-1,-1,11,13,-1,-1,-1],"loss_changes":[5.2301292E1,3.1493702E0,6.4342384E0,0E0,5.012447E0,0E0,1.0935974E0,0E0,0E0,0E0,1.3771706E0,3.708304E0,0E0,0E0,0E0],"parents":[2147483647,0,0,1,1,2,2,4,4,6,6,10,10,11,11],"right_children":[2,4,6,-1,8,-1,10,-1,-1,-1,12,14,-1,-1,-1],"split_conditions":[4.4330245E-1,4.1803852E-1,9.9066705E-2,-9.384032E-3,9.84313E-2,-3.427595E-3,3.08481E-1,9.362915E-3,-7.6535298E-3,3.923743E-3,6.4482585E-2,6.301213E-1,1.6270628E-2,-3.4289875E-3,1.2391912E-2],"split_indices":[0,2,5,0,9,0,3,0,0,0,10,1,0,0,0],"split_type":[0,0,0,0,0,0,0,0,0,0,0,0,0,0,0],"sum_hessian":[3.267978E1,1.857656E1,1.4103218E1,1.5556822E1,3.0197377E0,1.2846352E0,1.2818583E1,1.1964959E0,1.8232417E0,1.3796399E0,1.1438943E1,2.8163722E0,8.622571E0,1.1183876E0,1.6979847E0],"tree_param":{"num_deleted":"0","num_feature":"60","num_nodes":"15","size_leaf_vector":"1"}},{"base_weights":[1.3955009E-1,-8.1276506E-1,1.180103E0,-1.0084678E0,9.828088E-3,-5.169112E-3,1.4668323E0,-9.4016995E-3,7.1076048E-3,-7.016775E-4,1.7283556E0,4.915168E-1,1.6292943E-2,9.952773E-3,-3.7688012E-3],"categories":[],"categories_nodes":[],"categories_segments":[],"categories_sizes":[],"default_left":[0,0,0,0,0,0,0,0,0,0,0,0,0,0,0],"id":63,"left_children":[1,3,5,7,-1,-1,9,-1,-1,-1,11,13,-1,-1,-1],"loss_changes":[3.3437744E1,7.993623E0,9.1328945E0,6.0174694E0,0E0,0E0,5.8584576E0,0E0,0E0,0E0,