{"learner":{"attributes":{"scikit_learn":"{\"_estimator_type\": \"classifier\"}"},"feature_names":[],"feature_types":[],"gradient_booster":{"model":{"cats":{"enc":[],"feature_segments":[],"sorted_idx":[]},"gbtree_model_param":{"num_parallel_tree":"1","num_trees":"1500"},"iteration_indptr":[0,1,2,3,4,5,6,7,8,9,10,11,12,13,14,15,16,17,18,19,20,21,22,23,24,25,26,27,28,29,30,31,32,33,34,35,36,37,38,39,40,41,42,43,44,45,46,47,48,49,50,51,52,53,54,55,56,57,58,59,60,61,62,63,64,65,66,67,68,69,70,71,72,73,74,75,76,77,78,79,80,81,82,83,84,85,86,87,88,89,90,91,92,93,94,95,96,97,98,99,100,101,102,103,104,105,106,107,108,109,110,111,112,113,114,115,116,117,118,119,120,121,122,123,124,125,126,127,128,129,130,131,132,133,134,135,136,137,138,139,140,141,142,143,144,145,146,147,148,149,150,151,152,153,154,155,156,157,158,159,160,161,162,163,164,165,166,167,168,169,170,171,172,173,174,175,176,177,178,179,180,181,182,183,184,185,186,187,188,189,190,191,192,193,194,195,196,197,198,199,200,201,202,203,204,205,206,207,208,209,210,211,212,213,214,215,216,217,218,219,220,221,222,223,224,225,226,227,228,229,230,231,232,233,234,235,236,237,238,239,240,241,242,243,244,245,246,247,248,249,250,251,252,253,254,255,256,257,258,259,260,261,262,263,264,265,266,267,268,269,270,271,272,273,274,275,276,277,278,279,280,281,282,283,284,285,286,287,288,289,290,291,292,293,294,295,296,297,298,299,300,301,302,303,304,305,306,307,308,309,310,311,312,313,314,315,316,317,318,319,320,321,322,323,324,325,326,327,328,329,330,331,332,333,334,335,336,337,338,339,340,341,342,343,344,345,346,347,348,349,350,351,352,353,354,355,356,357,358,359,360,361,362,363,364,365,366,367,368,369,370,371,372,373,374,375,376,377,378,379,380,381,382,383,384,385,386,387,388,389,390,391,392,393,394,395,396,397,398,399,400,401,402,403,404,405,406,407,408,409,410,411,412,413,414,415,416,417,418,419,420,421,422,423,424,425,426,427,428,429,430,431,432,433,434,435,436,437,438,439,440,441,442,443,444,445,446,447,448,449,450,451,452,453,454,455,456,457,458,459,460,461,462,463,464,465,466,467,468,469,470,471,472,473,474,475,476,477,478,479,480,481,482,483,484,485,486,487,488,489,490,491,492,493,494,495,496,497,498,499,500,501,502,503,504,505,506,507,508,509,510,511,512,513,514,515,516,517,518,519,520,521,522,523,524,525,526,527,528,529,530,531,532,533,534,535,536,537,538,539,540,541,542,543,544,545,546,547,548,549,550,551,552,553,554,555,556,557,558,559,560,561,562,563,564,565,566,567,568,569,570,571,572,573,574,575,576,577,578,579,580,581,582,583,584,585,586,587,588,589,590,591,592,593,594,595,596,597,598,599,600,601,602,603,604,605,606,607,608,609,610,611,612,613,614,615,616,617,618,619,620,621,622,623,624,625,626,627,628,629,630,631,632,633,634,635,636,637,638,639,640,641,642,643,644,645,646,647,648,649,650,651,652,653,654,655,656,657,658,659,660,661,662,663,664,665,666,667,668,669,670,671,672,673,674,675,676,677,678,679,680,681,682,683,684,685,686,687,688,689,690,691,692,693,694,695,696,697,698,699,700,701,702,703,704,705,706,707,708,709,710,711,712,713,714,715,716,717,718,719,720,721,722,723,724,725,726,727,728,729,730,731,732,733,734,735,736,737,738,739,740,741,742,743,744,745,746,747,748,749,750,751,752,753,754,755,756,757,758,759,760,761,762,763,764,765,766,767,768,769,770,771,772,773,774,775,776,777,778,779,780,781,782,783,784,785,786,787,788,789,790,791,792,793,794,795,796,797,798,799,800,801,802,803,804,805,806,807,808,809,810,811,812,813,814,815,816,817,818,819,820,821,822,823,824,825,826,827,828,829,830,831,832,833,834,835,836,837,838,839,840,841,842,843,844,845,846,847,848,849,850,851,852,853,854,855,856,857,858,859,860,861,862,863,864,865,866,867,868,869,870,871,872,873,874,875,876,877,878,879,880,881,882,883,884,885,886,887,888,889,890,891,892,893,894,895,896,897,898,899,900,901,902,903,904,905,906,907,908,909,910,911,912,913,914,915,916,917,918,919,920,921,922,923,924,925,926,927,928,929,930,931,932,933,934,935,936,937,938,939,940,941,942,943,944,945,946,947,948,949,950,951,952,953,954,955,956,957,958,959,960,961,962,963,964,965,966,967,968,969,970,971,972,973,974,975,976,977,978,979,980,981,982,983,984,985,986,987,988,989,990,991,992,993,994,995,996,997,998,999,1000,1001,1002,1003,1004,1005,1006,1007,1008,1009,1010,1011,1012,1013,1014,1015,1016,1017,1018,1019,1020,1021,1022,1023,1024,1025,1026,1027,1028,1029,1030,1031,1032,1033,1034,1035,1036,1037,1038,1039,1040,1041,1042,1043,1044,1045,1046,1047,1048,1049,1050,1051,1052,1053,1054,1055,1056,1057,1058,1059,1060,1061,1062,1063,1064,1065,1066,1067,1068,1069,1070,1071,1072,1073,1074,1075,1076,1077,1078,1079,1080,1081,1082,1083,1084,1085,1086,1087,1088,1089,1090,1091,1092,1093,1094,1095,1096,1097,1098,1099,1100,1101,1102,1103,1104,1105,1106,1107,1108,1109,1110,1111,1112,1113,1114,1115,1116,1117,1118,1119,1120,1121,1122,1123,1124,1125,1126,1127,1128,1129,1130,1131,1132,1133,1134,1135,1136,1137,1138,1139,1140,1141,1142,1143,1144,1145,1146,1147,1148,1149,1150,1151,1152,1153,1154,1155,1156,1157,1158,1159,1160,1161,1162,1163,1164,1165,1166,1167,1168,1169,1170,1171,1172,1173,1174,1175,1176,1177,1178,1179,1180,1181,1182,1183,1184,1185,1186,1187,1188,1189,1190,1191,1192,1193,1194,1195,1196,1197,1198,1199,1200,1201,1202,1203,1204,1205,1206,1207,1208,1209,1210,1211,1212,1213,1214,1215,1216,1217,1218,1219,1220,1221,1222,1223,1224,1225,1226,1227,1228,1229,1230,1231,1232,1233,1234,1235,1236,1237,1238,1239,1240,1241,1242,1243,1244,1245,1246,1247,1248,1249,1250,1251,1252,1253,1254,1255,1256,1257,1258,1259,1260,1261,1262,1263,1264,1265,1266,1267,1268,1269,1270,1271,1272,1273,1274,1275,1276,1277,1278,1279,1280,1281,1282,1283,1284,1285,1286,1287,1288,1289,1290,1291,1292,1293,1294,1295,1296,1297,1298,1299,1300,1301,1302,1303,1304,1305,1306,1307,1308,1309,1310,1311,1312,1313,1314,1315,1316,1317,1318,1319,1320,1321,1322,1323,1324,1325,1326,1327,1328,1329,1330,1331,1332,1333,1334,1335,1336,1337,1338,1339,1340,1341,1342,1343,1344,1345,1346,1347,1348,1349,1350,1351,1352,1353,1354,1355,1356,1357,1358,1359,1360,1361,1362,1363,1364,1365,1366,1367,1368,1369,1370,1371,1372,1373,1374,1375,1376,1377,1378,1379,1380,1381,1382,1383,1384,1385,1386,1387,1388,1389,1390,1391,1392,1393,1394,1395,1396,1397,1398,1399,1400,1401,1402,1403,1404,1405,1406,1407,1408,1409,1410,1411,1412,1413,1414,1415,1416,1417,1418,1419,1420,1421,1422,1423,1424,1425,1426,1427,1428,1429,1430,1431,1432,1433,1434,1435,1436,1437,1438,1439,1440,1441,1442,1443,1444,1445,1446,1447,1448,1449,1450,1451,1452,1453,1454,1455,1456,1457,1458,1459,1460,1461,1462,1463,1464,1465,1466,1467,1468,1469,1470,1471,1472,1473,1474,1475,1476,1477,1478,1479,1480,1481,1482,1483,1484,1485,1486,1487,1488,1489,1490,1491,1492,1493,1494,1495,1496,1497,1498,1499,1500],"tree_info":[0,0,0,0,0,0,0,0,0,0,0,0,0,0,0,0,0,0,0,0,0,0,0,0,0,0,0,0,0,0,0,0,0,0,0,0,0,0,0,0,0,0,0,0,0,0,0,0,0,0,0,0,0,0,0,0,0,0,0,0,0,0,0,0,0,0,0,0,0,0,0,0,0,0,0,0,0,0,0,0,0,0,0,0,0,0,0,0,0,0,0,0,0,0,0,0,0,0,0,0,0,0,0,0,0,0,0,0,0,0,0,0,0,0,0,0,0,0,0,0,0,0,0,0,0,0,0,0,0,0,0,0,0,0,0,0,0,0,0,0,0,0,0,0,0,0,0,0,0,0,0,0,0,0,0,0,0,0,0,0,0,0,0,0,0,0,0,0,0,0,0,0,0,0,0,0,0,0,0,0,0,0,0,0,0,0,0,0,0,0,0,0,0,0,0,0,0,0,0,0,0,0,0,0,0,0,0,0,0,0,0,0,0,0,0,0,0,0,0,0,0,0,0,0,0,0,0,0,0,0,0,0,0,0,0,0,0,0,0,0,0,0,0,0,0,0,0,0,0,0,0,0,0,0,0,0,0,0,0,0,0,0,0,0,0,0,0,0,0,0,0,0,0,0,0,0,0,0,0,0,0,0,0,0,0,0,0,0,0,0,0,0,0,0,0,0,0,0,0,0,0,0,0,0,0,0,0,0,0,0,0,0,0,0,0,0,0,0,0,0,0,0,0,0,0,0,0,0,0,0,0,0,0,0,0,0,0,0,0,0,0,0,0,0,0,0,0,0,0,0,0,0,0,0,0,0,0,0,0,0,0,0,0,0,0,0,0,0,0,0,0,0,0,0,0,0,0,0,0,0,0,0,0,0,0,0,0,0,0,0,0,0,0,0,0,0,0,0,0,0,0,0,0,0,0,0,0,0,0,0,0,0,0,0,0,0,0,0,0,0,0,0,0,0,0,0,0,0,0,0,0,0,0,0,0,0,0,0,0,0,0,0,0,0,0,0,0,0,0,0,0,0,0,0,0,0,0,0,0,0,0,0,0,0,0,0,0,0,0,0,0,0,0,0,0,0,0,0,0,0,0,0,0,0,0,0,0,0,0,0,0,0,0,0,0,0,0,0,0,0,0,0,0,0,0,0,0,0,0,0,0,0,0,0,0,0,0,0,0,0,0,0,0,0,0,0,0,0,0,0,0,0,0,0,0,0,0,0,0,0,0,0,0,0,0,0,0,0,0,0,0,0,0,0,0,0,0,0,0,0,0,0,0,0,0,0,0,0,0,0,0,0,0,0,0,0,0,0,0,0,0,0,0,0,0,0,0,0,0,0,0,0,0,0,0,0,0,0,0,0,0,0,0,0,0,0,0,0,0,0,0,0,0,0,0,0,0,0,0,0,0,0,0,0,0,0,0,0,0,0,0,0,0,0,0,0,0,0,0,0,0,0,0,0,0,0,0,0,0,0,0,0,0,0,0,0,0,0,0,0,0,0,0,0,0,0,0,0,0,0,0,0,0,0,0,0,0,0,0,0,0,0,0,0,0,0,0,0,0,0,0,0,0,0,0,0,0,0,0,0,0,0,0,0,0,0,0,0,0,0,0,0,0,0,0,0,0,0,0,0,0,0,0,0,0,0,0,0,0,0,0,0,0,0,0,0,0,0,0,0,0,0,0,0,0,0,0,0,0,0,0,0,0,0,0,0,0,0,0,0,0,0,0,0,0,0,0,0,0,0,0,0,0,0,0,0,0,0,0,0,0,0,0,0,0,0,0,0,0,0,0,0,0,0,0,0,0,0,0,0,0,0,0,0,0,0,0,0,0,0,0,0,0,0,0,0,0,0,0,0,0,0,0,0,0,0,0,0,0,0,0,0,0,0,0,0,0,0,0,0,0,0,0,0,0,0,0,0,0,0,0,0,0,0,0,0,0,0,0,0,0,0,0,0,0,0,0,0,0,0,0,0,0,0,0,0,0,0,0,0,0,0,0,0,0,0,0,0,0,0,0,0,0,0,0,0,0,0,0,0,0,0,0,0,0,0,0,0,0,0,0,0,0,0,0,0,0,0,0,0,0,0,0,0,0,0,0,0,0,0,0,0,0,0,0,0,0,0,0,0,0,0,0,0,0,0,0,0,0,0,0,0,0,0,0,0,0,0,0,0,0,0,0,0,0,0,0,0,0,0,0,0,0,0,0,0,0,0,0,0,0,0,0,0,0,0,0,0,0,0,0,0,0,0,0,0,0,0,0,0,0,0,0,0,0,0,0,0,0,0,0,0,0,0,0,0,0,0,0,0,0,0,0,0,0,0,0,0,0,0,0,0,0,0,0,0,0,0,0,0,0,0,0,0,0,0,0,0,0,0,0,0,0,0,0,0,0,0,0,0,0,0,0,0,0,0,0,0,0,0,0,0,0,0,0,0,0,0,0,0,0,0,0,0,0,0,0,0,0,0,0,0,0,0,0,0,0,0,0,0,0,0,0,0,0,0,0,0,0,0,0,0,0,0,0,0,0,0,0,0,0,0,0,0,0,0,0,0,0,0,0,0,0,0,0,0,0,0,0,0,0,0,0,0,0,0,0,0,0,0,0,0,0,0,0,0,0,0,0,0,0,0,0,0,0,0,0,0,0,0,0,0,0,0,0,0,0,0,0,0,0,0,0,0,0,0,0,0,0,0,0,0,0,0,0,0,0,0,0,0,0,0,0,0,0,0,0,0,0,0,0,0,0,0,0,0,0,0,0,0,0,0,0,0,0,0,0,0,0,0,0,0,0,0,0,0,0,0,0,0,0,0,0,0,0,0,0,0,0,0,0,0,0,0,0,0,0,0,0,0,0,0,0,0,0,0,0,0,0,0,0,0,0,0,0,0,0,0,0,0,0,0,0,0,0,0,0,0,0,0,0,0,0,0,0,0,0,0,0,0,0,0,0,0,0,0,0,0,0,0,0,0,0,0,0,0,0,0,0,0,0,0,0,0,0,0,0,0,0,0,0,0,0,0,0,0,0,0,0,0,0,0,0,0,0,0,0,0,0,0,0,0,0,0,0,0,0,0,0,0,0,0,0,0,0,0,0,0,0,0,0,0,0,0,0,0,0,0,0,0,0,0,0,0,0,0,0,0,0,0,0,0,0,0,0,0,0,0,0,0,0,0,0,0,0,0,0,0,0,0,0,0,0,0,0,0,0,0,0,0,0,0,0,0,0,0,0,0,0,0,0,0,0,0,0,0,0,0,0,0,0,0,0,0,0,0,0,0,0,0,0,0,0,0,0,0,0,0,0,0,0,0,0,0,0,0,0,0,0,0,0,0,0,0,0,0,0,0,0,0,0,0,0,0,0,0,0,0,0,0,0,0,0,0,0,0,0,0,0,0],"trees":[{"base_weights":[3.7603997E-2,-8.772241E-1,2.1296127E0,-1.1909237E0,1.1742844E-1,5.360178E-1,2.5311632E-2,-2.2977854E-3,-1.0294011E-2,1.2905452E0,-8.630999E-3,-1.4601098E-1,1.4634882E-2,-2.2681716E-3,1.6386421E-2,-7.4819666E-3,5.501233E-3],"categories":[],"categories_nodes":[],"categories_segments":[],"categories_sizes":[],"default_left":[0,0,0,0,0,0,0,0,0,0,0,0,0,0,0,0,0],"id":0,"left_children":[1,3,5,7,9,11,-1,-1,-1,13,-1,15,-1,-1,-1,-1,-1],"loss_changes":[7.065801E1,8.126589E0,1.7236824E1,1.4211941E0,1.0653069E1,4.895375E0,0E0,0E0,0E0,4.9661326E0,0E0,3.2322428E0,0E0,0E0,0E0,0E0,0E0],"parents":[2147483647,0,0,1,1,2,2,3,3,4,4,5,5,9,9,11,11],"right_children":[2,4,6,8,10,12,-1,-1,-1,14,-1,16,-1,-1,-1,-1,-1],"split_conditions":[4.947665E-1,6.010169E-1,6.2533826E-1,5.7637155E-2,5.6569E-1,1.3702716E0,2.5311632E-2,-2.2977854E-3,-1.0294011E-2,2.6175174E-1,-8.630999E-3,3.7137955E-1,1.4634882E-2,-2.2681716E-3,1.6386421E-2,-7.4819666E-3,5.501233E-3],"split_indices":[2,42,18,57,52,42,0,0,0,0,0,19,0,0,0,0,0],"split_type":[0,0,0,0,0,0,0,0,0,0,0,0,0,0,0,0,0],"sum_hessian":[3.5437626E1,2.4958757E1,1.0478868E1,1.8861961E1,6.0967956E0,4.5725965E0,5.9062705E0,2.0957735E0,1.6766188E1,3.0483978E0,3.0483978E0,3.4294474E0,1.1431491E0,1.1431491E0,1.9052486E0,1.7147237E0,1.7147237E0],"tree_param":{"num_deleted":"0","num_feature":"60","num_nodes":"17","size_leaf_vector":"1"}},{"base_weights":[-9.381803E-2,-7.82673E-1,2.415935E-2,-1.2394091E0,4.42867E-1,-2.227634E-3,-1.02961175E-2,-7.863607E-1,1.2669466E0,-7.485585E-3,-2.2323334E-3,1.799484E0,-2.3735703E-3,1.9234788E-2,1.9080808E-3],"categories":[],"categories_nodes":[],"categories_segments":[],"categories_sizes":[],"default_left":[0,0,0,0,0,0,0,0,0,0,0,0,0,0,0],"id":1,"left_children":[1,3,-1,5,7,-1,-1,9,11,-1,-1,13,-1,-1,-1],"loss_changes":[7.0395775E1,1.5409172E1,0E0,6.331806E-1,8.675721E0,0E0,0E0,7.7224016E-2,4.541324E0,0E0,0E0,3.1725645E0,0E0,0E0,0E0],"parents":[2147483647,0,0,1,1,3,3,4,4,7,7,8,8,11,11],"right_children":[2,4,-1,6,8,-1,-1,10,12,-1,-1,14,-1,-1,-1],"split_conditions":[7.242236E-1,4.4905308E-1,2.415935E-2,3.1568624E-2,4.175572E-1,-2.227634E-3,-1.02961175E-2,3.9613965E-1,7.0327634E-1,-7.485585E-3,-2.2323334E-3,3.2306978E-1,-2.3735703E-3,1.9234788E-2,1.9080808E-3],"split_indices":[2,2,0,11,16,0,0,45,17,0,0,7,0,0,0],"split_type":[0,0,0,0,0,0,0,0,0,0,0,0,0,0,0],"sum_hessian":[3.1243406E1,2.60433E1,5.2001057E0,1.896639E1,7.0769095E0,1.1377108E0,1.782868E1,2.854042E0,4.2228675E0,1.7157004E0,1.1383418E0,3.0656598E0,1.1572077E0,1.9174488E0,1.148211E0],"tree_param":{"num_deleted":"0","num_feature":"60","num_nodes":"15","size_leaf_vector":"1"}},{"base_weights":[-1.7132974E-1,-7.1716493E-1,2.6547937E0,-1.0417398E0,1.681071E-2,8.4103355E-3,2.4211964E-2,-1.1865971E0,-2.4533273E-1,-2.188039E-3,-1.2313169E0,-8.086056E-3,6.8377233E-3,-2.200993E-3,-1.0254257E-2],"categories":[],"categories_nodes":[],"categories_segments":[],"categories_sizes":[],"default_left":[0,0,0,0,0,0,0,0,0,0,0,0,0,0,0],"id":2,"left_children":[1,3,5,7,-1,-1,-1,9,11,-1,13,-1,-1,-1,-1],"loss_changes":[4.749316E1,2.5078146E1,5.899162E-1,2.4898148E0,0E0,0E0,0E0,5.5046844E-1,4.4858923E0,0E0,6.2986183E-1,0E0,0E0,0E0,0E0],"parents":[2147483647,0,0,1,1,2,2,3,3,7,7,8,8,10,10],"right_children":[2,4,6,8,-1,-1,-1,10,12,-1,14,-1,-1,-1,-1],"split_conditions":[5.3925985E-1,7.2908694E-1,1E0,6.982869E-1,1.681071E-2,8.4103355E-3,2.4211964E-2,1.8665854E-2,1.3721818E-1,-2.188039E-3,5.2326657E-2,-8.086056E-3,6.8377233E-3,-2.200993E-3,-1.0254257E-2],"split_indices":[13,2,30,57,0,0,0,15,7,0,53,0,0,0,0],"split_type":[0,0,0,0,0,0,0,0,0,0,0,0,0,0,0],"sum_hessian":[2.9112108E1,2.4868671E1,4.2434373E0,2.2724539E1,2.144132E0,1.3388681E0,2.904569E0,1.891641E1,3.8081286E0,1.1323816E0,1.7784029E1,2.2815094E0,1.5266191E0,1.1341162E0,1.6649914E1],"tree_param":{"num_deleted":"0","num_feature":"60","num_nodes":"15","size_leaf_vector":"1"}},{"base_weights":[1.167254E-1,-7.9998404E-1,2.5782132E0,-1.2262498E0,1.821404E-1,-2.239612E-3,2.9849403E0,-2.1916828E-3,-1.0218048E-2,-5.786564E-1,1.1497834E0,1.0014995E-2,2.5896413E-2,6.347302E-3,-8.766659E-3,1.4422629E-2,-2.3055822E-3],"categories":[],"categories_nodes":[],"categories_segments":[],"categories_sizes":[],"default_left":[0,0,0,0,0,0,0,0,0,0,0,0,0,0,0,0,0],"id":3,"left_children":[1,3,5,7,9,-1,11,-1,-1,13,15,-1,-1,-1,-1,-1,-1],"loss_changes":[8.040806E1,1.1068033E1,1.1857994E1,6.2420464E-1,6.7812448E0,0E0,6.842346E-1,0E0,0E0,4.396165E0,4.1527653E0,0E0,0E0,0E0,0E0,0E0,0E0],"parents":[2147483647,0,0,1,1,2,2,3,3,4,4,6,6,9,9,10,10],"right_children":[2,4,6,8,10,-1,12,-1,-1,14,16,-1,-1,-1,-1,-1,-1],"split_conditions":[5.1994693E-1,3.348294E-1,3.97257E-1,1.9188883E-2,4.785947E-1,-2.239612E-3,1E0,-2.1916828E-3,-1.0218048E-2,9.76766E-2,5E-1,1.0014995E-2,2.5896413E-2,6.347302E-3,-8.766659E-3,1.4422629E-2,-2.3055822E-3],"split_indices":[2,16,18,13,57,0,33,0,0,57,4,0,0,0,0,0,0],"split_type":[0,0,0,0,0,0,0,0,0,0,0,0,0,0,0,0,0],"sum_hessian":[3.4198925E1,2.528756E1,8.911365E0,1.750398E1,7.783579E0,1.1392643E0,7.7721004E0,1.1328002E0,1.637118E1,4.5263166E0,3.2572622E0,1.5552377E0,6.2168627E0,1.1294057E0,3.396911E0,2.10913E0,1.1481323E0],"tree_param":{"num_deleted":"0","num_feature":"60","num_nodes":"17","size_leaf_vector":"1"}},{"base_weights":[-9.3370184E-2,-9.933223E-1,2.1779876E0,-1.1512434E0,6.868208E-3,2.9218492E-1,2.3960482E-2,2.1135106E-3,-1.2374032E0,-6.9201468E-3,9.961744E-3,-1.0257874E-2,-2.224188E-3],"categories":[],"categories_nodes":[],"categories_segments":[],"categories_sizes":[],"default_left":[0,0,0,0,0,0,0,0,0,0,0,0,0],"id":4,"left_children":[1,3,5,7,-1,9,-1,-1,11,-1,-1,-1,-1],"loss_changes":[6.712238E1,7.6035366E0,1.3716743E1,2.92103E0,0E0,4.8342967E0,0E0,0E0,6.2786865E-1,0E0,0E0,0E0,0E0],"parents":[2147483647,0,0,1,1,2,2,3,3,5,5,8,8],"right_children":[2,4,6,8,-1,10,-1,-1,12,-1,-1,-1,-1],"split_conditions":[4.9636546E-1,7.7621603E-1,1E0,5.62859E-2,6.868208E-3,1E0,2.3960482E-2,2.1135106E-3,5.92402E-1,-6.9201468E-3,9.961744E-3,-1.0257874E-2,-2.224188E-3],"split_indices":[16,55,26,43,0,32,0,0,0,0,0,0,0],"split_type":[0,0,0,0,0,0,0,0,0,0,0,0,0],"sum_hessian":[3.1293135E1,2.271504E1,8.5780945E0,2.1191616E1,1.5234246E0,2.9009356E0,5.6771584E0,1.1270305E0,2.0064585E1,1.341413E0,1.5595226E0,1.8927715E1,1.1368704E0],"tree_param":{"num_deleted":"0","num_feature":"60","num_nodes":"13","size_leaf_vector":"1"}},{"base_weights":[-1.7384282E-1,-1.2413168E0,1.6291724E0,-1.0275337E-2,-2.1384936E-3,2.3168303E-1,2.649426E0,-6.713178E-1,1.3328355E-2,2.5219617E-2,1.0481714E0,-8.384093E-3,1.9794523E-3,1.8129161E-3,1.1954244E-2],"categories":[],"categories_nodes":[],"categories_segments":[],"categories_sizes":[],"default_left":[0,0,0,0,0,0,0,0,0,0,0,0,0,0,0],"id":5,"left_children":[1,3,5,-1,-1,7,9,11,-1,-1,13,-1,-1,-1,-1],"loss_changes":[6.7333496E1,6.620674E-1,1.8133732E1,0E0,0E0,9.031269E0,3.5355453E0,1.7228333E0,0E0,0E0,8.119559E-1,0E0,0E0,0E0,0E0],"parents":[2147483647,0,0,1,1,2,2,5,5,6,6,7,7,10,10],"right_children":[2,4,6,-1,-1,8,10,12,-1,-1,14,-1,-1,-1,-1],"split_conditions":[4.9757528E-1,6.0299516E-1,5.323878E-1,-1.0275337E-2,-2.1384936E-3,2.0775878E-1,3.7628907E-1,5.007656E-1,1.3328355E-2,2.5219617E-2,6.876227E-1,-8.384093E-3,1.9794523E-3,1.8129161E-3,1.1954244E-2],"split_indices":[3,11,17,0,0,7,53,5,0,0,3,0,0,0,0],"split_type":[0,0,0,0,0,0,0,0,0,0,0,0,0,0,0],"sum_hessian":[3.3446354E1,2.1155125E1,1.2291229E1,2.0029776E1,1.1253499E0,5.5750847E0,6.716144E0,3.666085E0,1.9089999E0,4.557784E0,2.1583598E0,2.5252106E0,1.1408744E0,1.1575656E0,1.0007942E0],"tree_param":{"num_deleted":"0","num_feature":"60","num_nodes":"15","size_leaf_vector":"1"}},{"base_weights":[-2.1081665E-1,-8.8697857E-1,2.5920403E0,-1.042158E0,1.0065804E-2,6.73147E-3,2.3713306E-2,-1.1394846E0,3.2652463E-3,2.1642318E-3,-1.211253E0,-9.97529E-3,-2.2757729E-3],"categories":[],"categories_nodes":[],"categories_segments":[],"categories_sizes":[],"default_left":[0,0,0,0,0,0,0,0,0,0,0,0,0],"id":6,"left_children":[1,3,5,7,-1,-1,-1,9,-1,-1,11,-1,-1],"loss_changes":[6.879392E1,1.0660667E1,2.7346153E0,4.2332916E0,0E0,0E0,0E0,2.875454E0,0E0,0E0,5.556793E-1,0E0,0E0],"parents":[2147483647,0,0,1,1,2,2,3,3,7,7,10,10],"right_children":[2,4,6,8,-1,-1,-1,10,-1,-1,12,-1,-1],"split_conditions":[6.1306274E-1,1.0997002E0,5.319214E-1,5.262348E-1,1.0065804E-2,6.73147E-3,2.3713306E-2,3.1246167E-2,3.2652463E-3,2.1642318E-3,5.0923055E-1,-9.97529E-3,-2.2757729E-3],"split_indices":[16,43,2,13,0,0,0,44,0,0,6,0,0],"split_type":[0,0,0,0,0,0,0,0,0,0,0,0,0],"sum_hessian":[3.4639477E1,2.832017E1,6.3193064E0,2.6769375E1,1.5507954E0,1.5365711E0,4.7827353E0,2.5236555E1,1.5328181E0,1.1217003E0,2.4114855E1,2.297194E1,1.1429164E0],"tree_param":{"num_deleted":"0","num_feature":"60","num_nodes":"13","size_leaf_vector":"1"}},{"base_weights":[-8.656045E-2,-8.8347954E-1,2.7039669E0,-1.0740254E0,1.2072239E-2,-2.1716803E-3,2.5592262E-2,-1.2123214E0,7.99685E-3,-1.0263559E-2,-5.3888535E-1,2.0907E-3,-7.6503493E-3],"categories":[],"categories_nodes":[],"categories_segments":[],"categories_sizes":[],"default_left":[0,0,0,0,0,0,0,0,0,0,0,0,0],"id":7,"left_children":[1,3,5,7,-1,-1,-1,9,-1,-1,11,-1,-1],"loss_changes":[8.333827E1,1.4476732E1,1.2922417E1,8.761171E0,0E0,0E0,0E0,7.184448E-1,0E0,0E0,1.4439539E0,0E0,0E0],"parents":[2147483647,0,0,1,1,2,2,3,3,7,7,10,10],"right_children":[2,4,6,8,-1,-1,-1,10,-1,-1,12,-1,-1],"split_conditions":[6.6365993E-1,1.191133E0,4.0706766E-1,5.72219E-1,1.2072239E-2,-2.1716803E-3,2.5592262E-2,5.823385E-1,7.99685E-3,-1.0263559E-2,7.779472E-1,2.0907E-3,-7.6503493E-3],"split_indices":[1,59,17,3,0,0,0,56,0,0,42,0,0],"split_type":[0,0,0,0,0,0,0,0,0,0,0,0,0],"sum_hessian":[3.5919533E1,2.833902E1,7.58051E0,2.6631346E1,1.707675E0,1.129683E0,6.450827E0,2.5258322E1,1.3730229E0,2.2246515E1,3.0118065E0,1.1285897E0,1.8832167E0],"tree_param":{"num_deleted":"0","num_feature":"60","num_nodes":"13","size_leaf_vector":"1"}},{"base_weights":[-2.0941399E-1,-7.7720726E-1,2.3987284E0,-1.1853076E0,4.240385E-1,6.461882E-3,2.23278E-2,-1.018943E-2,2.0211511E-3,-6.760527E-1,1.5081719E0,1.8352534E-3,-8.383996E-3,2.4608246E-3,1.7776461E-2],"categories":[],"categories_nodes":[],"categories_segments":[],"categories_sizes":[],"default_left":[0,0,0,0,0,0,0,0,0,0,0,0,0,0,0],"id":8,"left_children":[1,3,5,7,9,-1,-1,-1,-1,11,13,-1,-1,-1,-1],"loss_changes":[5.249729E1,1.4546183E1,2.2735558E0,3.007927E0,1.0164803E1,0E0,0E0,0E0,0E0,1.6722374E0,3.0885897E0,0E0,0E0,0E0,0E0],"parents":[2147483647,0,0,1,1,2,2,3,3,4,4,9,9,10,10],"right_children":[2,4,6,8,10,-1,-1,-1,-1,12,14,-1,-1,-1,-1],"split_conditions":[5.4149115E-1,4.4905308E-1,1E0,5.980155E-1,1.690894E-1,6.461882E-3,2.23278E-2,-1.018943E-2,2.0211511E-3,1E0,4.081632E-1,1.8352534E-3,-8.383996E-3,2.4608246E-3,1.7776461E-2],"split_indices":[14,2,21,52,9,0,0,0,0,37,18,0,0,0,0],"split_type":[0,0,0,0,0,0,0,0,0,0,0,0,0,0,0],"sum_hessian":[3.3755745E1,2.8153275E1,5.60247E0,2.1021553E1,7.131721E0,1.5618563E0,4.0406137E0,1.9885166E1,1.1363865E0,3.6799316E0,3.4517894E0,1.1551875E0,2.5247443E0,1.6873211E0,1.7644682E0],"tree_param":{"num_deleted":"0","num_feature":"60","num_nodes":"15","size_leaf_vector":"1"}},{"base_weights":[-1.01803154E-1,-8.713521E-1,1.8872907E0,-1.1159768E0,1.2763609E-1,-6.680822E-3,2.3497899E0,2.36994E-3,-1.2118142E0,-6.4268005E-1,1.475769E-2,2.7917621E-3,2.7847128E0,-1.0097838E-2,-1.9830589E-3,-8.189067E-3,2.1074852E-3,7.0751016E-3,2.4079781E-2],"categories":[],"categories_nodes":[],"categories_segments":[],"categories_sizes":[],"default_left":[0,0,0,0,0,0,0,0,0,0,0,0,0,0,0,0,0,0,0],"id":9,"left_children":[1,3,5,7,9,-1,11,-1,13,15,-1,-1,17,-1,-1,-1,-1,-1,-1],"loss_changes":[5.1831554E1,6.056793E0,1.3380386E1,2.9267292E0,8.114085E0,0E0,6.4775085E0,0E0,6.660671E-1,1.6958389E0,0E0,0E0,8.6945343E-1,0E0,0E0,0E0,0E0,0E0,0E0],"parents":[2147483647,0,0,1,1,2,2,3,3,4,4,6,6,8,8,9,9,12,12],"right_children":[2,4,6,8,10,-1,12,-1,14,16,-1,-1,18,-1,-1,-1,-1,-1,-1],"split_conditions":[4.9047905E-1,4.1015035E-1,1E0,4.0078066E-2,2.8932202E-1,-6.680822E-3,1.3303801E-1,2.36994E-3,5.7335377E-1,2.1166998E-1,1.475769E-2,2.7917621E-3,9.411479E-2,-1.0097838E-2,-1.9830589E-3,-8.189067E-3,2.1074852E-3,7.0751016E-3,2.4079781E-2],"split_indices":[16,2,23,54,11,0,12,0,7,7,0,0,46,0,0,0,0,0,0],"split_type":[0,0,0,0,0,0,0,0,0,0,0,0,0,0,0,0,0,0,0],"sum_hessian":[3.2305477E1,2.3597448E1,8.708029E0,1.888516E1,4.712288E0,1.1768072E0,7.5312214E0,1.1004889E0,1.7784672E1,3.5768995E0,1.1353883E0,1.5861366E0,5.9450846E0,1.6680174E1,1.1044991E0,2.4497104E0,1.1271892E0,1.021565E0,4.9235196E0],"tree_param":{"num_deleted":"0","num_feature":"60","num_nodes":"19","size_leaf_vector":"1"}},{"base_weights":[-4.9196437E-2,-7.919057E-1,1.5919499E0,-1.015693E0,1.3699281E-2,1.2304067E-2,2.1516836E0,-1.1646266E0,-1.2585258E-1,-7.597676E-3,1.0072187E-2,1.7164412E-3,2.1322522E-2,-4.6769652E-1,-1.0063835E-2,4.498493E-3,-7.1151746E-3,-7.280914E-3,2.3847015E-3],"categories":[],"categories_nodes":[],"categories_segments":[],"categories_sizes":[],"default_left":[0,0,0,0,0,0,0,0,0,0,0,0,0,0,0,0,0,0,0],"id":10,"left_children":[1,3,5,7,-1,9,11,13,15,-1,-1,-1,-1,17,-1,-1,-1,-1,-1],"loss_changes":[4.3431347E1,1.5033533E1,9.802357E0,2.9326916E0,0E0,5.287347E0,7.7279396E0,8.323555E-1,2.5464978E0,0E0,0E0,0E0,0E0,1.3913867E0,0E0,0E0,0E0,0E0,0E0],"parents":[2147483647,0,0,1,1,2,2,3,3,5,5,6,6,7,7,8,8,13,13],"right_children":[2,4,6,8,-1,10,12,14,16,-1,-1,-1,-1,18,-1,-1,-1,-1,-1],"split_conditions":[4.9808207E-1,7.4590373E-1,1E0,5E-1,1.3699281E-2,5.005166E-1,8.397651E-2,6.8497516E-2,5.637971E-1,-7.597676E-3,1.0072187E-2,1.7164412E-3,2.1322522E-2,2.3458987E-1,-1.0063835E-2,4.498493E-3,-7.1151746E-3,-7.280914E-3,2.3847015E-3],"split_indices":[2,44,38,19,0,46,10,46,19,0,0,0,0,2,0,0,0,0,0],"split_type":[0,0,0,0,0,0,0,0,0,0,0,0,0,0,0,0,0,0,0],"sum_hessian":[3.410604E1,2.3747217E1,1.0358825E1,2.2208471E1,1.5387458E0,2.910756E0,7.4480686E0,1.8825947E1,3.3825243E0,1.7438293E0,1.1669269E0,1.7838149E0,5.6642537E0,2.756283E0,1.6069664E1,1.8830445E0,1.4994799E0,1.6573972E0,1.0988858E0],"tree_param":{"num_deleted":"0","num_feature":"60","num_nodes":"19","size_leaf_vector":"1"}},{"base_weights":[-2.2896565E-1,-9.119941E-1,2.3156056E0,-1.1220764E0,1.3607851E-2,6.050076E-3,2.1244546E-2,-1.1940322E0,1.8890044E-3,-1.0165203E-2,-4.332961E-1,2.2053574E-3,-7.04488E-3],"categories":[],"categories_nodes":[],"categories_segments":[],"categories_sizes":[],"default_left":[0,0,0,0,0,0,0,0,0,0,0,0,0],"id":11,"left_children":[1,3,5,7,-1,-1,-1,9,-1,-1,11,-1,-1],"loss_changes":[5.957833E1,1.6167706E1,2.349514E0,2.6839466E0,0E0,0E0,0E0,9.946861E-1,0E0,0E0,1.2437656E0,0E0,0E0],"parents":[2147483647,0,0,1,1,2,2,3,3,7,7,10,10],"right_children":[2,4,6,8,-1,-1,-1,10,-1,-1,12,-1,-1],"split_conditions":[5.542453E-1,1.2632655E0,8.90763E-2,5.5611616E-1,1.3607851E-2,6.050076E-3,2.1244546E-2,5.3142136E-1,1.8890044E-3,-1.0165203E-2,4.187332E-1,2.2053574E-3,-7.04488E-3],"split_indices":[1,42,6,4,0,0,0,9,0,0,6,0,0],"split_type":[0,0,0,0,0,0,0,0,0,0,0,0,0],"sum_hessian":[3.261823E1,2.6094885E1,6.523345E0,2.4549078E1,1.5458063E0,1.6005083E0,4.922837E0,2.340003E1,1.1490488E0,2.0802202E1,2.597828E0,1.1163197E0,1.4815083E0],"tree_param":{"num_deleted":"0","num_feature":"60","num_nodes":"13","size_leaf_vector":"1"}},{"base_weights":[5.8569517E-2,-1.0764438E0,1.7224082E0,-1.2088356E0,2.1467041E-3,-6.5223896E-3,1.9930813E0,-1.8819394E-3,-1.006467E-2,2.2860048E0,5.3100294E-1,5.9979083E-3,2.4978848E0,-6.5260227E-3,1.288128E-2,1.2496984E0,2.3084527E-2,9.3426934E-4,1.5239451E-2],"categories":[],"categories_nodes":[],"categories_segments":[],"categories_sizes":[],"default_left":[0,0,0,0,0,0,0,0,0,0,0,0,0,0,0,0,0,0,0],"id":12,"left_children":[1,3,5,7,-1,-1,9,-1,-1,11,13,-1,15,-1,-1,17,-1,-1,-1],"loss_changes":[6.5994026E1,3.9461174E0,1.0945938E1,6.924019E-1,0E0,0E0,4.663254E0,0E0,0E0,2.0506668E0,5.5618753E0,0E0,1.6538162E0,0E0,0E0,2.399704E0,0E0,0E0,0E0],"parents":[2147483647,0,0,1,1,2,2,3,3,6,6,9,9,10,10,12,12,15,15],"right_children":[2,4,6,8,-1,-1,10,-1,-1,12,14,-1,16,-1,-1,18,-1,-1,-1],"split_conditions":[4.956665E-1,4.6640193E-1,1.3428894E-1,3.609711E-2,2.1467041E-3,-6.5223896E-3,4.22705E-1,-1.8819394E-3,-1.006467E-2,5.9330843E-2,5.699405E-1,5.9979083E-3,4.8337352E-1,-6.5260227E-3,1.288128E-2,1.8297204E-1,2.3084527E-2,9.3426934E-4,1.5239451E-2],"split_indices":[1,14,15,58,0,0,6,0,0,12,2,0,19,0,0,7,0,0,0],"split_type":[0,0,0,0,0,0,0,0,0,0,0,0,0,0,0,0,0,0,0],"sum_hessian":[3.345926E1,2.0047989E1,1.341127E1,1.832021E1,1.7277789E0,1.1471387E0,1.2264132E1,1.0906897E0,1.722952E1,9.8650465E0,2.3990843E0,1.6082294E0,8.256818E0,1.148657E0,1.2504272E0,2.7074597E0,5.549358E0,1.3159032E0,1.3915564E0],"tree_param":{"num_deleted":"0","num_feature":"60","num_nodes":"19","size_leaf_vector":"1"}},{"base_weights":[2.7778238E-1,-9.174397E-1,1.915731E0,-9.992144E-3,2.5719044E-1,-1.7109679E-1,2.396654E0,-8.101854E-3,1.4812752E-2,6.344976E-3,-7.259552E-3,1.7839079E-3,2.61705E0,1.2622527E0,2.3564555E-2,-2.5017206E-3,1.7570972E-2],"categories":[],"categories_nodes":[],"categories_segments":[],"categories_sizes":[],"default_left":[0,0,0,0,0,0,0,0,0,0,0,0,0,0,0,0,0],"id":13,"left_children":[1,3,5,-1,7,9,11,-1,-1,-1,-1,-1,13,15,-1,-1,-1],"loss_changes":[6.746285E1,8.046272E0,1.4856167E1,0E0,1.1598321E1,2.9645076E0,5.230301E0,0E0,0E0,0E0,0E0,0E0,1.9614258E0,5.510185E0,0E0,0E0,0E0],"parents":[2147483647,0,0,1,1,2,2,4,4,5,5,6,6,12,12,13,13],"right_children":[2,4,6,-1,8,10,12,-1,-1,-1,-1,-1,14,16,-1,-1,-1],"split_conditions":[4.7223967E-1,3.2488447E-1,1E0,-9.992144E-3,4.0493163E-1,5.018191E-1,2.3960492E-1,-8.101854E-3,1.4812752E-2,6.344976E-3,-7.259552E-3,1.7839079E-3,8.030901E-2,6.1306274E-1,2.3564555E-2,-2.5017206E-3,1.7570972E-2],"split_indices":[16,12,23,0,46,17,4,0,0,0,0,0,9,16,0,0,0],"split_type":[0,0,0,0,0,0,0,0,0,0,0,0,0,0,0,0,0],"sum_hessian":[3.303672E1,1.929034E1,1.3746379E1,1.5006706E1,4.283635E0,2.665103E0,1.1081276E1,2.5367565E0,1.7468789E0,1.1289536E0,1.5361495E0,1.1590376E0,9.922238E0,2.6452093E0,7.277029E0,1.1705426E0,1.4746667E0],"tree_param":{"num_deleted":"0","num_feature":"60","num_nodes":"17","size_leaf_vector":"1"}},{"base_weights":[-1.3510221E-1,-6.9961727E-1,2.5186567E0,-8.6882955E-1,1.8267132E-2,5.7648104E-3,2.237458E-2,-1.0940202E0,5.790652E-1,4.561302E-2,-1.1957787E0,-6.813361E-3,1.3372957E0,6.8213637E-3,-6.2344256E-3,-1.0175259E-2,1.6247996E-3,1.838228E-2,-2.328286E-3],"categories":[],"categories_nodes":[],"categories_segments":[],"categories_sizes":[],"default_left":[0,0,0,0,0,0,0,0,0,0,0,0,0,0,0,0,0,0,0],"id":14,"left_children":[1,3,5,7,-1,-1,-1,9,11,13,15,-1,17,-1,-1,-1,-1,-1,-1],"loss_changes":[5.8409466E1,1.7645226E1,1.9132271E0,1.05288925E1,0E0,0E0,0E0,3.1655426E0,5.8885164E0,2.449751E0,2.8308792E0,0E0,5.7018337E0,0E0,0E0,0E0,0E0,0E0,0E0],"parents":[2147483647,0,0,1,1,2,2,3,3,7,7,8,8,9,9,10,10,12,12],"right_children":[2,4,6,8,-1,-1,-1,10,12,14,16,-1,18,-1,-1,-1,-1,-1,-1],"split_conditions":[6.2796825E-1,1.2344913E0,1E0,5.0154996E-1,1.8267132E-2,5.7648104E-3,2.237458E-2,5.4189388E-2,1E0,7.24932E-2,6.8069285E-1,-6.813361E-3,4.5057848E-1,6.8213637E-3,-6.2344256E-3,-1.0175259E-2,1.6247996E-3,1.838228E-2,-2.328286E-3],"split_indices":[15,56,39,4,0,0,0,51,37,55,16,0,5,0,0,0,0,0,0],"split_type":[0,0,0,0,0,0,0,0,0,0,0,0,0,0,0,0,0,0,0],"sum_hessian":[3.73572E1,3.1259802E1,6.097398E0,3.0084785E1,1.1750149E0,1.1776983E0,4.9196997E0,2.6194124E1,3.8906612E0,2.1810863E0,2.4013039E1,1.3156615E0,2.5749996E0,1.0897222E0,1.0913643E0,2.283823E1,1.1748092E0,1.4256928E0,1.1493068E0],"tree_param":{"num_deleted":"0","num_feature":"60","num_nodes":"19","size_leaf_vector":"1"}},{"base_weights":[1.3297209E-1,-1.0172479E0,1.8240993E0,-9.978642E-3,1.9302584E-1,-3.1679878E-1,2.2331276E0,-7.29757E-3,1.0417457E-2,-6.450734E-3,2.7484337E-3,4.138441E-3,2.5298398E0,6.3133403E-3,2.675413E0,2.2666229E-2,6.899163E-3],"categories":[],"categories_nodes":[],"categories_segments":[],"categories_sizes":[],"default_left":[0,0,0,0,0,0,0,0,0,0,0,0,0,0,0,0,0],"id":15,"left_children":[1,3,5,-1,7,9,11,-1,-1,-1,-1,-1,13,-1,15,-1,-1],"loss_changes":[6.692984E1,5.8987865E0,1.2709541E1,0E0,5.7082095E0,1.1412935E0,5.0106964E0,0E0,0E0,0E0,0E0,0E0,9.1041183E-1,0E0,6.7715454E-1,0E0,0E0],"parents":[2147483647,0,0,1,1,2,2,4,4,5,5,6,6,12,12,14,14],"right_children":[2,4,6,-1,8,10,12,-1,-1,-1,-1,-1,14,-1,16,-1,-1],"split_conditions":[4.6590674E-1,4.230804E-1,2.0381147E-1,-9.978642E-3,2.529781E-1,2.4066274E-1,4.5333007E-1,-7.29757E-3,1.0417457E-2,-6.450734E-3,2.7484337E-3,4.138441E-3,5.3936858E-2,6.3133403E-3,4.3469772E-1,2.2666229E-2,6.899163E-3],"split_indices":[2,15,14,0,12,7,17,0,0,0,0,0,57,0,7,0,0],"split_type":[0,0,0,0,0,0,0,0,0,0,0,0,0,0,0,0,0],"sum_hessian":[3.2942802E1,1.9784937E1,1.3157864E1,1.6605198E1,3.179739E0,2.137752E0,1.1020111E1,1.6594036E0,1.5203354E0,1.1324323E0,1.0053196E0,1.9280734E0,9.092038E0,1.0733553E0,8.0186825E0,6.9881454E0,1.0305375E0],"tree_param":{"num_deleted":"0","num_feature":"60","num_nodes":"17","size_leaf_vector":"1"}},{"base_weights":[-1.2875034E-1,-7.443591E-1,2.1188817E0,-1.1520653E0,2.4892889E-1,1.9167298E-2,1.997344E-3,-1.7300857E-3,-1.1972026E0,-8.39086E-1,1.0125341E0,-9.965054E-3,-2.1304449E-3,-1.9505144E-3,-8.026736E-3,1.7495424E0,-4.1134036E-3,1.9312615E-2,3.4736237E-3],"categories":[],"categories_nodes":[],"categories_segments":[],"categories_sizes":[],"default_left":[0,0,0,0,0,0,0,0,0,0,0,0,0,0,0,0,0,0,0],"id":16,"left_children":[1,3,5,7,9,-1,-1,-1,11,13,15,-1,-1,-1,-1,17,-1,-1,-1],"loss_changes":[4.873834E1,1.1365826E1,3.4788475E0,6.3603973E-1,7.806864E0,0E0,0E0,0E0,5.890846E-1,2.0460391E-1,6.762771E0,0E0,0E0,0E0,0E0,2.5523949E0,0E0,0E0,0E0],"parents":[2147483647,0,0,1,1,2,2,3,3,4,4,8,8,9,9,10,10,15,15],"right_children":[2,4,6,8,10,-1,-1,-1,12,14,16,-1,-1,-1,-1,18,-1,-1,-1],"split_conditions":[6.0640734E-1,3.9703783E-1,4.447597E-1,2.10102E-2,4.6098083E-1,1.9167298E-2,1.997344E-3,-1.7300857E-3,6.0460716E-1,5.0338936E-1,2.776877E-1,-9.965054E-3,-2.1304449E-3,-1.9505144E-3,-8.026736E-3,4.5915997E-1,-4.1134036E-3,1.9312615E-2,3.4736237E-3],"split_indices":[15,3,8,47,18,0,0,0,45,3,8,0,0,0,0,15,0,0,0],"split_type":[0,0,0,0,0,0,0,0,0,0,0,0,0,0,0,0,0,0,0],"sum_hessian":[3.361926E1,2.6784748E1,6.834512E0,1.8905064E1,7.8796835E0,5.7682815E0,1.0662305E0,1.0697583E0,1.7835306E1,3.2189956E0,4.660688E0,1.671229E1,1.1230164E0,1.0990931E0,2.1199026E0,3.0694604E0,1.5912277E0,1.6229973E0,1.4464632E0],"tree_param":{"num_deleted":"0","num_feature":"60","num_nodes":"19","size_leaf_vector":"1"}},{"base_weights":[-2.0648995E-1,-1.0002059E0,1.0447099E0,-1.164293E0,1.0165001E-2,-5.437583E-1,2.0094163E0,-1.7200033E-3,-1.2053264E0,-9.243656E-1,3.8519034E-3,2.6753054E-3,2.3229086E0,-9.997563E-3,-1.9485215E-3,-2.2525853E-3,-8.546996E-3,1.9868298E-2,6.2612845E-3],"categories":[],"categories_nodes":[],"categories_segments":[],"categories_sizes":[],"default_left":[0,0,0,0,0,0,0,0,0,0,0,0,0,0,0,0,0,0,0],"id":17,"left_children":[1,3,5,7,-1,9,11,-1,13,15,-1,-1,17,-1,-1,-1,-1,-1,-1],"loss_changes":[3.751989E1,9.685904E0,2.3383804E1,6.570301E-1,0E0,2.7351794E0,4.3117485E0,0E0,6.588154E-1,2.1359348E-1,0E0,0E0,4.5345688E-1,0E0,0E0,0E0,0E0,0E0,0E0],"parents":[2147483647,0,0,1,1,2,2,3,3,5,5,6,6,8,8,9,9,12,12],"right_children":[2,4,6,8,-1,10,12,-1,14,16,-1,-1,18,-1,-1,-1,-1,-1,-1],"split_conditions":[4.3601796E-1,1.1552358E0,1E0,5.6808107E-2,1.0165001E-2,6.790971E-1,3.7452614E-1,-1.7200033E-3,6.324555E-1,7.4262165E-2,3.8519034E-3,2.6753054E-3,8.623156E-1,-9.997563E-3,-1.9485215E-3,-2.2525853E-3,-8.546996E-3,1.9868298E-2,6.2612845E-3],"split_indices":[16,57,25,56,0,19,4,0,7,14,0,0,4,0,0,0,0,0,0],"split_type":[0,0,0,0,0,0,0,0,0,0,0,0,0,0,0,0,0,0,0],"sum_hessian":[3.624153E1,2.2266758E1,1.3974774E1,2.1107054E1,1.1597041E0,5.4039645E0,8.570809E0,1.0684565E0,2.0038599E1,3.994765E0,1.4091995E0,1.595584E0,6.9752254E0,1.8940289E1,1.0983093E0,1.1368408E0,2.8579242E0,5.900553E0,1.0746723E0],"tree_param":{"num_deleted":"0","num_feature":"60","num_nodes":"19","size_leaf_vector":"1"}},{"base_weights":[-1.9794679E-1,-7.916798E-1,1.3660663E0,-1.0964677E0,6.241455E-1,1.8288295E0,-4.000955E-3,4.251135E-4,-1.1930774E0,1.4292846E0,-6.8038595E-3,2.274772E0,-2.3646774E-3,-9.9590905E-3,-2.038068E-3,1.6131159E-2,3.6663404E-3,2.2776187E-3,2.1458378E-2],"categories":[],"categories_nodes":[],"categories_segments":[],"categories_sizes":[],"default_left":[0,0,0,0,0,0,0,0,0,0,0,0,0,0,0,0,0,0,0],"id":18,"left_children":[1,3,5,7,9,11,-1,-1,13,15,-1,17,-1,-1,-1,-1,-1,-1,-1],"loss_changes":[2.9330755E1,1.032455E1,8.221838E0,2.1556168E0,6.260878E0,7.2810497E0,0E0,0E0,6.148815E-1,1.1277843E0,0E0,4.2920284E0,0E0,0E0,0E0,0E0,0E0,0E0,0E0],"parents":[2147483647,0,0,1,1,2,2,3,3,4,4,5,5,8,8,9,9,11,11],"right_children":[2,4,6,8,10,12,-1,-1,14,16,-1,18,-1,-1,-1,-1,-1,-1,-1],"split_conditions":[4.9710244E-1,5.048438E-1,5.075984E-1,5.4189388E-2,3.063821E-1,6.9927716E-1,-4.000955E-3,4.251135E-4,5.614751E-1,2.8166556E-1,-6.8038595E-3,2.8416878E-1,-2.3646774E-3,-9.9590905E-3,-2.038068E-3,1.6131159E-2,3.6663404E-3,2.2776187E-3,2.1458378E-2],"split_indices":[4,16,11,51,7,53,0,0,49,13,0,19,0,0,0,0,0,0,0],"split_type":[0,0,0,0,0,0,0,0,0,0,0,0,0,0,0,0,0,0,0],"sum_hessian":[2.9962305E1,2.1986225E1,7.976082E0,1.8230808E1,3.7554154E0,6.4032607E0,1.5728211E0,1.4394579E0,1.6791351E1,2.4440427E0,1.3113728E0,5.2484584E0,1.1548023E0,1.5680519E1,1.110832E0,1.0198907E0,1.424152E0,1.1086317E0,4.139827E0],"tree_param":{"num_deleted":"0","num_feature":"60","num_nodes":"19","size_leaf_vector":"1"}},{"base_weights":[4.6857145E-2,-1.0009285E0,1.4181104E0,-1.1382759E0,6.0197543E-3,-6.904556E-1,1.8113961E0,-9.913523E-3,2.3009079E-3,-1.7857841E-3,-6.7617386E-3,7.750772E-1,2.152982E-2,-7.5348024E-3,1.5163893E0,2.7057588E-1,1.9589907E-2,-2.93473E-3,7.218843E-3],"categories":[],"categories_nodes":[],"categories_segments":[],"categories_sizes":[],"default_left":[0,0,0,0,0,0,0,0,0,0,0,0,0,0,0,0,0,0,0],"id":19,"left_children":[1,3,5,7,-1,9,11,-1,-1,-1,-1,13,-1,-1,15,17,-1,-1,-1],"loss_changes":[5.0681126E1,5.462517E0,1.3599354E1,2.9810753E0,0E0,7.131255E-2,1.0357124E1,0E0,0E0,0E0,0E0,1.0053091E1,0E0,0E0,5.5618525E0,1.4869628E0,0E0,0E0,0E0],"parents":[2147483647,0,0,1,1,2,2,3,3,5,5,6,6,11,11,14,14,15,15],"right_children":[2,4,6,8,-1,10,12,-1,-1,-1,-1,14,-1,-1,16,18,-1,-1,-1],"split_conditions":[4.4616354E-1,9.8116934E-1,1E0,5.06996E-1,6.0197543E-3,5.413433E-1,5.3168863E-1,-9.913523E-3,2.3009079E-3,-1.7857841E-3,-6.7617386E-3,3.8782057E-1,2.152982E-2,-7.5348024E-3,3.8776413E-1,5.802677E-1,1.9589907E-2,-2.93473E-3,7.218843E-3],"split_indices":[2,43,36,5,0,2,16,0,0,0,0,4,0,0,43,4,0,0,0],"split_type":[0,0,0,0,0,0,0,0,0,0,0,0,0,0,0,0,0,0,0],"sum_hessian":[3.3783176E1,1.9265102E1,1.4518073E1,1.8109648E1,1.1554545E0,2.1931252E0,1.2324947E1,1.7004396E1,1.1052507E0,1.0014565E0,1.1916687E0,6.306946E0,6.0180016E0,1.8407528E0,4.4661927E0,2.3259256E0,2.1402671E0,1.3143556E0,1.01157E0],"tree_param":{"num_deleted":"0","num_feature":"60","num_nodes":"19","size_leaf_vector":"1"}},{"base_weights":[2.0193431E-1,-8.9003384E-1,1.9092531E0,-1.0546074E0,8.027017E-3,2.1759503E0,-6.5152505E-3,-1.1920893E0,5.830652E-3,5.533766E-1,2.5045147E0,-2.51048E-3,-9.920868E-3,-6.2320563E-3,1.2470309E-2,2.103822E-2,6.5165446E-3],"categories":[],"categories_nodes":[],"categories_segments":[],"categories_sizes":[],"default_left":[0,0,0,0,0,0,0,0,0,0,0,0,0,0,0,0,0],"id":20,"left_children":[1,3,5,7,-1,9,-1,11,-1,13,15,-1,-1,-1,-1,-1,-1],"loss_changes":[6.609065E1,7.5604267E0,1.1353577E1,5.64003E0,0E0,5.770546E0,0E0,5.167599E-1,0E0,5.0819354E0,5.970764E-1,0E0,0E0,0E0,0E0,0E0,0E0],"parents":[2147483647,0,0,1,1,2,2,3,3,5,5,7,7,9,9,10,10],"right_children":[2,4,6,8,-1,10,-1,12,-1,14,16,-1,-1,-1,-1,-1,-1],"split_conditions":[4.7644305E-1,1.2017199E0,6.0956395E-1,5.0154996E-1,8.027017E-3,3.8782057E-1,-6.5152505E-3,4.9793653E-2,5.830652E-3,3.6097273E-1,6.218756E-1,-2.51048E-3,-9.920868E-3,-6.2320563E-3,1.2470309E-2,2.103822E-2,6.5165446E-3],"split_indices":[2,42,52,4,0,4,0,56,0,42,10,0,0,0,0,0,0],"split_type":[0,0,0,0,0,0,0,0,0,0,0,0,0,0,0,0,0],"sum_hessian":[3.4016327E1,2.0965937E1,1.3050387E1,1.9595016E1,1.3709216E0,1.2023848E1,1.0265397E0,1.842347E1,1.1715467E0,2.363782E0,9.660066E0,1.2480333E0,1.7175436E1,1.0892218E0,1.27456E0,8.605137E0,1.0549291E0],"tree_param":{"num_deleted":"0","num_feature":"60","num_nodes":"17","size_leaf_vector":"1"}},{"base_weights":[2.1961725E-1,-7.8066665E-1,1.5639476E0,-1.1751138E0,3.8512546E-1,-3.2795873E-1,2.181638E0,-9.809323E-3,-2.0371606E-3,-7.048606E-1,1.1884371E0,9.660318E-3,-8.631184E-3,5.0210557E-4,2.4274297E0,-6.8851123E-3,-1.9457333E-3,1.4832446E-2,-2.2290333E-3,6.2193247E-3,2.0949025E-2],"categories":[],"categories_nodes":[],"categories_segments":[],"categories_sizes":[],"default_left":[0,0,0,0,0,0,0,0,0,0,0,0,0,0,0,0,0,0,0,0,0],"id":21,"left_children":[1,3,5,7,9,11,13,-1,-1,15,17,-1,-1,-1,19,-1,-1,-1,-1,-1,-1],"loss_changes":[5.375773E1,1.0930311E1,2.042017E1,5.831909E-1,6.2211585E0,6.5577545E0,6.617008E0,0E0,0E0,7.176399E-2,4.251052E0,0E0,0E0,0E0,2.1205978E0,0E0,0E0,0E0,0E0,0E0,0E0],"parents":[2147483647,0,0,1,1,2,2,3,3,4,4,5,5,6,6,9,9,10,10,14,14],"right_children":[2,4,6,8,10,12,14,-1,-1,16,18,-1,-1,-1,20,-1,-1,-1,-1,-1,-1],"split_conditions":[4.0193263E-1,4.055383E-1,1E0,1.0772712E0,1.8651149E-1,1.8841659E-1,2.1376392E-1,-9.809323E-3,-2.0371606E-3,5.6395058E-2,4.5779827E-1,9.660318E-3,-8.631184E-3,5.0210557E-4,4.4433475E-2,-6.8851123E-3,-1.9457333E-3,1.4832446E-2,-2.2290333E-3,6.2193247E-3,2.0949025E-2],"split_indices":[15,2,35,41,9,12,3,0,0,12,4,0,0,0,8,0,0,0,0,0,0],"split_type":[0,0,0,0,0,0,0,0,0,0,0,0,0,0,0,0,0,0,0,0,0],"sum_hessian":[3.8546177E1,2.2281507E1,1.6264668E1,1.6643995E1,5.637513E0,4.089832E0,1.2174835E1,1.5533392E1,1.1106027E0,2.4309533E0,3.2065601E0,1.193457E0,2.896375E0,1.363359E0,1.0811477E1,1.3329428E0,1.0980104E0,2.0696888E0,1.1368713E0,1.5172594E0,9.294217E0],"tree_param":{"num_deleted":"0","num_feature":"60","num_nodes":"21","size_leaf_vector":"1"}},{"base_weights":[-1.0546731E-1,-1.0402051E0,1.4023482E0,-9.936054E-3,5.848707E-1,4.4414574E-1,2.2308042E0,1.1945565E-2,-3.0896806E-3,-7.834544E-3,1.0520587E0,1.6925406E-3,2.54324E0,-3.842644E-1,1.6900854E-2,2.225914E-2,6.268158E-3,2.4172722E-3,-6.7393393E-3],"categories":[],"categories_nodes":[],"categories_segments":[],"categories_sizes":[],"default_left":[0,0,0,0,0,0,0,0,0,0,0,0,0,0,0,0,0,0,0],"id":22,"left_children":[1,3,5,-1,7,9,11,-1,-1,-1,13,-1,15,17,-1,-1,-1,-1,-1],"loss_changes":[5.345402E1,8.206821E0,1.0796286E1,0E0,3.1587067E0,7.415797E0,4.3971825E0,0E0,0E0,0E0,9.354076E0,0E0,1.109623E0,1.1573505E0,0E0,0E0,0E0,0E0,0E0],"parents":[2147483647,0,0,1,1,2,2,4,4,5,5,6,6,10,10,12,12,13,13],"right_children":[2,4,6,-1,8,10,12,-1,-1,-1,14,-1,16,18,-1,-1,-1,-1,-1],"split_conditions":[4.456496E-1,5.8696556E-1,5.086954E-1,-9.936054E-3,5.9789145E-1,1E0,5.9269723E-2,1.1945565E-2,-3.0896806E-3,-7.834544E-3,1.0133143E-1,1.6925406E-3,3.7561285E-1,3.9428957E-2,1.6900854E-2,2.225914E-2,6.268158E-3,2.4172722E-3,-6.7393393E-3],"split_indices":[16,4,4,0,5,35,46,0,0,0,12,0,8,12,0,0,0,0,0],"split_type":[0,0,0,0,0,0,0,0,0,0,0,0,0,0,0,0,0,0,0],"sum_hessian":[3.6400223E1,2.2613848E1,1.3786376E1,2.0273127E1,2.3407211E0,6.9268184E0,6.859558E0,1.0010842E0,1.339637E0,1.9358048E0,4.9910135E0,1.0877062E0,5.771852E0,2.3230762E0,2.6679373E0,4.697568E0,1.0742837E0,1.0321021E0,1.2909741E0],"tree_param":{"num_deleted":"0","num_feature":"60","num_nodes":"19","size_leaf_vector":"1"}},{"base_weights":[-8.7197036E-2,-9.744932E-1,1.4601536E0,-1.182152E0,2.3789357E-1,-3.153621E-1,1.8512042E0,-1.5278972E-3,-9.862222E-3,-7.229142E-3,1.1341382E-2,2.022548E-3,-6.3320617E-3,8.54451E-1,2.0217307E-2,-1.8984051E-1,1.53819695E-2,-7.101527E-3,5.0288434E-3],"categories":[],"categories_nodes":[],"categories_segments":[],"categories_sizes":[],"default_left":[0,0,0,0,0,0,0,0,0,0,0,0,0,0,0,0,0,0,0],"id":23,"left_children":[1,3,5,7,9,11,13,-1,-1,-1,-1,-1,-1,15,-1,17,-1,-1,-1],"loss_changes":[4.6788086E1,5.652624E0,9.072786E0,7.5569916E-1,6.058447E0,9.307289E-1,5.3209724E0,0E0,0E0,0E0,0E0,0E0,0E0,6.1818895E0,0E0,2.3379345E0,0E0,0E0,0E0],"parents":[2147483647,0,0,1,1,2,2,3,3,4,4,5,5,6,6,13,13,15,15],"right_children":[2,4,6,8,10,12,14,-1,-1,-1,-1,-1,-1,16,-1,18,-1,-1,-1],"split_conditions":[4.9975604E-1,5.9757996E-1,1E0,2.1880528E-2,1.3110426E-1,3.6058462E-1,1.2222013E-1,-1.5278972E-3,-9.862222E-3,-7.229142E-3,1.1341382E-2,2.022548E-3,-6.3320617E-3,6.265046E-1,2.0217307E-2,4.3212324E-1,1.53819695E-2,-7.101527E-3,5.0288434E-3],"split_indices":[19,55,23,9,13,6,11,0,0,0,0,0,0,3,0,4,0,0,0],"split_type":[0,0,0,0,0,0,0,0,0,0,0,0,0,0,0,0,0,0,0],"sum_hessian":[3.2551014E1,2.0864412E1,1.1686601E1,1.7829296E1,3.0351157E0,2.1355534E0,9.551047E0,1.0403533E0,1.6788942E1,1.6317767E0,1.403339E0,1.134061E0,1.0014924E0,4.5458655E0,5.0051823E0,2.610623E0,1.9352427E0,1.3748764E0,1.2357464E0],"tree_param":{"num_deleted":"0","num_feature":"60","num_nodes":"19","size_leaf_vector":"1"}},{"base_weights":[6.8070576E-2,-1.1759776E0,1.4534615E0,-9.8115355E-3,-1.7637387E-3,-3.2247904E-1,2.0843582E0,-8.066962E-3,5.028352E-3,2.3209286E0,-2.0680134E-3,1.5499663E-3,2.5615327E0,5.3318925E-3,2.2005899E-2],"categories":[],"categories_nodes":[],"categories_segments":[],"categories_sizes":[],"default_left":[0,0,0,0,0,0,0,0,0,0,0,0,0,0,0],"id":24,"left_children":[1,3,5,-1,-1,7,9,-1,-1,11,-1,-1,13,-1,-1],"loss_changes":[5.9164604E1,6.7043114E-1,1.8683216E1,0E0,0E0,3.6732647E0,7.1411743E0,0E0,0E0,5.2783813E0,0E0,0E0,2.159317E0,0E0,0E0],"parents":[2147483647,0,0,1,1,2,2,5,5,6,6,9,9,12,12],"right_children":[2,4,6,-1,-1,8,10,-1,-1,12,-1,-1,14,-1,-1],"split_conditions":[4.3701527E-1,4.961822E-1,4.456496E-1,-9.8115355E-3,-1.7637387E-3,4.956665E-1,5.0510335E-1,-8.066962E-3,5.028352E-3,1E0,-2.0680134E-3,1.5499663E-3,6.0669754E-2,5.3318925E-3,2.2005899E-2],"split_indices":[2,0,16,0,0,1,51,0,0,37,0,0,50,0,0],"split_type":[0,0,0,0,0,0,0,0,0,0,0,0,0,0,0],"sum_hessian":[3.2834515E1,1.735948E1,1.5475033E1,1.6286657E1,1.0728223E0,4.152529E0,1.1322504E1,2.386283E0,1.766246E0,1.0290446E1,1.0320576E0,1.1832505E0,9.107196E0,1.1346481E0,7.9725475E0],"tree_param":{"num_deleted":"0","num_feature":"60","num_nodes":"15","size_leaf_vector":"1"}},{"base_weights":[2.8206369E-2,-1.047354E0,1.4959651E0,-1.138455E0,2.5143854E-3,-5.3299356E-1,2.03291E0,-4.6247965E-1,-9.884363E-3,-7.68064E-3,2.6528735E-3,-2.5154469E-3,2.3181775E0,-7.1498374E-3,2.433922E-3,6.474145E-3,2.001044E-2],"categories":[],"categories_nodes":[],"categories_segments":[],"categories_sizes":[],"default_left":[0,0,0,0,0,0,0,0,0,0,0,0,0,0,0,0,0],"id":25,"left_children":[1,3,5,7,-1,9,11,13,-1,-1,-1,-1,15,-1,-1,-1,-1],"loss_changes":[5.4340347E1,2.7339973E0,1.6664967E1,8.047905E-1,0E0,1.5825725E0,8.35561E0,1.3806511E0,0E0,0E0,0E0,0E0,1.3798065E0,0E0,0E0,0E0,0E0],"parents":[2147483647,0,0,1,1,2,2,3,3,5,5,6,6,7,7,12,12],"right_children":[2,4,6,8,-1,10,12,14,-1,-1,-1,-1,16,-1,-1,-1,-1],"split_conditions":[4.8507124E-1,4.7578806E-1,1E0,6.407967E-2,2.5143854E-3,4.057946E-1,2.517381E-1,1.8775849E-1,-9.884363E-3,-7.68064E-3,2.6528735E-3,-2.5154469E-3,1.9004525E-1,-7.1498374E-3,2.433922E-3,6.474145E-3,2.001044E-2],"split_indices":[16,14,25,11,0,5,3,3,0,0,0,0,5,0,0,0,0],"split_type":[0,0,0,0,0,0,0,0,0,0,0,0,0,0,0,0,0],"sum_hessian":[3.2927383E1,1.9126486E1,1.3800897E1,1.8042307E1,1.0841793E0,2.8891525E0,1.0911744E1,2.8088293E0,1.5233477E1,1.8784406E0,1.0107119E0,1.1740798E0,9.737665E0,1.7181801E0,1.0906492E0,1.4937786E0,8.243886E0],"tree_param":{"num_deleted":"0","num_feature":"60","num_nodes":"17","size_leaf_vector":"1"}},{"base_weights":[-1.5795283E-1,-9.7848034E-1,1.656677E0,-1.1371318E0,3.685212E-1,-1.4663829E-1,2.0310994E-2,-9.8365955E-3,2.3173597E-3,-6.3231993E-3,1.1019131E-2,-7.486174E-3,5.698379E-3],"categories":[],"categories_nodes":[],"categories_segments":[],"categories_sizes":[],"default_left":[0,0,0,0,0,0,0,0,0,0,0,0,0],"id":26,"left_children":[1,3,5,7,9,11,-1,-1,-1,-1,-1,-1,-1],"loss_changes":[4.9054005E1,5.1431656E0,1.6637676E1,2.9576645E0,4.2626147E0,3.2700863E0,0E0,0E0,0E0,0E0,0E0,0E0,0E0],"parents":[2147483647,0,0,1,1,2,2,3,3,4,4,5,5],"right_children":[2,4,6,8,10,12,-1,-1,-1,-1,-1,-1,-1],"split_conditions":[5E-1,6.389267E-1,4.7333884E-1,4.466774E-1,1.9077495E-1,1.3818419E-1,2.0310994E-2,-9.8365955E-3,2.3173597E-3,-6.3231993E-3,1.1019131E-2,-7.486174E-3,5.698379E-3],"split_indices":[18,42,4,19,9,9,0,0,0,0,0,0,0],"split_type":[0,0,0,0,0,0,0,0,0,0,0,0,0],"sum_hessian":[3.1378761E1,2.1846115E1,9.532647E0,1.964872E1,2.1973956E0,3.3369212E0,6.1957254E0,1.8550503E1,1.098216E0,1.0982329E0,1.0991628E0,1.7041601E0,1.6327612E0],"tree_param":{"num_deleted":"0","num_feature":"60","num_nodes":"13","size_leaf_vector":"1"}},{"base_weights":[1.0805803E-1,-9.3478334E-1,1.4177252E0,-1.1134691E0,5.0981333E-3,-2.1121328E-1,1.7738099E0,-1.3029308E-3,-1.1627574E0,6.0263276E-3,-7.4547385E-3,4.350207E-2,2.2576997E0,-9.730783E-3,-1.6643101E-3,-7.5258957E-3,1.0448126E-2,5.3667277E-3,2.4014797E0,2.0421643E-2,6.1428854E-3],"categories":[],"categories_nodes":[],"categories_segments":[],"categories_sizes":[],"default_left":[0,0,0,0,0,0,0,0,0,0,0,0,0,0,0,0,0,0,0,0,0],"id":27,"left_children":[1,3,5,7,-1,9,11,-1,13,-1,-1,15,17,-1,-1,-1,-1,-1,19,-1,-1],"loss_changes":[4.8387753E1,6.0857544E0,9.376366E0,7.025318E-1,0E0,2.9473698E0,1.0767029E1,0E0,6.8076134E-1,0E0,0E0,5.3877745E0,1.0968857E0,0E0,0E0,0E0,0E0,0E0,7.466812E-1,0E0,0E0],"parents":[2147483647,0,0,1,1,2,2,3,3,5,5,6,6,8,8,11,11,12,12,18,18],"right_children":[2,4,6,8,-1,10,12,-1,14,-1,-1,16,18,-1,-1,-1,-1,-1,20,-1,-1],"split_conditions":[4.4324222E-1,4.625223E-1,1E0,4.0078066E-2,5.0981333E-3,2.3642577E-1,4.5068705E-1,-1.3029308E-3,3.9703783E-1,6.0263276E-3,-7.4547385E-3,1.2136919E-1,6.1356317E-2,-9.730783E-3,-1.6643101E-3,-7.5258957E-3,1.0448126E-2,5.3667277E-3,5.5617726E-1,2.0421643E-2,6.1428854E-3],"split_indices":[3,14,24,54,0,8,17,0,3,0,0,8,46,0,0,0,0,0,52,0,0],"split_type":[0,0,0,0,0,0,0,0,0,0,0,0,0,0,0,0,0,0,0,0,0],"sum_hessian":[3.395103E1,1.9020426E1,1.4930605E1,1.727559E1,1.7448343E0,2.7330725E0,1.2197533E1,1.0107114E0,1.626488E1,1.1542323E0,1.5788404E0,2.8442838E0,9.353249E0,1.5205816E1,1.0590636E0,1.7056972E0,1.1385865E0,1.1300883E0,8.22316E0,7.1402273E0,1.0829331E0],"tree_param":{"num_deleted":"0","num_feature":"60","num_nodes":"21","size_leaf_vector":"1"}},{"base_weights":[9.7059675E-2,-7.6008195E-1,1.9336631E0,-9.391463E-1,1.0028716E-2,9.955121E-3,1.8918816E-2,-1.1693575E0,1.2753054E-1,2.391664E-3,-2.2465645E-3,-9.74699E-3,-1.6098265E-3,-8.337307E-3,1.26683E-2],"categories":[],"categories_nodes":[],"categories_segments":[],"categories_sizes":[],"default_left":[0,0,0,0,0,0,0,0,0,0,0,0,0,0,0],"id":28,"left_children":[1,3,5,7,-1,9,-1,11,13,-1,-1,-1,-1,-1,-1],"loss_changes":[5.588242E1,9.631934E0,9.342426E0,5.688816E0,0E0,2.9988956E-1,0E0,7.0604134E-1,9.25535E0,0E0,0E0,0E0,0E0,0E0,0E0],"parents":[2147483647,0,0,1,1,2,2,3,3,5,5,7,7,8,8],"right_children":[2,4,6,8,-1,10,-1,12,14,-1,-1,-1,-1,-1,-1],"split_conditions":[6.324555E-1,9.354828E-1,2.0164412E-1,3.9979163E-1,1.0028716E-2,6.726728E-1,1.8918816E-2,3.845264E-1,1.7516097E-1,2.391664E-3,-2.2465645E-3,-9.74699E-3,-1.6098265E-3,-8.337307E-3,1.26683E-2],"split_indices":[18,43,5,18,0,19,0,15,9,0,0,0,0,0,0],"split_type":[0,0,0,0,0,0,0,0,0,0,0,0,0,0,0],"sum_hessian":[3.404805E1,2.3513792E1,1.0534261E1,2.1961124E1,1.5526661E0,2.0693538E0,8.464907E0,1.8003412E1,3.9577122E0,1.027256E0,1.0420978E0,1.6951313E1,1.052101E0,2.312845E0,1.6448671E0],"tree_param":{"num_deleted":"0","num_feature":"60","num_nodes":"15","size_leaf_vector":"1"}},{"base_weights":[8.304562E-2,-1.0235342E0,1.6484376E0,-1.1343259E0,1.1389263E-3,5.523402E-1,2.3312607E0,-1.2282317E-3,-1.1771088E0,-3.173363E-1,1.252408E0,4.5935335E-3,2.0330405E-2,-9.765996E-3,-2.0196263E-3,-7.767535E-3,6.5964106E-3,1.5816947E-2,-2.712347E-3],"categories":[],"categories_nodes":[],"categories_segments":[],"categories_sizes":[],"default_left":[0,0,0,0,0,0,0,0,0,0,0,0,0,0,0,0,0,0,0],"id":29,"left_children":[1,3,5,7,-1,9,11,-1,13,15,17,-1,-1,-1,-1,-1,-1,-1,-1],"loss_changes":[6.837971E1,3.112917E0,1.1258583E1,7.555084E-1,0E0,4.7134304E0,2.5337372E0,0E0,5.853996E-1,3.4609349E0,5.3115973E0,0E0,0E0,0E0,0E0,0E0,0E0,0E0,0E0],"parents":[2147483647,0,0,1,1,2,2,3,3,5,5,6,6,8,8,9,9,10,10],"right_children":[2,4,6,8,-1,10,12,-1,14,16,18,-1,-1,-1,-1,-1,-1,-1,-1],"split_conditions":[4.4905308E-1,5.0154996E-1,5.4149115E-1,1.3642248E-2,1.1389263E-3,4.039623E-1,1E0,-1.2282317E-3,5.050473E-1,5.681767E-1,6.2358296E-1,4.5935335E-3,2.0330405E-2,-9.765996E-3,-2.0196263E-3,-7.767535E-3,6.5964106E-3,1.5816947E-2,-2.712347E-3],"split_indices":[2,4,17,12,0,56,20,0,0,3,53,0,0,0,0,0,0,0,0],"split_type":[0,0,0,0,0,0,0,0,0,0,0,0,0,0,0,0,0,0,0],"sum_hessian":[3.799442E1,2.2411371E1,1.5583047E1,2.0485054E1,1.9263182E0,6.5021667E0,9.08088E0,1.000061E0,1.9484993E1,3.0826716E0,3.419495E0,1.2686232E0,7.812257E0,1.837747E1,1.1075215E0,2.0319064E0,1.0507654E0,2.2246761E0,1.194819E0],"tree_param":{"num_deleted":"0","num_feature":"60","num_nodes":"19","size_leaf_vector":"1"}},{"base_weights":[-1.949973E-1,-8.140492E-1,1.7114606E0,-9.7847935E-3,-7.973023E-2,-6.8317917E-3,2.2118454E0,-8.901873E-1,5.2532864E-1,6.388807E-3,1.8824888E-2,-1.4323123E-3,-8.4375935E-3,-4.496835E-3,1.0992858E0,1.3813534E-3,1.4056047E0,2.4214773E-3,1.453035E-2],"categories":[],"categories_nodes":[],"categories_segments":[],"categories_sizes":[],"default_left":[0,0,0,0,0,0,0,0,0,0,0,0,0,0,0,0,0,0,0],"id":30,"left_children":[1,3,5,-1,7,-1,9,11,13,-1,-1,-1,-1,-1,15,-1,17,-1,-1],"loss_changes":[4.1433002E1,7.8391094E0,1.2495148E1,0E0,5.3653746E0,0E0,7.404709E-2,4.0233016E-1,4.412163E0,0E0,0E0,0E0,0E0,0E0,1.0653801E0,0E0,1.0361705E0,0E0,0E0],"parents":[2147483647,0,0,1,1,2,2,4,4,6,6,7,7,8,8,14,14,16,16],"right_children":[2,4,6,-1,8,-1,10,12,14,-1,-1,-1,-1,-1,16,-1,18,-1,-1],"split_conditions":[6.8325067E-1,2.8779382E-1,1E0,-9.7847935E-3,2.6558718E-1,-6.8317917E-3,6.01012E-1,9.394448E-2,3.1347418E-1,6.388807E-3,1.8824888E-2,-1.4323123E-3,-8.4375935E-3,-4.496835E-3,1E0,1.3813534E-3,1.5686128E-1,2.4214773E-3,1.453035E-2],"split_indices":[0,5,25,0,45,0,2,55,2,0,0,0,0,0,22,0,7,0,0],"split_type":[0,0,0,0,0,0,0,0,0,0,0,0,0,0,0,0,0,0,0],"sum_hessian":[3.34715E1,2.5591394E1,7.880108E0,1.6115236E1,9.476157E0,1.1996448E0,6.6804633E0,3.8994873E0,5.5766697E0,1.0605397E0,5.6199236E0,1.0268538E0,2.8726332E0,1.9319118E0,3.6447577E0,1.1968987E0,2.447859E0,1.0176599E0,1.4301993E0],"tree_param":{"num_deleted":"0","num_feature":"60","num_nodes":"19","size_leaf_vector":"1"}},{"base_weights":[-1.4416566E-1,-1.03146E0,1.4213691E0,-1.1435919E0,4.3394426E-3,-4.3302304E-3,1.755117E0,-9.802059E-3,1.9181293E-3,3.157492E-1,2.259221E0,-5.573051E-3,1.3607629E-2,1.9728305E-2,4.5858063E-3],"categories":[],"categories_nodes":[],"categories_segments":[],"categories_sizes":[],"default_left":[0,0,0,0,0,0,0,0,0,0,0,0,0,0,0],"id":31,"left_children":[1,3,5,7,-1,-1,9,-1,-1,11,13,-1,-1,-1,-1],"loss_changes":[5.2538296E1,4.7131214E0,9.693571E0,2.7859497E0,0E0,0E0,8.095917E0,0E0,0E0,6.4381275E0,1.9691734E0,0E0,0E0,0E0,0E0],"parents":[2147483647,0,0,1,1,2,2,3,3,6,6,9,9,10,10],"right_children":[2,4,6,8,-1,-1,10,-1,-1,12,14,-1,-1,-1,-1],"split_conditions":[4.7475302E-1,1.2016268E0,3.2002363E-1,6.726728E-1,4.3394426E-3,-4.3302304E-3,1E0,-9.802059E-3,1.9181293E-3,2.7812225E-1,7.719838E-1,-5.573051E-3,1.3607629E-2,1.9728305E-2,4.5858063E-3],"split_indices":[2,56,19,19,0,0,26,0,0,9,5,0,0,0,0],"split_type":[0,0,0,0,0,0,0,0,0,0,0,0,0,0,0],"sum_hessian":[3.628052E1,2.3319592E1,1.2960931E1,2.1960093E1,1.3594992E0,1.8159049E0,1.1145026E1,2.08169E1,1.1431932E0,3.2072206E0,7.937805E0,2.068367E0,1.1388535E0,6.7614055E0,1.1763998E0],"tree_param":{"num_deleted":"0","num_feature":"60","num_nodes":"15","size_leaf_vector":"1"}},{"base_weights":[1.6155575E-1,-7.1107984E-1,1.7220364E0,-8.7935615E-1,1.0670633E-2,3.841458E-2,2.1135013E0,-1.0416803E0,2.97429E-1,6.8010353E-3,-6.2785638E-3,1.9329283E-2,9.7850305E-1,-4.15021E-4,-1.1446148E0,7.2930725E-3,-2.937206E-3,-2.3385845E-3,1.3538371E-2,-9.605559E-3,-1.8392184E-3],"categories":[],"categories_nodes":[],"categories_segments":[],"categories_sizes":[],"default_left":[0,0,0,0,0,0,0,0,0,0,0,0,0,0,0,0,0,0,0,0,0],"id":32,"left_children":[1,3,5,7,-1,9,11,13,15,-1,-1,-1,17,-1,19,-1,-1,-1,-1,-1,-1],"loss_changes":[4.373154E1,8.001043E0,7.515358E0,3.971321E0,0E0,2.4599597E0,1.4259338E0,1.7249413E0,1.4576684E0,0E0,0E0,0E0,3.292825E0,0E0,5.9811974E-1,0E0,0E0,0E0,0E0,0E0,0E0],"parents":[2147483647,0,0,1,1,2,2,3,3,5,5,6,6,7,7,8,8,12,12,14,14],"right_children":[2,4,6,8,-1,10,12,14,16,-1,-1,-1,18,-1,20,-1,-1,-1,-1,-1,-1],"split_conditions":[4.5524737E-1,5.984161E-1,4.8507124E-1,5.97268E-1,1.0670633E-2,2.5984767E-1,2.5867838E-1,7.772276E-2,2.5504348E-1,6.8010353E-3,-6.2785638E-3,1.9329283E-2,5.8232325E-1,-4.15021E-4,6.6539073E-1,7.2930725E-3,-2.937206E-3,-2.3385845E-3,1.3538371E-2,-9.605559E-3,-1.8392184E-3],"split_indices":[15,46,1,1,0,12,7,57,14,0,0,0,17,0,42,0,0,0,0,0,0],"split_type":[0,0,0,0,0,0,0,0,0,0,0,0,0,0,0,0,0,0,0,0,0],"sum_hessian":[3.0690248E1,1.9945036E1,1.07452135E1,1.8823524E1,1.1215111E0,2.182455E0,8.562758E0,1.6617441E1,2.2060828E0,1.0865793E0,1.0958757E0,6.0917463E0,2.4710116E0,1.6715971E0,1.4945845E1,1.0015972E0,1.2044857E0,1.0480065E0,1.4230052E0,1.3861526E1,1.0843186E0],"tree_param":{"num_deleted":"0","num_feature":"60","num_nodes":"21","size_leaf_vector":"1"}},{"base_weights":[9.832971E-2,-5.500836E-1,1.5866677E0,-8.093312E-1,1.4479274E-2,-6.83954E-3,1.8694941E0,-1.0436451E0,1.5169838E-1,2.2115364E0,-3.8507597E-3,-4.8294067E-2,-1.1724168E0,-7.495967E-3,7.686346E-1,1.977895E-2,3.400756E-3,-6.7227404E-3,7.860866E-3,-1.3186154E-3,-9.777852E-3,-3.155002E-3,1.1409801E-2],"categories":[],"categories_nodes":[],"categories_segments":[],"categories_sizes":[],"default_left":[0,0,0,0,0,0,0,0,0,0,0,0,0,0,0,0,0,0,0,0,0,0,0],"id":33,"left_children":[1,3,5,7,-1,-1,9,11,13,15,-1,17,19,-1,21,-1,-1,-1,-1,-1,-1,-1,-1],"loss_changes":[3.995973E1,1.8796118E1,9.8668E0,6.1043415E0,0E0,0E0,1.0033043E1,2.70887E0,4.479617E0,3.9459038E0,0E0,3.2658093E0,8.0129623E-1,0E0,3.6001465E0,0E0,0E0,0E0,0E0,0E0,0E0,0E0,0E0],"parents":[2147483647,0,0,1,1,2,2,3,3,6,6,7,7,8,8,9,9,11,11,12,12,14,14],"right_children":[2,4,6,8,-1,-1,10,12,14,16,-1,18,20,-1,22,-1,-1,-1,-1,-1,-1,-1,-1],"split_conditions":[6.047692E-1,1.115971E0,3.1987906E-1,4.8507124E-1,1.4479274E-2,-6.83954E-3,4.5125175E-1,8.8319115E-2,1E0,7.083814E-1,-3.8507597E-3,9.413639E-2,2.824577E-2,-7.495967E-3,3.0826595E-1,1.977895E-2,3.400756E-3,-6.7227404E-3,7.860866E-3,-1.3186154E-3,-9.777852E-3,-3.155002E-3,1.1409801E-2],"split_indices":[3,55,4,15,0,0,8,59,24,54,0,0,5,0,45,0,0,0,0,0,0,0,0],"split_type":[0,0,0,0,0,0,0,0,0,0,0,0,0,0,0,0,0,0,0,0,0,0,0],"sum_hessian":[3.9978252E1,2.8175879E1,1.1802376E1,2.58311E1,2.3447766E0,1.0677207E0,1.0734654E1,2.0715796E1,5.115307E0,9.4099655E0,1.324689E0,2.491193E0,1.8224602E1,1.7094989E0,3.4058077E0,7.95981E0,1.4501557E0,1.4872022E0,1.0039909E0,1.0108094E0,1.7213793E1,1.3385904E0,2.0672174E0],"tree_param":{"num_deleted":"0","num_feature":"60","num_nodes":"23","size_leaf_vector":"1"}},{"base_weights":[1.8481487E-1,-9.7192526E-1,1.4826081E0,-1.0764141E0,2.1251088E-3,-8.139624E-2,1.7942852E0,-1.8766483E-3,-1.132644E0,-6.9880146E-3,7.1589933E-3,1.1116442E-3,2.0844789E0,-9.506785E-3,-2.540074E-3,5.8010034E-3,1.749819E-2],"categories":[],"categories_nodes":[],"categories_segments":[],"categories_sizes":[],"default_left":[0,0,0,0,0,0,0,0,0,0,0,0,0,0,0,0,0],"id":34,"left_children":[1,3,5,7,-1,9,11,-1,13,-1,-1,-1,15,-1,-1,-1,-1],"loss_changes":[4.6086636E1,2.3227892E0,7.141424E0,5.1945114E-1,0E0,2.9947205E0,5.5764313E0,0E0,3.5437202E-1,0E0,0E0,0E0,2.3692703E-1,0E0,0E0,0E0,0E0],"parents":[2147483647,0,0,1,1,2,2,3,3,5,5,6,6,8,8,12,12],"right_children":[2,4,6,8,-1,10,12,-1,14,-1,-1,-1,16,-1,-1,-1,-1],"split_conditions":[4.082629E-1,1.2724239E0,1E0,3.80632E-2,2.1251088E-3,2.2035056E-1,4.8507124E-1,-1.8766483E-3,6.1741745E-1,-6.9880146E-3,7.1589933E-3,1.1116442E-3,6.3844174E-2,-9.506785E-3,-2.540074E-3,5.8010034E-3,1.749819E-2],"split_indices":[15,41,34,53,0,41,17,0,0,0,0,0,43,0,0,0,0],"split_type":[0,0,0,0,0,0,0,0,0,0,0,0,0,0,0,0,0],"sum_hessian":[2.9229757E1,1.5554314E1,1.3675444E1,1.4433352E1,1.1209614E0,2.3644915E0,1.1310952E1,1.1465726E0,1.3286779E1,1.3489549E0,1.0155365E0,1.8525758E0,9.458377E0,1.2115453E1,1.171327E0,1.0896363E0,8.36874E0],"tree_param":{"num_deleted":"0","num_feature":"60","num_nodes":"17","size_leaf_vector":"1"}},{"base_weights":[9.791364E-2,-1.0374252E0,1.2273015E0,-9.580591E-3,3.5807951E-3,-7.019282E-1,1.5587716E0,-1.9136089E-3,-6.9334703E-3,6.4638996E-1,1.7353412E-2,-5.729278E-1,1.6216899E0,-7.887992E-3,1.5635196E-3,2.1776254E-3,1.6112281E-2],"categories":[],"categories_nodes":[],"categories_segments":[],"categories_sizes":[],"default_left":[0,0,0,0,0,0,0,0,0,0,0,0,0,0,0,0,0],"id":35,"left_children":[1,3,5,-1,-1,7,9,-1,-1,11,-1,13,15,-1,-1,-1,-1],"loss_changes":[4.4433704E1,4.5202293E0,1.1910738E1,0E0,0E0,7.779455E-2,7.320305E0,0E0,0E0,9.13311E0,0E0,1.3210468E0,1.7793436E0,0E0,0E0,0E0,0E0],"parents":[2147483647,0,0,1,1,2,2,5,5,6,6,9,9,11,11,12,12],"right_children":[2,4,6,-1,-1,8,10,-1,-1,12,-1,14,16,-1,-1,-1,-1],"split_conditions":[4.0713426E-1,4.8507124E-1,1E0,-9.580591E-3,3.5807951E-3,5.018191E-1,1.6445766E-1,-1.9136089E-3,-6.9334703E-3,6.6564023E-1,1.7353412E-2,1.403261E-1,4.3386093E-1,-7.887992E-3,1.5635196E-3,2.1776254E-3,1.6112281E-2],"split_indices":[19,14,24,0,0,17,7,0,0,17,0,11,0,0,0,0,0],"split_type":[0,0,0,0,0,0,0,0,0,0,0,0,0,0,0,0,0],"sum_hessian":[3.3158512E1,1.6566147E1,1.6592367E1,1.5084566E1,1.4815816E0,2.3099177E0,1.4282449E1,1.0893357E0,1.2205821E0,6.344074E0,7.9383745E0,2.9568496E0,3.3872244E0,1.784878E0,1.1719716E0,1.0491095E0,2.338115E0],"tree_param":{"num_deleted":"0","num_feature":"60","num_nodes":"17","size_leaf_vector":"1"}},{"base_weights":[2.3050644E-2,-9.993944E-1,1.459097E0,-1.1219432E0,4.0997243E-3,1.6258554E-1,1.9375126E0,-1.9484889E-3,-1.1620821E0,9.851445E-3,-3.8866118E-1,-1.7876411E-4,1.7821955E-2,-9.647147E-3,-2.2825913E-3,6.6189687E-3,-8.495986E-3],"categories":[],"categories_nodes":[],"categories_segments":[],"categories_sizes":[],"default_left":[0,0,0,0,0,0,0,0,0,0,0,0,0,0,0,0,0],"id":36,"left_children":[1,3,5,7,-1,9,11,-1,13,-1,15,-1,-1,-1,-1,-1,-1],"loss_changes":[5.4172108E1,4.42597E0,9.278141E0,4.991951E-1,0E0,3.2773795E0,6.371567E0,0E0,4.7557068E-1,0E0,3.801493E0,0E0,0E0,0E0,0E0,0E0,0E0],"parents":[2147483647,0,0,1,1,2,2,3,3,5,5,6,6,8,8,10,10],"right_children":[2,4,6,8,-1,10,12,-1,14,-1,16,-1,-1,-1,-1,-1,-1],"split_conditions":[4.3791986E-1,1.0808275E0,1.4424875E-1,2.5971835E-2,4.0997243E-3,2.8519115E-1,1E0,-1.9484889E-3,4.7451442E-1,9.851445E-3,1.5636446E-1,-1.7876411E-4,1.7821955E-2,-9.647147E-3,-2.2825913E-3,6.6189687E-3,-8.495986E-3],"split_indices":[15,44,12,9,0,14,33,0,16,0,42,0,0,0,0,0,0],"split_type":[0,0,0,0,0,0,0,0,0,0,0,0,0,0,0,0,0],"sum_hessian":[3.540012E1,2.0811014E1,1.4589104E1,1.942952E1,1.3814956E0,4.2032175E0,1.0385886E1,1.0807077E0,1.8348812E1,1.1152899E0,3.0879276E0,1.4289325E0,8.956954E0,1.7207415E1,1.1413962E0,1.0393366E0,2.0485911E0],"tree_param":{"num_deleted":"0","num_feature":"60","num_nodes":"17","size_leaf_vector":"1"}},{"base_weights":[8.514711E-3,-7.804159E-1,1.6465847E0,-1.0994241E0,4.273775E-1,-4.683225E-3,2.1608665E0,-9.615087E-3,2.5611843E-3,1.5341266E-2,-7.972827E-3,6.845009E-3,1.8686302E-2],"categories":[],"categories_nodes":[],"categories_segments":[],"categories_sizes":[],"default_left":[0,0,0,0,0,0,0,0,0,0,0,0,0],"id":37,"left_children":[1,3,5,7,9,-1,11,-1,-1,-1,-1,-1,-1],"loss_changes":[4.1505806E1,8.706599E0,1.2931231E1,2.8139439E0,1.2193386E1,0E0,4.7460556E-1,0E0,0E0,0E0,0E0,0E0,0E0],"parents":[2147483647,0,0,1,1,2,2,3,3,4,4,6,6],"right_children":[2,4,6,8,10,-1,12,-1,-1,-1,-1,-1,-1],"split_conditions":[4.7451442E-1,4.251149E-1,1E0,5.3944683E-1,5.157135E-1,-4.683225E-3,1.073048E-1,-9.615087E-3,2.5611843E-3,1.5341266E-2,-7.972827E-3,6.845009E-3,1.8686302E-2],"split_indices":[16,52,21,3,52,0,12,0,0,0,0,0,0],"split_type":[0,0,0,0,0,0,0,0,0,0,0,0,0],"sum_hessian":[3.0621431E1,2.093254E1,9.688891E0,1.6612152E1,4.320388E0,1.7949727E0,7.893918E0,1.5601108E1,1.0110452E0,1.9839989E0,2.336389E0,1.4550596E0,6.4388585E0],"tree_param":{"num_deleted":"0","num_feature":"60","num_nodes":"13","size_leaf_vector":"1"}},{"base_weights":[5.617525E-2,-9.0597427E-1,1.4387279E0,-1.1505728E0,3.469149E-1,1.781629E-1,1.7745544E0,-1.2335405E-3,-9.6273925E-3,-5.106997E-3,1.2221934E-2,-7.628534E-3,1.1442918E-2,2.9329905E-1,2.0872948E0,5.744191E-3,-2.1763516E-3,6.668401E-3,1.7942455E-2],"categories":[],"categories_nodes":[],"categories_segments":[],"categories_sizes":[],"default_left":[0,0,0,0,0,0,0,0,0,0,0,0,0,0,0,0,0,0,0],"id":38,"left_children":[1,3,5,7,9,11,13,-1,-1,-1,-1,-1,-1,15,17,-1,-1,-1,-1],"loss_changes":[4.711586E1,6.707939E0,5.9107685E0,7.9133034E-1,5.375971E0,6.533953E0,4.814411E0,0E0,0E0,0E0,0E0,0E0,0E0,8.3253956E-1,4.065895E-1,0E0,0E0,0E0,0E0],"parents":[2147483647,0,0,1,1,2,2,3,3,4,4,5,5,6,6,13,13,14,14],"right_children":[2,4,6,8,10,12,14,-1,-1,-1,-1,-1,-1,16,18,-1,-1,-1,-1],"split_conditions":[4.9757528E-1,4.49719E-1,1E0,4.9923584E-2,3.0496308E-1,4.9227062E-1,5.617313E-2,-1.2335405E-3,-9.6273925E-3,-5.106997E-3,1.2221934E-2,-7.628534E-3,1.1442918E-2,2.493699E-1,5.3944683E-1,5.744191E-3,-2.1763516E-3,6.668401E-3,1.7942455E-2],"split_indices":[3,14,36,47,3,48,10,0,0,0,0,0,0,6,3,0,0,0,0],"split_type":[0,0,0,0,0,0,0,0,0,0,0,0,0,0,0,0,0,0,0],"sum_hessian":[3.393463E1,2.0161983E1,1.3772648E1,1.6919985E1,3.2419996E0,3.1387744E0,1.0633873E1,1.0002776E0,1.5919706E1,1.9551486E0,1.2868512E0,1.7426488E0,1.3961256E0,2.1071248E0,8.526749E0,1.0875392E0,1.0195855E0,1.4673032E0,7.0594454E0],"tree_param":{"num_deleted":"0","num_feature":"60","num_nodes":"19","size_leaf_vector":"1"}},{"base_weights":[3.0549709E-3,-9.1236997E-1,1.3965209E0,-1.0760822E0,1.0236106E-2,4.8218137E-1,1.7684247E-2,-9.616786E-3,-4.5940268E-1,-4.079285E-1,1.6032051E0,-8.146056E-3,7.135174E-3,-8.182533E-3,3.1829604E-3,1.300382E-3,1.8075842E-2],"categories":[],"categories_nodes":[],"categories_segments":[],"categories_sizes":[],"default_left":[0,0,0,0,0,0,0,0,0,0,0,0,0,0,0,0,0],"id":39,"left_children":[1,3,5,7,-1,9,-1,-1,11,13,15,-1,-1,-1,-1,-1,-1],"loss_changes":[4.7418243E1,9.083597E0,1.0169506E1,1.2398415E0,0E0,8.373665E0,0E0,0E0,4.3251004E0,2.7833638E0,3.1742916E0,0E0,0E0,0E0,0E0,0E0,0E0],"parents":[2147483647,0,0,1,1,2,2,3,3,5,5,8,8,9,9,10,10],"right_children":[2,4,6,8,-1,10,-1,-1,12,14,16,-1,-1,-1,-1,-1,-1],"split_conditions":[4.4260147E-1,1.1572015E0,6.2854457E-1,5.619709E-1,1.0236106E-2,4.771531E-1,1.7684247E-2,-9.616786E-3,1.441737E-1,3.9223227E-1,9.916864E-2,-8.146056E-3,7.135174E-3,-8.182533E-3,3.1829604E-3,1.300382E-3,1.8075842E-2],"split_indices":[1,42,19,44,0,45,0,0,10,17,12,0,0,0,0,0,0],"split_type":[0,0,0,0,0,0,0,0,0,0,0,0,0,0,0,0,0],"sum_hessian":[3.5673756E1,2.1686163E1,1.3987592E1,2.053425E1,1.1519125E0,7.15028E0,6.837312E0,1.6458952E1,4.075299E0,4.25156E0,2.89872E0,3.013753E0,1.0615462E0,2.2968733E0,1.9546866E0,1.2000743E0,1.6986456E0],"tree_param":{"num_deleted":"0","num_feature":"60","num_nodes":"17","size_leaf_vector":"1"}},{"base_weights":[2.3620622E-2,-8.3956295E-1,1.1787214E0,-9.6203786E-1,5.931963E-3,-2.0174406E-1,1.598175E0,-9.519034E-3,-3.2892668E-1,-8.336568E-3,1.1061646E-2,-2.92038E-4,1.8272194E0,7.200832E-3,-7.116692E-1,7.529249E-4,1.7179232E-2,3.2703807E-3,-8.453414E-3],"categories":[],"categories_nodes":[],"categories_segments":[],"categories_sizes":[],"default_left":[0,0,0,0,0,0,0,0,0,0,0,0,0,0,0,0,0,0,0],"id":40,"left_children":[1,3,5,7,-1,9,11,-1,13,-1,-1,-1,15,-1,17,-1,-1,-1,-1],"loss_changes":[3.6084476E1,4.5481215E0,9.200592E0,2.5281258E0,0E0,6.7679377E0,4.5243797E0,0E0,3.4031126E0,0E0,0E0,0E0,5.672966E0,0E0,2.31735E0,0E0,0E0,0E0,0E0],"parents":[2147483647,0,0,1,1,2,2,3,3,5,5,6,6,8,8,12,12,14,14],"right_children":[2,4,6,8,-1,10,12,-1,14,-1,-1,-1,16,-1,18,-1,-1,-1,-1],"split_conditions":[4.9808207E-1,1.0634168E0,4.5333007E-1,2.6039088E-1,5.931963E-3,5.7919866E-1,1E0,-9.519034E-3,7.541802E-2,-8.336568E-3,1.1061646E-2,-2.92038E-4,6.7119226E-2,7.200832E-3,2.1216726E-1,7.529249E-4,1.7179232E-2,3.2703807E-3,-8.453414E-3],"split_indices":[2,44,17,2,0,44,34,0,10,0,0,0,47,0,16,0,0,0,0],"split_type":[0,0,0,0,0,0,0,0,0,0,0,0,0,0,0,0,0,0,0],"sum_hessian":[3.4696342E1,1.9974602E1,1.4721741E1,1.8811066E1,1.1635361E0,3.5214748E0,1.1200266E1,1.3347914E1,5.4631515E0,2.4688394E0,1.0526354E0,1.4539503E0,9.746315E0,1.056575E0,4.4065766E0,1.6711465E0,8.075169E0,1.0047662E0,3.4018102E0],"tree_param":{"num_deleted":"0","num_feature":"60","num_nodes":"19","size_leaf_vector":"1"}},{"base_weights":[-1.3658856E-1,-8.957293E-1,1.1108603E0,-1.0390083E0,6.353583E-3,-3.463768E-1,1.6726145E0,-1.1395353E0,1.9305099E-3,5.106327E-3,-7.963338E-3,-2.0443995E-3,1.9705144E0,-1.6623453E-3,-9.581151E-3,4.667387E-3,1.7296923E-2],"categories":[],"categories_nodes":[],"categories_segments":[],"categories_sizes":[],"default_left":[0,0,0,0,0,0,0,0,0,0,0,0,0,0,0,0,0],"id":41,"left_children":[1,3,5,7,-1,9,11,13,-1,-1,-1,-1,15,-1,-1,-1,-1],"loss_changes":[2.8318718E1,5.102149E0,9.725759E0,2.4449196E0,0E0,2.8918393E0,5.157099E0,6.936207E-1,0E0,0E0,0E0,0E0,9.922581E-1,0E0,0E0,0E0,0E0],"parents":[2147483647,0,0,1,1,2,2,3,3,5,5,6,6,7,7,12,12],"right_children":[2,4,6,8,-1,10,12,14,-1,-1,-1,-1,16,-1,-1,-1,-1],"split_conditions":[4.9636546E-1,5.984161E-1,1E0,5.134452E-1,6.353583E-3,5.2096224E-1,3.753741E-1,5.2843727E-2,1.9305099E-3,5.106327E-3,-7.963338E-3,-2.0443995E-3,5.868314E-2,-1.6623453E-3,-9.581151E-3,4.667387E-3,1.7296923E-2],"split_indices":[16,46,22,18,0,14,1,46,0,0,0,0,10,0,0,0,0],"split_type":[0,0,0,0,0,0,0,0,0,0,0,0,0,0,0,0,0],"sum_hessian":[2.83659E1,1.7765865E1,1.0600036E1,1.6643631E1,1.1222336E0,3.0293083E0,7.5707273E0,1.5508428E1,1.1352038E0,1.20842E0,1.8208884E0,1.0274103E0,6.543317E0,1.1118827E0,1.4396545E1,1.1623379E0,5.380979E0],"tree_param":{"num_deleted":"0","num_feature":"60","num_nodes":"17","size_leaf_vector":"1"}},{"base_weights":[-1.3011622E-1,-1.0134089E0,1.0897623E0,-1.1461388E0,2.9810397E-3,-1.18521504E-1,1.6903546E0,-1.3348634E-3,-9.566933E-3,1.07955E0,-8.816292E-3,2.0579014E0,-6.5755653E-3,2.127849E-3,1.1886241E-2,1.766238E-2,5.100816E-3],"categories":[],"categories_nodes":[],"categories_segments":[],"categories_sizes":[],"default_left":[0,0,0,0,0,0,0,0,0,0,0,0,0,0,0,0,0],"id":42,"left_children":[1,3,5,7,-1,9,11,-1,-1,13,-1,15,-1,-1,-1,-1,-1],"loss_changes":[3.7181274E1,3.991829E0,1.0694983E1,7.462425E-1,0E0,7.4029913E0,1.02765255E1,0E0,0E0,6.52087E-1,0E0,8.016052E-1,0E0,0E0,0E0,0E0,0E0],"parents":[2147483647,0,0,1,1,2,2,3,3,5,5,6,6,9,9,11,11],"right_children":[2,4,6,8,-1,10,12,-1,-1,14,-1,16,-1,-1,-1,-1,-1],"split_conditions":[4.5929763E-1,8.190537E-1,5E-1,1.0695035E-2,2.9810397E-3,4.0033284E-1,4.960804E-1,-1.3348634E-3,-9.566933E-3,4.2076993E-1,-8.816292E-3,4.2127097E-1,-6.5755653E-3,2.127849E-3,1.1886241E-2,1.766238E-2,5.100816E-3],"split_indices":[16,55,1,9,0,19,51,0,0,14,0,9,0,0,0,0,0],"split_type":[0,0,0,0,0,0,0,0,0,0,0,0,0,0,0,0,0],"sum_hessian":[3.298797E1,1.9207266E1,1.3780703E1,1.764715E1,1.5601149E0,4.775416E0,9.005286E0,1.0106757E0,1.6636475E1,2.1198637E0,2.6555524E0,7.974306E0,1.0309801E0,1.1192914E0,1.0005723E0,6.8369074E0,1.1373992E0],"tree_param":{"num_deleted":"0","num_feature":"60","num_nodes":"17","size_leaf_vector":"1"}},{"base_weights":[-2.9955069E-2,-9.3594617E-1,1.4801964E0,-9.519728E-3,-8.6683884E-2,1.7366637E-2,1.9459046E0,9.392437E-1,-8.712163E-3,-4.591188E-3,6.9699017E-3,1.0071503E0,1.7452162E-2,1.1399921E-2,1.2927648E-3,7.303859E-4,1.1826559E-2],"categories":[],"categories_nodes":[],"categories_segments":[],"categories_sizes":[],"default_left":[0,0,0,0,0,0,0,0,0,0,0,0,0,0,0,0,0],"id":43,"left_children":[1,3,5,-1,7,9,11,13,-1,-1,-1,15,-1,-1,-1,-1,-1],"loss_changes":[4.30593E1,4.1629143E0,8.018122E0,0E0,6.2526565E0,2.1965077E0,3.3154678E-1,9.7520113E-1,0E0,0E0,0E0,1.2747476E0,0E0,0E0,0E0,0E0,0E0],"parents":[2147483647,0,0,1,1,2,2,4,4,5,5,6,6,7,7,11,11],"right_children":[2,4,6,-1,8,10,12,14,-1,-1,-1,16,-1,-1,-1,-1,-1],"split_conditions":[5E-1,4.7270316E-1,5E-1,-9.519728E-3,3.2905954E-1,1E0,6.817572E-1,8.7517716E-2,-8.712163E-3,-4.591188E-3,6.9699017E-3,3.8797718E-1,1.7452162E-2,1.1399921E-2,1.2927648E-3,7.303859E-4,1.1826559E-2],"split_indices":[17,0,0,0,14,30,19,54,0,0,0,44,0,0,0,0,0],"split_type":[0,0,0,0,0,0,0,0,0,0,0,0,0,0,0,0,0],"sum_hessian":[2.9962437E1,1.8905537E1,1.1056901E1,1.4321117E1,4.5844193E0,2.857914E0,8.198987E0,2.288879E0,2.2955406E0,1.8339238E0,1.0239902E0,2.438656E0,5.7603307E0,1.0245697E0,1.264309E0,1.1325498E0,1.3061062E0],"tree_param":{"num_deleted":"0","num_feature":"60","num_nodes":"17","size_leaf_vector":"1"}},{"base_weights":[6.3157104E-2,-4.709435E-1,1.646839E-2,-9.2222085E-3,5.430007E-2,-8.769392E-3,5.8129156E-1,1.6784828E0,-1.3170958E-2,4.5969696E-3,1.6787253E-2,-6.975392E-1,1.3729161E-2,-8.85649E-3,5.7614426E-4],"categories":[],"categories_nodes":[],"categories_segments":[],"categories_sizes":[],"default_left":[0,0,0,0,0,0,0,0,0,0,0,0,0,0,0],"id":44,"left_children":[1,3,-1,-1,5,-1,7,9,11,-1,-1,13,-1,-1,-1],"loss_changes":[3.1332449E1,8.378498E0,0E0,0E0,8.879455E0,0E0,6.535069E0,7.263031E-1,9.449924E0,0E0,0E0,1.8594806E0,0E0,0E0,0E0],"parents":[2147483647,0,0,1,1,4,4,6,6,7,7,8,8,11,11],"right_children":[2,4,-1,-1,6,-1,8,10,12,-1,-1,14,-1,-1,-1],"split_conditions":[6.8796295E-1,3.2879797E-1,1.646839E-2,-9.2222085E-3,1E0,-8.769392E-3,1E0,1E0,2.6208806E-1,4.5969696E-3,1.6787253E-2,2.165198E-1,1.3729161E-2,-8.85649E-3,5.7614426E-4],"split_indices":[15,2,0,0,34,0,20,27,9,0,0,12,0,0,0],"split_type":[0,0,0,0,0,0,0,0,0,0,0,0,0,0,0],"sum_hessian":[2.796747E1,2.2514158E1,5.4533105E0,9.4068365E0,1.3107322E1,3.8633044E0,9.244018E0,2.7678282E0,6.476189E0,1.2522668E0,1.5155615E0,4.9605536E0,1.5156355E0,3.0229535E0,1.9376E0],"tree_param":{"num_deleted":"0","num_feature":"60","num_nodes":"15","size_leaf_vector":"1"}},{"base_weights":[-2.4409352E-2,-8.4870493E-1,1.3238119E0,-1.0634118E0,1.1810451E-2,-6.974916E-3,1.606443E0,-9.614366E-3,6.7842114E-3,1.9605815E0,1.5170783E-1,9.855531E-1,1.7586788E-2,-7.3310924E-3,1.00215925E-2,-2.3523482E-4,1.3659018E-2],"categories":[],"categories_nodes":[],"categories_segments":[],"categories_sizes":[],"default_left":[0,0,0,0,0,0,0,0,0,0,0,0,0,0,0,0,0],"id":45,"left_children":[1,3,5,7,-1,-1,9,-1,-1,11,13,15,-1,-1,-1,-1,-1],"loss_changes":[3.8262203E1,1.1836522E1,9.160254E0,6.0502033E0,0E0,0E0,5.8776035E0,0E0,0E0,5.6829834E-1,4.5432453E0,2.39245E0,0E0,0E0,0E0,0E0,0E0],"parents":[2147483647,0,0,1,1,2,2,3,3,6,6,9,9,10,10,11,11],"right_children":[2,4,6,8,-1,-1,10,-1,-1,12,14,16,-1,-1,-1,-1,-1],"split_conditions":[4.9934146E-1,1.2017199E0,1E0,5.4481953E-1,1.1810451E-2,-6.974916E-3,5.345899E-1,-9.614366E-3,6.7842114E-3,6.1306274E-1,1.1041584E0,2.0062894E-1,1.7586788E-2,-7.3310924E-3,1.00215925E-2,-2.3523482E-4,1.3659018E-2],"split_indices":[16,42,34,14,0,0,52,0,0,16,55,8,0,0,0,0,0],"split_type":[0,0,0,0,0,0,0,0,0,0,0,0,0,0,0,0,0],"sum_hessian":[3.2920887E1,2.0602499E1,1.2318387E1,1.9233332E1,1.3691671E0,1.2264965E0,1.109189E1,1.8194532E1,1.0387983E0,8.710602E0,2.3812885E0,2.4642105E0,6.246392E0,1.2725323E0,1.1087563E0,1.3231609E0,1.1410496E0],"tree_param":{"num_deleted":"0","num_feature":"60","num_nodes":"17","size_leaf_vector":"1"}},{"base_weights":[8.382838E-3,-8.569867E-1,1.1810521E0,-1.0426421E0,1.1386587E-2,-4.6730042E-1,1.5699636E0,-9.530464E-3,5.2492945E-3,-7.401323E-3,2.6380045E-3,-2.8888383E-3,1.8152989E0,3.8082518E-3,1.9786048E0,4.5083365E-3,1.7032133E-2],"categories":[],"categories_nodes":[],"categories_segments":[],"categories_sizes":[],"default_left":[0,0,0,0,0,0,0,0,0,0,0,0,0,0,0,0,0],"id":46,"left_children":[1,3,5,7,-1,9,11,-1,-1,-1,-1,-1,13,-1,15,-1,-1],"loss_changes":[3.434749E1,9.359641E0,9.761932E0,5.24481E0,0E0,1.440803E0,6.0812054E0,0E0,0E0,0E0,0E0,0E0,1.6103516E0,0E0,1.0591393E0,0E0,0E0],"parents":[2147483647,0,0,1,1,2,2,3,3,5,5,6,6,12,12,14,14],"right_children":[2,4,6,8,-1,10,12,-1,-1,-1,-1,-1,14,-1,16,-1,-1],"split_conditions":[4.7644305E-1,1.4227954E0,1E0,5.2865237E-1,1.1386587E-2,4.8430085E-1,1.3890427E-1,-9.530464E-3,5.2492945E-3,-7.401323E-3,2.6380045E-3,-2.8888383E-3,3.2257453E-1,3.8082518E-3,7.561421E-2,4.5083365E-3,1.7032133E-2],"split_indices":[2,41,24,18,0,46,13,0,0,0,0,0,0,0,42,0,0],"split_type":[0,0,0,0,0,0,0,0,0,0,0,0,0,0,0,0,0],"sum_hessian":[3.2348778E1,1.8729368E1,1.3619409E1,1.7695713E1,1.0336553E0,2.571072E0,1.1048337E1,1.6477762E1,1.2179507E0,1.5564308E0,1.0146413E0,1.2055302E0,9.842807E0,1.3888787E0,8.453928E0,1.1543049E0,7.299623E0],"tree_param":{"num_deleted":"0","num_feature":"60","num_nodes":"17","size_leaf_vector":"1"}},{"base_weights":[7.78876E-2,-9.807482E-1,1.1231955E0,-1.0771141E0,2.5704307E-3,-5.5959743E-2,1.5798924E0,-1.3735172E-3,-1.1266932E0,-8.593759E-3,8.910854E-1,8.6382085E-1,1.681928E-2,-9.441147E-3,-1.8294582E-3,-6.010943E-3,1.4737977E-2,-2.5925688E-3,1.3836132E0,1.4446847E-3,1.5984239E-2],"categories":[],"categories_nodes":[],"categories_segments":[],"categories_sizes":[],"default_left":[0,0,0,0,0,0,0,0,0,0,0,0,0,0,0,0,0,0,0,0,0],"id":47,"left_children":[1,3,5,7,-1,9,11,-1,13,-1,15,17,-1,-1,-1,-1,-1,-1,19,-1,-1],"loss_changes":[4.0056686E1,2.5198135E0,9.86063E0,6.15572E-1,0E0,6.31296E0,3.5527458E0,0E0,5.622215E-1,0E0,6.3748226E0,4.543974E0,0E0,0E0,0E0,0E0,0E0,0E0,3.3384304E0,0E0,0E0],"parents":[2147483647,0,0,1,1,2,2,3,3,5,5,6,6,8,8,10,10,11,11,18,18],"right_children":[2,4,6,8,-1,10,12,-1,14,-1,16,18,-1,-1,-1,-1,-1,-1,20,-1,-1],"split_conditions":[4.7475302E-1,5.262348E-1,2.8461352E-1,6.6534966E-2,2.5704307E-3,1.2977864E-1,6.6623086E-1,-1.3735172E-3,5.984161E-1,-8.593759E-3,3.7975582E-1,2.899927E-1,1.681928E-2,-9.441147E-3,-1.8294582E-3,-6.010943E-3,1.4737977E-2,-2.5925688E-3,1.4178811E-1,1.4446847E-3,1.5984239E-2],"split_indices":[2,5,5,58,0,9,19,0,46,0,19,53,0,0,0,0,0,0,9,0,0],"split_type":[0,0,0,0,0,0,0,0,0,0,0,0,0,0,0,0,0,0,0,0,0],"sum_hessian":[3.470138E1,1.7263794E1,1.743759E1,1.6194773E1,1.0690212E0,5.051952E0,1.2385637E1,1.0145242E0,1.5180248E1,2.385912E0,2.6660397E0,6.064534E0,6.321103E0,1.4105078E1,1.0751709E0,1.0354968E0,1.6305428E0,1.9319082E0,4.132626E0,1.7251728E0,2.407453E0],"tree_param":{"num_deleted":"0","num_feature":"60","num_nodes":"21","size_leaf_vector":"1"}},{"base_weights":[-1.22989E-1,-7.982777E-1,1.5155714E0,-1.0719339E0,1.513008E0,1.8718163E0,-1.2180213E-3,-3.075894E-1,-1.1522273E0,1.6388932E-2,2.652508E-3,5.5638826E-3,1.5868053E-2,-6.1315116E-3,2.573275E-3,-1.5490303E-3,-9.6236495E-3],"categories":[],"categories_nodes":[],"categories_segments":[],"categories_sizes":[],"default_left":[0,0,0,0,0,0,0,0,0,0,0,0,0,0,0,0,0],"id":48,"left_children":[1,3,5,7,9,11,-1,13,15,-1,-1,-1,-1,-1,-1,-1,-1],"loss_changes":[3.6351833E1,1.5874813E1,5.922035E0,1.0328789E0,1.2399144E0,1.2895584E-2,0E0,1.0611209E0,7.43227E-1,0E0,0E0,0E0,0E0,0E0,0E0,0E0,0E0],"parents":[2147483647,0,0,1,1,2,2,3,3,4,4,5,5,7,7,8,8],"right_children":[2,4,6,8,10,12,-1,14,16,-1,-1,-1,-1,-1,-1,-1,-1],"split_conditions":[5.3528774E-1,1.2017199E0,5.893797E-1,4.8765983E-2,8.2143325E-1,1.04325995E-1,-1.2180213E-3,2.0752512E-1,3.9400008E-2,1.6388932E-2,2.652508E-3,5.5638826E-3,1.5868053E-2,-6.1315116E-3,2.573275E-3,-1.5490303E-3,-9.6236495E-3],"split_indices":[3,42,41,9,45,9,0,2,42,0,0,0,0,0,0,0,0],"split_type":[0,0,0,0,0,0,0,0,0,0,0,0,0,0,0,0,0],"sum_hessian":[3.1282904E1,2.2425465E1,8.857439E0,2.0410969E1,2.0144956E0,7.2229047E0,1.634535E0,2.2847395E0,1.8126228E1,1.0073284E0,1.0071673E0,1.0963408E0,6.1265635E0,1.2267061E0,1.0580332E0,1.0926E0,1.7033628E1],"tree_param":{"num_deleted":"0","num_feature":"60","num_nodes":"17","size_leaf_vector":"1"}},{"base_weights":[-7.145693E-2,-9.812919E-1,1.7535359E0,-1.1337217E0,9.426904E-3,9.981669E-4,1.93192E0,-1.1705694E0,-1.7673504E-3,3.9431113E-3,1.6583825E-2,-4.274556E-3,-9.677664E-3],"categories":[],"categories_nodes":[],"categories_segments":[],"categories_sizes":[],"default_left":[0,0,0,0,0,0,0,0,0,0,0,0,0],"id":49,"left_children":[1,3,5,7,-1,-1,9,11,-1,-1,-1,-1,-1],"loss_changes":[5.9998596E1,8.927366E0,3.3150024E0,5.7527924E-1,0E0,0E0,1.4243965E0,5.8288574E-2,0E0,0E0,0E0,0E0,0E0],"parents":[2147483647,0,0,1,1,2,2,3,3,6,6,7,7],"right_children":[2,4,6,8,-1,-1,10,12,-1,-1,-1,-1,-1],"split_conditions":[5.779134E-1,1.4545703E0,4.456496E-1,7.352274E-1,9.426904E-3,9.981669E-4,6.1356317E-2,5.196522E-2,-1.7673504E-3,3.9431113E-3,1.6583825E-2,-4.274556E-3,-9.677664E-3],"split_indices":[3,58,16,53,0,0,46,43,0,0,0,0,0],"split_type":[0,0,0,0,0,0,0,0,0,0,0,0,0],"sum_hessian":[3.4606876E1,2.3325079E1,1.1281796E1,2.2120111E1,1.2049677E0,1.2394438E0,1.0042353E1,2.1058245E1,1.0618657E0,1.1974103E0,8.844942E0,1.8571255E0,1.920112E1],"tree_param":{"num_deleted":"0","num_feature":"60","num_nodes":"13","size_leaf_vector":"1"}},{"base_weights":[-8.149289E-2,-7.8495115E-1,1.6661732E0,-9.283461E-1,1.1676488E-2,7.392265E-3,1.6844524E-2,-1.0634369E0,3.56898E-1,6.6571184E-3,-6.597481E-3,-1.1349931E0,-3.814318E-1,6.961499E-3,-2.3773094E-3,-2.5815354E-3,-9.472694E-3,-6.8496694E-3,2.7665172E-3],"categories":[],"categories_nodes":[],"categories_segments":[],"categories_sizes":[],"default_left":[0,0,0,0,0,0,0,0,0,0,0,0,0,0,0,0,0,0,0],"id":50,"left_children":[1,3,5,7,-1,9,-1,11,13,-1,-1,15,17,-1,-1,-1,-1,-1,-1],"loss_changes":[4.2368168E1,8.9056835E0,7.2051926E0,4.3646736E0,0E0,2.4541874E0,0E0,7.222271E-1,1.1328189E0,0E0,0E0,4.7255516E-1,1.3154665E0,0E0,0E0,0E0,0E0,0E0,0E0],"parents":[2147483647,0,0,1,1,2,2,3,3,5,5,7,7,8,8,11,11,12,12],"right_children":[2,4,6,8,-1,10,-1,12,14,-1,-1,16,18,-1,-1,-1,-1,-1,-1],"split_conditions":[6.1306274E-1,9.8116934E-1,1E0,5.555541E-1,1.1676488E-2,1.7144634E-1,1.6844524E-2,4.0782323E-1,4.810906E-1,6.6571184E-3,-6.597481E-3,2.3254242E-2,1E0,6.961499E-3,-2.3773094E-3,-2.5815354E-3,-9.472694E-3,-6.8496694E-3,2.7665172E-3],"split_indices":[16,43,22,5,0,13,0,14,1,0,0,7,20,0,0,0,0,0,0],"split_type":[0,0,0,0,0,0,0,0,0,0,0,0,0,0,0,0,0,0,0],"sum_hessian":[3.291433E1,2.3762684E1,9.151646E0,2.2749107E1,1.0135754E0,2.0762107E0,7.0754347E0,2.0702522E1,2.0465863E0,1.0426698E0,1.033541E0,1.8285816E1,2.4167058E0,1.0078368E0,1.0387493E0,1.3658725E0,1.6919943E1,1.3816862E0,1.0350195E0],"tree_param":{"num_deleted":"0","num_feature":"60","num_nodes":"19","size_leaf_vector":"1"}},{"base_weights":[2.4872046E-2,-8.3927643E-1,1.3118742E0,-1.0244265E0,9.255461E-3,-7.8052694E-1,1.8955104E0,-1.1197941E0,1.0330799E-3,-2.0686567E-3,-7.4135945E-3,1.9204271E-3,1.7686179E-2,-1.3200137E-3,-9.414276E-3],"categories":[],"categories_nodes":[],"categories_segments":[],"categories_sizes":[],"default_left":[0,0,0,0,0,0,0,0,0,0,0,0,0,0,0],"id":51,"left_children":[1,3,5,7,-1,9,11,13,-1,-1,-1,-1,-1,-1,-1],"loss_changes":[3.5494312E1,7.9509068E0,1.6759264E1,2.0758362E0,0E0,7.404399E-2,4.945633E0,7.5738335E-1,0E0,0E0,0E0,0E0,0E0,0E0,0E0],"parents":[2147483647,0,0,1,1,2,2,3,3,5,5,6,6,7,7],"right_children":[2,4,6,8,-1,10,12,14,-1,-1,-1,-1,-1,-1,-1],"split_conditions":[4.5145416E-1,7.3430574E-1,1E0,5.966999E-1,9.255461E-3,1.3980556E-1,2.241429E-1,4.0696893E-2,1.0330799E-3,-2.0686567E-3,-7.4135945E-3,1.9204271E-3,1.7686179E-2,-1.3200137E-3,-9.414276E-3],"split_indices":[16,45,39,53,0,10,4,53,0,0,0,0,0,0,0],"split_type":[0,0,0,0,0,0,0,0,0,0,0,0,0,0,0],"sum_hessian":[3.0422235E1,1.835728E1,1.2064956E1,1.7133268E1,1.2240134E0,2.5761518E0,9.488804E0,1.5845256E1,1.2880117E0,1.017977E0,1.5581748E0,1.7292893E0,7.7595143E0,1.0570658E0,1.478819E1],"tree_param":{"num_deleted":"0","num_feature":"60","num_nodes":"15","size_leaf_vector":"1"}},{"base_weights":[1.4148986E-1,-8.74452E-1,1.2937281E0,-1.1279554E0,3.7498483E-1,-5.937359E-1,1.6944273E0,-1.4008974E-3,-9.455651E-3,-6.887112E-3,1.0957886E-2,1.989151E-3,-7.957814E-3,-1.9562023E-3,1.9710425E0,9.4837113E-4,1.7201947E-2],"categories":[],"categories_nodes":[],"categories_segments":[],"categories_sizes":[],"default_left":[0,0,0,0,0,0,0,0,0,0,0,0,0,0,0,0,0],"id":52,"left_children":[1,3,5,7,9,11,13,-1,-1,-1,-1,-1,-1,-1,15,-1,-1],"loss_changes":[4.5793663E1,6.9217157E0,1.4589687E1,7.463341E-1,5.9002447E0,1.4551857E0,8.559082E0,0E0,0E0,0E0,0E0,0E0,0E0,0E0,4.2767105E0,0E0,0E0],"parents":[2147483647,0,0,1,1,2,2,3,3,4,4,5,5,6,6,14,14],"right_children":[2,4,6,8,10,12,14,-1,-1,-1,-1,-1,-1,-1,16,-1,-1],"split_conditions":[4.6928108E-1,4.947665E-1,1E0,4.4988662E-2,3.2700273E-1,9.261577E-2,3.6857706E-1,-1.4008974E-3,-9.455651E-3,-6.887112E-3,1.0957886E-2,1.989151E-3,-7.957814E-3,-1.9562023E-3,4.426443E-1,9.4837113E-4,1.7201947E-2],"split_indices":[16,2,38,47,40,11,4,0,0,0,0,0,0,0,17,0,0],"split_type":[0,0,0,0,0,0,0,0,0,0,0,0,0,0,0,0,0],"sum_hessian":[3.7644764E1,2.0101686E1,1.7543077E1,1.6771723E1,3.3299634E0,3.0088413E0,1.4534237E1,1.0701971E0,1.5701527E1,1.5300112E0,1.7999523E0,1.0622561E0,1.9465852E0,1.8254724E0,1.2708764E1,1.2308592E0,1.1477905E1],"tree_param":{"num_deleted":"0","num_feature":"60","num_nodes":"17","size_leaf_vector":"1"}},{"base_weights":[-7.1706916E-3,-8.39013E-1,1.1860818E0,-9.7057426E-1,6.580304E-3,-1.1994992E-1,1.6011142E0,-1.063929E0,2.685419E-3,-7.998736E-3,9.749553E-3,6.0514896E-4,1.8303523E0,4.602358E-4,-9.381148E-3,1.0954273E0,1.6860543E-2,1.1811101E-2,6.5682497E-4],"categories":[],"categories_nodes":[],"categories_segments":[],"categories_sizes":[],"default_left":[0,0,0,0,0,0,0,0,0,0,0,0,0,0,0,0,0,0,0],"id":53,"left_children":[1,3,5,7,-1,9,11,13,-1,-1,-1,-1,15,-1,-1,17,-1,-1,-1],"loss_changes":[3.32703E1,4.915225E0,7.6080723E0,2.5410976E0,0E0,5.6469693E0,3.5685787E0,2.1936932E0,0E0,0E0,0E0,0E0,1.2193489E-1,0E0,0E0,1.473855E0,0E0,0E0,0E0],"parents":[2147483647,0,0,1,1,2,2,3,3,5,5,6,6,7,7,12,12,15,15],"right_children":[2,4,6,8,-1,10,12,14,-1,-1,-1,-1,16,-1,-1,18,-1,-1,-1],"split_conditions":[4.1279143E-1,4.6640193E-1,1E0,1.0019712E0,6.580304E-3,4.868108E-1,4.874114E-1,5.670178E-2,2.685419E-3,-7.998736E-3,9.749553E-3,6.0514896E-4,9.744511E-2,4.602358E-4,-9.381148E-3,1.3203864E-1,1.6860543E-2,1.1811101E-2,6.5682497E-4],"split_indices":[19,14,25,43,0,48,1,53,0,0,0,0,7,0,0,10,0,0,0],"split_type":[0,0,0,0,0,0,0,0,0,0,0,0,0,0,0,0,0,0,0],"sum_hessian":[3.201649E1,1.8996363E1,1.3020127E1,1.7891605E1,1.1047574E0,3.268377E0,9.75175E0,1.6828075E1,1.0635301E0,2.0866442E0,1.1817329E0,1.4042987E0,8.347452E0,1.5183591E0,1.5309717E1,3.3034205E0,5.044031E0,2.1517408E0,1.1516798E0],"tree_param":{"num_deleted":"0","num_feature":"60","num_nodes":"19","size_leaf_vector":"1"}},{"base_weights":[-1.249851E-1,-7.538221E-1,1.4671607E0,-9.6922904E-1,1.6557127E-2,1.7824125E-2,1.6411979E-2,-1.0795143E0,5.5475393E-3,-7.3714787E-3,9.327171E-3,-1.1554844E0,-2.6131248E-1,-1.2937606E-3,-9.624424E-3,-6.056199E-3,3.0345246E-3],"categories":[],"categories_nodes":[],"categories_segments":[],"categories_sizes":[],"default_left":[0,0,0,0,0,0,0,0,0,0,0,0,0,0,0,0,0],"id":54,"left_children":[1,3,5,7,-1,9,-1,11,-1,-1,-1,13,15,-1,-1,-1,-1],"loss_changes":[3.516959E1,1.6759897E1,8.41259E0,4.92852E0,0E0,4.709352E0,0E0,1.1800671E0,0E0,0E0,0E0,8.2250214E-1,1.1336656E0,0E0,0E0,0E0,0E0],"parents":[2147483647,0,0,1,1,2,2,3,3,5,5,7,7,11,11,12,12],"right_children":[2,4,6,8,-1,10,-1,12,-1,-1,-1,14,16,-1,-1,-1,-1],"split_conditions":[6.0329384E-1,1.3341594E0,1E0,5.4944223E-1,1.6557127E-2,2.44101E-1,1.6411979E-2,5.7335377E-1,5.5475393E-3,-7.3714787E-3,9.327171E-3,3.406498E-2,1E0,-1.2937606E-3,-9.624424E-3,-6.056199E-3,3.0345246E-3],"split_indices":[18,56,25,14,0,13,0,7,0,0,0,44,38,0,0,0,0],"split_type":[0,0,0,0,0,0,0,0,0,0,0,0,0,0,0,0,0],"sum_hessian":[3.3548946E1,2.4333172E1,9.215774E0,2.306597E1,1.2672012E0,2.8700447E0,6.3457284E0,2.1877861E1,1.188109E0,1.660013E0,1.2100317E0,1.9736183E1,2.141678E0,1.0522932E0,1.868389E1,1.130578E0,1.0111E0],"tree_param":{"num_deleted":"0","num_feature":"60","num_nodes":"17","size_leaf_vector":"1"}},{"base_weights":[-6.262885E-2,-8.635104E-1,1.0650648E0,-1.1148953E0,2.4192731E-1,-4.1312826E-1,1.6587546E0,-9.320785E-3,-1.9727822E-3,-6.5103443E-3,9.027033E-3,-7.8592105E-3,4.860866E-3,1.5327098E-3,1.8307102E0,4.162527E-3,1.5926419E-2],"categories":[],"categories_nodes":[],"categories_segments":[],"categories_sizes":[],"default_left":[0,0,0,0,0,0,0,0,0,0,0,0,0,0,0,0,0],"id":55,"left_children":[1,3,5,7,9,11,13,-1,-1,-1,-1,-1,-1,-1,15,-1,-1],"loss_changes":[2.7820408E1,5.198615E0,1.1756365E1,4.288826E-1,4.382868E0,2.9296267E0,2.0805187E0,0E0,0E0,0E0,0E0,0E0,0E0,0E0,9.49028E-1,0E0,0E0],"parents":[2147483647,0,0,1,1,2,2,3,3,4,4,5,5,6,6,14,14],"right_children":[2,4,6,8,10,12,14,-1,-1,-1,-1,-1,-1,-1,16,-1,-1],"split_conditions":[4.4749042E-1,3.3697873E-1,1E0,5.0192434E-1,1E0,5.576204E-1,7.3220894E-2,-9.320785E-3,-1.9727822E-3,-6.5103443E-3,9.027033E-3,-7.8592105E-3,4.860866E-3,1.5327098E-3,4.8715986E-2,4.162527E-3,1.5926419E-2],"split_indices":[3,13,38,2,25,3,10,0,0,0,0,0,0,0,47,0,0],"split_type":[0,0,0,0,0,0,0,0,0,0,0,0,0,0,0,0,0],"sum_hessian":[2.9290047E1,1.7229475E1,1.2060573E1,1.4032061E1,3.197414E0,3.5212705E0,8.539302E0,1.3022753E1,1.0093074E0,1.4874312E0,1.7099828E0,2.2786283E0,1.2426423E0,1.0621783E0,7.4771237E0,1.1610674E0,6.3160563E0],"tree_param":{"num_deleted":"0","num_feature":"60","num_nodes":"17","size_leaf_vector":"1"}},{"base_weights":[5.7060003E-2,-7.7869844E-1,1.288138E0,-9.773694E-1,6.2835617E-3,-4.7077215E-3,1.5933696E0,3.864833E-3,-1.1285788E0,-1.295498E-3,1.9056652E0,-9.412257E-3,-1.9855085E-3,4.243323E-3,1.6710676E-2],"categories":[],"categories_nodes":[],"categories_segments":[],"categories_sizes":[],"default_left":[0,0,0,0,0,0,0,0,0,0,0,0,0,0,0],"id":56,"left_children":[1,3,5,7,-1,-1,9,-1,11,-1,13,-1,-1,-1,-1],"loss_changes":[3.5794827E1,7.025058E0,8.753784E0,4.549427E0,0E0,0E0,6.968979E0,0E0,5.0777245E-1,0E0,1.8123016E0,0E0,0E0,0E0,0E0],"parents":[2147483647,0,0,1,1,2,2,3,3,6,6,8,8,10,10],"right_children":[2,4,6,8,-1,-1,10,-1,12,-1,14,-1,-1,-1,-1],"split_conditions":[4.9757528E-1,4.8507124E-1,1E0,9.052878E-2,6.2835617E-3,-4.7077215E-3,3.97257E-1,3.864833E-3,4.7439095E-1,-1.295498E-3,6.494699E-2,-9.412257E-3,-1.9855085E-3,4.243323E-3,1.6710676E-2],"split_indices":[3,14,33,58,0,0,18,0,5,0,54,0,0,0,0],"split_type":[0,0,0,0,0,0,0,0,0,0,0,0,0,0,0],"sum_hessian":[3.3308773E1,2.0003994E1,1.3304779E1,1.7999168E1,2.0048242E0,1.7639344E0,1.1540845E1,1.5342476E0,1.6464922E1,1.7976977E0,9.743147E0,1.537518E1,1.0897415E0,1.4885815E0,8.254565E0],"tree_param":{"num_deleted":"0","num_feature":"60","num_nodes":"15","size_leaf_vector":"1"}},{"base_weights":[4.126532E-2,-6.520406E-1,1.6653812E0,-9.998951E-1,3.3657998E-1,1.5814977E-2,-3.2775714E-3,-1.1007947E0,1.7247208E-3,-7.0872355E-1,1.1157225E0,-1.491309E-3,-9.277176E-3,-1.772499E-3,-6.9057397E-3,1.4290676E-2,-2.5319168E-3],"categories":[],"categories_nodes":[],"categories_segments":[],"categories_sizes":[],"default_left":[0,0,0,0,0,0,0,0,0,0,0,0,0,0,0,0,0],"id":57,"left_children":[1,3,5,7,9,-1,-1,11,-1,13,15,-1,-1,-1,-1,-1,-1],"loss_changes":[3.5795555E1,7.925165E0,6.751301E0,2.225254E0,5.779606E0,0E0,0E0,6.73933E-1,0E0,9.576392E-2,4.2082067E0,0E0,0E0,0E0,0E0,0E0,0E0],"parents":[2147483647,0,0,1,1,2,2,3,3,4,4,7,7,9,9,10,10],"right_children":[2,4,6,8,10,-1,-1,12,-1,14,16,-1,-1,-1,-1,-1,-1],"split_conditions":[5.535351E-1,4.3607557E-1,4.732759E-1,1.1572015E0,4.369883E-1,1.5814977E-2,-3.2775714E-3,5.0055977E-2,1.7247208E-3,2.4344738E-1,5.524173E-1,-1.491309E-3,-9.277176E-3,-1.772499E-3,-6.9057397E-3,1.4290676E-2,-2.5319168E-3],"split_indices":[17,3,47,42,58,0,0,42,0,52,52,0,0,0,0,0,0],"split_type":[0,0,0,0,0,0,0,0,0,0,0,0,0,0,0,0,0],"sum_hessian":[3.0316475E1,2.1561256E1,8.7552185E0,1.5943017E1,5.618239E0,7.6433644E0,1.1118542E0,1.4786345E1,1.1566725E0,2.4282565E0,3.1899824E0,1.0831518E0,1.3703193E1,1.0242152E0,1.4040414E0,2.0463622E0,1.1436201E0],"tree_param":{"num_deleted":"0","num_feature":"60","num_nodes":"17","size_leaf_vector":"1"}},{"base_weights":[-2.2163682E-1,-8.6331743E-1,1.1217234E0,-1.0206205E0,1.1503612E-2,1.9812484E-1,1.3847722E-2,2.9120776E-3,-1.1055707E0,-5.950995E-1,9.668773E-3,-9.474336E-3,-3.7346137E-1,1.1288788E-3,-8.276062E-3,2.674144E-3,-6.8908595E-3],"categories":[],"categories_nodes":[],"categories_segments":[],"categories_sizes":[],"default_left":[0,0,0,0,0,0,0,0,0,0,0,0,0,0,0,0,0],"id":58,"left_children":[1,3,5,7,-1,9,-1,-1,11,13,-1,-1,15,-1,-1,-1,-1],"loss_changes":[2.9350765E1,9.389036E0,5.966488E0,2.8742714E0,0E0,4.7418923E0,0E0,0E0,8.6655235E-1,1.2222557E0,0E0,0E0,1.2912129E0,0E0,0E0,0E0,0E0],"parents":[2147483647,0,0,1,1,2,2,3,3,5,5,8,8,9,9,12,12],"right_children":[2,4,6,8,-1,10,-1,-1,12,14,-1,-1,16,-1,-1,-1,-1],"split_conditions":[5.016791E-1,1.2017199E0,6.241399E-1,5.2957166E-2,1.1503612E-2,7.01298E-1,1.3847722E-2,2.9120776E-3,5.0582427E-1,5.4149115E-1,9.668773E-3,-9.474336E-3,1.2210465E-1,1.1288788E-3,-8.276062E-3,2.674144E-3,-6.8908595E-3],"split_indices":[16,42,14,43,0,16,0,0,19,17,0,0,14,0,0,0,0],"split_type":[0,0,0,0,0,0,0,0,0,0,0,0,0,0,0,0,0],"sum_hessian":[3.245671E1,2.2146187E1,1.0310524E1,2.1119911E1,1.0262765E0,4.493049E0,5.8174753E0,1.0784351E0,2.0041475E1,2.689826E0,1.8032234E0,1.7677444E1,2.3640308E0,1.195674E0,1.4941521E0,1.0610533E0,1.3029774E0],"tree_param":{"num_deleted":"0","num_feature":"60","num_nodes":"17","size_leaf_vector":"1"}},{"base_weights":[-7.752236E-4,-9.1295886E-1,1.2398959E0,-1.0530899E0,5.7076216E-3,-7.3020244E-3,1.5841588E0,-1.1679442E-3,-9.2832185E-3,-2.3566212E-3,1.7857847E0,6.0699577E-3,1.5528595E-2],"categories":[],"categories_nodes":[],"categories_segments":[],"categories_sizes":[],"default_left":[0,0,0,0,0,0,0,0,0,0,0,0,0],"id":59,"left_children":[1,3,5,7,-1,-1,9,-1,-1,-1,11,-1,-1],"loss_changes":[3.652081E1,4.8018723E0,1.1217472E1,1.5690804E0,0E0,0E0,4.963768E0,0E0,0E0,0E0,6.4969635E-1,0E0,0E0],"parents":[2147483647,0,0,1,1,2,2,3,3,6,6,10,10],"right_children":[2,4,6,8,-1,-1,10,-1,-1,-1,12,-1,-1],"split_conditions":[4.956665E-1,4.9008328E-1,1.845561E-1,4.7725752E-2,5.7076216E-3,-7.3020244E-3,1E0,-1.1679442E-3,-9.2832185E-3,-2.3566212E-3,5.6710225E-1,6.0699577E-3,1.5528595E-2],"split_indices":[1,14,14,51,0,0,36,0,0,0,18,0,0],"split_type":[0,0,0,0,0,0,0,0,0,0,0,0,0],"sum_hessian":[3.0770014E1,1.7846653E1,1.2923361E1,1.6674376E1,1.1722779E0,1.6110566E0,1.13123045E1,1.9512305E0,1.4723145E1,1.0628631E0,1.0249441E1,1.9259912E0,8.32345E0],"tree_param":{"num_deleted":"0","num_feature":"60","num_nodes":"13","size_leaf_vector":"1"}},{"base_weights":[2.9703745E-1,-8.038768E-1,1.3718363E0,-9.870757E-1,5.329306E-3,3.2887113E-1,1.9922345E0,1.4016645E-1,-9.210829E-3,-8.740707E-1,1.2846217E0,5.2025886E-3,1.7298432E-2,-5.7488154E-3,7.7161877E-3,-1.8103137E-3,-8.427559E-3,1.4245713E-2,1.5420587E-3],"categories":[],"categories_nodes":[],"categories_segments":[],"categories_sizes":[],"default_left":[0,0,0,0,0,0,0,0,0,0,0,0,0,0,0,0,0,0,0],"id":60,"left_children":[1,3,5,7,-1,9,11,13,-1,15,17,-1,-1,-1,-1,-1,-1,-1,-1],"loss_changes":[4.414945E1,5.491417E0,1.1675282E1,3.233017E0,0E0,9.93804E0,1.6021996E0,2.5064046E0,0E0,2.8007674E-1,2.2950993E0,0E0,0E0,0E0,0E0,0E0,0E0,0E0,0E0],"parents":[2147483647,0,0,1,1,2,2,3,3,5,5,6,6,7,7,9,9,10,10],"right_children":[2,4,6,8,-1,10,12,14,-1,16,18,-1,-1,-1,-1,-1,-1,-1,-1],"split_conditions":[4.6137494E-1,5.619709E-1,1.4945686E-1,8.794604E-2,5.329306E-3,6.01012E-1,1.53393E-1,2.3164597E-1,-9.210829E-3,1.1003413E-1,1.1697571E-1,5.2025886E-3,1.7298432E-2,-5.7488154E-3,7.7161877E-3,-1.8103137E-3,-8.427559E-3,1.4245713E-2,1.5420587E-3],"split_indices":[2,44,9,58,0,2,13,2,0,7,53,0,0,0,0,0,0,0,0],"split_type":[0,0,0,0,0,0,0,0,0,0,0,0,0,0,0,0,0,0,0],"sum_hessian":[3.586267E1,1.7809494E1,1.8053177E1,1.6055086E1,1.754408E0,7.1614594E0,1.0891717E1,2.0561655E0,1.399892E1,3.1990795E0,3.9623797E0,1.6320608E0,9.259657E0,1.0541881E0,1.0019773E0,1.0615652E0,2.1375144E0,2.3991487E0,1.5632311E0],"tree_param":{"num_deleted":"0","num_feature":"60","num_nodes":"19","size_leaf_vector":"1"}},{"base_weights":[1.3905561E-1,-8.858055E-1,9.124692E-1,-1.0920603E0,7.9233525E-3,-4.4558182E-1,1.3795987E0,-9.944912E-4,-9.210443E-3,-8.891309E-3,6.53762E-1,1.4744267E-1,2.0362017E0,1.43982135E-2,-6.6103176E-3,-7.3297373E-3,7.223357E-1,4.64152E-3,1.7852424E-2,1.2025807E0,-3.7758632E-3,8.158259E-4,1.3908789E-2],"categories":[],"categories_nodes":[],"categories_segments":[],"categories_sizes":[],"default_left":[0,0,0,0,0,0,0,0,0,0,0,0,0,0,0,0,0,0,0,0,0,0,0],"id":61,"left_children":[1,3,5,7,-1,9,11,-1,-1,-1,13,15,17,-1,-1,-1,19,-1,-1,21,-1,-1,-1],"loss_changes":[3.1623604E1,7.4713535E0,1.4843273E1,8.0213356E-1,0E0,5.207107E0,1.3570427E1,0E0,0E0,0E0,5.991368E0,4.6156135E0,2.176342E0,0E0,0E0,0E0,3.174387E0,0E0,0E0,2.0081067E0,0E0,0E0,0E0],"parents":[2147483647,0,0,1,1,2,2,3,3,5,5,6,6,10,10,11,11,12,12,16,16,19,19],"right_children":[2,4,6,8,-1,10,12,-1,-1,-1,14,16,18,-1,-1,-1,20,-1,-1,22,-1,-1,-1],"split_conditions":[3.8992476E-1,5.215053E-1,1E0,4.9793653E-2,7.9233525E-3,1E0,2.3955639E-1,-9.944912E-4,-9.210443E-3,-8.891309E-3,5.0113374E-1,3.5745788E-1,9.402317E-2,1.43982135E-2,-6.6103176E-3,-7.3297373E-3,4.450741E-1,4.64152E-3,1.7852424E-2,4.7333884E-1,-3.7758632E-3,8.158259E-4,1.3908789E-2],"split_indices":[0,13,36,56,0,33,13,0,0,0,15,15,41,0,0,0,6,0,0,4,0,0,0],"split_type":[0,0,0,0,0,0,0,0,0,0,0,0,0,0,0,0,0,0,0,0,0,0,0],"sum_hessian":[3.838169E1,1.6460571E1,2.192112E1,1.5112682E1,1.3478884E0,5.619259E0,1.630186E1,1.0058652E0,1.4106817E1,3.4945223E0,2.1247365E0,5.9864097E0,1.0315452E1,1.1061893E0,1.0185473E0,1.9441253E0,4.042284E0,1.5725132E0,8.742938E0,2.8793044E0,1.1629796E0,1.2353845E0,1.64392E0],"tree_param":{"num_deleted":"0","num_feature":"60","num_nodes":"23","size_leaf_vector":"1"}},{"base_weights":[4.081023E-2,-6.5350854E-1,1.1991062E0,-9.5864964E-1,1.8600208E-1,4.984841E-1,1.75076E0,7.8924425E-4,-1.0756181E0,-7.38189E-1,1.0353149E0,-5.79602E-1,1.2457517E-2,3.6276728E-3,1.6382169E-2,-9.115711E-3,-1.3403469E-3,-7.027909E-3,-1.9550382E-3,-2.4990498E-3,1.5685683E-2,2.1401562E-3,-7.880651E-3],"categories":[],"categories_nodes":[],"categories_segments":[],"categories_sizes":[],"default_left":[0,0,0,0,0,0,0,0,0,0,0,0,0,0,0,0,0,0,0,0,0,0,0],"id":62,"left_children":[1,3,5,7,9,11,13,-1,15,17,19,21,-1,-1,-1,-1,-1,-1,-1,-1,-1,-1,-1],"loss_changes":[2.5772799E1,5.2737274E0,3.9838772E0,1.9146004E0,5.2647114E0,7.9078336E0,1.7756519E0,0E0,6.350298E-1,6.7625284E-2,4.733175E0,1.4635687E0,0E0,0E0,0E0,0E0,0E0,0E0,0E0,0E0,0E0,0E0,0E0],"parents":[2147483647,0,0,1,1,2,2,3,3,4,4,5,5,6,6,8,8,9,9,10,10,11,11],"right_children":[2,4,6,8,10,12,14,-1,16,18,20,22,-1,-1,-1,-1,-1,-1,-1,-1,-1,-1,-1],"split_conditions":[4.8434535E-1,3.0993554E-1,1.6526702E-1,4.4988662E-2,1.7516097E-1,6.047692E-1,1E0,7.8924425E-4,5.752392E-1,1.7969257E-1,1E0,1.0000649E-1,1.2457517E-2,3.6276728E-3,1.6382169E-2,-9.115711E-3,-1.3403469E-3,-7.027909E-3,-1.9550382E-3,-2.4990498E-3,1.5685683E-2,2.1401562E-3,-7.880651E-3],"split_indices":[2,3,11,47,9,3,36,0,47,12,25,12,0,0,0,0,0,0,0,0,0,0,0],"split_type":[0,0,0,0,0,0,0,0,0,0,0,0,0,0,0,0,0,0,0,0,0,0,0],"sum_hessian":[3.05659E1,1.9314837E1,1.1251064E1,1.4087827E1,5.2270093E0,5.5852675E0,5.6657968E0,1.4149737E0,1.2672853E1,2.5501544E0,2.6768548E0,2.935467E0,2.6498005E0,1.4085431E0,4.257254E0,1.1661816E1,1.0110373E0,1.5309362E0,1.0192183E0,1.2920333E0,1.3848217E0,1.0328441E0,1.902623E0],"tree_param":{"num_deleted":"0","num_feature":"60","num_nodes":"23","size_leaf_vector":"1"}},{"base_weights":[1.4259568E-1,-9.254078E-1,1.4851305E0,-1.0956745E0,-6.3447565E-2,-2.6236447E-3,1.6621617E0,-1.3370586E-3,-9.245749E-3,-6.468254E-1,7.2424603E-3,7.930609E-4,1.46244215E-2,-1.7298509E-3,-6.489563E-3],"categories":[],"categories_nodes":[],"categories_segments":[],"categories_sizes":[],"default_left":[0,0,0,0,0,0,0,0,0,0,0,0,0,0,0],"id":63,"left_children":[1,3,5,7,9,-1,11,-1,-1,13,-1,-1,-1,-1,-1],"loss_changes":[4.7225716E1,2.649127E0,5.0829163E0,7.0946693E-1,2.6049051E0,0E0,3.3361244E0,0E0,0E0,6.86903E-2,0E0,0E0,0E0,0E0,0E0],"parents":[2147483647,0,0,1,1,2,2,3,3,4,4,6,6,9,9],"right_children":[2,4,6,8,10,-1,12,-1,-1,14,-1,-1,-1,-1,-1],"split_conditions":[4.7644305E-1,4.9808207E-1,2.8338617E-1,2.9069789E-2,4.161053E-1,-2.6236447E-3,1E0,-1.3370586E-3,-9.245749E-3,3.34259E-1,7.2424603E-3,7.930609E-4,1.46244215E-2,-1.7298509E-3,-6.489563E-3],"split_indices":[16,2,4,54,43,0,24,0,0,48,0,0,0,0,0],"split_type":[0,0,0,0,0,0,0,0,0,0,0,0,0,0,0],"sum_hessian":[3.146783E1,1.7655602E1,1.3812229E1,1.4573482E1,3.08212E0,1.1717913E0,1.2640437E1,1.0575033E0,1.3515978E1,2.0792463E0,1.0028737E0,1.3278239E0,1.13126135E1,1.0542092E0,1.0250369E0],"tree_param":{"num_deleted":"0","num_feature":"60","num_nodes":"15","size_leaf_vector":"1"}},{"base_weights":[-1.2627281E-1,-9.755792E-1,9.589745E-1,-9.172325E-3,1.5501619E-3,-4.6527523E-1,1.3786415E0,-7.2332164E-3,2.6034566E-3,-1.7652124E-1,1.5090526E-2,-7.2294483E-3,5.430341E-3],"categories":[],"categories_nodes":[],"categories_segments":[],"categories_sizes":[],"default_left":[0,0,0,0,0,0,0,0,0,0,0,0,0],"id":64,"left_children":[1,3,5,-1,-1,7,9,-1,-1,11,-1,-1,-1],"loss_changes":[2.5954481E1,3.313552E0,7.8965254E0,0E0,0E0,1.395143E0,7.9648933E0,0E0,0E0,2.3823571E0,0E0,0E0,0E0],"parents":[2147483647,0,0,1,1,2,2,5,5,6,6,9,9],"right_children":[2,4,6,-1,-1,8,10,-1,-1,12,-1,-1,-1],"split_conditions":[4.6137494E-1,4.7753122E-1,3.9223227E-1,-9.172325E-3,1.5501619E-3,2.9320467E-1,1E0,-7.2332164E-3,2.6034566E-3,1E0,1.5090526E-2,-7.2294483E-3,5.430341E-3],"split_indices":[2,15,16,0,0,12,25,0,0,28,0,0,0],"split_type":[0,0,0,0,0,0,0,0,0,0,0,0,0],"sum_hessian":[2.6647861E1,1.4991454E1,1.1656408E1,1.3092005E1,1.8994488E0,2.6343942E0,9.022015E0,1.6249E0,1.0094943E0,2.3407612E0,6.681253E0,1.2422388E0,1.0985224E0],"tree_param":{"num_deleted":"0","num_feature":"60","num_nodes":"13","size_leaf_vector":"1"}},{"base_weights":[-1.7042993E-2,-1.0544567E0,1.1171267E0,-9.30261E-3,2.6358473E-3,-2.5417136E-3,1.5739067E0,9.7598463E-1,-7.961938E-3,2.890974E-1,1.5894648E-2,-2.1603259E-3,1.4777039E-2,-6.6221883E-3,1.0343765E-2],"categories":[],"categories_nodes":[],"categories_segments":[],"categories_sizes":[],"default_left":[0,0,0,0,0,0,0,0,0,0,0,0,0,0,0],"id":65,"left_children":[1,3,5,-1,-1,7,9,11,-1,13,-1,-1,-1,-1,-1],"loss_changes":[3.7181725E1,2.7616768E0,7.726763E0,0E0,0E0,5.706471E0,5.260357E0,3.5864313E0,0E0,4.7121263E0,0E0,0E0,0E0,0E0,0E0],"parents":[2147483647,0,0,1,1,2,2,5,5,6,6,7,7,9,9],"right_children":[2,4,6,-1,-1,8,10,12,-1,14,-1,-1,-1,-1,-1],"split_conditions":[4.0238202E-1,4.3386093E-1,1E0,-9.30261E-3,2.6358473E-3,1.6959967E-1,2.1603622E-1,2.3695558E-1,-7.961938E-3,1.1022877E-1,1.5894648E-2,-2.1603259E-3,1.4777039E-2,-6.6221883E-3,1.0343765E-2],"split_indices":[0,13,37,0,0,10,13,6,0,10,0,0,0,0,0],"split_type":[0,0,0,0,0,0,0,0,0,0,0,0,0,0,0],"sum_hessian":[3.0100037E1,1.574811E1,1.4351928E1,1.4715628E1,1.0324818E0,4.374613E0,9.977314E0,2.2093942E0,2.1652186E0,2.73682E0,7.2404947E0,1.1220313E0,1.0873629E0,1.3577757E0,1.3790442E0],