{"learner":{"attributes":{"scikit_learn":"{\"_estimator_type\": \"classifier\"}"},"feature_names":[],"feature_types":[],"gradient_booster":{"model":{"cats":{"enc":[],"feature_segments":[],"sorted_idx":[]},"gbtree_model_param":{"num_parallel_tree":"1","num_trees":"1500"},"iteration_indptr":[0,1,2,3,4,5,6,7,8,9,10,11,12,13,14,15,16,17,18,19,20,21,22,23,24,25,26,27,28,29,30,31,32,33,34,35,36,37,38,39,40,41,42,43,44,45,46,47,48,49,50,51,52,53,54,55,56,57,58,59,60,61,62,63,64,65,66,67,68,69,70,71,72,73,74,75,76,77,78,79,80,81,82,83,84,85,86,87,88,89,90,91,92,93,94,95,96,97,98,99,100,101,102,103,104,105,106,107,108,109,110,111,112,113,114,115,116,117,118,119,120,121,122,123,124,125,126,127,128,129,130,131,132,133,134,135,136,137,138,139,140,141,142,143,144,145,146,147,148,149,150,151,152,153,154,155,156,157,158,159,160,161,162,163,164,165,166,167,168,169,170,171,172,173,174,175,176,177,178,179,180,181,182,183,184,185,186,187,188,189,190,191,192,193,194,195,196,197,198,199,200,201,202,203,204,205,206,207,208,209,210,211,212,213,214,215,216,217,218,219,220,221,222,223,224,225,226,227,228,229,230,231,232,233,234,235,236,237,238,239,240,241,242,243,244,245,246,247,248,249,250,251,252,253,254,255,256,257,258,259,260,261,262,263,264,265,266,267,268,269,270,271,272,273,274,275,276,277,278,279,280,281,282,283,284,285,286,287,288,289,290,291,292,293,294,295,296,297,298,299,300,301,302,303,304,305,306,307,308,309,310,311,312,313,314,315,316,317,318,319,320,321,322,323,324,325,326,327,328,329,330,331,332,333,334,335,336,337,338,339,340,341,342,343,344,345,346,347,348,349,350,351,352,353,354,355,356,357,358,359,360,361,362,363,364,365,366,367,368,369,370,371,372,373,374,375,376,377,378,379,380,381,382,383,384,385,386,387,388,389,390,391,392,393,394,395,396,397,398,399,400,401,402,403,404,405,406,407,408,409,410,411,412,413,414,415,416,417,418,419,420,421,422,423,424,425,426,427,428,429,430,431,432,433,434,435,436,437,438,439,440,441,442,443,444,445,446,447,448,449,450,451,452,453,454,455,456,457,458,459,460,461,462,463,464,465,466,467,468,469,470,471,472,473,474,475,476,477,478,479,480,481,482,483,484,485,486,487,488,489,490,491,492,493,494,495,496,497,498,499,500,501,502,503,504,505,506,507,508,509,510,511,512,513,514,515,516,517,518,519,520,521,522,523,524,525,526,527,528,529,530,531,532,533,534,535,536,537,538,539,540,541,542,543,544,545,546,547,548,549,550,551,552,553,554,555,556,557,558,559,560,561,562,563,564,565,566,567,568,569,570,571,572,573,574,575,576,577,578,579,580,581,582,583,584,585,586,587,588,589,590,591,592,593,594,595,596,597,598,599,600,601,602,603,604,605,606,607,608,609,610,611,612,613,614,615,616,617,618,619,620,621,622,623,624,625,626,627,628,629,630,631,632,633,634,635,636,637,638,639,640,641,642,643,644,645,646,647,648,649,650,651,652,653,654,655,656,657,658,659,660,661,662,663,664,665,666,667,668,669,670,671,672,673,674,675,676,677,678,679,680,681,682,683,684,685,686,687,688,689,690,691,692,693,694,695,696,697,698,699,700,701,702,703,704,705,706,707,708,709,710,711,712,713,714,715,716,717,718,719,720,721,722,723,724,725,726,727,728,729,730,731,732,733,734,735,736,737,738,739,740,741,742,743,744,745,746,747,748,749,750,751,752,753,754,755,756,757,758,759,760,761,762,763,764,765,766,767,768,769,770,771,772,773,774,775,776,777,778,779,780,781,782,783,784,785,786,787,788,789,790,791,792,793,794,795,796,797,798,799,800,801,802,803,804,805,806,807,808,809,810,811,812,813,814,815,816,817,818,819,820,821,822,823,824,825,826,827,828,829,830,831,832,833,834,835,836,837,838,839,840,841,842,843,844,845,846,847,848,849,850,851,852,853,854,855,856,857,858,859,860,861,862,863,864,865,866,867,868,869,870,871,872,873,874,875,876,877,878,879,880,881,882,883,884,885,886,887,888,889,890,891,892,893,894,895,896,897,898,899,900,901,902,903,904,905,906,907,908,909,910,911,912,913,914,915,916,917,918,919,920,921,922,923,924,925,926,927,928,929,930,931,932,933,934,935,936,937,938,939,940,941,942,943,944,945,946,947,948,949,950,951,952,953,954,955,956,957,958,959,960,961,962,963,964,965,966,967,968,969,970,971,972,973,974,975,976,977,978,979,980,981,982,983,984,985,986,987,988,989,990,991,992,993,994,995,996,997,998,999,1000,1001,1002,1003,1004,1005,1006,1007,1008,1009,1010,1011,1012,1013,1014,1015,1016,1017,1018,1019,1020,1021,1022,1023,1024,1025,1026,1027,1028,1029,1030,1031,1032,1033,1034,1035,1036,1037,1038,1039,1040,1041,1042,1043,1044,1045,1046,1047,1048,1049,1050,1051,1052,1053,1054,1055,1056,1057,1058,1059,1060,1061,1062,1063,1064,1065,1066,1067,1068,1069,1070,1071,1072,1073,1074,1075,1076,1077,1078,1079,1080,1081,1082,1083,1084,1085,1086,1087,1088,1089,1090,1091,1092,1093,1094,1095,1096,1097,1098,1099,1100,1101,1102,1103,1104,1105,1106,1107,1108,1109,1110,1111,1112,1113,1114,1115,1116,1117,1118,1119,1120,1121,1122,1123,1124,1125,1126,1127,1128,1129,1130,1131,1132,1133,1134,1135,1136,1137,1138,1139,1140,1141,1142,1143,1144,1145,1146,1147,1148,1149,1150,1151,1152,1153,1154,1155,1156,1157,1158,1159,1160,1161,1162,1163,1164,1165,1166,1167,1168,1169,1170,1171,1172,1173,1174,1175,1176,1177,1178,1179,1180,1181,1182,1183,1184,1185,1186,1187,1188,1189,1190,1191,1192,1193,1194,1195,1196,1197,1198,1199,1200,1201,1202,1203,1204,1205,1206,1207,1208,1209,1210,1211,1212,1213,1214,1215,1216,1217,1218,1219,1220,1221,1222,1223,1224,1225,1226,1227,1228,1229,1230,1231,1232,1233,1234,1235,1236,1237,1238,1239,1240,1241,1242,1243,1244,1245,1246,1247,1248,1249,1250,1251,1252,1253,1254,1255,1256,1257,1258,1259,1260,1261,1262,1263,1264,1265,1266,1267,1268,1269,1270,1271,1272,1273,1274,1275,1276,1277,1278,1279,1280,1281,1282,1283,1284,1285,1286,1287,1288,1289,1290,1291,1292,1293,1294,1295,1296,1297,1298,1299,1300,1301,1302,1303,1304,1305,1306,1307,1308,1309,1310,1311,1312,1313,1314,1315,1316,1317,1318,1319,1320,1321,1322,1323,1324,1325,1326,1327,1328,1329,1330,1331,1332,1333,1334,1335,1336,1337,1338,1339,1340,1341,1342,1343,1344,1345,1346,1347,1348,1349,1350,1351,1352,1353,1354,1355,1356,1357,1358,1359,1360,1361,1362,1363,1364,1365,1366,1367,1368,1369,1370,1371,1372,1373,1374,1375,1376,1377,1378,1379,1380,1381,1382,1383,1384,1385,1386,1387,1388,1389,1390,1391,1392,1393,1394,1395,1396,1397,1398,1399,1400,1401,1402,1403,1404,1405,1406,1407,1408,1409,1410,1411,1412,1413,1414,1415,1416,1417,1418,1419,1420,1421,1422,1423,1424,1425,1426,1427,1428,1429,1430,1431,1432,1433,1434,1435,1436,1437,1438,1439,1440,1441,1442,1443,1444,1445,1446,1447,1448,1449,1450,1451,1452,1453,1454,1455,1456,1457,1458,1459,1460,1461,1462,1463,1464,1465,1466,1467,1468,1469,1470,1471,1472,1473,1474,1475,1476,1477,1478,1479,1480,1481,1482,1483,1484,1485,1486,1487,1488,1489,1490,1491,1492,1493,1494,1495,1496,1497,1498,1499,1500],"tree_info":[0,0,0,0,0,0,0,0,0,0,0,0,0,0,0,0,0,0,0,0,0,0,0,0,0,0,0,0,0,0,0,0,0,0,0,0,0,0,0,0,0,0,0,0,0,0,0,0,0,0,0,0,0,0,0,0,0,0,0,0,0,0,0,0,0,0,0,0,0,0,0,0,0,0,0,0,0,0,0,0,0,0,0,0,0,0,0,0,0,0,0,0,0,0,0,0,0,0,0,0,0,0,0,0,0,0,0,0,0,0,0,0,0,0,0,0,0,0,0,0,0,0,0,0,0,0,0,0,0,0,0,0,0,0,0,0,0,0,0,0,0,0,0,0,0,0,0,0,0,0,0,0,0,0,0,0,0,0,0,0,0,0,0,0,0,0,0,0,0,0,0,0,0,0,0,0,0,0,0,0,0,0,0,0,0,0,0,0,0,0,0,0,0,0,0,0,0,0,0,0,0,0,0,0,0,0,0,0,0,0,0,0,0,0,0,0,0,0,0,0,0,0,0,0,0,0,0,0,0,0,0,0,0,0,0,0,0,0,0,0,0,0,0,0,0,0,0,0,0,0,0,0,0,0,0,0,0,0,0,0,0,0,0,0,0,0,0,0,0,0,0,0,0,0,0,0,0,0,0,0,0,0,0,0,0,0,0,0,0,0,0,0,0,0,0,0,0,0,0,0,0,0,0,0,0,0,0,0,0,0,0,0,0,0,0,0,0,0,0,0,0,0,0,0,0,0,0,0,0,0,0,0,0,0,0,0,0,0,0,0,0,0,0,0,0,0,0,0,0,0,0,0,0,0,0,0,0,0,0,0,0,0,0,0,0,0,0,0,0,0,0,0,0,0,0,0,0,0,0,0,0,0,0,0,0,0,0,0,0,0,0,0,0,0,0,0,0,0,0,0,0,0,0,0,0,0,0,0,0,0,0,0,0,0,0,0,0,0,0,0,0,0,0,0,0,0,0,0,0,0,0,0,0,0,0,0,0,0,0,0,0,0,0,0,0,0,0,0,0,0,0,0,0,0,0,0,0,0,0,0,0,0,0,0,0,0,0,0,0,0,0,0,0,0,0,0,0,0,0,0,0,0,0,0,0,0,0,0,0,0,0,0,0,0,0,0,0,0,0,0,0,0,0,0,0,0,0,0,0,0,0,0,0,0,0,0,0,0,0,0,0,0,0,0,0,0,0,0,0,0,0,0,0,0,0,0,0,0,0,0,0,0,0,0,0,0,0,0,0,0,0,0,0,0,0,0,0,0,0,0,0,0,0,0,0,0,0,0,0,0,0,0,0,0,0,0,0,0,0,0,0,0,0,0,0,0,0,0,0,0,0,0,0,0,0,0,0,0,0,0,0,0,0,0,0,0,0,0,0,0,0,0,0,0,0,0,0,0,0,0,0,0,0,0,0,0,0,0,0,0,0,0,0,0,0,0,0,0,0,0,0,0,0,0,0,0,0,0,0,0,0,0,0,0,0,0,0,0,0,0,0,0,0,0,0,0,0,0,0,0,0,0,0,0,0,0,0,0,0,0,0,0,0,0,0,0,0,0,0,0,0,0,0,0,0,0,0,0,0,0,0,0,0,0,0,0,0,0,0,0,0,0,0,0,0,0,0,0,0,0,0,0,0,0,0,0,0,0,0,0,0,0,0,0,0,0,0,0,0,0,0,0,0,0,0,0,0,0,0,0,0,0,0,0,0,0,0,0,0,0,0,0,0,0,0,0,0,0,0,0,0,0,0,0,0,0,0,0,0,0,0,0,0,0,0,0,0,0,0,0,0,0,0,0,0,0,0,0,0,0,0,0,0,0,0,0,0,0,0,0,0,0,0,0,0,0,0,0,0,0,0,0,0,0,0,0,0,0,0,0,0,0,0,0,0,0,0,0,0,0,0,0,0,0,0,0,0,0,0,0,0,0,0,0,0,0,0,0,0,0,0,0,0,0,0,0,0,0,0,0,0,0,0,0,0,0,0,0,0,0,0,0,0,0,0,0,0,0,0,0,0,0,0,0,0,0,0,0,0,0,0,0,0,0,0,0,0,0,0,0,0,0,0,0,0,0,0,0,0,0,0,0,0,0,0,0,0,0,0,0,0,0,0,0,0,0,0,0,0,0,0,0,0,0,0,0,0,0,0,0,0,0,0,0,0,0,0,0,0,0,0,0,0,0,0,0,0,0,0,0,0,0,0,0,0,0,0,0,0,0,0,0,0,0,0,0,0,0,0,0,0,0,0,0,0,0,0,0,0,0,0,0,0,0,0,0,0,0,0,0,0,0,0,0,0,0,0,0,0,0,0,0,0,0,0,0,0,0,0,0,0,0,0,0,0,0,0,0,0,0,0,0,0,0,0,0,0,0,0,0,0,0,0,0,0,0,0,0,0,0,0,0,0,0,0,0,0,0,0,0,0,0,0,0,0,0,0,0,0,0,0,0,0,0,0,0,0,0,0,0,0,0,0,0,0,0,0,0,0,0,0,0,0,0,0,0,0,0,0,0,0,0,0,0,0,0,0,0,0,0,0,0,0,0,0,0,0,0,0,0,0,0,0,0,0,0,0,0,0,0,0,0,0,0,0,0,0,0,0,0,0,0,0,0,0,0,0,0,0,0,0,0,0,0,0,0,0,0,0,0,0,0,0,0,0,0,0,0,0,0,0,0,0,0,0,0,0,0,0,0,0,0,0,0,0,0,0,0,0,0,0,0,0,0,0,0,0,0,0,0,0,0,0,0,0,0,0,0,0,0,0,0,0,0,0,0,0,0,0,0,0,0,0,0,0,0,0,0,0,0,0,0,0,0,0,0,0,0,0,0,0,0,0,0,0,0,0,0,0,0,0,0,0,0,0,0,0,0,0,0,0,0,0,0,0,0,0,0,0,0,0,0,0,0,0,0,0,0,0,0,0,0,0,0,0,0,0,0,0,0,0,0,0,0,0,0,0,0,0,0,0,0,0,0,0,0,0,0,0,0,0,0,0,0,0,0,0,0,0,0,0,0,0,0,0,0,0,0,0,0,0,0,0,0,0,0,0,0,0,0,0,0,0,0,0,0,0,0,0,0,0,0,0,0,0,0,0,0,0,0,0,0,0,0,0,0,0,0,0,0,0,0,0,0,0,0,0,0,0,0,0,0,0,0,0,0,0,0,0,0,0,0,0,0,0,0,0,0,0,0,0,0,0,0,0,0,0,0,0,0,0,0,0,0,0,0,0,0,0,0,0,0,0,0,0,0,0,0,0,0,0,0,0,0,0,0,0,0,0,0,0,0,0,0,0,0,0,0,0,0,0,0,0,0,0,0,0,0,0,0,0,0,0,0,0,0,0,0,0,0,0,0,0,0,0,0,0,0,0,0,0,0,0,0,0,0,0,0,0,0],"trees":[{"base_weights":[1.6508347E-1,-1.2005259E0,2.1786757E0,-1.2880757E0,1.1261095E-4,7.329444E-1,2.775839E0,-1.8480573E-3,-1.0686745E-2,-2.9350987E-1,1.4556549E0,2.6948613E-3,3.0262532E0,2.6948613E-3,-6.390976E-3,3.8071203E-3,1.6323617E-2,9.420805E-3,2.5636496E-2],"categories":[],"categories_nodes":[],"categories_segments":[],"categories_sizes":[],"default_left":[0,0,0,0,0,0,0,0,0,0,0,0,0,0,0,0,0,0,0],"id":0,"left_children":[1,3,5,7,-1,9,11,-1,-1,13,15,-1,17,-1,-1,-1,-1,-1,-1],"loss_changes":[9.743132E1,2.2649765E0,1.081739E1,7.6612854E-1,0E0,4.1767054E0,5.2506638E0,0E0,0E0,1.0848775E0,1.0916653E0,0E0,8.2962036E-2,0E0,0E0,0E0,0E0,0E0,0E0],"parents":[2147483647,0,0,1,1,2,2,3,3,5,5,6,6,9,9,10,10,12,12],"right_children":[2,4,6,8,-1,10,12,-1,-1,14,16,-1,18,-1,-1,-1,-1,-1,-1],"split_conditions":[4.5638263E-1,8.67683E-1,4.819208E-1,5.9233263E-2,1.1261095E-4,1E0,1E0,-1.8480573E-3,-1.0686745E-2,7.067543E-2,4.2288974E-1,2.6948613E-3,5.5235976E-1,2.6948613E-3,-6.390976E-3,3.8071203E-3,1.6323617E-2,9.420805E-3,2.5636496E-2],"split_indices":[2,55,15,8,0,26,33,0,0,11,41,0,15,0,0,0,0,0,0],"split_type":[0,0,0,0,0,0,0,0,0,0,0,0,0,0,0,0,0,0,0],"sum_hessian":[3.3969013E1,2.0421848E1,1.3547166E1,1.9006472E1,1.4153756E0,4.4483232E0,9.098843E0,1.0109825E0,1.799549E1,2.021965E0,2.4263582E0,1.0109825E0,8.08786E0,1.0109825E0,1.0109825E0,1.4153756E0,1.0109825E0,1.2131791E0,6.8746815E0],"tree_param":{"num_deleted":"0","num_feature":"60","num_nodes":"19","size_leaf_vector":"1"}},{"base_weights":[-1.8232566E-1,-1.0443745E0,2.0960855E0,-1.2833565E0,1.3808884E-1,2.519374E0,-2.8333205E-3,-1.0652967E-2,-1.8396255E-3,-7.895575E-3,1.1430191E0,2.6529327E-3,2.2523433E-2,1.6252145E-2,-1.8629953E-3],"categories":[],"categories_nodes":[],"categories_segments":[],"categories_sizes":[],"default_left":[0,0,0,0,0,0,0,0,0,0,0,0,0,0,0],"id":1,"left_children":[1,3,5,7,9,11,-1,-1,-1,-1,13,-1,-1,-1,-1],"loss_changes":[6.3452446E1,6.726326E0,9.887405E0,7.608566E-1,6.046645E0,4.2683144E0,0E0,0E0,0E0,0E0,3.7498446E0,0E0,0E0,0E0,0E0],"parents":[2147483647,0,0,1,1,2,2,3,3,4,4,5,5,10,10],"right_children":[2,4,6,8,10,12,-1,-1,-1,-1,14,-1,-1,-1,-1],"split_conditions":[5.246145E-1,4.226656E-1,5.5186373E-1,1.1987779E0,5.2612275E-1,3.570859E-2,-2.8333205E-3,-1.0652967E-2,-1.8396255E-3,-7.895575E-3,4.9252138E-1,2.6529327E-3,2.2523433E-2,1.6252145E-2,-1.8629953E-3],"split_indices":[3,2,53,42,44,11,0,0,0,0,51,0,0,0,0],"split_type":[0,0,0,0,0,0,0,0,0,0,0,0,0,0,0],"sum_hessian":[3.0720171E1,2.2582268E1,8.137902E0,1.8732365E1,3.849904E0,6.921103E0,1.2167996E0,1.772229E1,1.0100751E0,1.8227394E0,2.0271647E0,1.0144817E0,5.9066215E0,1.0145963E0,1.0125684E0],"tree_param":{"num_deleted":"0","num_feature":"60","num_nodes":"15","size_leaf_vector":"1"}},{"base_weights":[-1.1673291E-1,-1.0874627E0,1.6518793E0,-1.2237873E0,3.7737526E-3,-3.580622E-3,1.9913259E0,-1.0585973E-2,-2.8618112E-1,2.4440037E-3,2.301213E0,2.7774503E-3,-6.368891E-3,5.289255E-3,2.5189276E0,9.08601E-3,2.229461E-2],"categories":[],"categories_nodes":[],"categories_segments":[],"categories_sizes":[],"default_left":[0,0,0,0,0,0,0,0,0,0,0,0,0,0,0,0,0],"id":2,"left_children":[1,3,5,7,-1,-1,9,-1,11,-1,13,-1,-1,-1,15,-1,-1],"loss_changes":[5.39576E1,4.7344017E0,8.619381E0,1.4708614E0,0E0,0E0,4.5619164E0,0E0,1.0992541E0,0E0,1.6482162E0,0E0,0E0,0E0,1.8159485E-1,0E0,0E0],"parents":[2147483647,0,0,1,1,2,2,3,3,6,6,8,8,10,10,14,14],"right_children":[2,4,6,8,-1,-1,10,-1,12,-1,14,-1,-1,-1,16,-1,-1],"split_conditions":[4.6708563E-1,5.1825714E-1,1.24054454E-1,5.133117E-1,3.7737526E-3,-3.580622E-3,1E0,-1.0585973E-2,6.155796E-1,2.4440037E-3,4.438981E-1,2.7774503E-3,-6.368891E-3,5.289255E-3,5.8854425E-1,9.08601E-3,2.229461E-2],"split_indices":[1,16,14,48,0,0,39,0,52,0,17,0,0,0,19,0,0],"split_type":[0,0,0,0,0,0,0,0,0,0,0,0,0,0,0,0,0],"sum_hessian":[2.9893618E1,1.9486826E1,1.0406793E1,1.8068377E1,1.4184484E0,1.4151648E0,8.991628E0,1.6056646E1,2.0117311E0,1.6274542E0,7.3641734E0,1.0040337E0,1.0076976E0,1.217826E0,6.1463475E0,1.6348956E0,4.5114517E0],"tree_param":{"num_deleted":"0","num_feature":"60","num_nodes":"17","size_leaf_vector":"1"}},{"base_weights":[1.1358015E-1,-9.765149E-1,1.8858727E0,-1.2248611E0,5.8870095E-1,4.5468563E-1,2.590979E0,-5.238784E-1,-1.0548066E-2,-6.326212E-3,1.0872257E-2,-4.9893638E-1,1.4950869E0,5.2184365E-3,2.8328567E0,-7.7810753E-3,2.823973E-3,2.6422513E-3,-7.656518E-3,1.6140811E-2,2.6736548E-3,6.8348264E-3,2.4339542E-2],"categories":[],"categories_nodes":[],"categories_segments":[],"categories_sizes":[],"default_left":[0,0,0,0,0,0,0,0,0,0,0,0,0,0,0,0,0,0,0,0,0,0,0],"id":3,"left_children":[1,3,5,7,9,11,13,15,-1,-1,-1,17,19,-1,21,-1,-1,-1,-1,-1,-1,-1,-1],"loss_changes":[6.95121E1,9.220451E0,1.2927521E1,7.629986E-1,4.593579E0,5.943701E0,2.8386765E0,1.6521851E0,0E0,0E0,0E0,1.5263569E0,1.1823773E0,0E0,1.2788849E0,0E0,0E0,0E0,0E0,0E0,0E0,0E0,0E0],"parents":[2147483647,0,0,1,1,2,2,3,3,4,4,5,5,6,6,7,7,11,11,12,12,14,14],"right_children":[2,4,6,8,10,12,14,16,-1,-1,-1,18,20,-1,22,-1,-1,-1,-1,-1,-1,-1,-1],"split_conditions":[4.4114283E-1,5.0573957E-1,4.9312466E-1,4.7725752E-2,2.7350053E-1,3.5849103E-1,1E0,1E0,-1.0548066E-2,-6.326212E-3,1.0872257E-2,2.1982588E-1,5.6802577E-1,5.2184365E-3,7.198378E-2,-7.7810753E-3,2.823973E-3,2.6422513E-3,-7.656518E-3,1.6140811E-2,2.6736548E-3,6.8348264E-3,2.4339542E-2],"split_indices":[2,52,16,51,16,51,33,31,0,0,0,41,59,0,46,0,0,0,0,0,0,0,0],"split_type":[0,0,0,0,0,0,0,0,0,0,0,0,0,0,0,0,0,0,0,0,0,0,0],"sum_hessian":[3.4515045E1,2.1579046E1,1.2936001E1,1.8764801E1,2.8142455E0,4.6768394E0,8.259161E0,2.794275E0,1.5970526E1,1.001283E0,1.8129624E0,2.6438448E0,2.0329945E0,1.2236999E0,7.0354614E0,1.7941723E0,1.0001029E0,1.0153488E0,1.628496E0,1.020273E0,1.0127215E0,1.0385721E0,5.996889E0],"tree_param":{"num_deleted":"0","num_feature":"60","num_nodes":"23","size_leaf_vector":"1"}},{"base_weights":[-2.1791111E-1,-1.1172773E0,1.1194464E0,-1.263613E0,3.8196123E-3,2.0858848E-1,2.5105445E0,-2.6360364E-3,-1.0524594E-2,-8.1627375E-1,1.4364145E0,6.869819E-3,2.2181202E-2,7.949762E-5,-9.005183E-3,-2.9362529E-3,1.8112566E-2],"categories":[],"categories_nodes":[],"categories_segments":[],"categories_sizes":[],"default_left":[0,0,0,0,0,0,0,0,0,0,0,0,0,0,0,0,0],"id":4,"left_children":[1,3,5,7,-1,9,11,-1,-1,13,15,-1,-1,-1,-1,-1,-1],"loss_changes":[3.8950386E1,4.9498196E0,1.6183697E1,5.4164124E-1,0E0,1.18569E1,4.2603302E-1,0E0,0E0,1.3460109E0,6.9529467E0,0E0,0E0,0E0,0E0,0E0,0E0],"parents":[2147483647,0,0,1,1,2,2,3,3,5,5,6,6,9,9,10,10],"right_children":[2,4,6,8,-1,10,12,-1,-1,14,16,-1,-1,-1,-1,-1,-1],"split_conditions":[4.5638263E-1,4.7412637E-1,6.1109823E-1,4.7515437E-2,3.8196123E-3,1E0,7.8320585E-2,-2.6360364E-3,-1.0524594E-2,2.3707107E-1,1.326254E-1,6.869819E-3,2.2181202E-2,7.949762E-5,-9.005183E-3,-2.9362529E-3,1.8112566E-2],"split_indices":[2,1,16,43,0,29,9,0,0,14,8,0,0,0,0,0,0],"split_type":[0,0,0,0,0,0,0,0,0,0,0,0,0,0,0,0,0],"sum_hessian":[3.0853884E1,1.8521614E1,1.233227E1,1.7107515E1,1.4140987E0,7.9737234E0,4.358546E0,1.191625E0,1.5915891E1,4.4830923E0,3.490631E0,1.0361043E0,3.3224413E0,1.4191192E0,3.0639732E0,1.2293369E0,2.2612944E0],"tree_param":{"num_deleted":"0","num_feature":"60","num_nodes":"17","size_leaf_vector":"1"}},{"base_weights":[-1.1085395E-1,-1.1766301E0,1.3072922E0,-1.0570554E-2,5.178035E-3,-8.944978E-3,1.9866896E0,-4.3255696E-1,2.6273088E0,-7.281331E-3,2.7206282E-3,2.5386258E-3,2.298775E-2],"categories":[],"categories_nodes":[],"categories_segments":[],"categories_sizes":[],"default_left":[0,0,0,0,0,0,0,0,0,0,0,0,0],"id":5,"left_children":[1,3,5,-1,-1,-1,7,9,11,-1,-1,-1,-1],"loss_changes":[5.3176594E1,5.93149E0,2.658725E1,0E0,0E0,0E0,1.9581032E1,1.4034096E0,4.8093033E0,0E0,0E0,0E0,0E0],"parents":[2147483647,0,0,1,1,2,2,6,6,7,7,8,8],"right_children":[2,4,6,-1,-1,-1,8,10,12,-1,-1,-1,-1],"split_conditions":[3.9717874E-1,5.262348E-1,1E0,-1.0570554E-2,5.178035E-3,-8.944978E-3,2.145443E-1,1.0104956E-1,7.432878E-2,-7.281331E-3,2.7206282E-3,2.5386258E-3,2.298775E-2],"split_indices":[18,4,34,0,0,0,4,4,9,0,0,0,0],"split_type":[0,0,0,0,0,0,0,0,0,0,0,0,0],"sum_hessian":[3.3669765E1,1.929601E1,1.4373757E1,1.8069233E1,1.2267754E0,3.0392978E0,1.1334459E1,2.424002E0,8.910458E0,1.4155002E0,1.0085019E0,1.0234225E0,7.887035E0],"tree_param":{"num_deleted":"0","num_feature":"60","num_nodes":"13","size_leaf_vector":"1"}},{"base_weights":[-1.0822084E-1,-1.0516186E0,1.891342E0,-1.19846E0,5.6411135E-3,-3.6669744E-3,2.248124E0,-1.279941E0,2.7997508E-3,2.5784407E0,2.5272577E-3,-2.549927E-3,-1.05793765E-2,1.0669496E0,2.3458742E-2,1.1251322E-2,2.2637064E-3],"categories":[],"categories_nodes":[],"categories_segments":[],"categories_sizes":[],"default_left":[0,0,0,0,0,0,0,0,0,0,0,0,0,0,0,0,0],"id":6,"left_children":[1,3,5,7,-1,-1,9,11,-1,13,-1,-1,-1,15,-1,-1,-1],"loss_changes":[6.930684E1,7.059122E0,1.0658596E1,3.2711372E0,0E0,0E0,6.004242E0,5.928955E-1,0E0,2.332306E0,0E0,0E0,0E0,4.5693088E-1,0E0,0E0,0E0],"parents":[2147483647,0,0,1,1,2,2,3,3,6,6,7,7,9,9,13,13],"right_children":[2,4,6,8,-1,-1,10,12,-1,14,-1,-1,-1,16,-1,-1,-1],"split_conditions":[4.930284E-1,5.908875E-1,1E0,1.1153474E0,5.6411135E-3,-3.6669744E-3,5.033973E-1,9.0062924E-2,2.7997508E-3,6.054816E-1,2.5272577E-3,-2.549927E-3,-1.05793765E-2,4.9848446E-1,2.3458742E-2,1.1251322E-2,2.2637064E-3],"split_indices":[17,2,24,58,0,0,48,41,0,16,0,0,0,16,0,0,0],"split_type":[0,0,0,0,0,0,0,0,0,0,0,0,0,0,0,0,0],"sum_hessian":[3.5199806E1,2.415771E1,1.1042099E1,2.2514175E1,1.6435337E0,1.4274657E0,9.614633E0,2.1512213E1,1.0019629E0,7.9967384E0,1.6178948E0,1.180435E0,2.0331778E1,2.0884068E0,5.9083314E0,1.0418429E0,1.0465637E0],"tree_param":{"num_deleted":"0","num_feature":"60","num_nodes":"17","size_leaf_vector":"1"}},{"base_weights":[1.8938629E-2,-1.0857154E0,2.0978305E0,-1.239225E0,7.4483342E-3,2.4585583E0,-6.939812E-3,-1.05772065E-2,2.6438276E-3,1.3097717E-3,2.7075343E0,6.9171484E-3,2.8380098E0,6.4242026E-3,2.4171235E-2],"categories":[],"categories_nodes":[],"categories_segments":[],"categories_sizes":[],"default_left":[0,0,0,0,0,0,0,0,0,0,0,0,0,0,0],"id":7,"left_children":[1,3,5,7,-1,9,-1,-1,-1,-1,11,-1,13,-1,-1],"loss_changes":[8.655763E1,8.487991E0,1.5586861E1,3.3478622E0,0E0,6.4402695E0,0E0,0E0,0E0,0E0,7.192688E-1,0E0,1.7678452E0,0E0,0E0],"parents":[2147483647,0,0,1,1,2,2,3,3,5,5,10,10,12,12],"right_children":[2,4,6,8,-1,10,-1,-1,-1,-1,12,-1,14,-1,-1],"split_conditions":[4.6844465E-1,1.2641361E0,5.589127E-1,5.606524E-1,7.4483342E-3,3.0961892E-1,-6.939812E-3,-1.05772065E-2,2.6438276E-3,1.3097717E-3,1.2738595E-2,6.9171484E-3,5.822285E-2,6.4242026E-3,2.4171235E-2],"split_indices":[3,42,51,5,0,1,0,0,0,0,11,0,46,0,0],"split_type":[0,0,0,0,0,0,0,0,0,0,0,0,0,0,0],"sum_hessian":[3.6197968E1,2.3871666E1,1.2326302E1,2.2451849E1,1.4198171E0,1.1103712E1,1.2225902E0,2.1437605E1,1.0142449E0,1.2084546E0,9.895257E0,1.0324624E0,8.862795E0,1.0661851E0,7.7966094E0],"tree_param":{"num_deleted":"0","num_feature":"60","num_nodes":"15","size_leaf_vector":"1"}},{"base_weights":[-8.060965E-3,-1.0654126E0,1.8437766E0,-1.1868049E0,7.264763E-3,-6.8144915E-3,2.1683137E0,-1.0490569E-2,-3.7570155E-1,2.4499464E0,2.2498185E-3,-7.5910245E-3,2.5241075E-3,6.7673954E-3,2.6463509E0,6.8726237E-3,2.2410678E-2],"categories":[],"categories_nodes":[],"categories_segments":[],"categories_sizes":[],"default_left":[0,0,0,0,0,0,0,0,0,0,0,0,0,0,0,0,0],"id":8,"left_children":[1,3,5,7,-1,-1,9,-1,11,13,-1,-1,-1,-1,15,-1,-1],"loss_changes":[7.0835915E1,6.3242874E0,1.2888901E1,1.8539791E0,0E0,0E0,5.833332E0,0E0,1.8018003E0,1.5657349E0,0E0,0E0,0E0,0E0,6.3915634E-1,0E0,0E0],"parents":[2147483647,0,0,1,1,2,2,3,3,6,6,8,8,9,9,14,14],"right_children":[2,4,6,8,-1,-1,10,-1,12,14,-1,-1,-1,-1,16,-1,-1],"split_conditions":[4.941858E-1,1.2343044E0,3.090761E-1,4.0972632E-1,7.264763E-3,-6.8144915E-3,1.3891515E0,-1.0490569E-2,1E0,5.5947922E-2,2.2498185E-3,-7.5910245E-3,2.5241075E-3,6.7673954E-3,1E0,6.8726237E-3,2.2410678E-2],"split_indices":[2,43,16,2,0,0,41,0,30,46,0,0,0,0,36,0,0],"split_type":[0,0,0,0,0,0,0,0,0,0,0,0,0,0,0,0,0],"sum_hessian":[3.4674454E1,2.2274685E1,1.2399769E1,2.1265594E1,1.0090914E0,1.2015165E0,1.1198253E1,1.80345E1,3.2310946E0,9.549382E0,1.6488708E0,1.6135303E0,1.6175644E0,1.4759219E0,8.07346E0,1.0358062E0,7.037654E0],"tree_param":{"num_deleted":"0","num_feature":"60","num_nodes":"17","size_leaf_vector":"1"}},{"base_weights":[-4.3867283E-2,-1.167218E0,1.6676298E0,-1.2575619E0,2.7028732E-3,-3.4662515E-3,1.9356267E0,-2.429145E-3,-1.0443016E-2,5.708353E-1,2.2090795E0,-6.5842816E-3,1.2795418E-2,2.6353844E-3,2.3966048E0,6.990394E-3,2.0862162E-2],"categories":[],"categories_nodes":[],"categories_segments":[],"categories_sizes":[],"default_left":[0,0,0,0,0,0,0,0,0,0,0,0,0,0,0,0,0],"id":9,"left_children":[1,3,5,7,-1,-1,9,-1,-1,11,13,-1,-1,-1,15,-1,-1],"loss_changes":[6.580051E1,3.1259022E0,8.269367E0,5.983105E-1,0E0,0E0,3.5968628E0,0E0,0E0,5.350174E0,2.8900108E0,0E0,0E0,0E0,1.1410751E0,0E0,0E0],"parents":[2147483647,0,0,1,1,2,2,3,3,6,6,9,9,10,10,14,14],"right_children":[2,4,6,8,-1,-1,10,-1,-1,12,14,-1,-1,-1,16,-1,-1],"split_conditions":[4.623614E-1,1.4403841E0,1.4435932E-1,5.16055E-2,2.7028732E-3,-3.4662515E-3,6.0745444E-2,-2.429145E-3,-1.0443016E-2,2.9435375E-1,1E0,-6.5842816E-3,1.2795418E-2,2.6353844E-3,1.0507013E-1,6.990394E-3,2.0862162E-2],"split_indices":[2,42,15,46,0,0,10,0,0,41,23,0,0,0,9,0,0],"split_type":[0,0,0,0,0,0,0,0,0,0,0,0,0,0,0,0,0],"sum_hessian":[3.2715237E1,1.9895332E1,1.2819902E1,1.8885075E1,1.010259E0,1.3979985E0,1.1421904E1,1.1645628E0,1.772051E1,2.293045E0,9.128859E0,1.0372813E0,1.2557638E0,1.0156842E0,8.113174E0,1.4573164E0,6.655858E0],"tree_param":{"num_deleted":"0","num_feature":"60","num_nodes":"17","size_leaf_vector":"1"}},{"base_weights":[7.1603153E-3,-1.2674348E0,1.8268597E0,-1.0485978E-2,-1.7537395E-3,-9.481237E-2,2.3314972E0,-7.894925E-3,8.598592E-3,2.599707E0,-2.1548427E-3,6.95849E-3,2.1716518E-2],"categories":[],"categories_nodes":[],"categories_segments":[],"categories_sizes":[],"default_left":[0,0,0,0,0,0,0,0,0,0,0,0,0],"id":10,"left_children":[1,3,5,-1,-1,7,9,-1,-1,11,-1,-1,-1],"loss_changes":[8.445079E1,7.5675964E-1,1.4709194E1,0E0,0E0,4.8019695E0,8.83136E0,0E0,0E0,3.8781738E-1,0E0,0E0,0E0],"parents":[2147483647,0,0,1,1,2,2,5,5,6,6,9,9],"right_children":[2,4,6,-1,-1,8,10,-1,-1,12,-1,-1,-1],"split_conditions":[4.8015758E-1,5.53743E-1,4.7071543E-1,-1.0485978E-2,-1.7537395E-3,3.5892993E-1,5.4525393E-1,-7.894925E-3,8.598592E-3,4.2409375E-1,-2.1548427E-3,6.95849E-3,2.1716518E-2],"split_indices":[2,19,19,0,0,13,46,0,0,18,0,0,0],"split_type":[0,0,0,0,0,0,0,0,0,0,0,0,0],"sum_hessian":[3.4912216E1,2.066511E1,1.4247106E1,1.9664722E1,1.0003868E0,3.0898747E0,1.115723E1,1.8194339E0,1.2704408E0,1.0114514E1,1.0427166E0,1.0300733E0,9.084441E0],"tree_param":{"num_deleted":"0","num_feature":"60","num_nodes":"13","size_leaf_vector":"1"}},{"base_weights":[-3.8840187E-1,-9.943087E-1,1.7462124E0,-1.2038627E0,1.4204078E-2,1.344387E-1,1.9864663E-2,-1.2774692E0,2.7374052E-3,-6.410089E-3,6.6055413E-3,-1.0519505E-2,-1.8220058E-3],"categories":[],"categories_nodes":[],"categories_segments":[],"categories_sizes":[],"default_left":[0,0,0,0,0,0,0,0,0,0,0,0,0],"id":11,"left_children":[1,3,5,7,-1,9,-1,11,-1,-1,-1,-1,-1],"loss_changes":[4.5511475E1,1.7333786E1,9.048262E0,3.2459412E0,0E0,2.5978777E0,0E0,7.4435806E-1,0E0,0E0,0E0,0E0,0E0],"parents":[2147483647,0,0,1,1,2,2,3,3,5,5,7,7],"right_children":[2,4,6,8,-1,10,-1,12,-1,-1,-1,-1,-1],"split_conditions":[5.919521E-1,5.996532E-1,1.4305891E-1,5.262348E-1,1.4204078E-2,1E0,1.9864663E-2,5.511526E-1,2.7374052E-3,-6.410089E-3,6.6055413E-3,-1.0519505E-2,-1.8220058E-3],"split_indices":[16,1,12,19,0,25,0,6,0,0,0,0,0],"split_type":[0,0,0,0,0,0,0,0,0,0,0,0,0],"sum_hessian":[3.3431263E1,2.6351952E1,7.0793114E0,2.4892689E1,1.4592632E0,2.4993217E0,4.5799894E0,2.3885778E1,1.0069098E0,1.0111909E0,1.4881308E0,2.2879616E1,1.0061619E0],"tree_param":{"num_deleted":"0","num_feature":"60","num_nodes":"13","size_leaf_vector":"1"}},{"base_weights":[2.3175562E-2,-8.7623376E-1,1.6814055E0,-1.0787053E0,1.1118225E-2,1.7107633E-4,2.0361521E0,-1.2411095E0,-2.5308698E-1,8.5716087E-1,2.395658E0,-1.03364205E-2,-1.9620077E-3,7.1509457E-3,-7.944537E-1,-4.7948695E-4,1.2385161E-2,6.7550004E-3,2.0431645E-2,-1.8329606E-3,-7.6897787E-3],"categories":[],"categories_nodes":[],"categories_segments":[],"categories_sizes":[],"default_left":[0,0,0,0,0,0,0,0,0,0,0,0,0,0,0,0,0,0,0,0,0],"id":12,"left_children":[1,3,5,7,-1,-1,9,11,13,15,17,-1,-1,-1,19,-1,-1,-1,-1,-1,-1],"loss_changes":[5.1664227E1,1.1434526E1,7.1388397E0,2.5870037E0,0E0,0E0,2.7094078E0,6.450081E-1,3.2661023E0,2.294278E0,1.6670609E-1,0E0,0E0,0E0,1.5422273E-1,0E0,0E0,0E0,0E0,0E0,0E0],"parents":[2147483647,0,0,1,1,2,2,3,3,6,6,7,7,8,8,9,9,10,10,14,14],"right_children":[2,4,6,8,-1,-1,10,12,14,16,18,-1,-1,-1,20,-1,-1,-1,-1,-1,-1],"split_conditions":[4.787403E-1,1.4357351E0,3.5651585E-1,3.9223227E-1,1.1118225E-2,1.7107633E-4,1.08507484E-1,5.127373E-1,1.623611E-1,3.3135644E-1,4.8507124E-1,-1.03364205E-2,-1.9620077E-3,7.1509457E-3,2.0710456E-1,-4.7948695E-4,1.2385161E-2,6.7550004E-3,2.0431645E-2,-1.8329606E-3,-7.6897787E-3],"split_indices":[15,58,1,16,0,0,10,4,40,13,2,0,0,0,6,0,0,0,0,0,0],"split_type":[0,0,0,0,0,0,0,0,0,0,0,0,0,0,0,0,0,0,0,0,0],"sum_hessian":[3.3149906E1,2.1721853E1,1.1428053E1,2.0300907E1,1.4209445E0,2.1521897E0,9.275864E0,1.6648594E1,3.6523147E0,2.7606335E0,6.5152297E0,1.5626169E1,1.0224247E0,1.0145373E0,2.6377773E0,1.4805475E0,1.2800858E0,1.04315E0,5.4720798E0,1.0064373E0,1.6313399E0],"tree_param":{"num_deleted":"0","num_feature":"60","num_nodes":"21","size_leaf_vector":"1"}},{"base_weights":[2.3098233E-1,-1.1481384E0,2.0005565E0,-1.2399207E0,1.20230405E-4,-1.8972001E-3,2.1747422E0,-1.0317565E-2,-2.5981124E-3,1.6524034E-3,2.449842E0,9.370962E-3,2.0845246E-2],"categories":[],"categories_nodes":[],"categories_segments":[],"categories_sizes":[],"default_left":[0,0,0,0,0,0,0,0,0,0,0,0,0],"id":13,"left_children":[1,3,5,7,-1,-1,9,-1,-1,-1,11,-1,-1],"loss_changes":[8.41471E1,2.0912437E0,6.2593765E0,5.07782E-1,0E0,0E0,7.229004E0,0E0,0E0,0E0,1.5304565E-1,0E0,0E0],"parents":[2147483647,0,0,1,1,2,2,3,3,6,6,10,10],"right_children":[2,4,6,8,-1,-1,10,-1,-1,-1,12,-1,-1],"split_conditions":[3.8329363E-1,1.1713734E0,1.4621161E-1,4.644177E-1,1.20230405E-4,-1.8972001E-3,1E0,-1.0317565E-2,-2.5981124E-3,1.6524034E-3,6.349481E-2,9.370962E-3,2.0845246E-2],"split_indices":[16,57,4,19,0,0,34,0,0,0,11,0,0],"split_type":[0,0,0,0,0,0,0,0,0,0,0,0,0],"sum_hessian":[3.302418E1,1.8707693E1,1.431649E1,1.7293612E1,1.4140811E0,1.0143511E0,1.3302138E1,1.611043E1,1.1831826E0,1.7923002E0,1.1509838E1,1.9443669E0,9.565472E0],"tree_param":{"num_deleted":"0","num_feature":"60","num_nodes":"13","size_leaf_vector":"1"}},{"base_weights":[-1.4186858E-1,-1.2206492E0,1.3718238E0,-1.0420182E-2,1.3401225E-4,-8.2144827E-1,1.87465E0,-1.8482434E-3,-7.889993E-3,-2.4218315E-3,2.097676E0,6.6937965E-1,1.9375337E-2,-6.5887445E-3,1.2888241E-2],"categories":[],"categories_nodes":[],"categories_segments":[],"categories_sizes":[],"default_left":[0,0,0,0,0,0,0,0,0,0,0,0,0,0,0],"id":14,"left_children":[1,3,5,-1,-1,7,9,-1,-1,-1,11,13,-1,-1,-1],"loss_changes":[6.407711E1,2.3322525E0,1.9199278E1,0E0,0E0,1.7676568E-1,7.0508766E0,0E0,0E0,0E0,4.515335E0,5.671113E0,0E0,0E0,0E0],"parents":[2147483647,0,0,1,1,2,2,5,5,6,6,10,10,11,11],"right_children":[2,4,6,-1,-1,8,10,-1,-1,-1,12,14,-1,-1,-1],"split_conditions":[3.6617368E-1,5.0002134E-1,1E0,-1.0420182E-2,1.3401225E-4,1.7610885E-1,2.7022642E-1,-1.8482434E-3,-7.889993E-3,-2.4218315E-3,9.217278E-2,5.7640135E-1,1.9375337E-2,-6.5887445E-3,1.2888241E-2],"split_indices":[15,4,23,0,0,9,3,0,0,0,7,16,0,0,0],"split_type":[0,0,0,0,0,0,0,0,0,0,0,0,0,0,0],"sum_hessian":[3.7721188E1,2.2109413E1,1.5611775E1,2.0700294E1,1.4091187E0,2.822984E0,1.2788792E1,1.0091158E0,1.813868E0,1.1633277E0,1.16254635E1,2.5760736E0,9.049391E0,1.0327281E0,1.5433455E0],"tree_param":{"num_deleted":"0","num_feature":"60","num_nodes":"15","size_leaf_vector":"1"}},{"base_weights":[2.2947404E-1,-1.0192822E0,1.5515213E0,-1.1725843E0,7.090283E-3,-3.9241627E-1,2.0380068E0,1.7354666E-3,-1.0279283E-2,7.339199E-3,-8.459467E-3,8.4265685E-1,2.4797752E0,-3.6857873E-1,1.513925E-2,2.0887408E-2,6.6107535E-3,-6.528929E-3,1.714602E-3],"categories":[],"categories_nodes":[],"categories_segments":[],"categories_sizes":[],"default_left":[0,0,0,0,0,0,0,0,0,0,0,0,0,0,0,0,0,0,0],"id":15,"left_children":[1,3,5,7,-1,9,11,-1,-1,-1,-1,13,15,17,-1,-1,-1,-1,-1],"loss_changes":[5.7674553E1,6.0519238E0,1.659898E1,2.866705E0,0E0,4.225065E0,5.6422997E0,0E0,0E0,0E0,0E0,6.651886E0,4.5980072E-1,8.787558E-1,0E0,0E0,0E0,0E0,0E0],"parents":[2147483647,0,0,1,1,2,2,3,3,5,5,6,6,11,11,12,12,13,13],"right_children":[2,4,6,8,-1,10,12,-1,-1,-1,-1,14,16,18,-1,-1,-1,-1,-1],"split_conditions":[4.7644305E-1,1.2574158E0,1E0,1.7003963E-2,7.090283E-3,2.1167275E-1,1.15309395E-1,1.7354666E-3,-1.0279283E-2,7.339199E-3,-8.459467E-3,1.4305891E-1,4.9959782E-1,4.009575E-1,1.513925E-2,2.0887408E-2,6.6107535E-3,-6.528929E-3,1.714602E-3],"split_indices":[2,56,35,7,0,19,10,0,0,0,0,12,51,4,0,0,0,0,0],"split_type":[0,0,0,0,0,0,0,0,0,0,0,0,0,0,0,0,0,0,0],"sum_hessian":[3.3466465E1,1.7298609E1,1.6167858E1,1.6277576E1,1.0210336E0,3.2652662E0,1.2902592E1,1.1651946E0,1.5112381E1,1.0037155E0,2.2615507E0,4.070126E0,8.832465E0,2.1156664E0,1.9544594E0,7.7809563E0,1.0515091E0,1.0270563E0,1.0886102E0],"tree_param":{"num_deleted":"0","num_feature":"60","num_nodes":"19","size_leaf_vector":"1"}},{"base_weights":[-5.9071038E-2,-1.0405449E0,1.6091424E0,-1.1625183E0,7.085457E-3,-7.224671E-3,1.9613577E0,-1.0348475E-2,1.5756908E-3,-2.4215837E-3,2.2046947E0,5.2812328E-3,2.3482707E0,5.5107586E-3,2.005453E-2],"categories":[],"categories_nodes":[],"categories_segments":[],"categories_sizes":[],"default_left":[0,0,0,0,0,0,0,0,0,0,0,0,0,0,0],"id":16,"left_children":[1,3,5,7,-1,-1,9,-1,-1,-1,11,-1,13,-1,-1],"loss_changes":[5.882206E1,6.0799904E0,1.3112682E1,4.0337715E0,0E0,0E0,7.0657845E0,0E0,0E0,0E0,1.2435875E0,0E0,1.239708E0,0E0,0E0],"parents":[2147483647,0,0,1,1,2,2,3,3,6,6,10,10,12,12],"right_children":[2,4,6,8,-1,-1,10,-1,-1,-1,12,-1,14,-1,-1],"split_conditions":[4.430363E-1,1.476892E0,1E0,5E-1,7.085457E-3,-7.224671E-3,2.0022554E-2,-1.0348475E-2,1.5756908E-3,-2.4215837E-3,2.788383E-1,5.2812328E-3,5.72901E-2,5.5107586E-3,2.005453E-2],"split_indices":[15,58,23,18,0,0,6,0,0,0,3,0,59,0,0],"split_type":[0,0,0,0,0,0,0,0,0,0,0,0,0,0,0],"sum_hessian":[3.44091E1,2.1841246E1,1.2567853E1,2.0820219E1,1.0210268E0,1.4011242E0,1.1166728E1,1.9022953E1,1.7972673E0,1.0659504E0,1.0100778E1,1.2161635E0,8.884614E0,1.1244174E0,7.7601967E0],"tree_param":{"num_deleted":"0","num_feature":"60","num_nodes":"15","size_leaf_vector":"1"}},{"base_weights":[-2.3883419E-1,-9.4263417E-1,1.870114E0,-1.065462E0,9.1940835E-3,1.0871274E-3,2.2638252E0,-1.2288495E0,4.873469E-1,5.5909245E-3,1.9546408E-2,-1.0420821E-2,2.3746367E-3,-6.752341E-3,1.2730388E-2],"categories":[],"categories_nodes":[],"categories_segments":[],"categories_sizes":[],"default_left":[0,0,0,0,0,0,0,0,0,0,0,0,0,0,0],"id":17,"left_children":[1,3,5,7,-1,-1,9,11,13,-1,-1,-1,-1,-1,-1],"loss_changes":[5.8095528E1,8.415369E0,6.475666E0,7.5400105E0,0E0,0E0,9.542389E-1,3.1594353E0,5.7074823E0,0E0,0E0,0E0,0E0,0E0,0E0],"parents":[2147483647,0,0,1,1,2,2,3,3,6,6,7,7,8,8],"right_children":[2,4,6,8,-1,-1,10,12,14,-1,-1,-1,-1,-1,-1],"split_conditions":[5.7316864E-1,1.3796688E0,4.9312466E-1,5.5655205E-1,9.1940835E-3,1.0871274E-3,1.0971393E-1,6.592076E-1,3.31339E-1,5.5909245E-3,1.9546408E-2,-1.0420821E-2,2.3746367E-3,-6.752341E-3,1.2730388E-2],"split_indices":[3,56,16,15,0,0,43,18,3,0,0,0,0,0,0],"split_type":[0,0,0,0,0,0,0,0,0,0,0,0,0,0,0],"sum_hessian":[3.749985E1,2.8427706E1,9.0721445E0,2.719871E1,1.2289975E0,1.865192E0,7.2069526E0,2.4750877E1,2.4478319E0,1.1191187E0,6.087834E0,2.3714169E1,1.0367081E0,1.1896566E0,1.2581753E0],"tree_param":{"num_deleted":"0","num_feature":"60","num_nodes":"15","size_leaf_vector":"1"}},{"base_weights":[-1.528043E-2,-7.679175E-1,2.1241806E0,-1.168825E0,3.9450264E-1,2.2761648E0,5.5201E-3,-1.018633E-2,-1.1810262E-3,-8.461921E-3,1.3302691E0,8.408714E-3,2.0078542E-2,-1.8096012E-3,1.4795137E-2],"categories":[],"categories_nodes":[],"categories_segments":[],"categories_sizes":[],"default_left":[0,0,0,0,0,0,0,0,0,0,0,0,0,0,0],"id":18,"left_children":[1,3,5,7,9,11,-1,-1,-1,-1,13,-1,-1,-1,-1],"loss_changes":[5.1311607E1,1.132623E1,6.299515E-1,1.7482071E0,1.0028627E1,7.472992E-2,0E0,0E0,0E0,0E0,3.8267617E0,0E0,0E0,0E0,0E0],"parents":[2147483647,0,0,1,1,2,2,3,3,4,4,5,5,10,10],"right_children":[2,4,6,8,10,12,-1,-1,-1,-1,14,-1,-1,-1,-1],"split_conditions":[5.607926E-1,4.9723473E-1,4.705587E-1,4.308634E-1,1.53393E-1,5.996532E-1,5.5201E-3,-1.018633E-2,-1.1810262E-3,-8.461921E-3,1E0,8.408714E-3,2.0078542E-2,-1.8096012E-3,1.4795137E-2],"split_indices":[4,19,7,13,11,19,0,0,0,0,35,0,0,0,0],"split_type":[0,0,0,0,0,0,0,0,0,0,0,0,0,0,0],"sum_hessian":[3.0356098E1,2.2811932E1,7.544165E0,1.6958855E1,5.8530774E0,6.4231567E0,1.1210088E0,1.5217038E1,1.7418168E0,2.255282E0,3.5977955E0,1.6893786E0,4.733778E0,1.0056839E0,2.5921116E0],"tree_param":{"num_deleted":"0","num_feature":"60","num_nodes":"15","size_leaf_vector":"1"}},{"base_weights":[-1.1654123E-1,-8.045373E-1,2.242252E0,-1.0598419E0,8.9913845E-1,1.9358445E-2,5.5254996E-3,-1.0279984E-2,-3.3134036E-2,-3.431709E-3,1.3959836E-2,-7.918211E-3,7.257162E-1,-3.8971535E-3,1.5179235E-2],"categories":[],"categories_nodes":[],"categories_segments":[],"categories_sizes":[],"default_left":[0,0,0,0,0,0,0,0,0,0,0,0,0,0,0],"id":19,"left_children":[1,3,5,7,9,-1,-1,-1,11,-1,-1,-1,13,-1,-1],"loss_changes":[5.7304596E1,1.256472E1,9.4582367E-1,5.524866E0,5.005832E0,0E0,0E0,0E0,4.2361245E0,0E0,0E0,0E0,5.3443894E0,0E0,0E0],"parents":[2147483647,0,0,1,1,2,2,3,3,4,4,8,8,12,12],"right_children":[2,4,6,8,10,-1,-1,-1,12,-1,-1,-1,14,-1,-1],"split_conditions":[5.919521E-1,1.0728804E0,4.2975202E-1,4.8701322E-1,1.7080228E-1,1.9358445E-2,5.5254996E-3,-1.0279984E-2,1E0,-3.431709E-3,1.3959836E-2,-7.918211E-3,1.2953275E-1,-3.8971535E-3,1.5179235E-2],"split_indices":[16,42,8,17,9,0,0,0,22,0,0,0,8,0,0],"split_type":[0,0,0,0,0,0,0,0,0,0,0,0,0,0,0],"sum_hessian":[3.3727577E1,2.6494143E1,7.233433E0,2.328778E1,3.2063627E0,6.1140757E0,1.1193571E0,1.8944576E1,4.3432045E0,1.3913571E0,1.8150055E0,1.8202629E0,2.5229416E0,1.454996E0,1.0679457E0],"tree_param":{"num_deleted":"0","num_feature":"60","num_nodes":"15","size_leaf_vector":"1"}},{"base_weights":[1.4778198E-1,-9.227894E-1,1.3811989E0,-1.1464438E0,3.297867E-1,-3.4657812E-1,1.7870926E0,-1.004767E-2,-1.7076789E-3,1.1760445E-2,-7.2455797E-3,-8.023888E-3,5.1921904E-3,-3.3495787E-3,2.0587342E0,1.255939E-3,2.2384734E0,1.1304857E0,2.1043738E-2,-4.024713E-3,1.7098833E-2],"categories":[],"categories_nodes":[],"categories_segments":[],"categories_sizes":[],"default_left":[0,0,0,0,0,0,0,0,0,0,0,0,0,0,0,0,0,0,0,0,0],"id":20,"left_children":[1,3,5,7,9,11,13,-1,-1,-1,-1,-1,-1,-1,15,-1,17,19,-1,-1,-1],"loss_changes":[4.7843147E1,5.73477E0,1.2246014E1,1.5030231E0,5.9722805E0,2.987295E0,8.870674E0,0E0,0E0,0E0,0E0,0E0,0E0,0E0,3.956997E0,0E0,2.6448479E0,7.7945495E0,0E0,0E0,0E0],"parents":[2147483647,0,0,1,1,2,2,3,3,4,4,5,5,6,6,14,14,16,16,17,17],"right_children":[2,4,6,8,10,12,14,-1,-1,-1,-1,-1,-1,-1,16,-1,18,20,-1,-1,-1],"split_conditions":[4.471063E-1,4.1573757E-1,1E0,3.9223227E-1,4.434118E-1,1E0,2.869626E-1,-1.004767E-2,-1.7076789E-3,1.1760445E-2,-7.2455797E-3,-8.023888E-3,5.1921904E-3,-3.3495787E-3,9.2218675E-2,1.255939E-3,1.53393E-1,5.905667E-1,2.1043738E-2,-4.024713E-3,1.7098833E-2],"split_indices":[2,14,23,16,18,39,18,0,0,0,0,0,0,0,42,0,8,0,0,0,0],"split_type":[0,0,0,0,0,0,0,0,0,0,0,0,0,0,0,0,0,0,0,0,0],"sum_hessian":[3.4758232E1,1.8708586E1,1.6049646E1,1.5928086E1,2.7804995E0,3.0740151E0,1.2975632E1,1.4022477E1,1.9056091E0,1.3719163E0,1.4085833E0,1.8492368E0,1.2247782E0,1.3782138E0,1.1597418E1,1.1227869E0,1.0474631E1,3.4986098E0,6.976022E0,1.4772041E0,2.0214057E0],"tree_param":{"num_deleted":"0","num_feature":"60","num_nodes":"21","size_leaf_vector":"1"}},{"base_weights":[9.312124E-2,-1.0595615E0,1.3597779E0,-1.0160681E-2,-1.2279361E-1,8.8496715E-2,1.8413647E0,6.4436686E-3,-8.10425E-3,-8.442598E-3,1.1138538E0,2.1956332E0,5.4151285E-1,1.9281697E-4,1.4419172E-2,3.572479E-3,2.4104855E0,-2.2360205E-3,1.1061617E-2,2.0565094E-2,5.7273186E-3],"categories":[],"categories_nodes":[],"categories_segments":[],"categories_sizes":[],"default_left":[0,0,0,0,0,0,0,0,0,0,0,0,0,0,0,0,0,0,0,0,0],"id":21,"left_children":[1,3,5,-1,7,9,11,-1,-1,-1,13,15,17,-1,-1,-1,19,-1,-1,-1,-1],"loss_changes":[5.966377E1,4.1090107E0,1.1782856E1,0E0,4.5474024E0,8.07141E0,5.5851746E0,0E0,0E0,0E0,2.6667242E0,3.2539253E0,3.0578144E0,0E0,0E0,0E0,1.1855164E0,0E0,0E0,0E0,0E0],"parents":[2147483647,0,0,1,1,2,2,4,4,5,5,6,6,10,10,11,11,12,12,16,16],"right_children":[2,4,6,-1,8,10,12,-1,-1,-1,14,16,18,-1,-1,-1,20,-1,-1,-1,-1],"split_conditions":[3.5638532E-1,4.214564E-1,4.6986154E-1,-1.0160681E-2,5.7201385E-1,4.162423E-1,2.8313524E-1,6.4436686E-3,-8.10425E-3,-8.442598E-3,1.7709863E-1,4.4059426E-2,6.6031885E-1,1.9281697E-4,1.4419172E-2,3.572479E-3,2.7534518E-1,-2.2360205E-3,1.1061617E-2,2.0565094E-2,5.7273186E-3],"split_indices":[3,15,16,0,15,41,8,0,0,0,6,47,15,0,0,0,9,0,0,0,0],"split_type":[0,0,0,0,0,0,0,0,0,0,0,0,0,0,0,0,0,0,0,0,0],"sum_hessian":[3.937401E1,2.0678648E1,1.8695358E1,1.6666302E1,4.0123467E0,5.3803263E0,1.3315033E1,1.9992006E0,2.013146E0,2.532885E0,2.847441E0,1.0057149E1,3.2578838E0,1.403068E0,1.444373E0,1.3528314E0,8.704317E0,1.9021496E0,1.3557342E0,7.5984607E0,1.1058567E0],"tree_param":{"num_deleted":"0","num_feature":"60","num_nodes":"21","size_leaf_vector":"1"}},{"base_weights":[1.17996514E-1,-9.624938E-1,1.4521713E0,-1.1752666E0,6.414423E-3,-9.178982E-1,2.1210306E0,-1.0139916E-2,-1.07621534E-4,-8.597996E-3,-1.8236223E-3,2.8185984E-3,2.3168638E0,6.143531E-3,1.9321611E-2],"categories":[],"categories_nodes":[],"categories_segments":[],"categories_sizes":[],"default_left":[0,0,0,0,0,0,0,0,0,0,0,0,0,0,0],"id":22,"left_children":[1,3,5,7,-1,9,11,-1,-1,-1,-1,-1,13,-1,-1],"loss_changes":[5.5920067E1,8.771196E0,2.8934792E1,2.0738544E0,0E0,2.85717E-1,4.1481133E0,0E0,0E0,0E0,0E0,0E0,4.7314453E-1,0E0,0E0],"parents":[2147483647,0,0,1,1,2,2,3,3,5,5,6,6,12,12],"right_children":[2,4,6,8,-1,10,12,-1,-1,-1,-1,-1,14,-1,-1],"split_conditions":[4.4694054E-1,1.0112206E0,2.2556312E-1,5.3134817E-1,6.414423E-3,2.4574274E-1,1E0,-1.0139916E-2,-1.07621534E-4,-8.597996E-3,-1.8236223E-3,2.8185984E-3,4.9571544E-2,6.143531E-3,1.9321611E-2],"split_indices":[16,43,4,4,0,5,22,0,0,0,0,0,12,0,0],"split_type":[0,0,0,0,0,0,0,0,0,0,0,0,0,0,0],"sum_hessian":[3.731409E1,2.07326E1,1.6581493E1,1.8724798E1,2.007801E0,3.5880759E0,1.2993418E1,1.7284561E1,1.4402363E0,2.582643E0,1.0054328E0,1.5045063E0,1.1488912E1,1.0802785E0,1.0408633E1],"tree_param":{"num_deleted":"0","num_feature":"60","num_nodes":"15","size_leaf_vector":"1"}},{"base_weights":[-5.195638E-2,-9.18197E-1,1.4229976E0,-1.1283779E0,9.120332E-3,-7.5016846E-3,1.8223403E0,-2.0808864E-3,-1.2165748E0,9.634203E-1,1.9396963E-2,-1.011725E-2,-1.881617E-3,1.6360427E0,-2.380082E-3,-1.8608515E-3,1.8758653E-2],"categories":[],"categories_nodes":[],"categories_segments":[],"categories_sizes":[],"default_left":[0,0,0,0,0,0,0,0,0,0,0,0,0,0,0,0,0],"id":23,"left_children":[1,3,5,7,-1,-1,9,-1,11,13,-1,-1,-1,15,-1,-1,-1],"loss_changes":[4.3885075E1,1.03141365E1,1.327227E1,1.2931862E0,0E0,0E0,4.007572E0,0E0,6.233978E-1,5.3126736E0,0E0,0E0,0E0,5.6005526E0,0E0,0E0,0E0],"parents":[2147483647,0,0,1,1,2,2,3,3,6,6,8,8,9,9,13,13],"right_children":[2,4,6,8,-1,-1,10,-1,12,14,-1,-1,-1,16,-1,-1,-1],"split_conditions":[4.4033402E-1,4.9723473E-1,2.715729E-1,9.155693E-2,9.120332E-3,-7.5016846E-3,6.1109823E-1,-2.0808864E-3,9.778422E-1,3.8653994E-1,1.9396963E-2,-1.011725E-2,-1.881617E-3,1.1527198E-1,-2.380082E-3,-1.8608515E-3,1.8758653E-2],"split_indices":[18,19,4,58,0,0,16,0,43,13,0,0,0,8,0,0,0],"split_type":[0,0,0,0,0,0,0,0,0,0,0,0,0,0,0,0,0],"sum_hessian":[3.283089E1,2.0861837E1,1.1969053E1,1.9236315E1,1.6255226E0,1.5854698E0,1.0383583E1,2.0469267E0,1.7189388E1,5.083561E0,5.300022E0,1.618016E1,1.009228E0,3.1696484E0,1.9139127E0,1.0102077E0,2.1594408E0],"tree_param":{"num_deleted":"0","num_feature":"60","num_nodes":"17","size_leaf_vector":"1"}},{"base_weights":[-2.4293976E-1,-9.1931504E-1,1.9743502E0,-1.1268481E0,1.0756905E0,7.0248514E-1,1.9550813E-2,-1.2401124E0,4.3638498E-3,1.5693163E-2,-2.1073548E-3,-6.9232928E-3,1.4402268E-2,-1.0260167E-2,-1.9683128E-3],"categories":[],"categories_nodes":[],"categories_segments":[],"categories_sizes":[],"default_left":[0,0,0,0,0,0,0,0,0,0,0,0,0,0,0],"id":24,"left_children":[1,3,5,7,9,11,-1,13,-1,-1,-1,-1,-1,-1,-1],"loss_changes":[5.1140045E1,1.1651243E1,3.487587E0,5.0281067E0,3.7431335E0,6.691241E0,0E0,7.1533203E-1,0E0,0E0,0E0,0E0,0E0,0E0,0E0],"parents":[2147483647,0,0,1,1,2,2,3,3,4,4,5,5,7,7],"right_children":[2,4,6,8,10,12,-1,14,-1,-1,-1,-1,-1,-1,-1],"split_conditions":[5.774836E-1,1.243498E0,1.13879174E-1,5.591431E-1,5.770748E-1,7.008751E-1,1.9550813E-2,5.205491E-1,4.3638498E-3,1.5693163E-2,-2.1073548E-3,-6.9232928E-3,1.4402268E-2,-1.0260167E-2,-1.9683128E-3],"split_indices":[3,57,10,17,46,1,0,10,0,0,0,0,0,0,0],"split_type":[0,0,0,0,0,0,0,0,0,0,0,0,0,0,0],"sum_hessian":[3.244203E1,2.5195337E1,7.246694E0,2.3116941E1,2.0783956E0,2.458599E0,4.788095E0,2.1832125E1,1.284818E0,1.0410029E0,1.0373927E0,1.0778937E0,1.3807052E0,2.0730127E1,1.1019976E0],"tree_param":{"num_deleted":"0","num_feature":"60","num_nodes":"15","size_leaf_vector":"1"}},{"base_weights":[-1.3618082E-1,-1.1686606E0,1.1183156E0,-1.0092938E-2,-4.3593097E-1,-4.791354E-2,1.7957543E0,2.789932E-3,-7.1894787E-3,9.372467E-3,-6.090833E-1,1.4464062E-3,1.9841346E0,-8.754094E-3,1.7730289E-3,1.7777096E-2,1.5174974E-3],"categories":[],"categories_nodes":[],"categories_segments":[],"categories_sizes":[],"default_left":[0,0,0,0,0,0,0,0,0,0,0,0,0,0,0,0,0],"id":25,"left_children":[1,3,5,-1,7,9,11,-1,-1,-1,13,-1,15,-1,-1,-1,-1],"loss_changes":[4.4636414E1,8.71788E-1,1.2389109E1,0E0,1.4219615E0,4.9576693E0,2.738903E0,0E0,0E0,0E0,2.1645803E0,0E0,3.433323E0,0E0,0E0,0E0,0E0],"parents":[2147483647,0,0,1,1,2,2,4,4,5,5,6,6,10,10,12,12],"right_children":[2,4,6,-1,8,10,12,-1,-1,-1,14,-1,16,-1,-1,-1,-1],"split_conditions":[4.8507124E-1,7.557765E-1,5.3491986E-1,-1.0092938E-2,4.936691E-1,1.3008606E-1,4.830085E-2,2.789932E-3,-7.1894787E-3,9.372467E-3,2.184651E-1,1.4464062E-3,4.8221177E-1,-8.754094E-3,1.7730289E-3,1.7777096E-2,1.5174974E-3],"split_indices":[19,55,0,0,50,13,47,0,0,0,10,0,52,0,0,0,0],"split_type":[0,0,0,0,0,0,0,0,0,0,0,0,0,0,0,0,0],"sum_hessian":[3.295506E1,1.8105295E1,1.4849764E1,1.5586576E1,2.5187185E0,5.7124977E0,9.137265E0,1.0029097E0,1.5158089E0,1.5432019E0,4.169296E0,1.1080397E0,8.029226E0,2.481834E0,1.687462E0,6.931171E0,1.098055E0],"tree_param":{"num_deleted":"0","num_feature":"60","num_nodes":"17","size_leaf_vector":"1"}},{"base_weights":[7.0420824E-2,-1.0585895E0,1.5242594E0,-1.2020332E0,5.164438E-3,-3.6663707E-2,2.038476E0,-1.0027311E-2,-1.998953E-3,-6.856708E-1,6.61171E-3,1.763984E-2,2.093678E-3,-6.6578905E-3,-1.867864E-3],"categories":[],"categories_nodes":[],"categories_segments":[],"categories_sizes":[],"default_left":[0,0,0,0,0,0,0,0,0,0,0,0,0,0,0],"id":26,"left_children":[1,3,5,7,-1,9,11,-1,-1,13,-1,-1,-1,-1,-1],"loss_changes":[5.581546E1,5.2676525E0,1.1974827E1,6.42889E-1,0E0,2.898953E0,2.8755226E0,0E0,0E0,4.850304E-2,0E0,0E0,0E0,0E0,0E0],"parents":[2147483647,0,0,1,1,2,2,3,3,5,5,6,6,9,9],"right_children":[2,4,6,8,-1,10,12,-1,-1,14,-1,-1,-1,-1,-1],"split_conditions":[4.5188284E-1,4.7646278E-1,4.506937E-1,5.1343936E-1,5.164438E-3,3.4510946E-1,7.729735E-1,-1.0027311E-2,-1.998953E-3,3.1205842E-1,6.61171E-3,1.763984E-2,2.093678E-3,-6.6578905E-3,-1.867864E-3],"split_indices":[2,3,18,51,0,5,54,0,0,40,0,0,0,0,0],"split_type":[0,0,0,0,0,0,0,0,0,0,0,0,0,0,0],"sum_hessian":[3.2517532E1,1.8418299E1,1.4099234E1,1.7192156E1,1.2261431E0,3.6663663E0,1.0432867E1,1.6086794E1,1.105362E0,2.180781E0,1.4855857E0,9.373686E0,1.0591812E0,1.1709099E0,1.0098709E0],"tree_param":{"num_deleted":"0","num_feature":"60","num_nodes":"15","size_leaf_vector":"1"}},{"base_weights":[1.775598E-1,-1.0531571E0,1.5013335E0,-1.0009717E-2,4.870824E-3,-9.465909E-2,1.753951E0,7.106927E-3,-7.0506437E-3,-1.2788612E-3,1.9987444E0,9.4105744E-1,1.8764608E-2,-3.1186822E-3,1.5195303E0,1.5950545E-3,1.6681988E-2],"categories":[],"categories_nodes":[],"categories_segments":[],"categories_sizes":[],"default_left":[0,0,0,0,0,0,0,0,0,0,0,0,0,0,0,0,0],"id":27,"left_children":[1,3,5,-1,-1,7,9,-1,-1,-1,11,13,-1,-1,15,-1,-1],"loss_changes":[5.9662003E1,6.8391266E0,7.2211494E0,0E0,0E0,2.9975863E0,7.376999E0,0E0,0E0,0E0,3.319851E0,3.9870539E0,0E0,0E0,2.1980324E0,0E0,0E0],"parents":[2147483647,0,0,1,1,2,2,5,5,6,6,10,10,11,11,14,14],"right_children":[2,4,6,-1,-1,8,10,-1,-1,-1,12,14,-1,-1,16,-1,-1],"split_conditions":[3.5158128E-1,1.046264E0,3.7762776E-1,-1.0009717E-2,4.870824E-3,1.17639676E-1,1E0,7.106927E-3,-7.0506437E-3,-1.2788612E-3,1.7350762E-1,3.4653017E-1,1.8764608E-2,-3.1186822E-3,2.687178E-1,1.5950545E-3,1.6681988E-2],"split_indices":[3,56,1,0,0,7,22,0,0,0,10,4,0,0,40,0,0],"split_type":[0,0,0,0,0,0,0,0,0,0,0,0,0,0,0,0,0],"sum_hessian":[3.514276E1,1.8290937E1,1.6851826E1,1.650898E1,1.781957E0,2.366932E0,1.4484893E1,1.0090582E0,1.3578737E0,1.6721516E0,1.2812741E1,3.8516965E0,8.961045E0,1.2410301E0,2.6106665E0,1.0874186E0,1.523248E0],"tree_param":{"num_deleted":"0","num_feature":"60","num_nodes":"17","size_leaf_vector":"1"}},{"base_weights":[2.1822473E-1,-6.720473E-1,2.0636122E0,-8.584565E-1,1.5876448E-2,1.5998852E-3,1.8110424E-2,-1.0120469E0,1.0420429E-2,-1.2085768E0,2.4634758E-1,-1.0035047E-2,-1.8261747E-3,-7.409698E-3,1.0983586E-2],"categories":[],"categories_nodes":[],"categories_segments":[],"categories_sizes":[],"default_left":[0,0,0,0,0,0,0,0,0,0,0,0,0,0,0],"id":28,"left_children":[1,3,5,7,-1,-1,-1,9,-1,11,13,-1,-1,-1,-1],"loss_changes":[5.749769E1,1.3037628E1,3.9015007E0,8.527544E0,0E0,0E0,0E0,5.572262E0,0E0,6.309185E-1,5.6361103E0,0E0,0E0,0E0,0E0],"parents":[2147483647,0,0,1,1,2,2,3,3,7,7,9,9,10,10],"right_children":[2,4,6,8,-1,-1,-1,10,-1,12,14,-1,-1,-1,-1],"split_conditions":[4.8507124E-1,1.4944831E0,2.1790682E-1,5.8515507E-1,1.5876448E-2,1.5998852E-3,1.8110424E-2,5.048438E-1,1.0420429E-2,9.778422E-1,2.7416217E-1,-1.0035047E-2,-1.8261747E-3,-7.409698E-3,1.0983586E-2],"split_indices":[15,56,4,4,0,0,0,19,0,43,11,0,0,0,0],"split_type":[0,0,0,0,0,0,0,0,0,0,0,0,0,0,0],"sum_hessian":[3.361464E1,2.2997026E1,1.0617611E1,2.196353E1,1.0334976E0,1.1753378E0,9.442273E0,2.087839E1,1.0851403E0,1.8083836E1,2.794554E0,1.7076273E1,1.007562E0,1.434714E0,1.3598399E0],"tree_param":{"num_deleted":"0","num_feature":"60","num_nodes":"15","size_leaf_vector":"1"}},{"base_weights":[2.2370882E-1,-1.0421684E0,1.2553424E0,-9.906024E-3,-1.9021828E-1,-2.498222E-2,1.7893937E0,-7.942616E-3,7.940855E-3,-8.82167E-3,1.0338781E0,-1.1602459E-3,2.0071251E0,-1.8641348E-3,1.5053796E0,2.126018E0,2.3060897E-3,4.43744E-3,1.5639268E-2,2.239789E0,4.6495623E-3,1.2137593E0,1.9424826E-2,1.5516399E-2,2.9022407E-4],"categories":[],"categories_nodes":[],"categories_segments":[],"categories_sizes":[],"default_left":[0,0,0,0,0,0,0,0,0,0,0,0,0,0,0,0,0,0,0,0,0,0,0,0,0],"id":29,"left_children":[1,3,5,-1,7,9,11,-1,-1,-1,13,-1,15,-1,17,19,-1,-1,-1,21,-1,23,-1,-1,-1],"loss_changes":[5.3297382E1,2.896801E0,1.5358463E1,0E0,4.8481984E0,9.227466E0,6.8840065E0,0E0,0E0,0E0,2.7049298E0,0E0,2.457714E0,0E0,5.0287485E-1,1.3496857E0,0E0,0E0,0E0,1.2054443E-1,0E0,2.8275971E0,0E0,0E0,0E0],"parents":[2147483647,0,0,1,1,2,2,4,4,5,5,6,6,10,10,12,12,14,14,15,15,19,19,21,21],"right_children":[2,4,6,-1,8,10,12,-1,-1,-1,14,-1,16,-1,18,20,-1,-1,-1,22,-1,24,-1,-1,-1],"split_conditions":[3.2168245E-1,2.8256607E-1,4.8701322E-1,-9.906024E-3,1E0,4.2951855E-1,2.7742995E-2,-7.942616E-3,7.940855E-3,-8.82167E-3,3.003522E-1,-1.1602459E-3,5.247548E-1,-1.8641348E-3,1E0,6.37475E-1,2.3060897E-3,4.43744E-3,1.5639268E-2,5.456482E-1,4.6495623E-3,1E0,1.9424826E-2,1.5516399E-2,2.9022407E-4],"split_indices":[3,4,17,0,31,40,10,0,0,0,0,0,51,0,31,6,0,0,0,17,0,20,0,0,0],"split_type":[0,0,0,0,0,0,0,0,0,0,0,0,0,0,0,0,0,0,0,0,0,0,0,0,0],"sum_hessian":[3.9310734E1,1.7647957E1,2.1662779E1,1.4069625E1,3.5783324E0,6.5867476E0,1.5076031E1,2.2035687E0,1.3747636E0,3.2489014E0,3.3378463E0,1.5505619E0,1.3525469E1,1.0082066E0,2.3296397E0,1.2484281E1,1.0411882E0,1.285788E0,1.0438516E0,1.1313667E1,1.1706128E0,2.6204119E0,8.693255E0,1.3208491E0,1.2995629E0],"tree_param":{"num_deleted":"0","num_feature":"60","num_nodes":"25","size_leaf_vector":"1"}},{"base_weights":[-1.7563128E-1,-1.0191822E0,1.4173387E0,-1.1373227E0,6.6396515E-3,-2.1029909E-1,1.8674362E0,-1.0045788E-2,-2.3032038E-1,-7.6621026E-3,6.326095E-3,8.5377604E-1,2.089155E0,-7.7453554E-3,6.8714013E-3,9.851513E-3,1.0831044E-3,5.3246124E-3,1.814144E-2],"categories":[],"categories_nodes":[],"categories_segments":[],"categories_sizes":[],"default_left":[0,0,0,0,0,0,0,0,0,0,0,0,0,0,0,0,0,0,0],"id":30,"left_children":[1,3,5,7,-1,9,11,-1,13,-1,-1,15,17,-1,-1,-1,-1,-1,-1],"loss_changes":[4.6822037E1,5.664747E0,9.15753E0,2.1074085E0,0E0,3.0334368E0,8.093033E-1,0E0,3.3704221E0,0E0,0E0,6.842396E-1,7.28426E-1,0E0,0E0,0E0,0E0,0E0,0E0],"parents":[2147483647,0,0,1,1,2,2,3,3,5,5,6,6,8,8,11,11,12,12],"right_children":[2,4,6,8,-1,10,12,-1,14,-1,-1,16,18,-1,-1,-1,-1,-1,-1],"split_conditions":[5.025703E-1,5.003407E-1,1E0,4.49719E-1,6.6396515E-3,5.262348E-1,2.4806947E-1,-1.0045788E-2,1.8404573E-1,-7.6621026E-3,6.326095E-3,6.2759256E-1,6.5479046E-1,-7.7453554E-3,6.8714013E-3,9.851513E-3,1.0831044E-3,5.3246124E-3,1.814144E-2],"split_indices":[2,13,33,0,0,4,5,0,9,0,0,2,2,0,0,0,0,0,0],"split_type":[0,0,0,0,0,0,0,0,0,0,0,0,0,0,0,0,0,0,0],"sum_hessian":[3.3288025E1,2.1939957E1,1.1348067E1,2.0893774E1,1.0461828E0,2.5448787E0,8.803188E0,1.8226158E1,2.6676157E0,1.4755596E0,1.069319E0,2.232881E0,6.5703073E0,1.640033E0,1.0275826E0,1.1124359E0,1.1204451E0,1.1272914E0,5.4430156E0],"tree_param":{"num_deleted":"0","num_feature":"60","num_nodes":"19","size_leaf_vector":"1"}},{"base_weights":[-1.158655E-3,-8.361663E-1,1.5495392E0,-1.013374E0,7.918823E-3,-3.912773E-3,1.8534197E0,-1.128262E0,5.9963623E-3,9.333453E-1,1.8112523E-2,-1.2065439E0,-4.292333E-1,6.873848E-2,1.4407602E-2,-2.1657122E-3,-1.0027927E-2,2.3473855E-3,-7.069083E-3,6.294876E-3,-4.524122E-3],"categories":[],"categories_nodes":[],"categories_segments":[],"categories_sizes":[],"default_left":[0,0,0,0,0,0,0,0,0,0,0,0,0,0,0,0,0,0,0,0,0],"id":31,"left_children":[1,3,5,7,-1,-1,9,11,-1,13,-1,15,17,19,-1,-1,-1,-1,-1,-1,-1],"loss_changes":[4.8775814E1,8.675016E0,8.847754E0,5.229624E0,0E0,0E0,2.8095474E0,7.9356766E-1,0E0,3.5567112E0,0E0,5.807133E-1,1.2910621E0,1.7987874E0,0E0,0E0,0E0,0E0,0E0,0E0,0E0],"parents":[2147483647,0,0,1,1,2,2,3,3,6,6,7,7,9,9,11,11,12,12,13,13],"right_children":[2,4,6,8,-1,-1,10,12,-1,14,-1,16,18,20,-1,-1,-1,-1,-1,-1,-1],"split_conditions":[4.3595886E-1,1.1796335E0,1E0,6.246954E-1,7.918823E-3,-3.912773E-3,1.4595127E-1,7.041115E-1,5.9963623E-3,7.831103E-1,1.8112523E-2,3.1409737E-2,1.1508095E0,5.025703E-1,1.4407602E-2,-2.1657122E-3,-1.0027927E-2,2.3473855E-3,-7.069083E-3,6.294876E-3,-4.524122E-3],"split_indices":[15,43,24,19,0,0,9,54,0,0,0,6,59,2,0,0,0,0,0,0,0],"split_type":[0,0,0,0,0,0,0,0,0,0,0,0,0,0,0,0,0,0,0,0,0],"sum_hessian":[3.6168762E1,2.3734161E1,1.24346E1,2.1938862E1,1.7952996E0,1.5537652E0,1.0880836E1,2.0850082E1,1.0887797E0,4.1151857E0,6.76565E0,1.8260614E1,2.5894675E0,2.466565E0,1.6486206E0,1.1147237E0,1.7145891E1,1.1022335E0,1.487234E0,1.0721686E0,1.3943964E0],"tree_param":{"num_deleted":"0","num_feature":"60","num_nodes":"21","size_leaf_vector":"1"}},{"base_weights":[2.3028035E-1,-8.073412E-1,1.6682212E0,-1.1232057E0,7.4515486E-1,-4.114468E-3,1.9872749E0,-9.8397015E-3,-1.4166872E-3,-2.0754177E-3,1.5069154E-2,-2.099098E-3,2.2147326E0,6.5759975E-3,2.3517883E0,6.0890876E-3,1.9872691E-2],"categories":[],"categories_nodes":[],"categories_segments":[],"categories_sizes":[],"default_left":[0,0,0,0,0,0,0,0,0,0,0,0,0,0,0,0,0],"id":32,"left_children":[1,3,5,7,9,-1,11,-1,-1,-1,-1,-1,13,-1,15,-1,-1],"loss_changes":[4.8982174E1,1.00336895E1,1.0321075E1,1.4766998E0,4.5909166E0,0E0,6.640335E0,0E0,0E0,0E0,0E0,0E0,6.6724396E-1,0E0,6.2207794E-1,0E0,0E0],"parents":[2147483647,0,0,1,1,2,2,3,3,4,4,6,6,12,12,14,14],"right_children":[2,4,6,8,10,-1,12,-1,-1,-1,-1,-1,14,-1,16,-1,-1],"split_conditions":[4.8701322E-1,5.0002134E-1,1.5395361E-1,7.064337E-1,3.1284598E-1,-4.114468E-3,1E0,-9.8397015E-3,-1.4166872E-3,-2.0754177E-3,1.5069154E-2,-2.099098E-3,3.3703078E-2,6.5759975E-3,4.849832E-2,6.0890876E-3,1.9872691E-2],"split_indices":[17,4,14,55,53,0,34,0,0,0,0,0,12,0,8,0,0],"split_type":[0,0,0,0,0,0,0,0,0,0,0,0,0,0,0,0,0],"sum_hessian":[3.1402023E1,1.8431046E1,1.2970979E1,1.5487426E1,2.9436197E0,1.595788E0,1.1375191E1,1.3714879E1,1.7725469E0,1.8714153E0,1.0722046E0,1.0339334E0,1.0341257E1,1.3966768E0,8.94458E0,1.0757272E0,7.868853E0],"tree_param":{"num_deleted":"0","num_feature":"60","num_nodes":"17","size_leaf_vector":"1"}},{"base_weights":[2.2304721E-2,-9.959577E-1,1.2626649E0,-1.1635274E0,1.1111586E-2,-5.0051266E-1,1.7644055E0,-9.970579E-3,-4.4604337E-1,-8.138618E-3,3.3441165E-3,1.9198749E0,7.71478E-4,-7.092605E-3,2.0753646E-3,4.6945536E-3,2.0245054E0,1.7196173E-2,7.0506777E-3],"categories":[],"categories_nodes":[],"categories_segments":[],"categories_sizes":[],"default_left":[0,0,0,0,0,0,0,0,0,0,0,0,0,0,0,0,0,0,0],"id":33,"left_children":[1,3,5,7,-1,9,11,-1,13,-1,-1,15,-1,-1,-1,-1,17,-1,-1],"loss_changes":[5.100791E1,1.0079144E1,1.6764315E1,8.388252E-1,0E0,2.5103667E0,3.5784798E0,0E0,1.2151749E0,0E0,0E0,9.324074E-1,0E0,0E0,0E0,0E0,2.6778412E-1,0E0,0E0],"parents":[2147483647,0,0,1,1,2,2,3,3,5,5,6,6,8,8,11,11,16,16],"right_children":[2,4,6,8,-1,10,12,-1,14,-1,-1,16,-1,-1,-1,-1,18,-1,-1],"split_conditions":[3.9425388E-1,7.7168E-1,3.7669677E-1,2.9561794E-1,1.1111586E-2,4.099448E-1,6.2950325E-1,-9.970579E-3,2.8315002E-1,-8.138618E-3,3.3441165E-3,4.591303E-1,7.71478E-4,-7.092605E-3,2.0753646E-3,4.6945536E-3,3.7855732E-1,1.7196173E-2,7.0506777E-3],"split_indices":[3,45,0,3,0,17,41,0,14,0,0,17,0,0,0,0,8,0,0],"split_type":[0,0,0,0,0,0,0,0,0,0,0,0,0,0,0,0,0,0,0],"sum_hessian":[3.8889164E1,2.143779E1,1.7451376E1,2.0389282E1,1.0485078E0,3.866357E0,1.3585018E1,1.778424E1,2.6050406E0,2.4225965E0,1.4437606E0,1.2323127E1,1.2618916E0,1.4851084E0,1.1199322E0,1.2575488E0,1.10655775E1,9.379596E0,1.6859822E0],"tree_param":{"num_deleted":"0","num_feature":"60","num_nodes":"19","size_leaf_vector":"1"}},{"base_weights":[-8.4871076E-2,-9.700657E-1,1.132799E0,-1.1255687E0,7.325026E-3,-4.320795E-3,1.428999E0,-9.894504E-3,1.6052619E-3,8.2671773E-1,1.7339753E-2,-8.04365E-1,1.6447508E0,-7.6669073E-3,-2.4521095E-3,1.7274838E-2,2.3890983E-3],"categories":[],"categories_nodes":[],"categories_segments":[],"categories_sizes":[],"default_left":[0,0,0,0,0,0,0,0,0,0,0,0,0,0,0,0,0],"id":34,"left_children":[1,3,5,7,-1,-1,9,-1,-1,11,-1,13,15,-1,-1,-1,-1],"loss_changes":[3.278144E1,5.9256153E0,6.9344845E0,2.6307507E0,0E0,0E0,3.5942001E0,0E0,0E0,1.076943E1,0E0,5.95057E-3,3.067546E0,0E0,0E0,0E0,0E0],"parents":[2147483647,0,0,1,1,2,2,3,3,6,6,9,9,11,11,12,12],"right_children":[2,4,6,8,-1,-1,10,-1,-1,12,-1,14,16,-1,-1,-1,-1],"split_conditions":[4.8015758E-1,5.322469E-1,2.9627523E-1,1.1351093E0,7.325026E-3,-4.320795E-3,7.2908694E-1,-9.894504E-3,1.6052619E-3,3.966322E-1,1.7339753E-2,2.657953E-1,5.864909E-1,-7.6669073E-3,-2.4521095E-3,1.7274838E-2,2.3890983E-3],"split_indices":[2,13,16,42,0,0,2,0,0,56,0,41,2,0,0,0,0],"split_type":[0,0,0,0,0,0,0,0,0,0,0,0,0,0,0,0,0],"sum_hessian":[2.8898403E1,1.6822018E1,1.2076387E1,1.5819772E1,1.0022452E0,1.7236825E0,1.0352705E1,1.4642149E1,1.1776222E0,6.5776954E0,3.7750096E0,2.2012122E0,4.376483E0,1.1513273E0,1.0498849E0,2.8383205E0,1.5381626E0],"tree_param":{"num_deleted":"0","num_feature":"60","num_nodes":"17","size_leaf_vector":"1"}},{"base_weights":[-3.4240034E-4,-8.906813E-1,1.8346934E0,-1.1914486E0,8.5985176E-2,2.0665286E0,2.5462024E-4,-1.96412E-3,-9.931368E-3,-7.9499805E-1,1.0780945E0,7.4328263E-3,1.7677091E-2,-7.519545E-3,-1.8554425E-3,-2.5507572E-5,1.5445731E-2],"categories":[],"categories_nodes":[],"categories_segments":[],"categories_sizes":[],"default_left":[0,0,0,0,0,0,0,0,0,0,0,0,0,0,0,0,0],"id":35,"left_children":[1,3,5,7,9,11,-1,-1,-1,13,15,-1,-1,-1,-1,-1,-1],"loss_changes":[5.647691E1,6.9137897E0,4.6706963E0,6.1496544E-1,6.0438766E0,8.709335E-2,0E0,0E0,0E0,1.3885617E-1,2.9776032E0,0E0,0E0,0E0,0E0,0E0,0E0],"parents":[2147483647,0,0,1,1,2,2,3,3,4,4,5,5,9,9,10,10],"right_children":[2,4,6,8,10,12,-1,-1,-1,14,16,-1,-1,-1,-1,-1,-1],"split_conditions":[5.2283096E-1,5.452803E-1,5.31529E-1,5.6808107E-2,3.3343837E-1,6.7509234E-2,2.5462024E-4,-1.96412E-3,-9.931368E-3,2.4892046E-1,1E0,7.4328263E-3,1.7677091E-2,-7.519545E-3,-1.8554425E-3,-2.5507572E-5,1.5445731E-2],"split_indices":[1,41,56,56,17,6,0,0,0,1,29,0,0,0,0,0,0],"split_type":[0,0,0,0,0,0,0,0,0,0,0,0,0,0,0,0,0],"sum_hessian":[3.3067596E1,2.2524788E1,1.0542808E1,1.7095304E1,5.429484E0,9.244367E0,1.298441E0,1.08033E0,1.6014975E1,2.9547257E0,2.4747581E0,1.6611044E0,7.583262E0,1.9506065E0,1.0041194E0,1.420498E0,1.0542601E0],"tree_param":{"num_deleted":"0","num_feature":"60","num_nodes":"17","size_leaf_vector":"1"}},{"base_weights":[7.905823E-2,-1.1306725E0,1.1969522E0,-9.798627E-3,-4.897706E-4,5.795285E-1,1.8837897E0,-2.2014107E-1,1.4931855E0,3.5018366E-4,1.7814416E-2,5.2959645E-1,-7.41582E-1,6.8420346E-4,1.4957856E-2,-2.2794148E-3,8.790245E-3,-8.769905E-3,1.0530936E-3],"categories":[],"categories_nodes":[],"categories_segments":[],"categories_sizes":[],"default_left":[0,0,0,0,0,0,0,0,0,0,0,0,0,0,0,0,0,0,0],"id":36,"left_children":[1,3,5,-1,-1,7,9,11,13,-1,-1,15,17,-1,-1,-1,-1,-1,-1],"loss_changes":[4.9659122E1,1.7221489E0,7.2635365E0,0E0,0E0,8.370987E0,5.4109726E0,2.8683257E0,2.6821241E0,0E0,0E0,1.6896695E0,1.4075067E0,0E0,0E0,0E0,0E0,0E0,0E0],"parents":[2147483647,0,0,1,1,2,2,5,5,6,6,7,7,8,8,11,11,12,12],"right_children":[2,4,6,-1,-1,8,10,12,14,-1,-1,16,18,-1,-1,-1,-1,-1,-1],"split_conditions":[3.3381298E-1,4.934601E-1,1E0,-9.798627E-3,-4.897706E-4,6.6491055E-1,4.5576894E-1,2.516602E-1,8.101454E-2,3.5018366E-4,1.7814416E-2,1.16520986E-1,5.86778E-1,6.8420346E-4,1.4957856E-2,-2.2794148E-3,8.790245E-3,-8.769905E-3,1.0530936E-3],"split_indices":[3,15,30,0,0,3,16,15,6,0,0,15,15,0,0,0,0,0,0],"split_type":[0,0,0,0,0,0,0,0,0,0,0,0,0,0,0,0,0,0,0],"sum_hessian":[3.5220036E1,1.6911095E1,1.830894E1,1.5442547E1,1.4685483E0,1.0369887E1,7.9390535E0,5.833481E0,4.5364065E0,1.3803215E0,6.558732E0,2.3880982E0,3.4453826E0,1.1516162E0,3.3847904E0,1.1364112E0,1.251687E0,2.3140044E0,1.1313782E0],"tree_param":{"num_deleted":"0","num_feature":"60","num_nodes":"19","size_leaf_vector":"1"}},{"base_weights":[7.767552E-5,-1.0758712E0,1.2695196E0,-9.862933E-3,5.5886004E-3,2.8261247E-1,1.8768041E0,-7.761485E-3,8.81677E-1,5.351034E-1,1.8867478E-2,-3.3699607E-3,1.3665617E0,-7.23223E-3,1.328853E-2,1.4253733E-2,1.6487287E-3],"categories":[],"categories_nodes":[],"categories_segments":[],"categories_sizes":[],"default_left":[0,0,0,0,0,0,0,0,0,0,0,0,0,0,0,0,0],"id":37,"left_children":[1,3,5,-1,-1,7,9,-1,11,13,-1,-1,15,-1,-1,-1,-1],"loss_changes":[4.510199E1,5.6249065E0,8.681143E0,0E0,0E0,5.6350613E0,5.0275764E0,0E0,3.5236616E0,6.655286E0,0E0,0E0,1.5280962E0,0E0,0E0,0E0,0E0],"parents":[2147483647,0,0,1,1,2,2,5,5,6,6,8,8,9,9,12,12],"right_children":[2,4,6,-1,-1,8,10,-1,12,14,-1,-1,16,-1,-1,-1,-1],"split_conditions":[3.908488E-1,4.2781904E-1,1E0,-9.862933E-3,5.5886004E-3,4.8507124E-1,1.2222013E-1,-7.761485E-3,1.7610885E-1,6.01012E-1,1.8867478E-2,-3.3699607E-3,3.2524744E-1,-7.23223E-3,1.328853E-2,1.4253733E-2,1.6487287E-3],"split_indices":[3,4,26,0,0,1,10,0,9,17,0,0,7,0,0,0,0],"split_type":[0,0,0,0,0,0,0,0,0,0,0,0,0,0,0,0,0],"sum_hessian":[3.1521086E1,1.7122675E1,1.439841E1,1.5941176E1,1.1814992E0,5.9035277E0,8.494883E0,1.7594466E0,4.144081E0,2.6621306E0,5.8327518E0,1.150645E0,2.9934363E0,1.2334478E0,1.4286828E0,1.9089944E0,1.0844418E0],"tree_param":{"num_deleted":"0","num_feature":"60","num_nodes":"17","size_leaf_vector":"1"}},{"base_weights":[2.244908E-2,-1.0884578E0,1.2092726E0,-1.184065E0,2.6052536E-3,2.7961776E-1,1.8835008E0,-9.832522E-3,-2.1138682E-3,1.1779151E0,-4.2355913E-1,5.2262275E-3,1.9850599E0,-2.7314427E-3,1.510294E-2,-9.0504986E-1,6.980531E-3,1.025778E0,1.7705284E-2,-2.200431E-3,-8.378167E-3,8.693721E-4,1.2172232E-2],"categories":[],"categories_nodes":[],"categories_segments":[],"categories_sizes":[],"default_left":[0,0,0,0,0,0,0,0,0,0,0,0,0,0,0,0,0,0,0,0,0,0,0],"id":38,"left_children":[1,3,5,7,-1,9,11,-1,-1,13,15,-1,17,-1,-1,19,-1,21,-1,-1,-1,-1,-1],"loss_changes":[4.748199E1,2.8052158E0,1.0514496E1,4.8464584E-1,0E0,5.552153E0,2.715187E-1,0E0,0E0,4.579836E0,3.8060718E0,0E0,2.2956085E-1,0E0,0E0,1.5337157E-1,0E0,1.2828281E0,0E0,0E0,0E0,0E0,0E0],"parents":[2147483647,0,0,1,1,2,2,3,3,5,5,6,6,9,9,10,10,12,12,15,15,17,17],"right_children":[2,4,6,8,-1,10,12,-1,-1,14,16,-1,18,-1,-1,20,-1,22,-1,-1,-1,-1,-1],"split_conditions":[4.1202095E-1,1.5442387E0,5.365238E-1,4.7305506E-1,2.6052536E-3,1.5740497E-1,1E0,-9.832522E-3,-2.1138682E-3,1.99572E-1,5.1993096E-1,5.2262275E-3,1.53393E-1,-2.7314427E-3,1.510294E-2,1.6379972E-1,6.980531E-3,5.6504405E-1,1.7705284E-2,-2.200431E-3,-8.378167E-3,8.693721E-4,1.2172232E-2],"split_indices":[3,42,19,15,0,10,20,0,0,6,47,0,8,0,0,6,0,3,0,0,0,0,0],"split_type":[0,0,0,0,0,0,0,0,0,0,0,0,0,0,0,0,0,0,0,0,0,0,0],"sum_hessian":[3.4514736E1,1.7859657E1,1.6655079E1,1.684293E1,1.0167274E0,7.4473686E0,9.207711E0,1.581699E1,1.0259397E0,3.0476694E0,4.399699E0,1.1272522E0,8.080459E0,1.094556E0,1.9531133E0,3.3729827E0,1.0267164E0,2.344289E0,5.73617E0,1.0264794E0,2.3465035E0,1.1434277E0,1.2008613E0],"tree_param":{"num_deleted":"0","num_feature":"60","num_nodes":"23","size_leaf_vector":"1"}},{"base_weights":[1.0509333E-2,-1.0419284E0,1.1562351E0,-1.185007E0,7.3335427E-3,-7.371438E-1,1.493374E0,-1.775056E-3,-9.872724E-3,-1.8668959E-3,-7.2712237E-3,1.9103941E0,-3.1422883E-1,1.15455E0,1.8065149E-2,-8.031482E-3,5.7958914E-3,5.0382914E-5,1.42574925E-2],"categories":[],"categories_nodes":[],"categories_segments":[],"categories_sizes":[],"default_left":[0,0,0,0,0,0,0,0,0,0,0,0,0,0,0,0,0,0,0],"id":39,"left_children":[1,3,5,7,-1,9,11,-1,-1,-1,-1,13,15,17,-1,-1,-1,-1,-1],"loss_changes":[4.5215828E1,6.293026E0,1.228385E1,6.713257E-1,0E0,1.1913872E-1,1.2122902E1,0E0,0E0,0E0,0E0,1.3796539E0,3.086477E0,3.978951E0,0E0,0E0,0E0,0E0,0E0],"parents":[2147483647,0,0,1,1,2,2,3,3,5,5,6,6,11,11,12,12,13,13],"right_children":[2,4,6,8,-1,10,12,-1,-1,-1,-1,14,16,18,-1,-1,-1,-1,-1],"split_conditions":[3.908488E-1,1.1041584E0,3.5158128E-1,4.1195694E-2,7.3335427E-3,1E0,6.5019995E-1,-1.775056E-3,-9.872724E-3,-1.8668959E-3,-7.2712237E-3,4.8400685E-1,1E0,6.094124E-1,1.8065149E-2,-8.031482E-3,5.7958914E-3,5.0382914E-5,1.42574925E-2],"split_indices":[3,55,17,9,0,23,55,0,0,0,0,14,33,3,0,0,0,0,0],"split_type":[0,0,0,0,0,0,0,0,0,0,0,0,0,0,0,0,0,0,0],"sum_hessian":[3.5999134E1,1.8798866E1,1.7200268E1,1.7795153E1,1.0037134E0,2.465291E0,1.4734976E1,1.0636858E0,1.6731468E1,1.0765848E0,1.3887061E0,1.1938154E1,2.796822E0,4.782748E0,7.155406E0,1.6958748E0,1.1009473E0,1.9580499E0,2.8246982E0],"tree_param":{"num_deleted":"0","num_feature":"60","num_nodes":"19","size_leaf_vector":"1"}},{"base_weights":[1.6862862E-2,-1.0921235E0,1.413186E0,-1.1797608E0,1.5705451E-3,3.1780633E-1,1.8177001E0,-9.80838E-3,-2.0549158E-3,-4.426475E-1,1.569462E-2,6.694891E-4,1.6179707E-2,6.548277E-3,-8.490785E-3],"categories":[],"categories_nodes":[],"categories_segments":[],"categories_sizes":[],"default_left":[0,0,0,0,0,0,0,0,0,0,0,0,0,0,0],"id":40,"left_children":[1,3,5,7,-1,9,11,-1,-1,13,-1,-1,-1,-1,-1],"loss_changes":[5.6074875E1,2.4533825E0,6.6676254E0,5.758877E-1,0E0,7.191031E0,3.972126E0,0E0,0E0,3.9198256E0,0E0,0E0,0E0,0E0,0E0],"parents":[2147483647,0,0,1,1,2,2,3,3,5,5,6,6,9,9],"right_children":[2,4,6,8,-1,10,12,-1,-1,14,-1,-1,-1,-1,-1],"split_conditions":[4.471063E-1,5.011735E-1,5E-1,5.508647E-1,1.5705451E-3,5.039135E-1,1E0,-9.80838E-3,-2.0549158E-3,9.9949636E-2,1.569462E-2,6.694891E-4,1.6179707E-2,6.548277E-3,-8.490785E-3],"split_indices":[2,14,18,48,0,46,25,0,0,9,0,0,0,0,0],"split_type":[0,0,0,0,0,0,0,0,0,0,0,0,0,0,0],"sum_hessian":[3.471479E1,1.94392E1,1.527559E1,1.8260424E1,1.1787758E0,4.48094E0,1.079465E1,1.7153742E1,1.1066828E0,3.4385014E0,1.0424386E0,1.2516559E0,9.542994E0,1.051942E0,2.3865592E0],"tree_param":{"num_deleted":"0","num_feature":"60","num_nodes":"15","size_leaf_vector":"1"}},{"base_weights":[3.6924955E-2,-9.9809945E-1,1.4174824E0,-1.1603409E0,5.838651E-3,1.7393912E0,-1.135475E-1,-2.3170891E-3,-9.697808E-3,4.1950622E-1,2.0919828E0,-6.7524547E-3,5.1507163E-3,9.461763E-3,-3.5667655E-3,4.997268E-3,1.8113285E-2],"categories":[],"categories_nodes":[],"categories_segments":[],"categories_sizes":[],"default_left":[0,0,0,0,0,0,0,0,0,0,0,0,0,0,0,0,0],"id":41,"left_children":[1,3,5,7,-1,9,11,-1,-1,13,15,-1,-1,-1,-1,-1,-1],"loss_changes":[4.247565E1,5.4022694E0,6.4214516E0,4.5203018E-1,0E0,4.2577267E0,2.0205872E0,0E0,0E0,2.4858468E0,9.97818E-1,0E0,0E0,0E0,0E0,0E0,0E0],"parents":[2147483647,0,0,1,1,2,2,3,3,5,5,6,6,9,9,10,10],"right_children":[2,4,6,8,-1,10,12,-1,-1,14,16,-1,-1,-1,-1,-1,-1],"split_conditions":[4.1947576E-1,1.1435549E0,3.8256952E-1,2.4415495E-2,5.838651E-3,2.1886116E-1,4.7270316E-1,-2.3170891E-3,-9.697808E-3,7.92329E-2,7.108384E-2,-6.7524547E-3,5.1507163E-3,9.461763E-3,-3.5667655E-3,4.997268E-3,1.8113285E-2],"split_indices":[3,57,11,9,0,5,5,0,0,10,44,0,0,0,0,0,0],"split_type":[0,0,0,0,0,0,0,0,0,0,0,0,0,0,0,0,0],"sum_hessian":[2.823331E1,1.6254696E1,1.1978614E1,1.5084702E1,1.1699954E0,9.813247E0,2.1653671E0,1.1259727E0,1.3958729E1,2.415066E0,7.3981805E0,1.0585539E0,1.1068132E0,1.1371081E0,1.2779579E0,1.1414628E0,6.2567177E0],"tree_param":{"num_deleted":"0","num_feature":"60","num_nodes":"17","size_leaf_vector":"1"}},{"base_weights":[-9.287707E-2,-1.0275275E0,1.1242058E0,2.300523E-3,-1.1188637E0,-4.7497475E-1,1.5955794E0,-9.773793E-3,2.0370926E-3,-8.47006E-3,4.613497E-3,2.5943786E-1,2.0050719E0,-6.3595492E-3,7.7794553E-3,9.5316386E-1,1.827905E-2,1.164496E-2,4.8817936E-4],"categories":[],"categories_nodes":[],"categories_segments":[],"categories_sizes":[],"default_left":[0,0,0,0,0,0,0,0,0,0,0,0,0,0,0,0,0,0,0],"id":42,"left_children":[1,3,5,-1,7,9,11,-1,-1,-1,-1,13,15,-1,-1,17,-1,-1,-1],"loss_changes":[3.865081E1,2.545086E0,1.1714323E1,0E0,2.7886848E0,2.8793745E0,5.952305E0,0E0,0E0,0E0,0E0,3.2716475E0,9.453392E-1,0E0,0E0,1.3353882E0,0E0,0E0,0E0],"parents":[2147483647,0,0,1,1,2,2,4,4,5,5,6,6,11,11,12,12,15,15],"right_children":[2,4,6,-1,8,10,12,-1,-1,-1,-1,14,16,-1,-1,18,-1,-1,-1],"split_conditions":[4.3035507E-1,7.466559E-2,9.9993974E-2,2.300523E-3,1.0728804E0,7.4278134E-1,1E0,-9.773793E-3,2.0370926E-3,-8.47006E-3,4.613497E-3,4.967507E-1,1.1919076E-1,-6.3595492E-3,7.7794553E-3,8.609034E-2,1.827905E-2,1.164496E-2,4.8817936E-4],"split_indices":[2,40,6,0,42,2,24,0,0,0,0,2,8,0,0,8,0,0,0],"split_type":[0,0,0,0,0,0,0,0,0,0,0,0,0,0,0,0,0,0,0],"sum_hessian":[3.2465725E1,1.842963E1,1.4036097E1,1.0922151E0,1.7337414E1,3.1940942E0,1.0842003E1,1.6206594E1,1.1308206E0,2.050687E0,1.1434071E0,2.8307283E0,8.011274E0,1.1071954E0,1.7235328E0,2.3776515E0,5.633623E0,1.2179804E0,1.1596711E0],"tree_param":{"num_deleted":"0","num_feature":"60","num_nodes":"19","size_leaf_vector":"1"}},{"base_weights":[-1.3462094E-2,-8.496631E-1,1.3756021E0,-9.629548E-3,9.927072E-2,1.7214814E0,-4.321837E-3,1.2911068E-2,-5.5149627E-1,6.9110245E-1,1.6486173E-2,9.611303E-4,-8.367439E-3,-9.804984E-4,1.05851665E-2],"categories":[],"categories_nodes":[],"categories_segments":[],"categories_sizes":[],"default_left":[0,0,0,0,0,0,0,0,0,0,0,0,0,0,0],"id":43,"left_children":[1,3,5,-1,7,9,-1,-1,11,13,-1,-1,-1,-1,-1],"loss_changes":[3.627449E1,6.6362658E0,8.475746E0,0E0,6.569345E0,2.4705467E0,0E0,0E0,1.6706837E0,1.9914517E0,0E0,0E0,0E0,0E0,0E0],"parents":[2147483647,0,0,1,1,2,2,4,4,5,5,8,8,9,9],"right_children":[2,4,6,-1,8,10,-1,-1,12,14,-1,-1,-1,-1,-1],"split_conditions":[4.819208E-1,3.7339395E-1,4.7920594E-1,-9.629548E-3,7.379881E-2,5.6329876E-1,-4.321837E-3,1.2911068E-2,4.667459E-1,1.7291485E-1,1.6486173E-2,9.611303E-4,-8.367439E-3,-9.804984E-4,1.05851665E-2],"split_indices":[15,19,46,0,52,15,0,0,18,9,0,0,0,0,0],"split_type":[0,0,0,0,0,0,0,0,0,0,0,0,0,0,0],"sum_hessian":[2.972505E1,1.8736893E1,1.0988158E1,1.3499222E1,5.237671E0,9.372208E0,1.6159506E0,1.2405057E0,3.997165E0,2.8858743E0,6.486333E0,1.9356039E0,2.061561E0,1.5259707E0,1.3599036E0],"tree_param":{"num_deleted":"0","num_feature":"60","num_nodes":"15","size_leaf_vector":"1"}},{"base_weights":[-5.9939396E-2,-5.441704E-1,1.8326942E0,-8.0718E-1,1.1227359E-2,1.633357E-2,4.6454174E-3,-1.0457335E0,5.9770626E-1,-1.1274939E0,8.070973E-5,1.1835415E-2,-6.365669E-3,-1.2444641E-3,-1.1811601E0,-9.918985E-3,-1.5998421E-3],"categories":[],"categories_nodes":[],"categories_segments":[],"categories_sizes":[],"default_left":[0,0,0,0,0,0,0,0,0,0,0,0,0,0,0,0,0],"id":44,"left_children":[1,3,5,7,-1,-1,-1,9,11,13,-1,-1,-1,-1,15,-1,-1],"loss_changes":[2.696218E1,1.2812553E1,6.8060493E-1,7.5241356E0,0E0,0E0,0E0,1.5855846E0,5.2235756E0,7.469635E-1,0E0,0E0,0E0,0E0,7.3352814E-1,0E0,0E0],"parents":[2147483647,0,0,1,1,2,2,3,3,7,7,8,8,9,9,14,14],"right_children":[2,4,6,8,-1,-1,-1,10,12,14,-1,-1,-1,-1,16,-1,-1],"split_conditions":[6.435026E-1,7.4278134E-1,3.4278643E-1,5.089E-1,1.1227359E-2,1.633357E-2,4.6454174E-3,5.6804687E-1,1E0,4.7482222E-2,8.070973E-5,1.1835415E-2,-6.365669E-3,-1.2444641E-3,4.7012913E-1,-9.918985E-3,-1.5998421E-3],"split_indices":[15,2,9,47,0,0,0,16,26,47,0,0,0,0,12,0,0],"split_type":[0,0,0,0,0,0,0,0,0,0,0,0,0,0,0,0,0],"sum_hessian":[2.7853397E1,2.260441E1,5.2489867E0,2.0301928E1,2.3024836E0,4.092733E0,1.1562539E0,1.7518904E1,2.7830234E0,1.6212532E1,1.3063723E0,1.6761189E0,1.1069046E0,1.0013461E0,1.5211185E1,1.4165776E1,1.0454091E0],"tree_param":{"num_deleted":"0","num_feature":"60","num_nodes":"17","size_leaf_vector":"1"}},{"base_weights":[2.118911E-1,-7.112603E-1,1.2609712E0,-1.047976E0,1.1054453E0,-3.18181E-3,1.5195096E0,2.8580658E-3,-1.1642562E0,-1.9193545E-3,1.4831272E-2,1.6818602E0,-2.2652042E-3,-1.3775361E-3,-9.820391E-3,1.8213385E0,3.1341114E-3,2.4365357E-3,1.9471772E0,5.767055E-3,1.6267834E-2],"categories":[],"categories_nodes":[],"categories_segments":[],"categories_sizes":[],"default_left":[0,0,0,0,0,0,0,0,0,0,0,0,0,0,0,0,0,0,0,0,0],"id":45,"left_children":[1,3,5,7,9,-1,11,-1,13,-1,-1,15,-1,-1,-1,17,-1,-1,19,-1,-1],"loss_changes":[3.323795E1,1.2103568E1,7.3188896E0,2.9066334E0,3.5928612E0,0E0,4.4563637E0,0E0,7.733898E-1,0E0,0E0,1.7964058E0,0E0,0E0,0E0,1.7478447E0,0E0,0E0,8.480072E-3,0E0,0E0],"parents":[2147483647,0,0,1,1,2,2,3,3,4,4,6,6,8,8,11,11,15,15,18,18],"right_children":[2,4,6,8,10,-1,12,-1,14,-1,-1,16,-1,-1,-1,18,-1,-1,20,-1,-1],"split_conditions":[4.6083024E-1,5.089E-1,3.570859E-2,6.2126197E-2,9.546299E-1,-3.18181E-3,8.051292E-1,2.8580658E-3,2.1504134E-2,-1.9193545E-3,1.4831272E-2,5.180261E-1,-2.2652042E-3,-1.3775361E-3,-9.820391E-3,1.909837E-1,3.1341114E-3,2.4365357E-3,6.349481E-2,5.767055E-3,1.6267834E-2],"split_indices":[16,47,11,56,55,0,53,0,14,0,0,52,0,0,0,4,0,0,11,0,0],"split_type":[0,0,0,0,0,0,0,0,0,0,0,0,0,0,0,0,0,0,0,0,0],"sum_hessian":[3.2875854E1,1.761597E1,1.5259886E1,1.5129217E1,2.486753E0,2.0033395E0,1.3256546E1,1.0374503E0,1.4091767E1,1.0710776E0,1.4156754E0,1.2207387E1,1.0491593E0,1.0124705E0,1.3079296E1,1.0737651E1,1.4697355E0,1.0191196E0,9.718532E0,1.100198E0,8.618334E0],"tree_param":{"num_deleted":"0","num_feature":"60","num_nodes":"21","size_leaf_vector":"1"}},{"base_weights":[-1.318196E-1,-7.521825E-1,1.081655E0,-1.0216508E0,8.149029E-1,-2.7902512E-2,1.4479184E0,-1.111955E0,2.5770105E-3,1.1771787E-2,-2.6208889E-3,-6.725789E-3,4.6108365E-3,1.4208244E-1,1.5254145E-2,-1.1610157E0,-1.4238858E-3,-6.86679E-3,8.091795E-3,-9.687182E-3,-2.2443829E-3],"categories":[],"categories_nodes":[],"categories_segments":[],"categories_sizes":[],"default_left":[0,0,0,0,0,0,0,0,0,0,0,0,0,0,0,0,0,0,0,0,0],"id":46,"left_children":[1,3,5,7,9,11,13,15,-1,-1,-1,-1,-1,17,-1,19,-1,-1,-1,-1,-1],"loss_changes":[2.48123E1,9.794738E0,4.575139E0,2.5576096E0,3.064707E0,2.087992E0,4.843216E0,6.6262245E-1,0E0,0E0,0E0,0E0,0E0,3.2607048E0,0E0,4.8381042E-1,0E0,0E0,0E0,0E0,0E0],"parents":[2147483647,0,0,1,1,2,2,3,3,4,4,5,5,6,6,7,7,13,13,15,15],"right_children":[2,4,6,8,10,12,14,16,-1,-1,-1,-1,-1,18,-1,20,-1,-1,-1,-1,-1],"split_conditions":[5E-1,4.4237307E-1,1E0,1.1987779E0,2.5919375E-1,1E0,1.4595127E-1,5.044957E-1,2.5770105E-3,1.1771787E-2,-2.6208889E-3,-6.725789E-3,4.6108365E-3,5.4944223E-1,1.5254145E-2,5.127373E-1,-1.4238858E-3,-6.86679E-3,8.091795E-3,-9.687182E-3,-2.2443829E-3],"split_indices":[18,16,24,42,18,35,9,7,0,0,0,0,0,4,0,4,0,0,0,0,0],"split_type":[0,0,0,0,0,0,0,0,0,0,0,0,0,0,0,0,0,0,0,0,0],"sum_hessian":[3.1399672E1,2.0966238E1,1.0433434E1,1.8112709E1,2.8535292E0,2.761281E0,7.6721525E0,1.7093388E1,1.0193207E0,1.6750063E0,1.178523E0,1.0522876E0,1.7089933E0,2.2502947E0,5.421858E0,1.6067072E1,1.0263157E0,1.0507252E0,1.1995693E0,1.493924E1,1.1278319E0],"tree_param":{"num_deleted":"0","num_feature":"60","num_nodes":"21","size_leaf_vector":"1"}},{"base_weights":[2.7704722E-1,-9.504542E-1,1.3654491E0,-1.098842E0,5.8196033E-3,-2.1493954E-3,1.5630566E0,-9.734451E-3,1.7094942E-3,4.2601308E-1,1.8415778E0,1.0229796E-2,-7.229834E-3,5.0738147E-3,1.9483873E0,5.477039E-3,1.6242232E-2],"categories":[],"categories_nodes":[],"categories_segments":[],"categories_sizes":[],"default_left":[0,0,0,0,0,0,0,0,0,0,0,0,0,0,0,0,0],"id":47,"left_children":[1,3,5,7,-1,-1,9,-1,-1,11,13,-1,-1,-1,15,-1,-1],"loss_changes":[4.8537945E1,4.875497E0,6.507801E0,2.6842823E0,0E0,0E0,4.864689E0,0E0,0E0,5.814606E0,8.27713E-1,0E0,0E0,0E0,2.136383E-1,0E0,0E0],"parents":[2147483647,0,0,1,1,2,2,3,3,6,6,9,9,10,10,14,14],"right_children":[2,4,6,8,-1,-1,10,-1,-1,12,14,-1,-1,-1,16,-1,-1],"split_conditions":[3.7945804E-1,5.380125E-1,2.0630105E-1,3.5378796E-1,5.8196033E-3,-2.1493954E-3,4.2409375E-1,-9.734451E-3,1.7094942E-3,3.4757066E-1,5.822285E-2,1.0229796E-2,-7.229834E-3,5.0738147E-3,1E0,5.477039E-3,1.6242232E-2],"split_indices":[15,4,4,14,0,0,18,0,0,18,46,0,0,0,36,0,0],"split_type":[0,0,0,0,0,0,0,0,0,0,0,0,0,0,0,0,0],"sum_hessian":[3.485185E1,1.642395E1,1.84279E1,1.53272915E1,1.0966578E0,1.9589072E0,1.6468992E1,1.4113528E1,1.2137635E0,3.6136565E0,1.2855336E1,2.219289E0,1.3943676E0,1.4677433E0,1.1387593E1,1.1202328E0,1.0267361E1],"tree_param":{"num_deleted":"0","num_feature":"60","num_nodes":"17","size_leaf_vector":"1"}},{"base_weights":[-4.863982E-2,-1.1154389E0,1.1412266E0,-9.704646E-3,1.1852757E-3,-7.4052745E-3,1.4091847E0,-3.2053944E-3,1.6161516E0,7.234911E-1,1.8497146E0,-1.944982E-3,1.1729745E-2,9.947373E-1,1.6812079E-2,1.2493979E-2,-7.6074916E-4],"categories":[],"categories_nodes":[],"categories_segments":[],"categories_sizes":[],"default_left":[0,0,0,0,0,0,0,0,0,0,0,0,0,0,0,0,0],"id":48,"left_children":[1,3,5,-1,-1,-1,7,-1,9,11,13,-1,-1,15,-1,-1,-1],"loss_changes":[4.330905E1,2.352253E0,9.919691E0,0E0,0E0,0E0,5.950388E0,0E0,1.756916E0,3.1231055E0,5.877609E-1,0E0,0E0,2.3990686E0,0E0,0E0,0E0],"parents":[2147483647,0,0,1,1,2,2,6,6,8,8,9,9,10,10,13,13],"right_children":[2,4,6,-1,-1,-1,8,-1,10,12,14,-1,-1,16,-1,-1,-1],"split_conditions":[4.5638263E-1,5E-1,1E0,-9.704646E-3,1.1852757E-3,-7.4052745E-3,3.5939264E-1,-3.2053944E-3,4.0200198E-1,4.0755987E-1,8.468238E-2,-1.944982E-3,1.1729745E-2,9.719506E-2,1.6812079E-2,1.2493979E-2,-7.6074916E-4],"split_indices":[2,3,24,0,0,0,17,0,14,43,46,0,0,50,0,0,0],"split_type":[0,0,0,0,0,0,0,0,0,0,0,0,0,0,0,0,0],"sum_hessian":[3.2616978E1,1.7222607E1,1.5394368E1,1.6015066E1,1.207542E0,1.555465E0,1.3838903E1,1.3481159E0,1.24907875E1,3.2277582E0,9.263029E0,1.6217049E0,1.6060532E0,2.952084E0,6.310945E0,1.7281896E0,1.2238944E0],"tree_param":{"num_deleted":"0","num_feature":"60","num_nodes":"17","size_leaf_vector":"1"}},{"base_weights":[3.1092727E-1,-8.505346E-1,1.5504909E0,-1.0417792E0,9.2741065E-3,2.3970671E-1,1.9317307E0,2.5064365E-3,-1.1502851E0,-7.2045505E-1,1.0350827E-2,5.6672106E-3,1.6669948E-2,-9.622801E-3,-1.976816E-3,-7.051733E-3,-1.8847233E-3],"categories":[],"categories_nodes":[],"categories_segments":[],"categories_sizes":[],"default_left":[0,0,0,0,0,0,0,0,0,0,0,0,0,0,0,0,0],"id":49,"left_children":[1,3,5,7,-1,9,11,-1,13,15,-1,-1,-1,-1,-1,-1,-1],"loss_changes":[5.147369E1,8.05016E0,8.262112E0,2.8239307E0,0E0,5.494763E0,1.3550797E0,0E0,5.4811096E-1,7.5437784E-2,0E0,0E0,0E0,0E0,0E0,0E0,0E0],"parents":[2147483647,0,0,1,1,2,2,3,3,5,5,6,6,8,8,9,9],"right_children":[2,4,6,8,-1,10,12,-1,14,16,-1,-1,-1,-1,-1,-1,-1],"split_conditions":[4.4237307E-1,1.4143121E0,1E0,9.155693E-2,9.2741065E-3,4.0330583E-1,7.6778166E-2,2.5064365E-3,5.0717896E-1,1.2735624E0,1.0350827E-2,5.6672106E-3,1.6669948E-2,-9.622801E-3,-1.976816E-3,-7.051733E-3,-1.8847233E-3],"split_indices":[16,42,25,58,0,13,52,0,5,58,0,0,0,0,0,0,0],"split_type":[0,0,0,0,0,0,0,0,0,0,0,0,0,0,0,0,0],"sum_hessian":[3.4315933E1,1.783761E1,1.6478325E1,1.6617582E1,1.2200276E0,3.9880672E0,1.2490258E1,1.127029E0,1.5490553E1,2.211318E0,1.7767494E0,1.8497115E0,1.0640547E1,1.4403437E1,1.0871165E0,1.1995155E0,1.0118024E0],"tree_param":{"num_deleted":"0","num_feature":"60","num_nodes":"17","size_leaf_vector":"1"}},{"base_weights":[1.9581766E-1,-6.8787605E-1,1.6093452E0,-9.67688E-1,7.361965E-1,2.5479677E-1,1.8761266E0,-1.0943775E0,2.805016E-2,-1.9386599E-3,1.360921E-2,-8.003444E-3,1.0957791E-2,4.131105E-3,1.6178848E-2,2.2163305E-3,-9.668421E-3,-6.3944855E-3,7.1250377E-3],"categories":[],"categories_nodes":[],"categories_segments":[],"categories_sizes":[],"default_left":[0,0,0,0,0,0,0,0,0,0,0,0,0,0,0,0,0,0,0],"id":50,"left_children":[1,3,5,7,9,11,13,15,17,-1,-1,-1,-1,-1,-1,-1,-1,-1,-1],"loss_changes":[4.5209446E1,9.454771E0,4.661442E0,2.4242039E0,4.182708E0,5.441222E0,1.5009422E0,2.898077E0,2.5890467E0,0E0,0E0,0E0,0E0,0E0,0E0,0E0,0E0,0E0,0E0],"parents":[2147483647,0,0,1,1,2,2,3,3,4,4,5,5,6,6,7,7,8,8],"right_children":[2,4,6,8,10,12,14,16,18,-1,-1,-1,-1,-1,-1,-1,-1,-1,-1],"split_conditions":[5E-1,5E-1,1.0184504E-1,1.0947868E0,5E-1,7.322252E-1,5.111381E-1,5.443167E-2,4.1262275E-1,-1.9386599E-3,1.360921E-2,-8.003444E-3,1.0957791E-2,4.131105E-3,1.6178848E-2,2.2163305E-3,-9.668421E-3,-6.3944855E-3,7.1250377E-3],"split_indices":[3,1,51,57,18,18,3,43,17,0,0,0,0,0,0,0,0,0,0],"split_type":[0,0,0,0,0,0,0,0,0,0,0,0,0,0,0,0,0,0,0],"sum_hessian":[3.47782E1,2.1636652E1,1.3141544E1,1.8284369E1,3.3522844E0,2.4036467E0,1.0737898E1,1.6154682E1,2.1296859E0,1.9432985E0,1.4089859E0,1.1669127E0,1.236734E0,1.3726451E0,9.3652525E0,1.1593417E0,1.499534E1,1.1151133E0,1.0145725E0],"tree_param":{"num_deleted":"0","num_feature":"60","num_nodes":"19","size_leaf_vector":"1"}},{"base_weights":[-1.5127146E-1,-1.0875174E0,1.2116607E0,-9.731003E-3,5.252701E-4,-7.85396E-3,1.5798286E0,1.4192015E-2,2.5791E-3],"categories":[],"categories_nodes":[],"categories_segments":[],"categories_sizes":[],"default_left":[0,0,0,0,0,0,0,0,0],"id":51,"left_children":[1,3,5,-1,-1,-1,7,-1,-1],"loss_changes":[4.1546432E1,2.9184036E0,1.1901638E1,0E0,0E0,0E0,2.4213676E0,0E0,0E0],"parents":[2147483647,0,0,1,1,2,2,6,6],"right_children":[2,4,6,-1,-1,-1,8,-1,-1],"split_conditions":[5E-1,5.919521E-1,1.6317104E-1,-9.731003E-3,5.252701E-4,-7.85396E-3,6.4834356E-1,1.4192015E-2,2.5791E-3],"split_indices":[1,16,4,0,0,0,5,0,0],"split_type":[0,0,0,0,0,0,0,0,0],"sum_hessian":[3.1034399E1,1.8486755E1,1.2547644E1,1.659167E1,1.895085E0,1.6237893E0,1.0923855E1,9.19575E0,1.7281041E0],"tree_param":{"num_deleted":"0","num_feature":"60","num_nodes":"9","size_leaf_vector":"1"}},{"base_weights":[1.5699975E-1,-8.3823574E-1,1.3485359E0,-1.1506999E0,4.0919453E-1,4.109033E-1,1.7475132E0,-9.612625E-3,-1.6668879E-3,-5.1414794E-3,1.1028699E-2,1.2468668E0,-5.9772193E-1,1.6386578E-2,7.661828E-1,1.1506113E-3,1.3785523E-2,1.6191208E-3,-8.297599E-3,-2.9479398E-3,1.0272978E-2],"categories":[],"categories_nodes":[],"categories_segments":[],"categories_sizes":[],"default_left":[0,0,0,0,0,0,0,0,0,0,0,0,0,0,0,0,0,0,0,0,0],"id":52,"left_children":[1,3,5,7,9,11,13,-1,-1,-1,-1,15,17,-1,19,-1,-1,-1,-1,-1,-1],"loss_changes":[4.672985E1,8.750736E0,6.156391E0,6.4769554E-1,5.629217E0,5.8900356E0,2.460846E0,0E0,0E0,0E0,0E0,1.7582498E0,1.3432708E0,0E0,2.7582774E0,0E0,0E0,0E0,0E0,0E0,0E0],"parents":[2147483647,0,0,1,1,2,2,3,3,4,4,5,5,6,6,11,11,12,12,14,14],"right_children":[2,4,6,8,10,12,14,-1,-1,-1,-1,16,18,-1,20,-1,-1,-1,-1,-1,-1],"split_conditions":[4.7913542E-1,4.7270316E-1,5.41825E-1,4.5445922E-1,4.49719E-1,4.940074E-1,2.78135E-1,-9.612625E-3,-1.6668879E-3,-5.1414794E-3,1.1028699E-2,4.661445E-1,1.1184484E-1,1.6386578E-2,5.738466E-1,1.1506113E-3,1.3785523E-2,1.6191208E-3,-8.297599E-3,-2.9479398E-3,1.0272978E-2],"split_indices":[1,3,3,11,16,3,8,0,0,0,0,43,7,0,1,0,0,0,0,0,0],"split_type":[0,0,0,0,0,0,0,0,0,0,0,0,0,0,0,0,0,0,0,0,0],"sum_hessian":[3.7940983E1,2.0794594E1,1.7146389E1,1.6675714E1,4.1188793E0,5.5726285E0,1.1573761E1,1.5625731E1,1.0499828E0,2.0966215E0,2.0222578E0,2.9502578E0,2.6223707E0,8.234237E0,3.339524E0,1.1842678E0,1.7659901E0,1.0731692E0,1.5492014E0,1.1144501E0,2.2250738E0],"tree_param":{"num_deleted":"0","num_feature":"60","num_nodes":"21","size_leaf_vector":"1"}},{"base_weights":[1.2436573E-1,-1.081967E0,1.2090764E0,-9.51713E-3,2.5604728E-3,2.7659568E-1,1.6247402E0,-2.6434425E-1,1.2810775E-2,5.3531384E-1,1.5863383E-2,-8.589824E-1,7.8076567E-3,-3.4666169E-3,1.2120876E-2,-8.041171E-3,-1.9582885E-3],"categories":[],"categories_nodes":[],"categories_segments":[],"categories_sizes":[],"default_left":[0,0,0,0,0,0,0,0,0,0,0,0,0,0,0,0,0],"id":53,"left_children":[1,3,5,-1,-1,7,9,11,-1,13,-1,15,-1,-1,-1,-1,-1],"loss_changes":[4.5547314E1,2.7796116E0,6.7511234E0,0E0,0E0,5.005765E0,4.0796432E0,4.529662E0,0E0,4.401637E0,0E0,1.722281E-1,0E0,0E0,0E0,0E0,0E0],"parents":[2147483647,0,0,1,1,2,2,5,5,6,6,7,7,9,9,11,11],"right_children":[2,4,6,-1,-1,8,10,12,-1,14,-1,16,-1,-1,-1,-1,-1],"split_conditions":[3.9223227E-1,4.49719E-1,4.506937E-1,-9.51713E-3,2.5604728E-3,1.3273165E0,1.0916534E-1,4.020988E-1,1.2810775E-2,6.486486E-1,1.5863383E-2,4.6645936E-1,7.8076567E-3,-3.4666169E-3,1.2120876E-2,-8.041171E-3,-1.9582885E-3],"split_indices":[2,1,18,0,0,57,44,19,0,2,0,8,0,0,0,0,0],"split_type":[0,0,0,0,0,0,0,0,0,0,0,0,0,0,0,0,0],"sum_hessian":[3.330841E1,1.5771E1,1.7537409E1,1.4751698E1,1.0193026E0,5.792303E0,1.1745107E1,4.5391574E0,1.2531457E0,3.3690143E0,8.376093E0,3.2240365E0,1.3151207E0,1.9044997E0,1.4645145E0,2.218657E0,1.0053797E0],"tree_param":{"num_deleted":"0","num_feature":"60","num_nodes":"17","size_leaf_vector":"1"}},{"base_weights":[-1.1890005E-1,-1.0092542E0,1.1689637E0,-1.0917085E0,2.4033517E-3,5.6969255E-1,1.4197602E-2,-1.1751306E0,7.981716E-4,-6.927544E-3,8.6013824E-1,-9.696816E-3,-3.2512422E-3,1.0422641E-1,1.5157336E0,8.043057E-3,-5.6834286E-3,1.5496883E-2,3.536128E-3],"categories":[],"categories_nodes":[],"categories_segments":[],"categories_sizes":[],"default_left":[0,0,0,0,0,0,0,0,0,0,0,0,0,0,0,0,0,0,0],"id":54,"left_children":[1,3,5,7,-1,9,-1,11,-1,-1,13,-1,-1,15,17,-1,-1,-1,-1],"loss_changes":[4.0983906E1,2.5222244E0,4.5567074E0,2.075058E0,0E0,4.08821E0,0E0,1.6322517E-1,0E0,0E0,3.5570111E0,0E0,0E0,3.6558642E0,1.1298075E0,0E0,0E0,0E0,0E0],"parents":[2147483647,0,0,1,1,2,2,3,3,5,5,7,7,10,10,13,13,14,14],"right_children":[2,4,6,8,-1,10,-1,12,-1,-1,14,-1,-1,16,18,-1,-1,-1,-1],"split_conditions":[4.591303E-1,4.5807865E-1,5.477902E-1,1.1713734E0,2.4033517E-3,7.666662E-2,1.4197602E-2,5.239895E-1,7.981716E-4,-6.927544E-3,3.485261E-1,-9.696816E-3,-3.2512422E-3,2.1457079E-1,2.3876117E-1,8.043057E-3,-5.6834286E-3,1.5496883E-2,3.536128E-3],"split_indices":[17,13,14,57,0,9,0,18,0,0,46,0,0,59,7,0,0,0,0],"split_type":[0,0,0,0,0,0,0,0,0,0,0,0,0,0,0,0,0,0,0],"sum_hessian":[3.4220478E1,2.0328669E1,1.389181E1,1.924205E1,1.0866187E0,7.714763E0,6.177047E0,1.799258E1,1.2494678E0,1.0480947E0,6.6666684E0,1.6754221E1,1.2383599E0,3.5001616E0,3.1665068E0,1.5784836E0,1.9216782E0,1.8409475E0,1.3255594E0],"tree_param":{"num_deleted":"0","num_feature":"60","num_nodes":"19","size_leaf_vector":"1"}},{"base_weights":[9.142916E-2,-8.915266E-1,1.0029325E0,-1.1264311E0,7.225832E-3,-1.6003917E-1,1.6119014E0,-9.520034E-3,-1.3936645E-3,-1.0177814E0,1.2138937E-2,1.091726E-1,1.6345726E-2,-1.9138777E-3,-9.4573535E-3,7.2832676E-3,-7.050861E-3],"categories":[],"categories_nodes":[],"categories_segments":[],"categories_sizes":[],"default_left":[0,0,0,0,0,0,0,0,0,0,0,0,0,0,0,0,0],"id":55,"left_children":[1,3,5,7,-1,9,11,-1,-1,13,-1,15,-1,-1,-1,-1,-1],"loss_changes":[2.9012897E1,7.3471756E0,1.2067444E1,7.0070076E-1,0E0,1.0430228E1,7.0088463E0,0E0,0E0,3.9105463E-1,0E0,3.1902559E0,0E0,0E0,0E0,0E0,0E0],"parents":[2147483647,0,0,1,1,2,2,3,3,5,5,6,6,9,9,11,11],"right_children":[2,4,6,8,-1,10,12,-1,-1,14,-1,16,-1,-1,-1,-1,-1],"split_conditions":[4.3035507E-1,4.6324104E-1,1.53393E-1,5E-1,7.225832E-3,4.1658396E-1,4.6093276E-1,-9.520034E-3,-1.3936645E-3,4.2337757E-2,1.2138937E-2,5.0053453E-1,1.6345726E-2,-1.9138777E-3,-9.4573535E-3,7.2832676E-3,-7.050861E-3],"split_indices":[2,5,10,10,0,13,3,0,0,8,0,1,0,0,0,0,0],"split_type":[0,0,0,0,0,0,0,0,0,0,0,0,0,0,0,0,0],"sum_hessian":[3.0883171E1,1.4867091E1,1.6016079E1,1.3393394E1,1.473697E0,5.694317E0,1.0321762E1,1.2379612E1,1.0137824E0,3.9628453E0,1.7314715E0,2.5114691E0,7.810293E0,1.0119051E0,2.9509404E0,1.4219365E0,1.0895326E0],"tree_param":{"num_deleted":"0","num_feature":"60","num_nodes":"17","size_leaf_vector":"1"}},{"base_weights":[-4.1190673E-2,-1.0635477E0,1.2171866E0,-9.5422845E-3,2.577624E-2,-7.711314E-2,1.640515E0,-6.4555025E-3,6.6472962E-3,-9.129555E-3,9.6043125E-3,1.7179423E-3,1.8594952E0,4.2658527E-3,1.5896449E-2],"categories":[],"categories_nodes":[],"categories_segments":[],"categories_sizes":[],"default_left":[0,0,0,0,0,0,0,0,0,0,0,0,0,0,0],"id":56,"left_children":[1,3,5,-1,7,9,11,-1,-1,-1,-1,-1,13,-1,-1],"loss_changes":[4.537353E1,2.7602901E0,8.763374E0,0E0,2.3775923E0,7.3025174E0,3.4331627E0,0E0,0E0,0E0,0E0,0E0,9.420738E-1,0E0,0E0],"parents":[2147483647,0,0,1,1,2,2,4,4,5,5,6,6,12,12],"right_children":[2,4,6,-1,8,10,12,-1,-1,-1,-1,-1,14,-1,-1],"split_conditions":[4.5188284E-1,4.689627E-1,8.880123E-2,-9.5422845E-3,4.027756E-1,7.3555833E-1,1E0,-6.4555025E-3,6.6472962E-3,-9.129555E-3,9.6043125E-3,1.7179423E-3,6.540872E-2,4.2658527E-3,1.5896449E-2],"split_indices":[2,17,11,0,40,2,34,0,0,0,0,0,10,0,0],"split_type":[0,0,0,0,0,0,0,0,0,0,0,0,0,0,0],"sum_hessian":[3.3763996E1,1.8693089E1,1.5070909E1,1.6646866E1,2.0462232E0,3.8655665E0,1.1205342E1,1.0050591E0,1.0411639E0,2.1527612E0,1.7128053E0,1.68964E0,9.515702E0,1.1758124E0,8.33989E0],"tree_param":{"num_deleted":"0","num_feature":"60","num_nodes":"15","size_leaf_vector":"1"}},{"base_weights":[-2.4514194E-1,-9.967662E-1,9.607528E-1,-1.1289595E0,3.947857E-3,-3.557584E-3,1.1795759E0,-9.767445E-3,2.0837826E-3,-1.2759622E-3,1.4102373E0,8.477691E-1,1.6052365E-2,1.3249759E-2,-4.5298967E-3],"categories":[],"categories_nodes":[],"categories_segments":[],"categories_sizes":[],"default_left":[0,0,0,0,0,0,0,0,0,0,0,0,0,0,0],"id":57,"left_children":[1,3,5,7,-1,-1,9,-1,-1,-1,11,13,-1,-1,-1],"loss_changes":[2.952004E1,4.3467484E0,4.2633038E0,2.6085625E0,0E0,0E0,3.5950966E0,0E0,0E0,0E0,1.9237423E0,7.7997136E0,0E0,0E0,0E0],"parents":[2147483647,0,0,1,1,2,2,3,3,6,6,10,10,11,11],"right_children":[2,4,6,8,-1,-1,10,-1,-1,-1,12,14,-1,-1,-1],"split_conditions":[4.9975604E-1,1.297363E0,4.1709352E-1,5.2768433E-1,3.947857E-3,-3.557584E-3,1E0,-9.767445E-3,2.0837826E-3,-1.2759622E-3,3.31199E-1,2.4408191E-1,1.6052365E-2,1.3249759E-2,-4.5298967E-3],"split_indices":[2,41,19,12,0,0,25,0,0,0,53,42,0,0,0],"split_type":[0,0,0,0,0,0,0,0,0,0,0,0,0,0,0],"sum_hessian":[3.1026754E1,1.9193604E1,1.183315E1,1.7796759E1,1.3968457E0,1.4898722E0,1.0343277E1,1.6777178E1,1.0195802E0,1.5538753E0,8.789402E0,5.457697E0,3.3317049E0,3.390643E0,2.0670543E0],"tree_param":{"num_deleted":"0","num_feature":"60","num_nodes":"15","size_leaf_vector":"1"}},{"base_weights":[4.7109302E-2,-7.926509E-1,1.0535549E0,-1.0681453E0,3.8620868E-1,3.436528E-2,1.4754974E0,-9.477233E-3,1.5382743E-3,7.95382E-3,-4.0212553E-3,-7.446998E-3,6.8811435E-1,6.009021E-4,1.6277921E0,-2.1978705E-3,1.391122E-2,5.4503893E-3,1.7825474E0,4.7197086E-3,1.5297076E-2],"categories":[],"categories_nodes":[],"categories_segments":[],"categories_sizes":[],"default_left":[0,0,0,0,0,0,0,0,0,0,0,0,0,0,0,0,0,0,0,0,0],"id":58,"left_children":[1,3,5,7,9,11,13,-1,-1,-1,-1,-1,15,-1,17,-1,-1,-1,19,-1,-1],"loss_changes":[2.9948126E1,6.590681E0,6.886673E0,2.5022888E0,2.6525333E0,3.939978E0,2.3332005E0,0E0,0E0,0E0,0E0,0E0,4.1016397E0,0E0,5.8592033E-1,0E0,0E0,0E0,4.3950844E-1,0E0,0E0],"parents":[2147483647,0,0,1,1,2,2,3,3,4,4,5,5,6,6,12,12,14,14,18,18],"right_children":[2,4,6,8,10,12,14,-1,-1,-1,-1,-1,16,-1,18,-1,-1,-1,20,-1,-1],"split_conditions":[4.0972632E-1,4.9312466E-1,4.5145416E-1,6.78845E-1,1.0010874E0,3.8260353E-1,3.6162876E-2,-9.477233E-3,1.5382743E-3,7.95382E-3,-4.0212553E-3,-7.446998E-3,2.3685351E-1,6.009021E-4,5.828427E-2,-2.1978705E-3,1.391122E-2,5.4503893E-3,5.53743E-1,4.7197086E-3,1.5297076E-2],"split_indices":[4,16,19,45,40,55,10,0,0,0,0,0,5,0,11,0,0,0,19,0,0],"split_type":[0,0,0,0,0,0,0,0,0,0,0,0,0,0,0,0,0,0,0,0,0],"sum_hessian":[3.3943256E1,1.8590769E1,1.5352486E1,1.5126264E1,3.464506E0,4.7324586E0,1.0620028E1,1.3887639E1,1.2386242E0,2.0044694E0,1.4600366E0,1.7825916E0,2.949867E0,1.151513E0,9.468514E0,1.8283967E0,1.1214703E0,1.8999721E0,7.5685425E0,1.1499636E0,6.418579E0],"tree_param":{"num_deleted":"0","num_feature":"60","num_nodes":"21","size_leaf_vector":"1"}},{"base_weights":[-7.2006434E-2,-8.892961E-1,1.0882292E0,-1.1408708E0,1.3177916E-2,-8.159692E-3,1.5274912E0,-1.7916133E-3,-9.547801E-3,1.6772236E0,9.4064826E-4,4.7337944E-3,1.4103432E-2],"categories":[],"categories_nodes":[],"categories_segments":[],"categories_sizes":[],"default_left":[0,0,0,0,0,0,0,0,0,0,0,0,0],"id":59,"left_children":[1,3,5,7,-1,-1,9,-1,-1,11,-1,-1,-1],"loss_changes":[3.0036562E1,1.3245592E1,1.3311021E1,6.348381E-1,0E0,0E0,2.2062836E0,0E0,0E0,1.5022469E-1,0E0,0E0,0E0],"parents":[2147483647,0,0,1,1,2,2,3,3,6,6,9,9],"right_children":[2,4,6,8,-1,-1,10,-1,-1,12,-1,-1,-1],"split_conditions":[4.099448E-1,1.0761031E0,1E0,4.123794E-2,1.3177916E-2,-8.159692E-3,9.937641E-1,-1.7916133E-3,-9.547801E-3,3.830594E-2,9.4064826E-4,4.7337944E-3,1.4103432E-2],"split_indices":[17,57,25,50,0,0,55,0,0,51,0,0,0],"split_type":[0,0,0,0,0,0,0,0,0,0,0,0,0],"sum_hessian":[3.0160402E1,1.7798195E1,1.2362208E1,1.6567673E1,1.2305205E0,1.9606736E0,1.0401535E1,1.1128635E0,1.545481E1,9.274397E0,1.127138E0,1.1124763E0,8.161921E0],"tree_param":{"num_deleted":"0","num_feature":"60","num_nodes":"13","size_leaf_vector":"1"}},{"base_weights":[3.388784E-2,-9.4577014E-1,1.2171655E0,-1.1511428E0,1.9939667E-1,1.529317E0,-5.247978E-1,-9.598525E-3,-2.5148229E-3,-6.8310676E-3,9.379308E-3,-6.945993E-3,1.8387532E0,1.9564244E-3,-7.937844E-3,1.9465069E0,3.6087907E-3,1.6258322E-2,6.0065556E-3],"categories":[],"categories_nodes":[],"categories_segments":[],"categories_sizes":[],"default_left":[0,0,0,0,0,0,0,0,0,0,0,0,0,0,0,0,0,0,0],"id":60,"left_children":[1,3,5,7,9,11,13,-1,-1,-1,-1,-1,15,-1,-1,17,-1,-1,-1],"loss_changes":[4.371783E1,5.027933E0,9.885059E0,4.346733E-1,4.623701E0,1.20805435E1,1.3157794E0,0E0,0E0,0E0,0E0,0E0,1.3201332E0,0E0,0E0,9.19075E-2,0E0,0E0,0E0],"parents":[2147483647,0,0,1,1,2,2,3,3,4,4,5,5,6,6,12,12,15,15],"right_children":[2,4,6,8,10,12,14,-1,-1,-1,-1,-1,16,-1,-1,18,-1,-1,-1],"split_conditions":[4.7391236E-1,4.6776932E-1,5.045608E-1,5.1892674E-1,2.9022837E-1,2.7241594E-1,5.7777685E-1,-9.598525E-3,-2.5148229E-3,-6.8310676E-3,9.379308E-3,-6.945993E-3,3.090905E-1,1.9564244E-3,-7.937844E-3,3.9527917E-1,3.6087907E-3,1.6258322E-2,6.0065556E-3],"split_indices":[16,19,53,48,4,2,15,0,0,0,0,0,10,0,0,12,0,0,0],"split_type":[0,0,0,0,0,0,0,0,0,0,0,0,0,0,0,0,0,0,0],"sum_hessian":[3.621876E1,1.989656E1,1.63222E1,1.6867628E1,3.0289319E0,1.3919455E1,2.4027457E0,1.5632948E1,1.2346811E0,1.4985719E0,1.53036E0,1.436302E0,1.2483152E1,1.0432558E0,1.35949E0,1.1303378E1,1.1797749E0,1.005708E1,1.246297E0],"tree_param":{"num_deleted":"0","num_feature":"60","num_nodes":"19","size_leaf_vector":"1"}},{"base_weights":[9.2643335E-2,-4.9514052E-1,1.4404336E-2,-1.0404426E0,3.7891808E-1,-1.1317389E0,2.4418228E-3,-4.447731E-1,1.2177681E0,-9.460072E-3,-1.3104752E-3,-9.602766E-1,1.0397924E-2,1.7333947E0,-3.935439E-3,-1.0192324E-2,1.508518E-3,1.6762406E-2,1.9861318E-3],"categories":[],"categories_nodes":[],"categories_segments":[],"categories_sizes":[],"default_left":[0,0,0,0,0,0,0,0,0,0,0,0,0,0,0,0,0,0,0],"id":61,"left_children":[1,3,-1,5,7,9,-1,11,13,-1,-1,15,-1,17,-1,-1,-1,-1,-1],"loss_changes":[4.0392822E1,1.4607521E1,0E0,2.5554104E0,8.757057E0,7.227211E-1,0E0,6.91414E0,6.095125E0,0E0,0E0,2.185265E0,0E0,2.254447E0,0E0,0E0,0E0,0E0,0E0],"parents":[2147483647,0,0,1,1,3,3,4,4,5,5,7,7,8,8,11,11,13,13],"right_children":[2,4,-1,6,8,10,-1,12,14,-1,-1,16,-1,18,-1,-1,-1,-1,-1],"split_conditions":[5.942284E-1,4.3386093E-1,1.4404336E-2,1.1805841E0,1.5272179E-1,4.8881772E-1,2.4418228E-3,7.2908694E-1,3.3103448E-1,-9.460072E-3,-1.3104752E-3,1.8019326E-1,1.0397924E-2,1.0612295E0,-3.935439E-3,-1.0192324E-2,1.508518E-3,1.6762406E-2,1.9861318E-3],"split_indices":[15,1,0,56,9,6,0,2,6,0,0,11,0,41,0,0,0,0,0],"split_type":[0,0,0,0,0,0,0,0,0,0,0,0,0,0,0,0,0,0,0],"sum_hessian":[3.8820835E1,2.9277403E1,9.543433E0,1.7941442E1,1.133596E1,1.6913208E1,1.0282341E0,5.8974347E0,5.4385257E0,1.5912306E1,1.0009023E0,4.8125E0,1.0849345E0,4.1703863E0,1.268139E0,3.7159038E0,1.0965965E0,3.1054811E0,1.0649055E0],"tree_param":{"num_deleted":"0","num_feature":"60","num_nodes":"19","size_leaf_vector":"1"}},{"base_weights":[1.0359453E-1,-9.6631664E-1,1.1659881E0,-1.0674437E0,2.4302502E-3,4.3958774E-1,1.6590445E0,-1.2208502E-3,-9.435807E-3,-3.1634483E-1,1.5172142E0,1.0208715E0,1.5605238E-2,-8.916386E-1,7.947706E-3,1.915929E-3,1.6240487E-2,2.69364E-4,1.2408352E-2,-1.8039034E-3,-8.5400725E-3],"categories":[],"categories_nodes":[],"categories_segments":[],"categories_sizes":[],"default_left":[0,0,0,0,0,0,0,0,0,0,0,0,0,0,0,0,0,0,0,0,0],"id":62,"left_children":[1,3,5,7,-1,9,11,-1,-1,13,15,17,-1,19,-1,-1,-1,-1,-1,-1,-1],"loss_changes":[3.8107773E1,2.3937664E0,5.4660835E0,1.4715424E0,0E0,6.7208986E0,3.172741E-1,0E0,0E0,4.5901136E0,1.8296642E0,2.3816204E0,0E0,2.8987026E-1,0E0,0E0,0E0,0E0,0E0,0E0,0E0],"parents":[2147483647,0,0,1,1,2,2,3,3,5,5,6,6,9,9,10,10,11,11,13,13],"right_children":[2,4,6,8,-1,10,12,-1,-1,14,16,18,-1,20,-1,-1,-1,-1,-1,-1,-1],"split_conditions":[3.7762776E-1,4.4513887E-1,5.6504405E-1,5.8340922E-2,2.4302502E-3,4.266929E-1,3.00997E-1,-1.2208502E-3,-9.435807E-3,5.170188E-1,1.421078E-1,7.008751E-1,1.5605238E-2,4.8507124E-1,7.947706E-3,1.915929E-3,1.6240487E-2,2.69364E-4,1.2408352E-2,-1.8039034E-3,-8.5400725E-3],"split_indices":[1,0,3,9,0,52,5,0,0,14,9,1,0,1,0,0,0,0,0,0,0],"split_type":[0,0,0,0,0,0,0,0,0,0,0,0,0,0,0,0,0,0,0,0,0],"sum_hessian":[3.2032463E1,1.5993559E1,1.6038904E1,1.4924886E1,1.0686733E0,7.0585256E0,8.980378E0,1.8216004E0,1.3103285E1,4.4598594E0,2.5986664E0,3.875238E0,5.1051407E0,3.2651749E0,1.1946845E0,1.0594227E0,1.5392436E0,1.6327072E0,2.2425306E0,1.0394832E0,2.2256916E0],"tree_param":{"num_deleted":"0","num_feature":"60","num_nodes":"21","size_leaf_vector":"1"}},{"base_weights":[1.67267E-1,-9.512578E-1,1.2091993E0,-1.1168054E0,6.461149E-3,1.3099608E-1,1.5108862E0,-1.41955E-3,-9.4384905E-3,1.0439056E-2,-5.129339E-1,1.4347312E-3,1.7259996E0,-7.6274606E-3,2.546133E-3,1.8750198E0,2.4250734E-3,2.0569651E-3,1.6342776E-2],"categories":[],"categories_nodes":[],"categories_segments":[],"categories_sizes":[],"default_left":[0,0,0,0,0,0,0,0,0,0,0,0,0,0,0,0,0,0,0],"id":63,"left_children":[1,3,5,7,-1,9,11,-1,-1,-1,13,-1,15,-1,-1,17,-1,-1,-1],"loss_changes":[3.8518467E1,5.336094E0,5.4002895E0,7.2724533E-1,0E0,3.9418485E0,3.5652695E0,0E0,0E0,0E0,1.5006816E0,0E0,1.9753952E0,0E0,0E0,2.3507385E0,0E0,0E0,0E0],"parents":[2147483647,0,0,1,1,2,2,3,3,5,5,6,6,10,10,12,12,15,15],"right_children":[2,4,6,8,-1,10,12,-1,-1,-1,14,-1,16,-1,-1,18,-1,-1,-1],"split_conditions":[4.5188284E-1,1.5442387E0,4.4694054E-1,6.88621E-2,6.461149E-3,9.615215E-2,6.93797E-2,-1.41955E-3,-9.4384905E-3,1.0439056E-2,4.9472743E-1,1.4347312E-3,9.9227786E-1,-7.6274606E-3,2.546133E-3,1E0,2.4250734E-3,2.0569651E-3,1.6342776E-2],"split_indices":[2,42,16,41,0,16,6,0,0,0,4,0,17,0,0,24,0,0,0],"split_type":[0,0,0,0,0,0,0,0,0,0,0,0,0,0,0,0,0,0,0],"sum_hessian":[3.1560705E1,1.5252384E1,1.6308321E1,1.4190561E1,1.0618231E0,3.8006794E0,1.2507641E1,1.071887E0,1.3118674E1,1.0736277E0,2.7270517E0,1.930874E0,1.0576767E1,1.7103515E0,1.0167001E0,9.3583145E0,1.2184517E0,1.0579956E0,8.30032E0],"tree_param":{"num_deleted":"0","num_feature":"60","num_nodes":"19","size_leaf_vector":"1"}},{"base_weights":[-2.388005E-1,-1.0166818E0,1.1367782E0,-9.384967E-3,1.3553775E-3,1.419224E-1,1.4346992E-2,-5.2645427E-1,8.955492E-3,2.2266626E-3,-8.087267E-3],"categories":[],"categories_nodes":[],"categories_segments":[],"categories_sizes":[],"default_left":[0,0,0,0,0,0,0,0,0,0,0],"id":64,"left_children":[1,3,5,-1,-1,7,-1,9,-1,-1,-1],"loss_changes":[2.9420147E1,3.3853512E0,6.336812E0,0E0,0E0,3.5699642E0,0E0,1.5185041E0,0E0,0E0,0E0],"parents":[2147483647,0,0,1,1,2,2,5,5,7,7],"right_children":[2,4,6,-1,-1,8,-1,10,-1,-1,-1],"split_conditions":[4.4237307E-1,9.034485E-1,1E0,-9.384967E-3,1.3553775E-3,7.177642E-1,1.4346992E-2,5.010737E-1,8.955492E-3,2.2266626E-3,-8.087267E-3],"split_indices":[16,59,29,0,0,16,0,16,0,0,0],"split_type":[0,0,0,0,0,0,0,0,0,0,0],"sum_hessian":[2.5934444E1,1.6691298E1,9.243146E0,1.4753606E1,1.9376916E0,4.037598E0,5.205548E0,2.6035166E0,1.4340818E0,1.0982239E0,1.5052927E0],"tree_param":{"num_deleted":"0","num_feature":"60","num_nodes":"11","size_leaf_vector":"1"}},{"base_weights":[-7.073528E-2,-9.2792296E-1,1.0195162E0,-1.1339667E0,9.365659E-3,4.021841E-1,1.4584097E-2,-9.496934E-3,-1.5127091E-3,-3.6582813E-1,1.2746507E0,9.3508735E-3,-9.738593E-3,6.3288E-4,1.3438974E-2],"categories":[],"categories_nodes":[],"categories_segments":[],"categories_sizes":[],"default_left":[0,0,0,0,0,0,0,0,0,0,0,0,0,0,0],"id":65,"left_children":[1,3,5,7,-1,9,-1,-1,-1,11,13,-1,-1,-1,-1],"loss_changes":[2.9802309E1,8.701442E0,6.424057E0,6.657181E-1,0E0,6.322173E0,0E0,0E0,0E0,8.023325E0,2.0029263E0,0E0,0E0,0E0,0E0],"parents":[2147483647,0,0,1,1,2,2,3,3,5,5,9,9,10,10],"right_children":[2,4,6,8,-1,10,-1,-1,-1,12,14,-1,-1,-1,-1],"split_conditions":[5E-1,1.1859776E0,1.9514285E-1,4.409094E-1,9.365659E-3,6.486486E-1,1.4584097E-2,-9.496934E-3,-1.5127091E-3,5.025703E-1,5.045838E-1,9.3508735E-3,-9.738593E-3,