{"learner":{"attributes":{"scikit_learn":"{\"_estimator_type\": \"classifier\"}"},"feature_names":[],"feature_types":[],"gradient_booster":{"model":{"cats":{"enc":[],"feature_segments":[],"sorted_idx":[]},"gbtree_model_param":{"num_parallel_tree":"1","num_trees":"1500"},"iteration_indptr":[0,1,2,3,4,5,6,7,8,9,10,11,12,13,14,15,16,17,18,19,20,21,22,23,24,25,26,27,28,29,30,31,32,33,34,35,36,37,38,39,40,41,42,43,44,45,46,47,48,49,50,51,52,53,54,55,56,57,58,59,60,61,62,63,64,65,66,67,68,69,70,71,72,73,74,75,76,77,78,79,80,81,82,83,84,85,86,87,88,89,90,91,92,93,94,95,96,97,98,99,100,101,102,103,104,105,106,107,108,109,110,111,112,113,114,115,116,117,118,119,120,121,122,123,124,125,126,127,128,129,130,131,132,133,134,135,136,137,138,139,140,141,142,143,144,145,146,147,148,149,150,151,152,153,154,155,156,157,158,159,160,161,162,163,164,165,166,167,168,169,170,171,172,173,174,175,176,177,178,179,180,181,182,183,184,185,186,187,188,189,190,191,192,193,194,195,196,197,198,199,200,201,202,203,204,205,206,207,208,209,210,211,212,213,214,215,216,217,218,219,220,221,222,223,224,225,226,227,228,229,230,231,232,233,234,235,236,237,238,239,240,241,242,243,244,245,246,247,248,249,250,251,252,253,254,255,256,257,258,259,260,261,262,263,264,265,266,267,268,269,270,271,272,273,274,275,276,277,278,279,280,281,282,283,284,285,286,287,288,289,290,291,292,293,294,295,296,297,298,299,300,301,302,303,304,305,306,307,308,309,310,311,312,313,314,315,316,317,318,319,320,321,322,323,324,325,326,327,328,329,330,331,332,333,334,335,336,337,338,339,340,341,342,343,344,345,346,347,348,349,350,351,352,353,354,355,356,357,358,359,360,361,362,363,364,365,366,367,368,369,370,371,372,373,374,375,376,377,378,379,380,381,382,383,384,385,386,387,388,389,390,391,392,393,394,395,396,397,398,399,400,401,402,403,404,405,406,407,408,409,410,411,412,413,414,415,416,417,418,419,420,421,422,423,424,425,426,427,428,429,430,431,432,433,434,435,436,437,438,439,440,441,442,443,444,445,446,447,448,449,450,451,452,453,454,455,456,457,458,459,460,461,462,463,464,465,466,467,468,469,470,471,472,473,474,475,476,477,478,479,480,481,482,483,484,485,486,487,488,489,490,491,492,493,494,495,496,497,498,499,500,501,502,503,504,505,506,507,508,509,510,511,512,513,514,515,516,517,518,519,520,521,522,523,524,525,526,527,528,529,530,531,532,533,534,535,536,537,538,539,540,541,542,543,544,545,546,547,548,549,550,551,552,553,554,555,556,557,558,559,560,561,562,563,564,565,566,567,568,569,570,571,572,573,574,575,576,577,578,579,580,581,582,583,584,585,586,587,588,589,590,591,592,593,594,595,596,597,598,599,600,601,602,603,604,605,606,607,608,609,610,611,612,613,614,615,616,617,618,619,620,621,622,623,624,625,626,627,628,629,630,631,632,633,634,635,636,637,638,639,640,641,642,643,644,645,646,647,648,649,650,651,652,653,654,655,656,657,658,659,660,661,662,663,664,665,666,667,668,669,670,671,672,673,674,675,676,677,678,679,680,681,682,683,684,685,686,687,688,689,690,691,692,693,694,695,696,697,698,699,700,701,702,703,704,705,706,707,708,709,710,711,712,713,714,715,716,717,718,719,720,721,722,723,724,725,726,727,728,729,730,731,732,733,734,735,736,737,738,739,740,741,742,743,744,745,746,747,748,749,750,751,752,753,754,755,756,757,758,759,760,761,762,763,764,765,766,767,768,769,770,771,772,773,774,775,776,777,778,779,780,781,782,783,784,785,786,787,788,789,790,791,792,793,794,795,796,797,798,799,800,801,802,803,804,805,806,807,808,809,810,811,812,813,814,815,816,817,818,819,820,821,822,823,824,825,826,827,828,829,830,831,832,833,834,835,836,837,838,839,840,841,842,843,844,845,846,847,848,849,850,851,852,853,854,855,856,857,858,859,860,861,862,863,864,865,866,867,868,869,870,871,872,873,874,875,876,877,878,879,880,881,882,883,884,885,886,887,888,889,890,891,892,893,894,895,896,897,898,899,900,901,902,903,904,905,906,907,908,909,910,911,912,913,914,915,916,917,918,919,920,921,922,923,924,925,926,927,928,929,930,931,932,933,934,935,936,937,938,939,940,941,942,943,944,945,946,947,948,949,950,951,952,953,954,955,956,957,958,959,960,961,962,963,964,965,966,967,968,969,970,971,972,973,974,975,976,977,978,979,980,981,982,983,984,985,986,987,988,989,990,991,992,993,994,995,996,997,998,999,1000,1001,1002,1003,1004,1005,1006,1007,1008,1009,1010,1011,1012,1013,1014,1015,1016,1017,1018,1019,1020,1021,1022,1023,1024,1025,1026,1027,1028,1029,1030,1031,1032,1033,1034,1035,1036,1037,1038,1039,1040,1041,1042,1043,1044,1045,1046,1047,1048,1049,1050,1051,1052,1053,1054,1055,1056,1057,1058,1059,1060,1061,1062,1063,1064,1065,1066,1067,1068,1069,1070,1071,1072,1073,1074,1075,1076,1077,1078,1079,1080,1081,1082,1083,1084,1085,1086,1087,1088,1089,1090,1091,1092,1093,1094,1095,1096,1097,1098,1099,1100,1101,1102,1103,1104,1105,1106,1107,1108,1109,1110,1111,1112,1113,1114,1115,1116,1117,1118,1119,1120,1121,1122,1123,1124,1125,1126,1127,1128,1129,1130,1131,1132,1133,1134,1135,1136,1137,1138,1139,1140,1141,1142,1143,1144,1145,1146,1147,1148,1149,1150,1151,1152,1153,1154,1155,1156,1157,1158,1159,1160,1161,1162,1163,1164,1165,1166,1167,1168,1169,1170,1171,1172,1173,1174,1175,1176,1177,1178,1179,1180,1181,1182,1183,1184,1185,1186,1187,1188,1189,1190,1191,1192,1193,1194,1195,1196,1197,1198,1199,1200,1201,1202,1203,1204,1205,1206,1207,1208,1209,1210,1211,1212,1213,1214,1215,1216,1217,1218,1219,1220,1221,1222,1223,1224,1225,1226,1227,1228,1229,1230,1231,1232,1233,1234,1235,1236,1237,1238,1239,1240,1241,1242,1243,1244,1245,1246,1247,1248,1249,1250,1251,1252,1253,1254,1255,1256,1257,1258,1259,1260,1261,1262,1263,1264,1265,1266,1267,1268,1269,1270,1271,1272,1273,1274,1275,1276,1277,1278,1279,1280,1281,1282,1283,1284,1285,1286,1287,1288,1289,1290,1291,1292,1293,1294,1295,1296,1297,1298,1299,1300,1301,1302,1303,1304,1305,1306,1307,1308,1309,1310,1311,1312,1313,1314,1315,1316,1317,1318,1319,1320,1321,1322,1323,1324,1325,1326,1327,1328,1329,1330,1331,1332,1333,1334,1335,1336,1337,1338,1339,1340,1341,1342,1343,1344,1345,1346,1347,1348,1349,1350,1351,1352,1353,1354,1355,1356,1357,1358,1359,1360,1361,1362,1363,1364,1365,1366,1367,1368,1369,1370,1371,1372,1373,1374,1375,1376,1377,1378,1379,1380,1381,1382,1383,1384,1385,1386,1387,1388,1389,1390,1391,1392,1393,1394,1395,1396,1397,1398,1399,1400,1401,1402,1403,1404,1405,1406,1407,1408,1409,1410,1411,1412,1413,1414,1415,1416,1417,1418,1419,1420,1421,1422,1423,1424,1425,1426,1427,1428,1429,1430,1431,1432,1433,1434,1435,1436,1437,1438,1439,1440,1441,1442,1443,1444,1445,1446,1447,1448,1449,1450,1451,1452,1453,1454,1455,1456,1457,1458,1459,1460,1461,1462,1463,1464,1465,1466,1467,1468,1469,1470,1471,1472,1473,1474,1475,1476,1477,1478,1479,1480,1481,1482,1483,1484,1485,1486,1487,1488,1489,1490,1491,1492,1493,1494,1495,1496,1497,1498,1499,1500],"tree_info":[0,0,0,0,0,0,0,0,0,0,0,0,0,0,0,0,0,0,0,0,0,0,0,0,0,0,0,0,0,0,0,0,0,0,0,0,0,0,0,0,0,0,0,0,0,0,0,0,0,0,0,0,0,0,0,0,0,0,0,0,0,0,0,0,0,0,0,0,0,0,0,0,0,0,0,0,0,0,0,0,0,0,0,0,0,0,0,0,0,0,0,0,0,0,0,0,0,0,0,0,0,0,0,0,0,0,0,0,0,0,0,0,0,0,0,0,0,0,0,0,0,0,0,0,0,0,0,0,0,0,0,0,0,0,0,0,0,0,0,0,0,0,0,0,0,0,0,0,0,0,0,0,0,0,0,0,0,0,0,0,0,0,0,0,0,0,0,0,0,0,0,0,0,0,0,0,0,0,0,0,0,0,0,0,0,0,0,0,0,0,0,0,0,0,0,0,0,0,0,0,0,0,0,0,0,0,0,0,0,0,0,0,0,0,0,0,0,0,0,0,0,0,0,0,0,0,0,0,0,0,0,0,0,0,0,0,0,0,0,0,0,0,0,0,0,0,0,0,0,0,0,0,0,0,0,0,0,0,0,0,0,0,0,0,0,0,0,0,0,0,0,0,0,0,0,0,0,0,0,0,0,0,0,0,0,0,0,0,0,0,0,0,0,0,0,0,0,0,0,0,0,0,0,0,0,0,0,0,0,0,0,0,0,0,0,0,0,0,0,0,0,0,0,0,0,0,0,0,0,0,0,0,0,0,0,0,0,0,0,0,0,0,0,0,0,0,0,0,0,0,0,0,0,0,0,0,0,0,0,0,0,0,0,0,0,0,0,0,0,0,0,0,0,0,0,0,0,0,0,0,0,0,0,0,0,0,0,0,0,0,0,0,0,0,0,0,0,0,0,0,0,0,0,0,0,0,0,0,0,0,0,0,0,0,0,0,0,0,0,0,0,0,0,0,0,0,0,0,0,0,0,0,0,0,0,0,0,0,0,0,0,0,0,0,0,0,0,0,0,0,0,0,0,0,0,0,0,0,0,0,0,0,0,0,0,0,0,0,0,0,0,0,0,0,0,0,0,0,0,0,0,0,0,0,0,0,0,0,0,0,0,0,0,0,0,0,0,0,0,0,0,0,0,0,0,0,0,0,0,0,0,0,0,0,0,0,0,0,0,0,0,0,0,0,0,0,0,0,0,0,0,0,0,0,0,0,0,0,0,0,0,0,0,0,0,0,0,0,0,0,0,0,0,0,0,0,0,0,0,0,0,0,0,0,0,0,0,0,0,0,0,0,0,0,0,0,0,0,0,0,0,0,0,0,0,0,0,0,0,0,0,0,0,0,0,0,0,0,0,0,0,0,0,0,0,0,0,0,0,0,0,0,0,0,0,0,0,0,0,0,0,0,0,0,0,0,0,0,0,0,0,0,0,0,0,0,0,0,0,0,0,0,0,0,0,0,0,0,0,0,0,0,0,0,0,0,0,0,0,0,0,0,0,0,0,0,0,0,0,0,0,0,0,0,0,0,0,0,0,0,0,0,0,0,0,0,0,0,0,0,0,0,0,0,0,0,0,0,0,0,0,0,0,0,0,0,0,0,0,0,0,0,0,0,0,0,0,0,0,0,0,0,0,0,0,0,0,0,0,0,0,0,0,0,0,0,0,0,0,0,0,0,0,0,0,0,0,0,0,0,0,0,0,0,0,0,0,0,0,0,0,0,0,0,0,0,0,0,0,0,0,0,0,0,0,0,0,0,0,0,0,0,0,0,0,0,0,0,0,0,0,0,0,0,0,0,0,0,0,0,0,0,0,0,0,0,0,0,0,0,0,0,0,0,0,0,0,0,0,0,0,0,0,0,0,0,0,0,0,0,0,0,0,0,0,0,0,0,0,0,0,0,0,0,0,0,0,0,0,0,0,0,0,0,0,0,0,0,0,0,0,0,0,0,0,0,0,0,0,0,0,0,0,0,0,0,0,0,0,0,0,0,0,0,0,0,0,0,0,0,0,0,0,0,0,0,0,0,0,0,0,0,0,0,0,0,0,0,0,0,0,0,0,0,0,0,0,0,0,0,0,0,0,0,0,0,0,0,0,0,0,0,0,0,0,0,0,0,0,0,0,0,0,0,0,0,0,0,0,0,0,0,0,0,0,0,0,0,0,0,0,0,0,0,0,0,0,0,0,0,0,0,0,0,0,0,0,0,0,0,0,0,0,0,0,0,0,0,0,0,0,0,0,0,0,0,0,0,0,0,0,0,0,0,0,0,0,0,0,0,0,0,0,0,0,0,0,0,0,0,0,0,0,0,0,0,0,0,0,0,0,0,0,0,0,0,0,0,0,0,0,0,0,0,0,0,0,0,0,0,0,0,0,0,0,0,0,0,0,0,0,0,0,0,0,0,0,0,0,0,0,0,0,0,0,0,0,0,0,0,0,0,0,0,0,0,0,0,0,0,0,0,0,0,0,0,0,0,0,0,0,0,0,0,0,0,0,0,0,0,0,0,0,0,0,0,0,0,0,0,0,0,0,0,0,0,0,0,0,0,0,0,0,0,0,0,0,0,0,0,0,0,0,0,0,0,0,0,0,0,0,0,0,0,0,0,0,0,0,0,0,0,0,0,0,0,0,0,0,0,0,0,0,0,0,0,0,0,0,0,0,0,0,0,0,0,0,0,0,0,0,0,0,0,0,0,0,0,0,0,0,0,0,0,0,0,0,0,0,0,0,0,0,0,0,0,0,0,0,0,0,0,0,0,0,0,0,0,0,0,0,0,0,0,0,0,0,0,0,0,0,0,0,0,0,0,0,0,0,0,0,0,0,0,0,0,0,0,0,0,0,0,0,0,0,0,0,0,0,0,0,0,0,0,0,0,0,0,0,0,0,0,0,0,0,0,0,0,0,0,0,0,0,0,0,0,0,0,0,0,0,0,0,0,0,0,0,0,0,0,0,0,0,0,0,0,0,0,0,0,0,0,0,0,0,0,0,0,0,0,0,0,0,0,0,0,0,0,0,0,0,0,0,0,0,0,0,0,0,0,0,0,0,0,0,0,0,0,0,0,0,0,0,0,0,0,0,0,0,0,0,0,0,0,0,0,0,0,0,0,0,0,0,0,0,0,0,0,0,0,0,0,0,0,0,0,0,0,0,0,0,0,0,0,0,0,0,0,0,0,0,0,0,0,0,0,0,0,0,0,0,0,0,0,0,0,0,0,0,0,0,0,0,0,0,0,0,0,0,0,0,0,0,0,0,0,0,0,0,0,0,0,0,0,0,0,0,0,0,0,0,0,0,0,0,0,0,0,0,0,0,0,0,0,0,0,0,0,0,0,0,0,0,0,0,0,0,0,0,0,0,0,0,0,0,0,0,0,0,0],"trees":[{"base_weights":[-3.0629498E-1,-1.2469413E0,1.367507E0,-1.3879834E0,3.969026E-2,-8.54276E-3,1.7908676E0,-1.141818E-2,-2.6534437E-3,-7.5061643E-3,8.025622E-3,3.969026E-2,1.7775372E-2,-7.917927E-3,1.0376515E-2],"categories":[],"categories_nodes":[],"categories_segments":[],"categories_sizes":[],"default_left":[0,0,0,0,0,0,0,0,0,0,0,0,0,0,0],"id":0,"left_children":[1,3,5,7,9,-1,11,-1,-1,-1,-1,13,-1,-1,-1],"loss_changes":[6.606878E1,4.893341E0,1.7068026E1,6.4582825E-1,3.8819797E0,0E0,9.896217E0,0E0,0E0,0E0,0E0,5.3256316E0,0E0,0E0,0E0],"parents":[2147483647,0,0,1,1,2,2,3,3,4,4,6,6,11,11],"right_children":[2,4,6,8,10,-1,12,-1,-1,-1,-1,14,-1,-1,-1],"split_conditions":[4.8015758E-1,8.245827E-1,1E0,5.354822E-1,1E0,-8.54276E-3,4.3793643E-1,-1.141818E-2,-2.6534437E-3,-7.5061643E-3,8.025622E-3,4.7676852E-1,1.7775372E-2,-7.917927E-3,1.0376515E-2],"split_indices":[2,58,25,0,36,0,18,0,0,0,0,47,0,0,0],"split_type":[0,0,0,0,0,0,0,0,0,0,0,0,0,0,0],"sum_hessian":[4.0400646E1,2.5987442E1,1.4413203E1,2.336686E1,2.6205823E0,1.9654368E0,1.2447766E1,2.227495E1,1.0919093E0,1.3102912E0,1.3102912E0,2.6205823E0,9.827184E0,1.528673E0,1.0919093E0],"tree_param":{"num_deleted":"0","num_feature":"60","num_nodes":"15","size_leaf_vector":"1"}},{"base_weights":[-3.9243374E-2,-1.2018361E0,1.8053588E0,-1.1303476E-2,-2.9405452E-2,4.2750876E-2,2.1961415E0,-7.884143E-3,6.2467246E-3,-6.98744E-3,6.156778E-3,1.7065234E-3,2.384511E0,4.035856E-3,2.0880569E-2],"categories":[],"categories_nodes":[],"categories_segments":[],"categories_sizes":[],"default_left":[0,0,0,0,0,0,0,0,0,0,0,0,0,0,0],"id":1,"left_children":[1,3,5,-1,7,9,11,-1,-1,-1,-1,-1,13,-1,-1],"loss_changes":[7.950027E1,5.5930443E0,9.805756E0,0E0,3.8565447E0,2.7462416E0,3.996498E0,0E0,0E0,0E0,0E0,0E0,3.520527E0,0E0,0E0],"parents":[2147483647,0,0,1,1,2,2,4,4,5,5,6,6,12,12],"right_children":[2,4,6,-1,8,10,12,-1,-1,-1,-1,-1,14,-1,-1],"split_conditions":[4.8459417E-1,3.7801102E-1,4.2739376E-1,-1.1303476E-2,1E0,1.7697953E-1,1E0,-7.884143E-3,6.2467246E-3,-6.98744E-3,6.156778E-3,1.7065234E-3,4.8891433E-2,4.035856E-3,2.0880569E-2],"split_indices":[2,2,19,0,20,10,23,0,0,0,0,0,10,0,0],"split_type":[0,0,0,0,0,0,0,0,0,0,0,0,0,0,0],"sum_hessian":[3.556252E1,2.1974222E1,1.3588295E1,1.849103E1,3.4831922E0,2.6169066E0,1.0971389E1,1.5233537E0,1.9598385E0,1.0907618E0,1.5261449E0,1.0906153E0,9.880774E0,1.3185091E0,8.562264E0],"tree_param":{"num_deleted":"0","num_feature":"60","num_nodes":"15","size_leaf_vector":"1"}},{"base_weights":[-1.2364804E-1,-1.0986145E0,2.2300406E0,-1.2813185E0,3.4239918E-1,7.5916094E-1,2.17869E-2,-1.1308791E-2,4.088754E-3,-3.581923E-3,8.0544E-3,1.2907586E-2,-3.7050701E-3],"categories":[],"categories_nodes":[],"categories_segments":[],"categories_sizes":[],"default_left":[0,0,0,0,0,0,0,0,0,0,0,0,0],"id":2,"left_children":[1,3,5,7,9,11,-1,-1,-1,-1,-1,-1,-1],"loss_changes":[8.016098E1,6.8153687E0,5.8830833E0,5.763462E0,2.1040947E0,4.3329697E0,0E0,0E0,0E0,0E0,0E0,0E0,0E0],"parents":[2147483647,0,0,1,1,2,2,3,3,4,4,5,5],"right_children":[2,4,6,8,10,12,-1,-1,-1,-1,-1,-1,-1],"split_conditions":[5.543213E-1,4.5969966E-1,6.994541E-1,5.836133E-1,4.8107514E-1,3.6604357E-1,2.17869E-2,-1.1308791E-2,4.088754E-3,-3.581923E-3,8.0544E-3,1.2907586E-2,-3.7050701E-3],"split_indices":[19,48,17,2,7,43,0,0,0,0,0,0,0],"split_type":[0,0,0,0,0,0,0,0,0,0,0,0,0],"sum_hessian":[3.338135E1,2.388671E1,9.494643E0,2.1272692E1,2.6140175E0,2.862882E0,6.6317616E0,1.9958275E1,1.314416E0,1.3057393E0,1.3082782E0,1.5438449E0,1.319037E0],"tree_param":{"num_deleted":"0","num_feature":"60","num_nodes":"13","size_leaf_vector":"1"}},{"base_weights":[8.0641575E-2,-1.021666E0,1.8627715E0,-1.1989582E0,6.237485E-3,6.4939946E-1,2.1182815E-2,-1.3212054E0,6.1052386E-3,-5.158604E-1,1.5166483E-2,-2.5113192E-3,-1.3616225E0,4.029154E-3,-8.813996E-3,-2.539832E-3,-1.1249797E-2],"categories":[],"categories_nodes":[],"categories_segments":[],"categories_sizes":[],"default_left":[0,0,0,0,0,0,0,0,0,0,0,0,0,0,0,0,0],"id":3,"left_children":[1,3,5,7,-1,9,-1,11,-1,13,-1,-1,15,-1,-1,-1,-1],"loss_changes":[7.994842E1,8.74276E0,1.3514442E1,6.325691E0,0E0,1.1043762E1,0E0,5.804672E-1,0E0,2.9597933E0,0E0,0E0,6.456566E-1,0E0,0E0,0E0,0E0],"parents":[2147483647,0,0,1,1,2,2,3,3,5,5,7,7,9,9,12,12],"right_children":[2,4,6,8,-1,10,-1,12,-1,14,-1,-1,16,-1,-1,-1,-1],"split_conditions":[4.6570972E-1,8.3178085E-1,6.312454E-1,5.077024E-1,6.237485E-3,5.0896E-1,2.1182815E-2,5.6958284E-2,6.1052386E-3,2.9516286E-1,1.5166483E-2,-2.5113192E-3,2.206602E-2,4.029154E-3,-8.813996E-3,-2.539832E-3,-1.1249797E-2],"split_indices":[2,41,0,18,0,58,0,41,0,47,0,0,9,0,0,0,0],"split_type":[0,0,0,0,0,0,0,0,0,0,0,0,0,0,0,0,0],"sum_hessian":[3.9220905E1,2.44301E1,1.4790805E1,2.2469429E1,1.9606705E0,6.3488264E0,8.441978E0,2.1382215E1,1.0872128E0,3.5084221E0,2.8404043E0,1.0785028E0,2.0303713E1,1.3188227E0,2.1895993E0,1.0811982E0,1.9222515E1],"tree_param":{"num_deleted":"0","num_feature":"60","num_nodes":"17","size_leaf_vector":"1"}},{"base_weights":[-1.4436543E-1,-1.1116627E0,1.5247749E0,-1.309273E0,4.7403792E-1,-8.953546E-1,2.2287362E0,-2.4789905E-3,-1.351592E0,-7.460103E-3,1.4825792E-2,-2.643949E-3,-8.336586E-3,8.677936E-1,2.1569932E-2,-1.1188609E-2,-2.5045297E-3,-4.55636E-3,1.6124092E-2],"categories":[],"categories_nodes":[],"categories_segments":[],"categories_sizes":[],"default_left":[0,0,0,0,0,0,0,0,0,0,0,0,0,0,0,0,0,0,0],"id":4,"left_children":[1,3,5,7,9,11,13,-1,15,-1,-1,-1,-1,17,-1,-1,-1,-1,-1],"loss_changes":[5.9764248E1,7.788555E0,2.468084E1,5.731964E-1,7.387985E0,4.0174484E-2,5.089203E0,0E0,6.428375E-1,0E0,0E0,0E0,0E0,7.2225523E0,0E0,0E0,0E0,0E0,0E0],"parents":[2147483647,0,0,1,1,2,2,3,3,4,4,5,5,6,6,8,8,13,13],"right_children":[2,4,6,8,10,12,14,-1,16,-1,-1,-1,-1,18,-1,-1,-1,-1,-1],"split_conditions":[4.6570972E-1,8.245827E-1,1E0,5.042736E-2,2.4443814E-1,5.2638304E-1,1.14461765E-1,-2.4789905E-3,5.9960335E-1,-7.460103E-3,1.4825792E-2,-2.643949E-3,-8.336586E-3,6.4732856E-1,2.1569932E-2,-1.1188609E-2,-2.5045297E-3,-4.55636E-3,1.6124092E-2],"split_indices":[2,58,23,45,3,1,11,0,11,0,0,0,0,2,0,0,0,0,0],"split_type":[0,0,0,0,0,0,0,0,0,0,0,0,0,0,0,0,0,0,0],"sum_hessian":[3.5478542E1,2.2620209E1,1.2858333E1,2.02299E1,2.3903084E0,2.851461E0,1.0006871E1,1.0753902E0,1.915451E1,1.3036711E0,1.0866371E0,1.0909134E0,1.7605475E0,3.106317E0,6.900554E0,1.8076681E1,1.0778295E0,1.5468929E0,1.559424E0],"tree_param":{"num_deleted":"0","num_feature":"60","num_nodes":"19","size_leaf_vector":"1"}},{"base_weights":[3.422808E-2,-1.0686074E0,2.0837355E0,-1.3104838E0,1.07028686E-1,3.0963752E-1,2.478992E0,-2.4999157E-3,-1.351493E0,-8.769048E-3,1.2787378E0,-3.6969527E-3,7.721686E-3,5.7072584E-3,2.0954281E-2,-3.4016056E-3,-1.1175025E-2,1.4802746E-2,1.5511025E-3],"categories":[],"categories_nodes":[],"categories_segments":[],"categories_sizes":[],"default_left":[0,0,0,0,0,0,0,0,0,0,0,0,0,0,0,0,0,0,0],"id":5,"left_children":[1,3,5,7,9,11,13,-1,15,-1,17,-1,-1,-1,-1,-1,-1,-1,-1],"loss_changes":[9.013406E1,7.4820137E0,9.204121E0,5.6612396E-1,8.269124E0,2.053803E0,1.3972015E0,0E0,4.161377E-1,0E0,1.5540705E0,0E0,0E0,0E0,0E0,0E0,0E0,0E0,0E0],"parents":[2147483647,0,0,1,1,2,2,3,3,4,4,5,5,6,6,8,8,10,10],"right_children":[2,4,6,8,10,12,14,-1,16,-1,18,-1,-1,-1,-1,-1,-1,-1,-1],"split_conditions":[5.046363E-1,6.277351E-1,4.8449257E-1,1.5239361E-2,1E0,4.5555383E-1,2.9052624E-2,-2.4999157E-3,7.547578E-2,-8.769048E-3,3.9611804E-1,-3.6969527E-3,7.721686E-3,5.7072584E-3,2.0954281E-2,-3.4016056E-3,-1.1175025E-2,1.4802746E-2,1.5511025E-3],"split_indices":[2,42,4,7,34,42,11,0,42,0,2,0,0,0,0,0,0,0,0],"split_type":[0,0,0,0,0,0,0,0,0,0,0,0,0,0,0,0,0,0,0],"sum_hessian":[3.838871E1,2.5191936E1,1.3196775E1,2.0821978E1,4.3699574E0,2.6481528E0,1.0548622E1,1.0770088E0,1.974497E1,2.179911E0,2.1900463E0,1.3179494E0,1.3302033E0,1.1124395E0,9.436183E0,1.2854741E0,1.8459496E1,1.0877155E0,1.1023308E0],"tree_param":{"num_deleted":"0","num_feature":"60","num_nodes":"19","size_leaf_vector":"1"}},{"base_weights":[-2.120291E-2,-1.1734407E0,1.8456944E0,-1.352771E0,-8.853851E-2,-5.659375E-1,2.361372E0,-1.11642955E-2,-2.4633745E-3,-7.834609E-3,6.2616813E-1,1.6010626E-3,-7.991298E-3,1.5239492E-3,2.5483794E0,1.0617406E-2,-2.6135645E-3,5.3217076E-3,2.1588938E-2],"categories":[],"categories_nodes":[],"categories_segments":[],"categories_sizes":[],"default_left":[0,0,0,0,0,0,0,0,0,0,0,0,0,0,0,0,0,0,0],"id":6,"left_children":[1,3,5,7,9,11,13,-1,-1,-1,15,-1,-1,-1,17,-1,-1,-1,-1],"loss_changes":[8.9025314E1,4.8874283E0,2.0649048E1,6.5634155E-1,3.2811785E0,1.2736955E0,4.978485E0,0E0,0E0,0E0,2.2731023E0,0E0,0E0,0E0,2.0644455E0,0E0,0E0,0E0,0E0],"parents":[2147483647,0,0,1,1,2,2,3,3,4,4,5,5,6,6,10,10,14,14],"right_children":[2,4,6,8,10,12,14,-1,-1,-1,16,-1,-1,-1,18,-1,-1,-1,-1],"split_conditions":[4.480826E-1,4.5793566E-1,5.046532E-1,4.7345406E-1,1E0,2.0053469E-1,1E0,-1.11642955E-2,-2.4633745E-3,-7.834609E-3,4.8821247E-1,1.6010626E-3,-7.991298E-3,1.5239492E-3,6.9058046E-2,1.0617406E-2,-2.6135645E-3,5.3217076E-3,2.1588938E-2],"split_indices":[2,52,16,1,25,8,38,0,0,0,52,0,0,0,50,0,0,0,0],"split_type":[0,0,0,0,0,0,0,0,0,0,0,0,0,0,0,0,0,0,0],"sum_hessian":[3.9880642E1,2.4832659E1,1.5047981E1,2.1151255E1,3.681404E0,2.63799E0,1.2409991E1,2.0077744E1,1.0735117E0,1.5152091E0,2.166195E0,1.0982193E0,1.5397707E0,1.1043308E0,1.130566E1,1.0782909E0,1.0879041E0,1.1360875E0,1.0169573E1],"tree_param":{"num_deleted":"0","num_feature":"60","num_nodes":"19","size_leaf_vector":"1"}},{"base_weights":[-2.8744034E-2,-1.0027151E0,2.0126579E0,-1.2277056E0,1.3899803E-2,7.18955E-1,2.021594E-2,-1.1159269E-2,-5.464921E-1,-2.9101917E-3,1.2258707E-2,-9.077717E-1,6.103001E-3,-9.72487E-3,1.5773812E-3],"categories":[],"categories_nodes":[],"categories_segments":[],"categories_sizes":[],"default_left":[0,0,0,0,0,0,0,0,0,0,0,0,0,0,0],"id":7,"left_children":[1,3,5,7,-1,9,-1,-1,11,-1,-1,13,-1,-1,-1],"loss_changes":[8.536944E1,1.9511635E1,7.8678513E0,2.536419E0,0E0,4.8165493E0,0E0,0E0,3.646688E0,0E0,0E0,2.0586486E0,0E0,0E0,0E0],"parents":[2147483647,0,0,1,1,2,2,3,3,5,5,8,8,11,11],"right_children":[2,4,6,8,-1,10,-1,-1,12,-1,-1,14,-1,-1,-1],"split_conditions":[5.489804E-1,9.570432E-1,6.56105E-1,3.7649417E-1,1.3899803E-2,5.3185797E-1,2.021594E-2,-1.1159269E-2,5.61816E-1,-2.9101917E-3,1.2258707E-2,4.426443E-1,6.103001E-3,-9.72487E-3,1.5773812E-3],"split_indices":[17,42,1,4,0,4,0,0,43,0,0,17,0,0,0],"split_type":[0,0,0,0,0,0,0,0,0,0,0,0,0,0,0],"sum_hessian":[4.142535E1,2.8303232E1,1.3122117E1,2.6538216E1,1.7650168E0,4.2444496E0,8.877667E0,2.0677252E1,5.860965E0,1.9986007E0,2.2458487E0,4.773811E0,1.0871539E0,3.6748762E0,1.0989345E0],"tree_param":{"num_deleted":"0","num_feature":"60","num_nodes":"15","size_leaf_vector":"1"}},{"base_weights":[1.096626E-1,-7.252762E-1,1.8808799E0,-1.300076E0,1.065069E0,2.7336046E-1,1.926503E-2,-2.306426E-3,-1.3425102E0,2.574494E-1,1.600909E-2,-4.9939225E-3,9.212753E-3,-1.1095499E-2,-2.7083885E-3,-6.005583E-3,1.085707E-2],"categories":[],"categories_nodes":[],"categories_segments":[],"categories_sizes":[],"default_left":[0,0,0,0,0,0,0,0,0,0,0,0,0,0,0,0,0],"id":8,"left_children":[1,3,5,7,9,11,-1,-1,13,15,-1,-1,-1,-1,-1,-1,-1],"loss_changes":[5.9815475E1,2.9400288E1,1.0478127E1,6.199112E-1,4.9887943E0,3.7264676E0,0E0,0E0,5.4621124E-1,5.950003E0,0E0,0E0,0E0,0E0,0E0,0E0,0E0],"parents":[2147483647,0,0,1,1,2,2,3,3,4,4,5,5,8,8,9,9],"right_children":[2,4,6,8,10,12,-1,-1,14,16,-1,-1,-1,-1,-1,-1,-1],"split_conditions":[5.64818E-1,5.9465903E-1,5.460074E-1,2.9746234E-2,1.2182753E0,3.4936154E-1,1.926503E-2,-2.306426E-3,4.9730718E-1,1E0,1.600909E-2,-4.9939225E-3,9.212753E-3,-1.1095499E-2,-2.7083885E-3,-6.005583E-3,1.085707E-2],"split_indices":[16,42,1,54,42,52,0,0,15,33,0,0,0,0,0,0,0],"split_type":[0,0,0,0,0,0,0,0,0,0,0,0,0,0,0,0,0],"sum_hessian":[3.900524E1,2.6810064E1,1.2195176E1,2.0449898E1,6.3601675E0,3.2932596E0,8.9019165E0,1.058453E0,1.9391443E1,3.927702E0,2.4324656E0,1.7359425E0,1.5573171E0,1.8295729E1,1.095716E0,2.1733103E0,1.7543917E0],"tree_param":{"num_deleted":"0","num_feature":"60","num_nodes":"17","size_leaf_vector":"1"}},{"base_weights":[-1.9912621E-1,-1.2715479E0,1.612682E0,-1.1096729E-2,-2.4815531E-1,-2.9309916E-1,2.066366E0,6.1588706E-3,-7.894311E-3,-8.084615E-3,5.696025E-3,8.4186655E-1,2.0212056E-2,-1.18966125E-1,1.527824E-2,5.893246E-3,-7.3177675E-3],"categories":[],"categories_nodes":[],"categories_segments":[],"categories_sizes":[],"default_left":[0,0,0,0,0,0,0,0,0,0,0,0,0,0,0,0,0],"id":9,"left_children":[1,3,5,-1,7,9,11,-1,-1,-1,-1,13,-1,15,-1,-1,-1],"loss_changes":[7.4773445E1,2.591133E0,1.2857433E1,0E0,3.0947366E0,3.0024583E0,4.985794E0,0E0,0E0,0E0,0E0,4.598036E0,0E0,2.532607E0,0E0,0E0,0E0],"parents":[2147483647,0,0,1,1,2,2,4,4,5,5,6,6,11,11,13,13],"right_children":[2,4,6,-1,8,10,12,-1,-1,-1,-1,14,-1,16,-1,-1,-1],"split_conditions":[4.947665E-1,7.429648E-1,1E0,-1.1096729E-2,4.8198342E-1,7.0218843E-1,5.9061253E-1,6.1588706E-3,-7.894311E-3,-8.084615E-3,5.696025E-3,4.8956907E-1,2.0212056E-2,4.8640192E-1,1.527824E-2,5.893246E-3,-7.3177675E-3],"split_indices":[2,41,34,0,50,43,19,0,0,0,0,46,0,19,0,0,0],"split_type":[0,0,0,0,0,0,0,0,0,0,0,0,0,0,0,0,0],"sum_hessian":[3.6941536E1,2.3346327E1,1.3595209E1,2.0738382E1,2.6079443E0,2.6651666E0,1.0930042E1,1.0832542E0,1.5246899E0,1.5527053E0,1.1124613E0,3.5650725E0,7.3649697E0,2.2274346E0,1.337638E0,1.1001827E0,1.1272519E0],"tree_param":{"num_deleted":"0","num_feature":"60","num_nodes":"17","size_leaf_vector":"1"}},{"base_weights":[-3.1174125E-2,-9.596541E-1,2.205908E0,-1.3495139E0,6.1748135E-1,1.5851873E-4,1.9795286E-2,-1.1096516E-2,-2.8258907E-3,-9.001063E-3,1.9283764E0,5.9467237E-3,1.7594153E-2],"categories":[],"categories_nodes":[],"categories_segments":[],"categories_sizes":[],"default_left":[0,0,0,0,0,0,0,0,0,0,0,0,0],"id":10,"left_children":[1,3,5,7,9,-1,-1,-1,-1,-1,11,-1,-1],"loss_changes":[8.494548E1,1.8384468E1,7.005924E0,5.077324E-1,1.5880294E1,0E0,0E0,0E0,0E0,0E0,5.6705475E-3,0E0,0E0],"parents":[2147483647,0,0,1,1,2,2,3,3,4,4,10,10],"right_children":[2,4,6,8,10,-1,-1,-1,-1,-1,12,-1,-1],"split_conditions":[5.7681215E-1,6.034412E-1,5.046363E-1,5.50975E-1,1E0,1.5851873E-4,1.9795286E-2,-1.1096516E-2,-2.8258907E-3,-9.001063E-3,2.592029E-1,5.9467237E-3,1.7594153E-2],"split_indices":[0,42,2,1,24,0,0,0,0,0,15,0,0],"split_type":[0,0,0,0,0,0,0,0,0,0,0,0,0],"sum_hessian":[3.938209E1,2.8133722E1,1.124837E1,2.264439E1,5.4893327E0,1.3185279E0,9.929842E0,2.1538404E1,1.1059844E0,2.4022396E0,3.087093E0,1.0968573E0,1.9902358E0],"tree_param":{"num_deleted":"0","num_feature":"60","num_nodes":"13","size_leaf_vector":"1"}},{"base_weights":[-2.375084E-1,-9.9886256E-1,2.2210913E0,-1.185909E0,1.5172031E-2,5.1699756E-3,1.9059513E-2,2.1290337E-3,-1.249355E0,-1.0739034E-2,-5.413174E-1,-9.070363E-3,6.023154E-3],"categories":[],"categories_nodes":[],"categories_segments":[],"categories_sizes":[],"default_left":[0,0,0,0,0,0,0,0,0,0,0,0,0],"id":11,"left_children":[1,3,5,7,-1,-1,-1,-1,9,-1,11,-1,-1],"loss_changes":[7.329603E1,1.7791283E1,1.2035522E0,2.865158E0,0E0,0E0,0E0,0E0,1.2555351E0,0E0,4.038122E0,0E0,0E0],"parents":[2147483647,0,0,1,1,2,2,3,3,8,8,10,10],"right_children":[2,4,6,8,-1,-1,-1,-1,10,-1,12,-1,-1],"split_conditions":[5.50975E-1,1.0517185E0,9.275878E-2,9.740144E-3,1.5172031E-2,5.1699756E-3,1.9059513E-2,2.1290337E-3,7.3983216E-1,-1.0739034E-2,1E0,-9.070363E-3,6.023154E-3],"split_indices":[1,42,44,7,0,0,0,0,42,0,21,0,0],"split_type":[0,0,0,0,0,0,0,0,0,0,0,0,0],"sum_hessian":[3.751777E1,2.8986742E1,8.531024E0,2.7643711E1,1.3430309E0,1.1416686E0,7.3893557E0,1.0570002E0,2.6586712E1,2.290539E1,3.6813219E0,2.5890439E0,1.0922781E0],"tree_param":{"num_deleted":"0","num_feature":"60","num_nodes":"13","size_leaf_vector":"1"}},{"base_weights":[4.370285E-2,-8.878761E-1,1.9839084E0,-1.3323578E0,5.024425E-1,5.43143E-1,2.2455614E0,-1.0982311E-2,-2.9988498E-3,-9.0937537E-1,1.7177147E0,-2.9645134E-3,9.913216E-3,1.9173454E-2,4.8553436E-3,-2.3177837E-3,-8.566809E-3,1.8010058E-2,1.4026661E-3],"categories":[],"categories_nodes":[],"categories_segments":[],"categories_sizes":[],"default_left":[0,0,0,0,0,0,0,0,0,0,0,0,0,0,0,0,0,0,0],"id":12,"left_children":[1,3,5,7,9,11,13,-1,-1,15,17,-1,-1,-1,-1,-1,-1,-1,-1],"loss_changes":[7.239662E1,1.7240128E1,3.9814987E0,4.1654587E-1,1.3363775E1,2.2429996E0,1.5717468E0,0E0,0E0,1.4529562E-1,3.0602522E0,0E0,0E0,0E0,0E0,0E0,0E0,0E0,0E0],"parents":[2147483647,0,0,1,1,2,2,3,3,4,4,5,5,6,6,9,9,10,10],"right_children":[2,4,6,8,10,12,14,-1,-1,16,18,-1,-1,-1,-1,-1,-1,-1,-1],"split_conditions":[6.081136E-1,5.3511477E-1,5.460074E-1,6.555454E-1,2.0291354E-1,6.418561E-1,7.250498E-1,-1.0982311E-2,-2.9988498E-3,1E0,3.6493975E-1,-2.9645134E-3,9.913216E-3,1.9173454E-2,4.8553436E-3,-2.3177837E-3,-8.566809E-3,1.8010058E-2,1.4026661E-3],"split_indices":[2,43,1,0,9,4,6,0,0,20,19,0,0,0,0,0,0,0,0],"split_type":[0,0,0,0,0,0,0,0,0,0,0,0,0,0,0,0,0,0,0],"sum_hessian":[3.8573547E1,2.6335491E1,1.2238055E1,1.9979391E1,6.3560996E0,2.2354784E0,1.0002577E1,1.8857819E1,1.1215724E0,3.0276136E0,3.328486E0,1.1182076E0,1.1172708E0,8.8403425E0,1.1622336E0,1.0590899E0,1.9685237E0,2.2169108E0,1.1115751E0],"tree_param":{"num_deleted":"0","num_feature":"60","num_nodes":"19","size_leaf_vector":"1"}},{"base_weights":[1.558312E-1,-8.427551E-1,1.8481025E-2,-1.0430521E0,1.5163627E-2,-1.2210946E0,9.046871E-3,-1.09406775E-2,-6.522248E-1,4.3911953E-3,-1.0412432E0,-9.488106E-3,-2.3303027E-3],"categories":[],"categories_nodes":[],"categories_segments":[],"categories_sizes":[],"default_left":[0,0,0,0,0,0,0,0,0,0,0,0,0],"id":13,"left_children":[1,3,-1,5,-1,7,-1,-1,9,-1,11,-1,-1],"loss_changes":[8.413473E1,1.6186079E1,0E0,1.0891844E1,0E0,1.3225288E0,0E0,0E0,3.3852718E0,0E0,2.879281E-1,0E0,0E0],"parents":[2147483647,0,0,1,1,3,3,5,5,8,8,10,10],"right_children":[2,4,-1,6,-1,8,-1,-1,10,-1,12,-1,-1],"split_conditions":[5.935164E-1,1.2182753E0,1.8481025E-2,6.2374544E-1,1.5163627E-2,3.837886E-1,9.046871E-3,-1.09406775E-2,3.0588236E-1,4.3911953E-3,5.728832E-1,-9.488106E-3,-2.3303027E-3],"split_indices":[2,42,0,4,0,4,0,0,15,0,9,0,0],"split_type":[0,0,0,0,0,0,0,0,0,0,0,0,0],"sum_hessian":[3.768093E1,2.605855E1,1.1622379E1,2.4714981E1,1.3435687E0,2.31479E1,1.5670819E0,1.7570324E1,5.5775747E0,1.2891097E0,4.288465E0,3.2290509E0,1.0594141E0],"tree_param":{"num_deleted":"0","num_feature":"60","num_nodes":"13","size_leaf_vector":"1"}},{"base_weights":[-1.543044E-1,-1.2011006E0,1.4428829E0,-1.303745E0,5.596955E-3,-9.298625E-1,1.9872828E0,-1.0682754E-2,-3.633293E-3,-2.5652347E-3,-8.661791E-3,1.1553012E0,1.8184358E-2,1.5394593E-2,-3.7337697E-4],"categories":[],"categories_nodes":[],"categories_segments":[],"categories_sizes":[],"default_left":[0,0,0,0,0,0,0,0,0,0,0,0,0,0,0],"id":14,"left_children":[1,3,5,7,-1,9,11,-1,-1,-1,-1,13,-1,-1,-1],"loss_changes":[7.459965E1,5.930916E0,2.424717E1,2.3717117E-1,0E0,9.477186E-2,1.5097847E0,0E0,0E0,0E0,0E0,4.9355545E0,0E0,0E0,0E0],"parents":[2147483647,0,0,1,1,2,2,3,3,5,5,6,6,11,11],"right_children":[2,4,6,8,-1,10,12,-1,-1,-1,-1,14,-1,-1,-1],"split_conditions":[4.706144E-1,6.914107E-1,1E0,1.1485535E0,5.596955E-3,4.865531E-1,6.30959E-1,-1.0682754E-2,-3.633293E-3,-2.5652347E-3,-8.661791E-3,5.6433266E-1,1.8184358E-2,1.5394593E-2,-3.7337697E-4],"split_indices":[3,19,39,41,0,15,3,0,0,0,0,3,0,0,0],"split_type":[0,0,0,0,0,0,0,0,0,0,0,0,0,0,0],"sum_hessian":[4.309148E1,2.6143215E1,1.6948265E1,2.5027231E1,1.1159855E0,3.0637956E0,1.3884469E1,2.371631E1,1.3109199E0,1.0805736E0,1.983222E0,4.516644E0,9.3678255E0,2.4795191E0,2.0371249E0],"tree_param":{"num_deleted":"0","num_feature":"60","num_nodes":"15","size_leaf_vector":"1"}},{"base_weights":[1.843476E-1,-6.478156E-1,2.22013E0,-1.0117629E0,1.3820795E0,5.4547857E-3,1.8720357E-2,-1.1920642E0,6.613762E-3,1.6295975E-2,-2.975272E-3,2.4311435E-3,-1.2759554E0,-1.0932308E-2,-3.0876338E-4],"categories":[],"categories_nodes":[],"categories_segments":[],"categories_sizes":[],"default_left":[0,0,0,0,0,0,0,0,0,0,0,0,0,0,0],"id":15,"left_children":[1,3,5,7,9,-1,-1,11,-1,-1,-1,-1,13,-1,-1],"loss_changes":[6.603271E1,2.1584282E1,8.8674164E-1,8.69589E0,5.7868757E0,0E0,0E0,3.0727253E0,0E0,0E0,0E0,0E0,2.329239E0,0E0,0E0],"parents":[2147483647,0,0,1,1,2,2,3,3,4,4,7,7,12,12],"right_children":[2,4,6,8,10,-1,-1,12,-1,-1,-1,-1,14,-1,-1],"split_conditions":[6.0985833E-1,9.419892E-1,1E0,5.836133E-1,5.3534293E-1,5.4547857E-3,1.8720357E-2,4.3352265E-2,6.613762E-3,1.6295975E-2,-2.975272E-3,2.4311435E-3,5.9960335E-1,-1.0932308E-2,-3.0876338E-4],"split_indices":[3,57,36,0,51,0,0,56,0,0,0,0,11,0,0],"split_type":[0,0,0,0,0,0,0,0,0,0,0,0,0,0,0],"sum_hessian":[3.759125E1,2.7046741E1,1.054451E1,2.3253681E1,3.7930598E0,1.1251754E0,9.419334E0,2.1417004E1,1.8366776E0,2.6737146E0,1.1193452E0,1.0328197E0,2.0384184E1,1.8920761E1,1.463424E0],"tree_param":{"num_deleted":"0","num_feature":"60","num_nodes":"15","size_leaf_vector":"1"}},{"base_weights":[-1.9549724E-1,-1.1116233E0,1.0791017E0,-1.2581805E0,1.9262057E-2,-6.1490634E-3,1.3974458E0,-1.299946E0,-2.2842037E-3,1.0138192E-2,-7.991712E-3,6.878688E-1,1.812977E-2,-2.928592E-3,-1.0783343E-2,-5.289536E-1,1.1948853E0,1.5881803E-3,-7.849411E-3,1.6795905E0,-1.7598505E-3,1.791483E-2,2.3046276E-3],"categories":[],"categories_nodes":[],"categories_segments":[],"categories_sizes":[],"default_left":[0,0,0,0,0,0,0,0,0,0,0,0,0,0,0,0,0,0,0,0,0,0,0],"id":16,"left_children":[1,3,5,7,9,-1,11,13,-1,-1,-1,15,-1,-1,-1,17,19,-1,-1,21,-1,-1,-1],"loss_changes":[4.656265E1,3.8503208E0,1.0648655E1,5.536003E-1,5.2590594E0,0E0,7.7945824E0,5.001869E-1,0E0,0E0,0E0,6.076209E0,0E0,0E0,0E0,1.1957415E0,4.8306684E0,0E0,0E0,3.43602E0,0E0,0E0,0E0],"parents":[2147483647,0,0,1,1,2,2,3,3,4,4,6,6,7,7,11,11,15,15,16,16,19,19],"right_children":[2,4,6,8,10,-1,12,14,-1,-1,-1,16,-1,-1,-1,18,20,-1,-1,22,-1,-1,-1],"split_conditions":[4.648523E-1,6.5702176E-1,1E0,4.7360668E-1,5.9826493E-1,-6.1490634E-3,6.8604755E-1,4.6472497E-2,-2.2842037E-3,1.0138192E-2,-7.991712E-3,2.4605633E-1,1.812977E-2,-2.928592E-3,-1.0783343E-2,7.9905525E-2,6.342503E-1,1.5881803E-3,-7.849411E-3,5.0995666E-1,-1.7598505E-3,1.791483E-2,2.3046276E-3],"split_indices":[3,43,24,0,53,0,17,43,0,0,0,45,0,0,0,47,0,0,0,50,0,0,0],"split_type":[0,0,0,0,0,0,0,0,0,0,0,0,0,0,0,0,0,0,0,0,0,0,0],"sum_hessian":[3.8355286E1,2.2371513E1,1.598377E1,1.9730162E1,2.6413527E0,2.1931903E0,1.379058E1,1.8675856E1,1.0543053E0,1.1043446E0,1.537008E0,8.330458E0,5.460122E0,1.2287582E0,1.7447098E1,2.440615E0,5.889843E0,1.0968702E0,1.3437448E0,4.2824383E0,1.6074044E0,2.7280533E0,1.5543851E0],"tree_param":{"num_deleted":"0","num_feature":"60","num_nodes":"23","size_leaf_vector":"1"}},{"base_weights":[-8.616244E-2,-8.637257E-1,1.7175511E0,-1.0404589E0,1.4897042E-2,-7.869718E-3,2.1358376E0,-1.1713809E0,-2.1444191E-1,1.0312911E0,1.8677363E-2,-1.2388022E0,1.1802348E-3,1.1823692E-2,-9.213899E-3,1.2979209E-2,3.4054395E-4,-1.1682471E-3,-1.3163538E0,-1.0854543E-2,-2.5003534E-3],"categories":[],"categories_nodes":[],"categories_segments":[],"categories_sizes":[],"default_left":[0,0,0,0,0,0,0,0,0,0,0,0,0,0,0,0,0,0,0,0,0],"id":17,"left_children":[1,3,5,7,-1,-1,9,11,13,15,-1,17,-1,-1,-1,-1,-1,-1,19,-1,-1],"loss_changes":[6.0711277E1,1.5998495E1,1.6322918E1,2.9299965E0,0E0,0E0,7.2821426E-1,2.3354607E0,8.99102E0,1.7620826E0,0E0,1.855835E0,0E0,0E0,0E0,0E0,0E0,0E0,5.732155E-1,0E0,0E0],"parents":[2147483647,0,0,1,1,2,2,3,3,6,6,7,7,8,8,9,9,11,11,18,18],"right_children":[2,4,6,8,-1,-1,10,12,14,16,-1,18,-1,-1,-1,-1,-1,-1,20,-1,-1],"split_conditions":[5.2500075E-1,8.7744683E-1,1E0,5.9463537E-1,1.4897042E-2,-7.869718E-3,8.829467E-2,8.6472756E-1,4.616105E-1,6.699176E-2,1.8677363E-2,5.5849735E-2,1.1802348E-3,1.1823692E-2,-9.213899E-3,1.2979209E-2,3.4054395E-4,-1.1682471E-3,4.956665E-1,-1.0854543E-2,-2.5003534E-3],"split_indices":[4,43,37,41,0,0,46,18,46,56,0,56,0,0,0,0,0,0,4,0,0],"split_type":[0,0,0,0,0,0,0,0,0,0,0,0,0,0,0,0,0,0,0,0,0],"sum_hessian":[4.1744545E1,2.944287E1,1.2301678E1,2.8085638E1,1.3572311E0,1.5135357E0,1.0788142E1,2.397247E1,4.113167E0,2.3535974E0,8.434545E0,2.2849958E1,1.1225122E0,1.3118434E0,2.8013237E0,1.1721475E0,1.1814498E0,1.6574376E0,2.119252E1,2.0117811E1,1.0747097E0],"tree_param":{"num_deleted":"0","num_feature":"60","num_nodes":"21","size_leaf_vector":"1"}},{"base_weights":[4.3230414E-2,-8.4254193E-1,1.7986561E0,-1.1887772E0,2.4977043E-1,2.1201824E-1,1.7104756E-2,-1.0249982E-2,-8.6767133E-4,1.0179473E-2,-3.5648143E-1,-6.921376E-3,9.358313E-3,6.359554E-3,-8.708463E-1,-8.190668E-3,-2.41566E-3],"categories":[],"categories_nodes":[],"categories_segments":[],"categories_sizes":[],"default_left":[0,0,0,0,0,0,0,0,0,0,0,0,0,0,0,0,0],"id":18,"left_children":[1,3,5,7,9,11,-1,-1,-1,-1,13,-1,-1,-1,15,-1,-1],"loss_changes":[5.628358E1,9.330763E0,6.194721E0,1.7355652E0,4.3181534E0,3.8241217E0,0E0,0E0,0E0,0E0,3.2518835E0,0E0,0E0,0E0,7.685876E-2,0E0,0E0],"parents":[2147483647,0,0,1,1,2,2,3,3,4,4,5,5,10,10,14,14],"right_children":[2,4,6,8,10,12,-1,-1,-1,-1,14,-1,-1,-1,16,-1,-1],"split_conditions":[4.9279755E-1,3.9892334E-1,1E0,4.438889E-1,1.5527771E-1,1E0,1.7104756E-2,-1.0249982E-2,-8.6767133E-4,1.0179473E-2,4.7704947E-1,-6.921376E-3,9.358313E-3,6.359554E-3,4.1547E-1,-8.190668E-3,-2.41566E-3],"split_indices":[17,4,25,3,13,23,0,0,0,0,4,0,0,0,11,0,0],"split_type":[0,0,0,0,0,0,0,0,0,0,0,0,0,0,0,0,0],"sum_hessian":[3.4716415E1,2.3332876E1,1.1383537E1,1.7666737E1,5.6661406E0,2.2208889E0,9.162648E0,1.6145279E1,1.5214574E0,1.8021019E0,3.864039E0,1.0794072E0,1.1414816E0,1.0668156E0,2.7972233E0,1.7317383E0,1.065485E0],"tree_param":{"num_deleted":"0","num_feature":"60","num_nodes":"17","size_leaf_vector":"1"}},{"base_weights":[3.5424083E-1,-5.2919257E-1,2.1203043E0,-8.3693874E-1,1.1662074E0,1.1818833E-3,1.8317223E-2,-1.0628356E-2,-1.5684342E-1,-2.857648E-3,1.3897556E-2,-9.600465E-3,6.277443E-1,1.1001332E0,-1.6724005E-1,-2.7975496E-3,1.3464959E-2,-7.5141303E-3,6.136274E-3],"categories":[],"categories_nodes":[],"categories_segments":[],"categories_sizes":[],"default_left":[0,0,0,0,0,0,0,0,0,0,0,0,0,0,0,0,0,0,0],"id":19,"left_children":[1,3,5,7,9,-1,-1,-1,11,-1,-1,-1,13,15,17,-1,-1,-1,-1],"loss_changes":[6.3757126E1,1.5069639E1,4.2879486E0,7.7657356E0,4.4102573E0,0E0,0E0,0E0,9.398043E0,0E0,0E0,0E0,2.636032E0,4.0517983E0,2.798227E0,0E0,0E0,0E0,0E0],"parents":[2147483647,0,0,1,1,2,2,3,3,4,4,8,8,12,12,13,13,14,14],"right_children":[2,4,6,8,10,-1,-1,-1,12,-1,-1,-1,14,16,18,-1,-1,-1,-1],"split_conditions":[6.30959E-1,8.383206E-1,1E0,2.147512E-1,6.2801816E-2,1.1818833E-3,1.8317223E-2,-1.0628356E-2,1E0,-2.857648E-3,1.3897556E-2,-9.600465E-3,3.0623272E-1,8.6243205E-2,3.7506792E-1,-2.7975496E-3,1.3464959E-2,-7.5141303E-3,6.136274E-3],"split_indices":[3,56,20,5,8,0,0,0,24,0,0,0,51,56,54,0,0,0,0],"split_type":[0,0,0,0,0,0,0,0,0,0,0,0,0,0,0,0,0,0,0],"sum_hessian":[3.9575344E1,2.6729689E1,1.2845656E1,2.2944586E1,3.7851026E0,1.1266562E0,1.1719001E1,1.2902754E1,1.0041833E1,1.1084698E0,2.676633E0,4.139997E0,5.9018364E0,3.5214615E0,2.380375E0,1.0959859E0,2.4254756E0,1.3011653E0,1.0792096E0],"tree_param":{"num_deleted":"0","num_feature":"60","num_nodes":"19","size_leaf_vector":"1"}},{"base_weights":[-7.945058E-3,-8.3057886E-1,1.9240364E0,-1.077589E0,1.3757059E-2,4.7462652E-3,2.0247645E0,-1.2117581E0,8.871753E-3,7.289121E-3,1.7218115E-2,-1.0804792E-2,-5.2391773E-1,1.0777679E-2,-9.663472E-3],"categories":[],"categories_nodes":[],"categories_segments":[],"categories_sizes":[],"default_left":[0,0,0,0,0,0,0,0,0,0,0,0,0,0,0],"id":20,"left_children":[1,3,5,7,-1,-1,9,11,-1,-1,-1,-1,13,-1,-1],"loss_changes":[6.453822E1,1.9327349E1,7.2473526E-1,8.759262E0,0E0,0E0,8.5941315E-2,1.8809624E0,0E0,0E0,0E0,0E0,8.217032E0,0E0,0E0],"parents":[2147483647,0,0,1,1,2,2,3,3,6,6,7,7,12,12],"right_children":[2,4,6,8,-1,-1,10,12,-1,-1,-1,-1,14,-1,-1],"split_conditions":[5.897294E-1,1.089793E0,2.4936622E-1,5.7681215E-1,1.3757059E-2,4.7462652E-3,7.676019E-2,6.4272374E-1,8.871753E-3,7.289121E-3,1.7218115E-2,-1.0804792E-2,7.231297E-1,1.0777679E-2,-9.663472E-3],"split_indices":[2,42,14,0,0,0,42,59,0,0,0,0,42,0,0],"split_type":[0,0,0,0,0,0,0,0,0,0,0,0,0,0,0],"sum_hessian":[3.910349E1,2.7725565E1,1.1377923E1,2.5672089E1,2.0534766E0,1.1642387E0,1.0213684E1,2.4502928E1,1.1691594E0,1.6768847E0,8.536799E0,1.9786385E1,4.7165427E0,1.0679619E0,3.6485808E0],"tree_param":{"num_deleted":"0","num_feature":"60","num_nodes":"15","size_leaf_vector":"1"}},{"base_weights":[1.4462629E-1,-1.134457E0,1.3650544E0,-1.2954055E0,4.0337075E-3,-8.477717E-3,1.6222458E0,-1.0687868E-2,-4.6341694E-3,-4.2926576E-3,1.8056545E0,1.6525747E-2,-1.6831948E-1,-7.4331346E-3,5.2713486E-3],"categories":[],"categories_nodes":[],"categories_segments":[],"categories_sizes":[],"default_left":[0,0,0,0,0,0,0,0,0,0,0,0,0,0,0],"id":21,"left_children":[1,3,5,7,-1,-1,9,-1,-1,-1,11,-1,13,-1,-1],"loss_changes":[7.144992E1,6.396307E0,1.5871197E1,1.8253326E-2,0E0,0E0,9.2143135E0,0E0,0E0,0E0,1.0491798E1,0E0,2.355804E0,0E0,0E0],"parents":[2147483647,0,0,1,1,2,2,3,3,6,6,10,10,12,12],"right_children":[2,4,6,8,-1,-1,10,-1,-1,-1,12,-1,14,-1,-1],"split_conditions":[4.1367546E-1,9.048895E-1,2.6276267E-1,5.666679E-1,4.0337075E-3,-8.477717E-3,2.8051993E-1,-1.0687868E-2,-4.6341694E-3,-4.2926576E-3,5.848386E-1,1.6525747E-2,1E0,-7.4331346E-3,5.2713486E-3],"split_indices":[2,56,16,54,0,0,4,0,0,0,6,0,32,0,0],"split_type":[0,0,0,0,0,0,0,0,0,0,0,0,0,0,0],"sum_hessian":[4.427701E1,2.1644783E1,2.2632227E1,1.9852045E1,1.7927393E0,1.9459362E0,2.068629E1,1.8173151E1,1.6788945E0,1.5067496E0,1.917954E1,1.6916052E1,2.2634876E0,1.130949E0,1.1325386E0],"tree_param":{"num_deleted":"0","num_feature":"60","num_nodes":"15","size_leaf_vector":"1"}},{"base_weights":[-2.690845E-4,-9.6324605E-1,1.5064929E0,-1.2051414E0,-8.829889E-2,-5.0998447E-3,1.8030729E0,-1.0596537E-2,-5.3276587E-1,1.513857E-2,-8.668947E-1,1.998887E0,-3.0713337E-3,4.4214576E-3,-8.905813E-3,-9.473153E-3,1.5752543E-3,3.785887E-3,2.196115E0,4.358565E-3,1.8689254E-2],"categories":[],"categories_nodes":[],"categories_segments":[],"categories_sizes":[],"default_left":[0,0,0,0,0,0,0,0,0,0,0,0,0,0,0,0,0,0,0,0,0],"id":22,"left_children":[1,3,5,7,9,-1,11,-1,13,-1,15,17,-1,-1,-1,-1,-1,-1,19,-1,-1],"loss_changes":[6.3428925E1,5.56472E0,1.1700199E1,1.1436882E0,1.1386081E1,0E0,7.0717545E0,0E0,3.2318158E0,0E0,1.9438903E0,3.4463005E0,0E0,0E0,0E0,0E0,0E0,0E0,1.8735962E0,0E0,0E0],"parents":[2147483647,0,0,1,1,2,2,3,3,4,4,6,6,8,8,10,10,11,11,18,18],"right_children":[2,4,6,8,10,-1,12,-1,14,-1,16,18,-1,-1,-1,-1,-1,-1,20,-1,-1],"split_conditions":[4.991944E-1,6.8060464E-1,3.711585E-1,4.1839367E-1,4.7690448E-1,-5.0998447E-3,7.004324E-1,-1.0596537E-2,1.495799E-1,1.513857E-2,5.396448E-1,1E0,-3.0713337E-3,4.4214576E-3,-8.905813E-3,-9.473153E-3,1.5752543E-3,3.785887E-3,7.825085E-2,4.358565E-3,1.8689254E-2],"split_indices":[16,59,0,0,53,0,52,0,11,0,48,22,0,0,0,0,0,0,46,0,0],"split_type":[0,0,0,0,0,0,0,0,0,0,0,0,0,0,0,0,0,0,0,0,0],"sum_hessian":[4.2214554E1,2.5919712E1,1.6294842E1,2.008406E1,5.8356504E0,1.8754148E0,1.4419428E1,1.6437065E1,3.6469963E0,1.3439757E0,4.491675E0,1.3293674E1,1.1257533E0,1.2832466E0,2.3637495E0,3.3945115E0,1.0971634E0,1.8136691E0,1.1480005E1,1.1842141E0,1.0295792E1],"tree_param":{"num_deleted":"0","num_feature":"60","num_nodes":"21","size_leaf_vector":"1"}},{"base_weights":[-7.980534E-2,-9.262697E-1,1.7431846E0,-1.1704799E0,2.0488739E-1,-4.8514595E-3,2.1276488E0,-1.2839639E0,-1.8226239E-1,-5.6279033E-1,8.751647E-3,4.9713263E-3,1.806931E-2,-1.957374E-3,-1.0648937E-2,2.1871435E-3,-4.0684883E-3,1.6801999E-3,-7.998999E-3],"categories":[],"categories_nodes":[],"categories_segments":[],"categories_sizes":[],"default_left":[0,0,0,0,0,0,0,0,0,0,0,0,0,0,0,0,0,0,0],"id":23,"left_children":[1,3,5,7,9,-1,11,13,15,17,-1,-1,-1,-1,-1,-1,-1,-1,-1],"loss_changes":[6.0350765E1,7.5450954E0,1.2180862E1,2.2962017E0,4.1285486E0,0E0,1.085247E0,7.184868E-1,5.7178205E-1,1.2986326E0,0E0,0E0,0E0,0E0,0E0,0E0,0E0,0E0,0E0],"parents":[2147483647,0,0,1,1,2,2,3,3,4,4,6,6,7,7,8,8,9,9],"right_children":[2,4,6,8,10,-1,12,14,16,18,-1,-1,-1,-1,-1,-1,-1,-1,-1],"split_conditions":[5.81195E-1,8.14822E-1,1E0,4.9008328E-1,2.4867553E-1,-4.8514595E-3,4.1519085E-1,3.0935526E-2,5.064606E-1,4.9550825E-1,8.751647E-3,4.9713263E-3,1.806931E-2,-1.957374E-3,-1.0648937E-2,2.1871435E-3,-4.0684883E-3,1.6801999E-3,-7.998999E-3],"split_indices":[3,59,22,19,16,0,16,7,14,48,0,0,0,0,0,0,0,0,0],"split_type":[0,0,0,0,0,0,0,0,0,0,0,0,0,0,0,0,0,0,0],"sum_hessian":[3.7575397E1,2.5912453E1,1.1662944E1,2.1289997E1,4.622457E0,1.5791448E0,1.0083799E1,1.8895624E1,2.3943727E0,2.6282775E0,1.9941794E0,1.1515963E0,8.932203E0,1.0215487E0,1.7874075E1,1.0498825E0,1.34449E0,1.0902342E0,1.5380434E0],"tree_param":{"num_deleted":"0","num_feature":"60","num_nodes":"19","size_leaf_vector":"1"}},{"base_weights":[-2.0180625E-1,-1.0506636E0,1.4750627E0,-1.2473526E0,7.1459666E-2,-4.0009297E-2,2.0284615E0,-1.0614308E-2,-3.811152E-1,8.525892E-3,-8.356975E-3,-7.4620646E-1,8.752329E-3,5.424992E-3,1.785992E-2,2.0757562E-3,-6.8778894E-3,-2.0709024E-3,-7.2013973E-3],"categories":[],"categories_nodes":[],"categories_segments":[],"categories_sizes":[],"default_left":[0,0,0,0,0,0,0,0,0,0,0,0,0,0,0,0,0,0,0],"id":24,"left_children":[1,3,5,7,9,11,13,-1,15,-1,-1,17,-1,-1,-1,-1,-1,-1,-1],"loss_changes":[5.5011684E1,5.7069683E0,1.0982681E1,1.1197128E0,5.851437E0,3.9923818E0,1.4972572E0,0E0,1.0509479E0,0E0,0E0,5.3851604E-2,0E0,0E0,0E0,0E0,0E0,0E0,0E0],"parents":[2147483647,0,0,1,1,2,2,3,3,4,4,5,5,6,6,8,8,11,11],"right_children":[2,4,6,8,10,12,14,-1,16,-1,-1,18,-1,-1,-1,-1,-1,-1,-1],"split_conditions":[4.9636546E-1,5.0338936E-1,4.961822E-1,4.3386093E-1,4.6108648E-1,5.5643785E-1,1E0,-1.0614308E-2,2.4936622E-1,8.525892E-3,-8.356975E-3,5.262348E-1,8.752329E-3,5.424992E-3,1.785992E-2,2.0757562E-3,-6.8778894E-3,-2.0709024E-3,-7.2013973E-3],"split_indices":[17,3,0,2,16,2,20,0,14,0,0,17,0,0,0,0,0,0,0],"split_type":[0,0,0,0,0,0,0,0,0,0,0,0,0,0,0,0,0,0,0],"sum_hessian":[3.7080887E1,2.4804523E1,1.2276361E1,2.1033936E1,3.770588E0,3.470567E0,8.805795E0,1.8901846E1,2.132091E0,2.0120008E0,1.7585871E0,2.2968001E0,1.1737669E0,1.5815108E0,7.224284E0,1.0586321E0,1.0734589E0,1.0342197E0,1.2625804E0],"tree_param":{"num_deleted":"0","num_feature":"60","num_nodes":"19","size_leaf_vector":"1"}},{"base_weights":[4.932792E-2,-7.915541E-1,1.832052E0,-1.0508535E0,1.2006675E-2,-3.6377186E-4,1.6497228E-2,-1.1566262E0,5.5368724E-3,-1.2534992E0,-2.019196E-1,-1.8287698E-3,-1.2966092E0,-7.7784504E-3,5.2151727E-3,-1.808522E-3,-1.0756125E-2],"categories":[],"categories_nodes":[],"categories_segments":[],"categories_sizes":[],"default_left":[0,0,0,0,0,0,0,0,0,0,0,0,0,0,0,0,0],"id":25,"left_children":[1,3,5,7,-1,-1,-1,9,-1,11,13,-1,15,-1,-1,-1,-1],"loss_changes":[5.866239E1,1.7006907E1,5.4861526E0,5.090811E0,0E0,0E0,0E0,1.9599247E0,0E0,7.03743E-1,2.4719145E0,0E0,7.953224E-1,0E0,0E0,0E0,0E0],"parents":[2147483647,0,0,1,1,2,2,3,3,7,7,9,9,10,10,12,12],"right_children":[2,4,6,8,-1,-1,-1,10,-1,12,14,-1,16,-1,-1,-1,-1],"split_conditions":[6.2854457E-1,8.6068755E-1,5.0737244E-1,5.2181804E-1,1.2006675E-2,-3.6377186E-4,1.6497228E-2,5.7772374E-1,5.5368724E-3,3.6357626E-2,4.488043E-1,-1.8287698E-3,3.9992E-2,-7.7784504E-3,5.2151727E-3,-1.808522E-3,-1.0756125E-2],"split_indices":[19,41,16,13,0,0,0,17,0,6,41,0,0,0,0,0,0],"split_type":[0,0,0,0,0,0,0,0,0,0,0,0,0,0,0,0,0],"sum_hessian":[3.765723E1,2.5871197E1,1.1786034E1,2.3607113E1,2.2640839E0,1.3524482E0,1.0433585E1,2.2494331E1,1.1127807E0,2.020902E1,2.2853112E0,1.0065337E0,1.9202488E1,1.146635E0,1.138676E0,1.006213E0,1.8196274E1],"tree_param":{"num_deleted":"0","num_feature":"60","num_nodes":"17","size_leaf_vector":"1"}},{"base_weights":[-2.4637641E-1,-1.0610121E0,1.6064293E0,-1.1976193E0,9.4460985E-3,-3.8162596E-3,1.9071538E0,-1.3047523E0,5.068896E-3,6.6363392E-3,1.638293E-2,-3.6927946E-3,-1.0741762E-2],"categories":[],"categories_nodes":[],"categories_segments":[],"categories_sizes":[],"default_left":[0,0,0,0,0,0,0,0,0,0,0,0,0],"id":26,"left_children":[1,3,5,7,-1,-1,9,11,-1,-1,-1,-1,-1],"loss_changes":[5.750574E1,9.123095E0,7.99741E0,5.5614357E0,0E0,0E0,2.9571152E-1,3.0475235E-1,0E0,0E0,0E0,0E0,0E0],"parents":[2147483647,0,0,1,1,2,2,3,3,6,6,7,7],"right_children":[2,4,6,8,-1,-1,10,12,-1,-1,-1,-1,-1],"split_conditions":[5.31118E-1,1.2332032E0,2.057983E-1,6.1201835E-1,9.4460985E-3,-3.8162596E-3,5.2613363E-2,3.7933555E-2,5.068896E-3,6.6363392E-3,1.638293E-2,-3.6927946E-3,-1.0741762E-2],"split_indices":[17,40,4,2,0,0,9,19,0,0,0,0,0],"split_type":[0,0,0,0,0,0,0,0,0,0,0,0,0],"sum_hessian":[3.650244E1,2.5577236E1,1.0925206E1,2.4437422E1,1.1398158E0,1.3225672E0,9.602639E0,2.3290476E1,1.1469451E0,1.7063617E0,7.8962774E0,1.4288187E0,2.1861656E1],"tree_param":{"num_deleted":"0","num_feature":"60","num_nodes":"13","size_leaf_vector":"1"}},{"base_weights":[-1.12534076E-1,-1.1321479E0,1.2912081E0,-1.0598445E-2,3.846098E-1,-6.6666836E-3,1.6867044E0,-3.7723705E-3,9.376696E-3,-3.8180093E-3,1.9298475E0,-1.7761816E-4,1.7209638E-2],"categories":[],"categories_nodes":[],"categories_segments":[],"categories_sizes":[],"default_left":[0,0,0,0,0,0,0,0,0,0,0,0,0],"id":27,"left_children":[1,3,5,-1,7,-1,9,-1,-1,-1,11,-1,-1],"loss_changes":[5.784684E1,7.210415E0,1.53661785E1,0E0,2.5819716E0,0E0,8.376705E0,0E0,0E0,0E0,5.7745514E0,0E0,0E0],"parents":[2147483647,0,0,1,1,2,2,4,4,6,6,10,10],"right_children":[2,4,6,-1,8,-1,10,-1,-1,-1,12,-1,-1],"split_conditions":[5E-1,8.293744E-1,1E0,-1.0598445E-2,1E0,-6.6666836E-3,2.890674E-1,-3.7723705E-3,9.376696E-3,-3.8180093E-3,4.6093276E-1,-1.7761816E-4,1.7209638E-2],"split_indices":[1,40,24,0,34,0,4,0,0,0,17,0,0],"split_type":[0,0,0,0,0,0,0,0,0,0,0,0,0],"sum_hessian":[3.8900288E1,2.2617258E1,1.6283028E1,2.0152424E1,2.4648335E0,2.4251592E0,1.3857869E1,1.3250817E0,1.1397517E0,1.3268521E0,1.2531017E1,1.3449831E0,1.1186034E1],"tree_param":{"num_deleted":"0","num_feature":"60","num_nodes":"13","size_leaf_vector":"1"}},{"base_weights":[-9.395842E-2,-7.033427E-1,1.6909318E0,-9.510792E-1,1.3651469E-2,-2.7720607E-3,1.9600205E0,-1.1949227E0,-1.2783615E-1,4.000031E-3,1.704061E-2,-1.2671567E0,-4.09614E-1,-8.321927E-3,3.0577943E-1,-2.5120801E-3,-1.0528238E-2,2.302251E-3,-7.3030097E-3,-6.0721696E-3,1.1755682E0,2.5441328E-3,1.3501185E-2],"categories":[],"categories_nodes":[],"categories_segments":[],"categories_sizes":[],"default_left":[0,0,0,0,0,0,0,0,0,0,0,0,0,0,0,0,0,0,0,0,0,0,0],"id":28,"left_children":[1,3,5,7,-1,-1,9,11,13,-1,-1,15,17,-1,19,-1,-1,-1,-1,-1,21,-1,-1],"loss_changes":[4.4242786E1,1.927119E1,6.191662E0,5.4869766E0,0E0,0E0,1.5022888E0,8.267937E-1,3.0935726E0,0E0,0E0,5.8789825E-1,1.2197765E0,0E0,5.736392E0,0E0,0E0,0E0,0E0,0E0,1.0490904E0,0E0,0E0],"parents":[2147483647,0,0,1,1,2,2,3,3,6,6,7,7,8,8,11,11,12,12,14,14,20,20],"right_children":[2,4,6,8,-1,-1,10,12,14,-1,-1,16,18,-1,20,-1,-1,-1,-1,-1,22,-1,-1],"split_conditions":[6.726728E-1,1.1723902E0,5.032951E-1,4.6973568E-1,1.3651469E-2,-2.7720607E-3,1.424941E-1,7.649275E-1,1E0,4.000031E-3,1.704061E-2,4.1686542E-2,8.035831E-1,-8.321927E-3,2.3776956E-1,-2.5120801E-3,-1.0528238E-2,2.302251E-3,-7.3030097E-3,-6.0721696E-3,3.6260286E-1,2.5441328E-3,1.3501185E-2],"split_indices":[19,41,0,4,0,0,12,41,26,0,0,52,40,0,12,0,0,0,0,0,52,0,0],"split_type":[0,0,0,0,0,0,0,0,0,0,0,0,0,0,0,0,0,0,0,0,0,0,0],"sum_hessian":[3.9106068E1,2.949169E1,9.614379E0,2.7154112E1,2.3375793E0,1.0964779E0,8.517901E0,2.06878E1,6.4663105E0,1.1969167E0,7.3209844E0,1.8523771E1,2.1640294E0,1.7450883E0,4.7212224E0,1.1751007E0,1.7348671E1,1.0416666E0,1.1223629E0,2.1655974E0,2.555625E0,1.4100555E0,1.1455693E0],"tree_param":{"num_deleted":"0","num_feature":"60","num_nodes":"23","size_leaf_vector":"1"}},{"base_weights":[4.531679E-2,-1.1145483E0,1.2208303E0,-1.0563235E-2,7.4746865E-3,-8.760939E-3,1.5516399E0,-4.285376E-1,1.8146381E0,1.8014675E-3,-7.1857194E-3,-3.751726E-4,2.0393078E0,3.8760602E-3,1.7142508E-2],"categories":[],"categories_nodes":[],"categories_segments":[],"categories_sizes":[],"default_left":[0,0,0,0,0,0,0,0,0,0,0,0,0,0,0],"id":29,"left_children":[1,3,5,-1,-1,-1,7,9,11,-1,-1,-1,13,-1,-1],"loss_changes":[6.151954E1,1.0510939E1,1.8432453E1,0E0,0E0,0E0,1.0950291E1,1.0545886E0,7.481098E0,0E0,0E0,0E0,1.768074E0,0E0,0E0],"parents":[2147483647,0,0,1,1,2,2,6,6,7,7,8,8,12,12],"right_children":[2,4,6,-1,-1,-1,8,10,12,-1,-1,-1,14,-1,-1],"split_conditions":[4.0147856E-1,5.7155657E-1,2.9604456E-1,-1.0563235E-2,7.4746865E-3,-8.760939E-3,1E0,5.046363E-1,3.9300587E-2,1.8014675E-3,-7.1857194E-3,-3.751726E-4,4.3400094E-2,3.8760602E-3,1.7142508E-2],"split_indices":[2,45,4,0,0,0,37,2,10,0,0,0,50,0,0],"split_type":[0,0,0,0,0,0,0,0,0,0,0,0,0,0,0],"sum_hessian":[4.362244E1,2.1976948E1,2.1645494E1,2.0212786E1,1.7641625E0,2.4888217E0,1.9156672E1,2.1906512E0,1.696602E1,1.0791091E0,1.111542E0,1.8910327E0,1.5074988E1,1.2068671E0,1.3868121E1],"tree_param":{"num_deleted":"0","num_feature":"60","num_nodes":"15","size_leaf_vector":"1"}},{"base_weights":[-1.5353027E-1,-8.0692506E-1,1.8133713E0,-1.05211E0,8.176405E-1,3.1520645E-3,1.6050885E-2,-1.1490228E0,5.276931E-3,1.356626E-2,-4.3430524E-3,-1.0495513E-2,-5.147395E-1,3.186047E-1,-9.325927E-3,1.4503741E-2,-7.992721E-3],"categories":[],"categories_nodes":[],"categories_segments":[],"categories_sizes":[],"default_left":[0,0,0,0,0,0,0,0,0,0,0,0,0,0,0,0,0],"id":30,"left_children":[1,3,5,7,9,-1,-1,11,-1,-1,-1,-1,13,15,-1,-1,-1],"loss_changes":[5.121238E1,1.2511213E1,2.1339264E0,4.916662E0,5.861847E0,0E0,0E0,2.085247E0,0E0,0E0,0E0,0E0,3.728796E0,8.010712E0,0E0,0E0,0E0],"parents":[2147483647,0,0,1,1,2,2,3,3,4,4,7,7,12,12,13,13],"right_children":[2,4,6,8,10,-1,-1,12,-1,-1,-1,-1,14,16,-1,-1,-1],"split_conditions":[6.4465696E-1,6.823453E-1,1E0,6.7370105E-1,4.960123E-1,3.1520645E-3,1.6050885E-2,4.399683E-1,5.276931E-3,1.356626E-2,-4.3430524E-3,-1.0495513E-2,2.1043973E-1,4.2472416E-1,-9.325927E-3,1.4503741E-2,-7.992721E-3],"split_indices":[0,44,34,5,51,0,0,0,0,0,0,0,45,4,0,0,0],"split_type":[0,0,0,0,0,0,0,0,0,0,0,0,0,0,0,0,0],"sum_hessian":[3.8245E1,2.9040276E1,9.204722E0,2.546178E1,3.5784962E0,1.3747991E0,7.8299236E0,2.4330793E1,1.1309862E0,2.0624702E0,1.516026E0,1.8721003E1,5.6097903E0,2.6282818E0,2.9815085E0,1.0994864E0,1.5287956E0],"tree_param":{"num_deleted":"0","num_feature":"60","num_nodes":"17","size_leaf_vector":"1"}},{"base_weights":[2.1826627E-2,-1.1057534E0,1.2796656E0,-1.2237993E0,5.7897363E-3,-4.4304344E-1,1.5055995E0,-1.0481327E-2,2.3669389E-3,-7.18566E-3,1.5719588E-3,5.4555804E-1,1.8119817E0,-4.171788E-1,1.3126755E-2,2.423754E-3,1.9868308E0,4.1546384E-3,-8.490787E-3,6.869196E-3,2.1097221E0,5.6537874E-3,1.777494E-2],"categories":[],"categories_nodes":[],"categories_segments":[],"categories_sizes":[],"default_left":[0,0,0,0,0,0,0,0,0,0,0,0,0,0,0,0,0,0,0,0,0,0,0],"id":31,"left_children":[1,3,5,7,-1,9,11,-1,-1,-1,-1,13,15,17,-1,-1,19,-1,-1,-1,21,-1,-1],"loss_changes":[6.147037E1,5.6014347E0,8.471809E0,3.1459427E0,0E0,9.9229795E-1,4.634506E0,0E0,0E0,0E0,0E0,6.3074355E0,3.1189613E0,2.53828E0,0E0,0E0,3.0396652E-1,0E0,0E0,0E0,4.427948E-1,0E0,0E0],"parents":[2147483647,0,0,1,1,2,2,3,3,5,5,6,6,11,11,12,12,13,13,16,16,20,20],"right_children":[2,4,6,8,-1,10,12,-1,-1,-1,-1,14,16,18,-1,-1,20,-1,-1,-1,22,-1,-1],"split_conditions":[4.3874964E-1,7.6947117E-1,1E0,5.0228167E-1,5.7897363E-3,1.53393E-1,1.19709425E-1,-1.0481327E-2,2.3669389E-3,-7.18566E-3,1.5719588E-3,7.529233E-1,3.4183374E-1,6.975684E-2,1.3126755E-2,2.423754E-3,3.523682E-2,4.1546384E-3,-8.490787E-3,6.869196E-3,3.909133E-1,5.6537874E-3,1.777494E-2],"split_indices":[2,44,24,19,0,6,48,0,0,0,0,19,4,44,0,0,9,0,0,0,19,0,0],"split_type":[0,0,0,0,0,0,0,0,0,0,0,0,0,0,0,0,0,0,0,0,0,0,0],"sum_hessian":[4.18422E1,2.2111343E1,1.973086E1,2.1004343E1,1.1069999E0,2.204117E0,1.7526743E1,1.9972643E1,1.0316994E0,1.1104529E0,1.0936642E0,4.74473E0,1.2782013E1,2.772281E0,1.972449E0,1.5400839E0,1.1241929E1,1.1890142E0,1.5832667E0,1.6926999E0,9.54923E0,1.11214E0,8.437089E0],"tree_param":{"num_deleted":"0","num_feature":"60","num_nodes":"23","size_leaf_vector":"1"}},{"base_weights":[-1.4408569E-1,-1.079479E0,1.3227375E0,-1.2406336E0,9.240241E-3,-4.6215028E-1,1.6978294E0,-1.0563496E-2,-1.184397E-3,1.6128185E-3,-7.183817E-3,1.5316744E-2,2.8597494E-3],"categories":[],"categories_nodes":[],"categories_segments":[],"categories_sizes":[],"default_left":[0,0,0,0,0,0,0,0,0,0,0,0,0],"id":32,"left_children":[1,3,5,7,-1,9,11,-1,-1,-1,-1,-1,-1],"loss_changes":[5.0623253E1,9.164576E0,1.0229187E1,1.7119522E0,0E0,1.0296981E0,2.9905548E0,0E0,0E0,0E0,0E0,0E0,0E0],"parents":[2147483647,0,0,1,1,2,2,3,3,5,5,6,6],"right_children":[2,4,6,8,-1,10,12,-1,-1,-1,-1,-1,-1],"split_conditions":[4.9149334E-1,1.1143057E0,2.50957E-1,6.324555E-1,9.240241E-3,1.2515275E-1,4.3700328E-1,-1.0563496E-2,-1.184397E-3,1.6128185E-3,-7.183817E-3,1.5316744E-2,2.8597494E-3],"split_indices":[17,42,4,5,0,8,8,0,0,0,0,0,0],"split_type":[0,0,0,0,0,0,0,0,0,0,0,0,0],"sum_hessian":[3.5365387E1,2.1715477E1,1.364991E1,2.056584E1,1.1496361E0,2.3401506E0,1.1309759E1,1.902018E1,1.5456594E0,1.0872965E0,1.2528541E0,9.458771E0,1.8509881E0],"tree_param":{"num_deleted":"0","num_feature":"60","num_nodes":"13","size_leaf_vector":"1"}},{"base_weights":[1.7593864E-1,-6.4830995E-1,1.539398E0,-7.9977155E-1,8.0746515E-3,4.197246E-1,1.629761E-2,-9.450316E-1,8.413427E-3,-7.2052674E-3,8.262369E-1,1.5085706E-1,-1.1083765E0,1.2825403E0,-3.8023728E-3,-7.7461153E-3,1.215519E-2,-1.1720872E0,-3.621876E-1,1.3633951E-2,3.710939E-3,-1.2468011E0,-3.9381784E-1,2.5949962E-3,-6.9927163E-3,-3.3110988E-3,-1.0367283E-2,2.172308E-3,-7.0679844E-3],"categories":[],"categories_nodes":[],"categories_segments":[],"categories_sizes":[],"default_left":[0,0,0,0,0,0,0,0,0,0,0,0,0,0,0,0,0,0,0,0,0,0,0,0,0,0,0,0,0],"id":33,"left_children":[1,3,5,7,-1,9,-1,11,-1,-1,13,15,17,19,-1,-1,-1,21,23,-1,-1,25,27,-1,-1,-1,-1,-1,-1],"loss_changes":[5.2909725E1,8.000545E0,9.22945E0,8.116278E0,0E0,3.9906054E0,0E0,4.745266E0,0E0,0E0,3.5933769E0,7.24178E0,7.536564E-1,8.269582E-1,0E0,0E0,0E0,8.2032776E-1,1.2175614E0,0E0,0E0,3.4644127E-1,1.1204545E0,0E0,0E0,0E0,0E0,0E0,0E0],"parents":[2147483647,0,0,1,1,2,2,3,3,5,5,7,7,10,10,11,11,12,12,13,13,17,17,18,18,21,21,22,22],"right_children":[2,4,6,8,-1,10,-1,12,-1,-1,14,16,18,20,-1,-1,-1,22,24,-1,-1,26,28,-1,-1,-1,-1,-1,-1],"split_conditions":[5.419955E-1,9.866093E-1,6.994541E-1,6.721125E-1,8.0746515E-3,2.021794E-1,1.629761E-2,6.706075E-2,8.413427E-3,-7.2052674E-3,7.0017266E-1,2.6660508E-1,7.429648E-1,2.2950254E-1,-3.8023728E-3,-7.7461153E-3,1.215519E-2,5.207958E-1,4.0758935E-1,1.3633951E-2,3.710939E-3,3.6357626E-2,5.498502E-1,2.5949962E-3,-6.9927163E-3,-3.3110988E-3,-1.0367283E-2,2.172308E-3,-7.0679844E-3],"split_indices":[0,41,17,3,0,14,0,45,0,0,3,15,41,12,0,0,0,4,4,0,0,6,4,0,0,0,0,0,0],"split_type":[0,0,0,0,0,0,0,0,0,0,0,0,0,0,0,0,0,0,0,0,0,0,0,0,0,0,0,0,0],"sum_hessian":[4.566382E1,2.8704527E1,1.695929E1,2.6656975E1,2.0475516E0,5.6449246E0,1.1314365E1,2.5058155E1,1.5988191E0,1.1142086E0,4.530716E0,3.2579255E0,2.180023E1,3.3627257E0,1.1679903E0,1.912966E0,1.3449597E0,1.9690918E1,2.1093116E0,1.6840005E0,1.6787251E0,1.7554201E1,2.136718E0,1.0183086E0,1.091003E0,1.3710735E0,1.6183126E1,1.0475122E0,1.089206E0],"tree_param":{"num_deleted":"0","num_feature":"60","num_nodes":"29","size_leaf_vector":"1"}},{"base_weights":[1.20899305E-1,-6.5464455E-1,1.6721504E0,-1.0853862E0,7.7514786E-1,-1.9640673E-3,1.6028197E-2,3.994089E-3,-1.2407842E0,-7.99188E-3,1.5887125E0,-2.6544705E-3,-1.0350523E-2,5.243758E-4,1.7808726E-2],"categories":[],"categories_nodes":[],"categories_segments":[],"categories_sizes":[],"default_left":[0,0,0,0,0,0,0,0,0,0,0,0,0,0,0],"id":34,"left_children":[1,3,5,7,9,-1,-1,-1,11,-1,13,-1,-1,-1,-1],"loss_changes":[4.134406E1,1.4793119E1,7.637312E0,4.8931847E0,9.505995E0,0E0,0E0,0E0,4.7787476E-1,0E0,4.006398E0,0E0,0E0,0E0,0E0],"parents":[2147483647,0,0,1,1,2,2,3,3,4,4,8,8,10,10],"right_children":[2,4,6,8,10,-1,-1,-1,12,-1,14,-1,-1,-1,-1],"split_conditions":[5.281777E-1,5.663855E-1,1E0,5.5849735E-2,9.109078E-2,-1.9640673E-3,1.6028197E-2,3.994089E-3,5.794668E-2,-7.99188E-3,1E0,-2.6544705E-3,-1.0350523E-2,5.243758E-4,1.7808726E-2],"split_indices":[16,41,33,56,12,0,0,0,15,0,37,0,0,0,0],"split_type":[0,0,0,0,0,0,0,0,0,0,0,0,0,0,0],"sum_hessian":[3.2933235E1,2.2245266E1,1.0687969E1,1.7233986E1,5.01128E0,1.6034071E0,9.084562E0,1.390901E0,1.5843085E1,1.5217911E0,3.489489E0,1.1733868E0,1.4669699E1,1.273438E0,2.216051E0],"tree_param":{"num_deleted":"0","num_feature":"60","num_nodes":"15","size_leaf_vector":"1"}},{"base_weights":[2.454709E-2,-1.043193E0,1.4304547E0,-1.1971893E0,2.0205602E-1,4.0037534E-1,1.6300326E-2,-1.0304683E-2,-1.9702509E-4,-7.0310617E-3,1.02571165E-2,1.1843386E0,-6.7157847E-1,1.2221776E-2,9.476571E-4,8.0607657E-4,-8.6082565E-3],"categories":[],"categories_nodes":[],"categories_segments":[],"categories_sizes":[],"default_left":[0,0,0,0,0,0,0,0,0,0,0,0,0,0,0,0,0],"id":35,"left_children":[1,3,5,7,9,11,-1,-1,-1,-1,-1,13,15,-1,-1,-1,-1],"loss_changes":[5.854206E1,4.4337482E0,9.911461E0,2.0910606E0,4.4435997E0,6.624921E0,0E0,0E0,0E0,0E0,0E0,1.4800787E0,1.1773679E0,0E0,0E0,0E0,0E0],"parents":[2147483647,0,0,1,1,2,2,3,3,4,4,5,5,11,11,12,12],"right_children":[2,4,6,8,10,12,-1,-1,-1,-1,-1,14,16,-1,-1,-1,-1],"split_conditions":[4.8698074E-1,7.8479725E-1,6.636275E-1,4.9115124E-1,2.1560365E-1,5.699405E-1,1.6300326E-2,-1.0304683E-2,-1.9702509E-4,-7.0310617E-3,1.02571165E-2,5.9605086E-1,1.8288681E-1,1.2221776E-2,9.476571E-4,8.0607657E-4,-8.6082565E-3],"split_indices":[1,41,17,14,6,1,0,0,0,0,0,17,6,0,0,0,0],"split_type":[0,0,0,0,0,0,0,0,0,0,0,0,0,0,0,0,0],"sum_hessian":[3.7502747E1,2.142481E1,1.6077936E1,1.9092627E1,2.3321838E0,6.423473E0,9.654464E0,1.7650482E1,1.4421444E0,1.2354589E0,1.096725E0,3.664699E0,2.7587738E0,2.525966E0,1.1387333E0,1.1417199E0,1.6170539E0],"tree_param":{"num_deleted":"0","num_feature":"60","num_nodes":"17","size_leaf_vector":"1"}},{"base_weights":[-6.1745584E-2,-7.1754533E-1,1.2937838E0,-8.91277E-1,1.1396907E-2,-5.6431126E-3,1.6491885E0,-1.0259267E-2,-2.8496757E-1,-1.79202E-3,1.9254686E0,5.339102E-1,-7.5360316E-1,5.5365814E-3,1.6551962E-2,-2.3343088E-3,1.0202332E-2,-8.867268E-2,-9.554605E-3,-6.902092E-3,4.768069E-3],"categories":[],"categories_nodes":[],"categories_segments":[],"categories_sizes":[],"default_left":[0,0,0,0,0,0,0,0,0,0,0,0,0,0,0,0,0,0,0,0,0],"id":36,"left_children":[1,3,5,7,-1,-1,9,-1,11,-1,13,15,17,-1,-1,-1,-1,19,-1,-1,-1],"loss_changes":[3.689648E1,1.1345641E1,1.0496529E1,5.9613037E0,0E0,0E0,6.3916264E0,0E0,4.628541E0,0E0,7.4879074E-1,3.0600307E0,2.1131625E0,0E0,0E0,0E0,0E0,2.3957143E0,0E0,0E0,0E0],"parents":[2147483647,0,0,1,1,2,2,3,3,6,6,8,8,10,10,11,11,12,12,17,17],"right_children":[2,4,6,8,-1,-1,10,-1,12,-1,14,16,18,-1,-1,-1,-1,20,-1,-1,-1],"split_conditions":[5.81195E-1,9.611316E-1,1E0,1E0,1.1396907E-2,-5.6431126E-3,5.2613363E-2,-1.0259267E-2,1E0,-1.79202E-3,1.4424875E-1,2.4275698E-1,1.2678969E-1,5.5365814E-3,1.6551962E-2,-2.3343088E-3,1.0202332E-2,2.6276267E-1,-9.554605E-3,-6.902092E-3,4.768069E-3],"split_indices":[3,56,36,26,0,0,9,0,29,0,12,5,9,0,0,0,0,16,0,0,0],"split_type":[0,0,0,0,0,0,0,0,0,0,0,0,0,0,0,0,0,0,0,0,0],"sum_hessian":[3.997218E1,2.717703E1,1.2795151E1,2.5543383E1,1.633648E0,1.8198459E0,1.0975305E1,1.5018556E1,1.0524827E1,1.4289405E0,9.546364E0,3.7928557E0,6.7319717E0,1.4502319E0,8.096132E0,2.0095634E0,1.7832924E0,3.0425258E0,3.6894457E0,1.3364685E0,1.7060573E0],"tree_param":{"num_deleted":"0","num_feature":"60","num_nodes":"21","size_leaf_vector":"1"}},{"base_weights":[5.527125E-2,-9.397738E-1,1.3762156E0,-1.1741976E0,2.717634E-1,2.4744825E-1,1.7793795E0,-1.0210113E-2,-1.442655E-3,9.0093774E-1,-6.869311E-3,-5.3256106E-1,8.93539E-3,9.5661205E-1,1.6602764E-2,-2.3770826E-3,1.349589E-2,-7.6270527E-3,1.1996431E-3,1.3302065E-2,-4.579145E-3],"categories":[],"categories_nodes":[],"categories_segments":[],"categories_sizes":[],"default_left":[0,0,0,0,0,0,0,0,0,0,0,0,0,0,0,0,0,0,0,0,0],"id":37,"left_children":[1,3,5,7,9,11,13,-1,-1,15,-1,17,-1,19,-1,-1,-1,-1,-1,-1,-1],"loss_changes":[4.8485275E1,6.2217846E0,6.876299E0,1.6320152E0,3.442219E0,3.8633695E0,1.3228645E0,0E0,0E0,3.1551714E0,0E0,1.0159352E0,0E0,5.5143223E0,0E0,0E0,0E0,0E0,0E0,0E0,0E0],"parents":[2147483647,0,0,1,1,2,2,3,3,4,4,5,5,6,6,9,9,11,11,13,13],"right_children":[2,4,6,8,10,12,14,-1,-1,16,-1,18,-1,20,-1,-1,-1,-1,-1,-1,-1],"split_conditions":[4.8507124E-1,6.504431E-1,5.881717E-1,4.6108648E-1,5.178986E-1,1.3898386E-1,1.3934119E-1,-1.0210113E-2,-1.442655E-3,1E0,-6.869311E-3,1E0,8.93539E-3,2.6248014E-1,1.6602764E-2,-2.3770826E-3,1.349589E-2,-7.6270527E-3,1.1996431E-3,1.3302065E-2,-4.579145E-3],"split_indices":[1,58,3,16,52,10,46,0,0,27,0,28,0,7,0,0,0,0,0,0,0],"split_type":[0,0,0,0,0,0,0,0,0,0,0,0,0,0,0,0,0,0,0,0,0],"sum_hessian":[3.539981E1,2.0314022E1,1.5085791E1,1.7040016E1,3.274006E0,4.2887077E0,1.0797082E1,1.5259783E1,1.7802329E0,2.2011476E0,1.0728585E0,2.413852E0,1.874856E0,3.6961462E0,7.1009364E0,1.0568372E0,1.1443104E0,1.3090696E0,1.1047823E0,2.4835508E0,1.2125953E0],"tree_param":{"num_deleted":"0","num_feature":"60","num_nodes":"21","size_leaf_vector":"1"}},{"base_weights":[1.714093E-1,-1.1031091E0,1.4237033E0,1.6235951E-3,-1.19219E0,-2.4287488E-1,1.7583213E0,-1.0308314E-2,2.0283822E-3,-8.60616E-3,7.3327445E-3,-7.8379863E-4,1.942901E0,4.111824E-3,1.6283685E-2],"categories":[],"categories_nodes":[],"categories_segments":[],"categories_sizes":[],"default_left":[0,0,0,0,0,0,0,0,0,0,0,0,0,0,0],"id":38,"left_children":[1,3,5,-1,7,9,11,-1,-1,-1,-1,-1,13,-1,-1],"loss_changes":[6.43812E1,2.513958E0,1.1641605E1,0E0,2.874527E0,4.65408E0,5.96677E0,0E0,0E0,0E0,0E0,0E0,1.2649193E0,0E0,0E0],"parents":[2147483647,0,0,1,1,2,2,4,4,5,5,6,6,12,12],"right_children":[2,4,6,-1,8,10,12,-1,-1,-1,-1,-1,14,-1,-1],"split_conditions":[4.3874964E-1,1.561514E-2,1E0,1.6235951E-3,4.961822E-1,7.7263767E-1,4.0713426E-1,-1.0308314E-2,2.0283822E-3,-8.60616E-3,7.3327445E-3,-7.8379863E-4,5.1866406E-1,4.111824E-3,1.6283685E-2],"split_indices":[2,12,22,0,0,58,0,0,0,0,0,0,19,0,0],"split_type":[0,0,0,0,0,0,0,0,0,0,0,0,0,0,0],"sum_hessian":[3.88493E1,1.9298082E1,1.9551218E1,1.1709859E0,1.8127096E1,3.3035226E0,1.6247696E1,1.7070974E1,1.0561221E0,1.9540124E0,1.3495102E0,1.5012918E0,1.4746404E1,1.196084E0,1.355032E1],"tree_param":{"num_deleted":"0","num_feature":"60","num_nodes":"15","size_leaf_vector":"1"}},{"base_weights":[-1.766308E-1,-8.488994E-1,1.0736996E0,4.850677E-3,-9.684622E-1,-5.7702004E-3,1.3938328E0,-1.2378004E0,-2.7769186E-2,-2.0735197E-1,1.7813064E0,-1.02222795E-2,-2.6036766E-3,1.3452852E0,-9.470194E-1,-7.406283E-3,5.1658456E-3,5.4391706E-3,1.5225007E-2,1.8864942E-3,1.5178338E-2,-8.793205E-3,-2.2085346E-3],"categories":[],"categories_nodes":[],"categories_segments":[],"categories_sizes":[],"default_left":[0,0,0,0,0,0,0,0,0,0,0,0,0,0,0,0,0,0,0,0,0,0,0],"id":39,"left_children":[1,3,5,-1,7,-1,9,11,13,15,17,-1,-1,19,21,-1,-1,-1,-1,-1,-1,-1,-1],"loss_changes":[3.5231735E1,5.1640224E0,9.202774E0,0E0,6.403618E0,0E0,8.176996E0,4.0712738E-1,9.053171E0,2.3806443E0,4.1563416E-1,0E0,0E0,1.4298644E0,2.0959854E-1,0E0,0E0,0E0,0E0,0E0,0E0,0E0,0E0],"parents":[2147483647,0,0,1,1,2,2,4,4,6,6,7,7,8,8,9,9,10,10,13,13,14,14],"right_children":[2,4,6,-1,8,-1,10,12,14,16,18,-1,-1,20,22,-1,-1,-1,-1,-1,-1,-1,-1],"split_conditions":[4.9975604E-1,4.8795596E-2,1E0,4.850677E-3,4.5475844E-1,-5.7702004E-3,4.4852775E-1,5.1994693E-1,4.8318687E-1,2.9460272E-1,6.258444E-2,-1.02222795E-2,-2.6036766E-3,1E0,1.9900744E-1,-7.406283E-3,5.1658456E-3,5.4391706E-3,1.5225007E-2,1.8864942E-3,1.5178338E-2,-8.793205E-3,-2.2085346E-3],"split_indices":[19,45,24,0,52,0,3,3,52,45,9,0,0,21,7,0,0,0,0,0,0,0,0],"split_type":[0,0,0,0,0,0,0,0,0,0,0,0,0,0,0,0,0,0,0,0,0,0,0],"sum_hessian":[4.0351437E1,2.6398485E1,1.3952951E1,1.7724178E0,2.4626068E1,1.9696143E0,1.1983337E1,1.8960453E1,5.665614E0,2.4027848E0,9.580552E0,1.7876572E1,1.0838814E0,2.1326096E0,3.5330043E0,1.269632E0,1.133153E0,1.4456673E0,8.134885E0,1.0641592E0,1.0684505E0,2.4898198E0,1.0431846E0],"tree_param":{"num_deleted":"0","num_feature":"60","num_nodes":"23","size_leaf_vector":"1"}},{"base_weights":[-2.8403167E-2,-1.0541021E0,1.1868975E0,-1.1666899E0,4.902406E-3,-1.6079631E-1,1.5190423E0,-1.2472545E0,3.8182817E-4,-8.440987E-3,5.020406E-3,3.3478284E-1,1.4903471E-2,-1.0296057E-2,-3.3508076E-3,-5.6825983E-3,1.1360572E-2],"categories":[],"categories_nodes":[],"categories_segments":[],"categories_sizes":[],"default_left":[0,0,0,0,0,0,0,0,0,0,0,0,0,0,0,0,0],"id":40,"left_children":[1,3,5,7,-1,9,11,13,-1,-1,-1,15,-1,-1,-1,-1,-1],"loss_changes":[5.144609E1,4.73456E0,8.642502E0,2.1201591E0,0E0,3.609223E0,5.7360764E0,2.517357E-1,0E0,0E0,0E0,5.681822E0,0E0,0E0,0E0,0E0,0E0],"parents":[2147483647,0,0,1,1,2,2,3,3,5,5,6,6,7,7,11,11],"right_children":[2,4,6,8,-1,10,12,14,-1,-1,-1,16,-1,-1,-1,-1,-1],"split_conditions":[4.8015758E-1,1.0803225E0,1E0,5.0192434E-1,4.902406E-3,4.666436E-1,4.6093276E-1,8.449934E-1,3.8182817E-4,-8.440987E-3,5.020406E-3,4.4297278E-1,1.4903471E-2,-1.0296057E-2,-3.3508076E-3,-5.6825983E-3,1.1360572E-2],"split_indices":[2,57,39,1,0,49,17,41,0,0,0,45,0,0,0,0,0],"split_type":[0,0,0,0,0,0,0,0,0,0,0,0,0,0,0,0,0],"sum_hessian":[3.97686E1,2.1620577E1,1.8148024E1,2.0463476E1,1.157102E0,3.6648061E0,1.4483218E1,1.9171366E1,1.29211E0,1.5980854E0,2.0667205E0,3.5923553E0,1.0890862E1,1.7897327E1,1.2740382E0,1.96206E0,1.6302953E0],"tree_param":{"num_deleted":"0","num_feature":"60","num_nodes":"17","size_leaf_vector":"1"}},{"base_weights":[1.7511304E-1,-9.028149E-1,1.3554925E0,-1.0888568E0,5.7266345E-3,-6.5432037E-3,1.7484745E0,-2.104943E-3,-1.1364255E0,1.4429231E-3,1.8720965E0,-1.1831769E0,-2.3732511E-3,4.925353E-3,1.5938671E-2,-4.0306393E-3,-9.949143E-3],"categories":[],"categories_nodes":[],"categories_segments":[],"categories_sizes":[],"default_left":[0,0,0,0,0,0,0,0,0,0,0,0,0,0,0,0,0],"id":41,"left_children":[1,3,5,7,-1,-1,9,-1,11,-1,13,15,-1,-1,-1,-1,-1],"loss_changes":[4.3474327E1,5.984618E0,1.4964178E1,4.19178E-1,0E0,0E0,2.4632187E0,0E0,3.3597946E-1,0E0,1.030201E0,1.1364746E-1,0E0,0E0,0E0,0E0,0E0],"parents":[2147483647,0,0,1,1,2,2,3,3,6,6,8,8,10,10,11,11],"right_children":[2,4,6,8,-1,-1,10,-1,12,-1,14,16,-1,-1,-1,-1,-1],"split_conditions":[4.6324104E-1,7.719862E-1,1E0,1.9490141E-2,5.7266345E-3,-6.5432037E-3,2.965401E-1,-2.104943E-3,4.9008328E-1,1.4429231E-3,4.641191E-2,4.7298595E-2,-2.3732511E-3,4.925353E-3,1.5938671E-2,-4.0306393E-3,-9.949143E-3],"split_indices":[1,57,37,3,0,0,19,0,19,0,47,9,0,0,0,0,0],"split_type":[0,0,0,0,0,0,0,0,0,0,0,0,0,0,0,0,0],"sum_hessian":[3.26968E1,1.7182251E1,1.5514549E1,1.5631135E1,1.5511162E0,2.251522E0,1.3263027E1,1.1182399E0,1.4512896E1,1.1039536E0,1.2159074E1,1.3457023E1,1.0558726E0,1.4628861E0,1.0696188E1,1.6719278E0,1.1785095E1],"tree_param":{"num_deleted":"0","num_feature":"60","num_nodes":"17","size_leaf_vector":"1"}},{"base_weights":[-4.4248966E-3,-1.0406401E0,1.2903221E0,-1.2312115E0,-2.4771075E-1,-2.3998065E-1,1.6570559E0,-1.0241901E-2,-2.0472524E-3,-8.4302765E-1,6.7489E-3,-8.776511E-3,9.452962E-3,-4.2228747E-4,1.8183359E0,-8.053026E-3,-1.8152634E-3,1.9877006E-3,1.9938911E0,5.7669226E-3,1.6599054E-2],"categories":[],"categories_nodes":[],"categories_segments":[],"categories_sizes":[],"default_left":[0,0,0,0,0,0,0,0,0,0,0,0,0,0,0,0,0,0,0,0,0],"id":42,"left_children":[1,3,5,7,9,11,13,-1,-1,15,-1,-1,-1,-1,17,-1,-1,-1,19,-1,-1],"loss_changes":[5.310053E1,3.0930424E0,1.01732025E1,5.926857E-1,3.9107249E0,5.915056E0,4.0123672E0,0E0,0E0,2.0554495E-1,0E0,0E0,0E0,0E0,3.2328796E0,0E0,0E0,0E0,8.002472E-2,0E0,0E0],"parents":[2147483647,0,0,1,1,2,2,3,3,4,4,5,5,6,6,9,9,14,14,18,18],"right_children":[2,4,6,8,10,12,14,-1,-1,16,-1,-1,-1,-1,18,-1,-1,-1,20,-1,-1],"split_conditions":[4.947665E-1,3.5332814E-1,1E0,5.2248716E-1,2.8415775E-1,4.6358988E-1,1.9553656E-2,-1.0241901E-2,-2.0472524E-3,1.9009031E-1,6.7489E-3,-8.776511E-3,9.452962E-3,-4.2228747E-4,2.9105468E-2,-8.053026E-3,-1.8152634E-3,1.9877006E-3,3.9816618E-1,5.7669226E-3,1.6599054E-2],"split_indices":[2,2,20,5,9,49,9,0,0,9,0,0,0,0,8,0,0,0,16,0,0],"split_type":[0,0,0,0,0,0,0,0,0,0,0,0,0,0,0,0,0,0,0,0,0],"sum_hessian":[3.8078293E1,2.1232578E1,1.6845716E1,1.6784147E1,4.4484315E0,3.3067136E0,1.3539002E1,1.5757567E1,1.0265801E0,2.9887218E0,1.4597096E0,2.1697743E0,1.1369394E0,1.2104732E0,1.2328529E1,1.9860058E0,1.002716E0,1.4222009E0,1.0906328E1,1.0965163E0,9.809812E0],"tree_param":{"num_deleted":"0","num_feature":"60","num_nodes":"21","size_leaf_vector":"1"}},{"base_weights":[1.4116189E-1,-9.329207E-1,1.350557E0,-1.1548615E0,1.8520115E-1,-1.4200185E-1,1.7012082E0,-1.9288071E-3,-1.2106656E0,-6.6828425E-3,7.062323E-3,-7.858127E-3,8.690133E-3,-2.5811843E-3,1.5162302E-2,-1.0139151E-2,-2.1420142E-3],"categories":[],"categories_nodes":[],"categories_segments":[],"categories_sizes":[],"default_left":[0,0,0,0,0,0,0,0,0,0,0,0,0,0,0,0,0],"id":43,"left_children":[1,3,5,7,9,11,13,-1,15,-1,-1,-1,-1,-1,-1,-1,-1],"loss_changes":[4.6050922E1,4.834278E0,8.889769E0,5.876999E-1,3.2339826E0,4.781681E0,5.773773E0,0E0,5.3294945E-1,0E0,0E0,0E0,0E0,0E0,0E0,0E0,0E0],"parents":[2147483647,0,0,1,1,2,2,3,3,4,4,5,5,6,6,8,8],"right_children":[2,4,6,8,10,12,14,-1,16,-1,-1,-1,-1,-1,-1,-1,-1],"split_conditions":[4.270333E-1,4.5082104E-1,3.999528E-1,3.2023225E-2,1E0,4.8559144E-1,1E0,-1.9288071E-3,4.9349546E-1,-6.6828425E-3,7.062323E-3,-7.858127E-3,8.690133E-3,-2.5811843E-3,1.5162302E-2,-1.0139151E-2,-2.1420142E-3],"split_indices":[18,13,0,51,28,43,24,0,48,0,0,0,0,0,0,0,0],"split_type":[0,0,0,0,0,0,0,0,0,0,0,0,0,0,0,0,0],"sum_hessian":[3.3973854E1,1.8084333E1,1.5889523E1,1.5068649E1,3.0156837E0,3.1077132E0,1.278181E1,1.0969584E0,1.397169E1,1.164269E0,1.8514147E0,1.9345152E0,1.1731979E0,1.07499E0,1.170682E1,1.2935372E1,1.0363184E0],"tree_param":{"num_deleted":"0","num_feature":"60","num_nodes":"17","size_leaf_vector":"1"}},{"base_weights":[1.358732E-1,-1.1389256E0,1.1584679E0,-9.984596E-3,-1.6429627E-3,-4.999752E-1,1.434526E0,-7.2357063E-3,1.4090326E-3,-9.092643E-4,1.6012074E0,8.9764947E-1,1.5082109E-2,-1.55769E-3,1.2810252E-2],"categories":[],"categories_nodes":[],"categories_segments":[],"categories_sizes":[],"default_left":[0,0,0,0,0,0,0,0,0,0,0,0,0,0,0],"id":44,"left_children":[1,3,5,-1,-1,7,9,-1,-1,-1,11,13,-1,-1,-1],"loss_changes":[4.360707E1,1.3290577E0,9.013346E0,0E0,0E0,9.940296E-1,4.2819633E0,0E0,0E0,0E0,1.6391258E0,4.551411E0,0E0,0E0,0E0],"parents":[2147483647,0,0,1,1,2,2,5,5,6,6,10,10,11,11],"right_children":[2,4,6,-1,-1,8,10,-1,-1,-1,12,14,-1,-1,-1],"split_conditions":[3.5895833E-1,4.6911192E-1,3.6106643E-1,-9.984596E-3,-1.6429627E-3,4.5432332E-1,1E0,-7.2357063E-3,1.4090326E-3,-9.092643E-4,1.05237745E-1,6.4020157E-1,1.5082109E-2,-1.55769E-3,1.2810252E-2],"split_indices":[2,48,4,0,0,15,21,0,0,0,9,16,0,0,0],"split_type":[0,0,0,0,0,0,0,0,0,0,0,0,0,0,0],"sum_hessian":[3.1942108E1,1.4179802E1,1.7762306E1,1.2469251E1,1.7105511E0,2.447913E0,1.5314394E1,1.3731127E0,1.0748001E0,1.5117168E0,1.3802677E1,4.867302E0,8.935375E0,2.1194296E0,2.7478726E0],"tree_param":{"num_deleted":"0","num_feature":"60","num_nodes":"15","size_leaf_vector":"1"}},{"base_weights":[1.1287926E-2,-9.699337E-1,1.1027975E0,-1.1395714E0,4.4236192E-3,-2.8307522E-2,1.6941673E0,-1.2279825E0,-4.2802435E-1,-7.771654E-1,1.0906814E0,3.40782E-3,1.44375935E-2,-3.4895204E-3,-1.0284051E-2,-6.8412963E-3,2.1854758E-3,-8.8651255E-3,1.4180364E-3,1.574339E-3,1.1964954E-2],"categories":[],"categories_nodes":[],"categories_segments":[],"categories_sizes":[],"default_left":[0,0,0,0,0,0,0,0,0,0,0,0,0,0,0,0,0,0,0,0,0],"id":45,"left_children":[1,3,5,7,-1,9,11,13,15,17,19,-1,-1,-1,-1,-1,-1,-1,-1,-1,-1],"loss_changes":[4.1629704E1,5.7616844E0,1.2341749E1,7.80077E-1,0E0,6.546589E0,1.1185913E0,3.1741333E-1,1.1379373E0,1.6205475E0,9.1586924E-1,0E0,0E0,0E0,0E0,0E0,0E0,0E0,0E0,0E0,0E0],"parents":[2147483647,0,0,1,1,2,2,3,3,5,5,6,6,7,7,8,8,9,9,10,10],"right_children":[2,4,6,8,-1,10,12,14,16,18,20,-1,-1,-1,-1,-1,-1,-1,-1,-1,-1],"split_conditions":[3.7649417E-1,5E-1,5.1825714E-1,4.4239235E-1,4.4236192E-3,5.059291E-1,7.3645E-2,2.4463002E-2,2.5984767E-1,4.5426252E-1,1.8929628E-1,3.40782E-3,1.44375935E-2,-3.4895204E-3,-1.0284051E-2,-6.8412963E-3,2.1854758E-3,-8.8651255E-3,1.4180364E-3,1.574339E-3,1.1964954E-2],"split_indices":[4,7,17,11,0,42,11,18,0,17,7,0,0,0,0,0,0,0,0,0,0],"split_type":[0,0,0,0,0,0,0,0,0,0,0,0,0,0,0,0,0,0,0,0,0],"sum_hessian":[3.7370434E1,1.972343E1,1.7647003E1,1.7916452E1,1.8069777E0,6.3038373E0,1.1343166E1,1.5452149E1,2.4643035E0,3.9137533E0,2.3900838E0,1.2012306E0,1.0141936E1,1.4825484E0,1.3969601E1,1.4291058E0,1.0351977E0,2.8163118E0,1.0974414E0,1.0926267E0,1.2974572E0],"tree_param":{"num_deleted":"0","num_feature":"60","num_nodes":"21","size_leaf_vector":"1"}},{"base_weights":[-1.352564E-1,-1.1639539E0,6.8774843E-1,-1.0134921E-2,-2.599662E-4,-9.431798E-1,1.0401312E0,-8.689869E-3,-2.356626E-3,3.236102E-1,1.5720676E0,-5.135451E-1,1.2969227E0,2.1204087E-3,1.4551715E-2,-8.320923E-3,1.2407257E-1,1.7951492E-3,1.5062422E-2,4.9757767E-3,-3.3721533E-3],"categories":[],"categories_nodes":[],"categories_segments":[],"categories_sizes":[],"default_left":[0,0,0,0,0,0,0,0,0,0,0,0,0,0,0,0,0,0,0,0,0],"id":46,"left_children":[1,3,5,-1,-1,7,9,-1,-1,11,13,15,17,-1,-1,-1,19,-1,-1,-1,-1],"loss_changes":[3.2667156E1,1.9617481E0,1.3099638E1,0E0,0E0,1.5116453E-1,6.497141E0,0E0,0E0,7.534623E0,2.9181576E0,1.8356133E0,2.325492E0,0E0,0E0,0E0,1.0149835E0,0E0,0E0,0E0,0E0],"parents":[2147483647,0,0,1,1,2,2,5,5,6,6,9,9,10,10,11,11,12,12,16,16],"right_children":[2,4,6,-1,-1,8,10,-1,-1,12,14,16,18,-1,-1,-1,20,-1,-1,-1,-1],"split_conditions":[3.2522193E-1,4.16906E-1,1E0,-1.0134921E-2,-2.599662E-4,4.9658242E-1,5.589842E-1,-8.689869E-3,-2.356626E-3,6.033078E-1,7.394317E-2,3.100519E-1,1.4483325E-1,2.1204087E-3,1.4551715E-2,-8.320923E-3,2.8430492E-1,1.7951492E-3,1.5062422E-2,4.9757767E-3,-3.3721533E-3],"split_indices":[4,13,38,0,0,7,2,0,0,41,45,13,9,0,0,0,46,0,0,0,0],"split_type":[0,0,0,0,0,0,0,0,0,0,0,0,0,0,0,0,0,0,0,0,0],"sum_hessian":[3.71261E1,1.6362915E1,2.0763184E1,1.491644E1,1.4464748E0,3.4656646E0,1.729752E1,2.4248068E0,1.0408578E0,7.884001E0,9.413519E0,4.428923E0,3.4550781E0,1.7427788E0,7.6707397E0,2.1663911E0,2.262532E0,1.5870428E0,1.8680353E0,1.1280723E0,1.1344597E0],"tree_param":{"num_deleted":"0","num_feature":"60","num_nodes":"21","size_leaf_vector":"1"}},{"base_weights":[1.829402E-1,-1.0797738E0,1.2675937E0,-1.2109704E0,5.120975E-4,-2.0649536E-1,1.6081657E0,-2.18268E-3,-1.0107593E-2,-8.994914E-3,1.2703288E-2,-3.0793876E-3,1.7575867E0,8.709554E-4,1.5421593E-2],"categories":[],"categories_nodes":[],"categories_segments":[],"categories_sizes":[],"default_left":[0,0,0,0,0,0,0,0,0,0,0,0,0,0,0],"id":47,"left_children":[1,3,5,7,-1,9,11,-1,-1,-1,-1,-1,13,-1,-1],"loss_changes":[5.6216885E1,2.9130287E0,1.1304626E1,5.835762E-1,0E0,9.24087E0,5.860218E0,0E0,0E0,0E0,0E0,0E0,4.5699234E0,0E0,0E0],"parents":[2147483647,0,0,1,1,2,2,3,3,5,5,6,6,12,12],"right_children":[2,4,6,8,-1,10,12,-1,-1,-1,-1,-1,14,-1,-1],"split_conditions":[4.4211805E-1,4.409917E-1,3.9622432E-1,3.8331617E-2,5.120975E-4,7.4992937E-1,1E0,-2.18268E-3,-1.0107593E-2,-8.994914E-3,1.2703288E-2,-3.0793876E-3,7.279934E-2,8.709554E-4,1.5421593E-2],"split_indices":[2,5,18,14,0,44,37,0,0,0,0,0,59,0,0],"split_type":[0,0,0,0,0,0,0,0,0,0,0,0,0,0,0],"sum_hessian":[3.9546474E1,1.827489E1,2.1271585E1,1.6354872E1,1.9200194E0,4.047623E0,1.7223963E1,1.1127118E0,1.5242159E1,2.863136E0,1.1844873E0,1.1187787E0,1.6105185E1,1.621331E0,1.4483853E1],"tree_param":{"num_deleted":"0","num_feature":"60","num_nodes":"15","size_leaf_vector":"1"}},{"base_weights":[-4.2078745E-2,-1.0551574E0,9.3480235E-1,-1.1457769E0,2.0872238E-3,3.8907543E-1,1.6053784E0,-9.952353E-3,-3.8266054E-1,4.384911E-2,1.2513128E-2,1.3817535E-2,5.2824235E-3,2.4385434E-3,-7.0223864E-3,1.3981671E-2,-3.2420138E-1,-7.256129E-1,7.4867858E-3,-1.0426954E0,1.9735484E-3,-2.3293288E-3,-9.371484E-3],"categories":[],"categories_nodes":[],"categories_segments":[],"categories_sizes":[],"default_left":[0,0,0,0,0,0,0,0,0,0,0,0,0,0,0,0,0,0,0,0,0,0,0],"id":48,"left_children":[1,3,5,7,-1,9,11,-1,13,15,-1,-1,-1,-1,-1,-1,17,19,-1,21,-1,-1,-1],"loss_changes":[3.7249195E1,2.4260254E0,6.550009E0,9.486809E-1,0E0,4.639479E0,1.0766411E-1,0E0,1.2455418E0,6.513757E0,0E0,0E0,0E0,0E0,0E0,0E0,4.8678875E0,2.3380063E0,0E0,2.6570225E-1,0E0,0E0,0E0],"parents":[2147483647,0,0,1,1,2,2,3,3,5,5,6,6,8,8,9,9,16,16,17,17,19,19],"right_children":[2,4,6,8,-1,10,12,-1,14,16,-1,-1,-1,-1,-1,-1,18,20,-1,22,-1,-1,-1],"split_conditions":[3.5395613E-1,5.991819E-1,6.728353E-1,3.267695E-1,2.0872238E-3,8.387615E-1,1.0312593E0,-9.952353E-3,3.6915597E-1,8.112269E-2,1.2513128E-2,1.3817535E-2,5.2824235E-3,2.4385434E-3,-7.0223864E-3,1.3981671E-2,4.450741E-1,5.663855E-1,7.4867858E-3,1E0,1.9735484E-3,-2.3293288E-3,-9.371484E-3],"split_indices":[0,45,17,2,0,43,19,0,2,42,0,0,0,0,0,0,6,41,0,24,0,0,0],"split_type":[0,0,0,0,0,0,0,0,0,0,0,0,0,0,0,0,0,0,0,0,0,0,0],"sum_hessian":[3.614097E1,1.7712278E1,1.8428688E1,1.666203E1,1.05025E0,1.0813568E1,7.61512E0,1.4342475E1,2.3195539E0,8.959357E0,1.8542114E0,6.1958427E0,1.4192771E0,1.0918492E0,1.2277046E0,1.0921092E0,7.867248E0,6.207759E0,1.659489E0,4.640223E0,1.5675358E0,1.0364009E0,3.6038222E0],"tree_param":{"num_deleted":"0","num_feature":"60","num_nodes":"23","size_leaf_vector":"1"}},{"base_weights":[1.8617712E-1,-9.970027E-1,1.3607079E0,-1.1964682E0,1.3220148E-1,2.3727891E-1,1.7702538E0,-1.7200939E-3,-1.000101E-2,-7.5224084E-3,8.84214E-3,-3.023416E-1,1.2805298E-2,5.697136E-4,1.5261175E-2,1.0141083E-2,-9.529862E-1,-8.978751E-3,-2.0556345E-3],"categories":[],"categories_nodes":[],"categories_segments":[],"categories_sizes":[],"default_left":[0,0,0,0,0,0,0,0,0,0,0,0,0,0,0,0,0,0,0],"id":49,"left_children":[1,3,5,7,9,11,13,-1,-1,-1,-1,15,-1,-1,-1,-1,17,-1,-1],"loss_changes":[5.7347416E1,4.764311E0,9.189957E0,7.2548103E-1,4.715768E0,5.060629E0,3.405136E0,0E0,0E0,0E0,0E0,6.223386E0,0E0,0E0,0E0,0E0,2.679963E-1,0E0,0E0],"parents":[2147483647,0,0,1,1,2,2,3,3,4,4,5,5,6,6,11,11,16,16],"right_children":[2,4,6,8,10,12,14,-1,-1,-1,-1,16,-1,-1,-1,-1,18,-1,-1],"split_conditions":[4.3874964E-1,8.1518346E-1,5.005271E-1,5.1768035E-2,2.057983E-1,1.0090933E0,1E0,-1.7200939E-3,-1.000101E-2,-7.5224084E-3,8.84214E-3,5.277262E-2,1.2805298E-2,5.697136E-4,1.5261175E-2,1.0141083E-2,3.0511117E-1,-8.978751E-3,-2.0556345E-3],"split_indices":[2,41,16,42,1,42,25,0,0,0,0,8,0,0,0,0,8,0,0],"split_type":[0,0,0,0,0,0,0,0,0,0,0,0,0,0,0,0,0,0,0],"sum_hessian":[3.978444E1,1.987572E1,1.990872E1,1.6853924E1,3.021795E0,5.6352215E0,1.4273499E1,1.0683365E0,1.5785587E1,1.4494649E0,1.57233E0,4.455455E0,1.1797664E0,1.1530697E0,1.3120429E1,1.0970688E0,3.3583863E0,2.3316782E0,1.026708E0],"tree_param":{"num_deleted":"0","num_feature":"60","num_nodes":"19","size_leaf_vector":"1"}},{"base_weights":[1.1075953E-2,-8.564006E-1,1.1921544E0,-1.0729729E0,1.0892548E-2,-1.0249267E-3,1.3807869E0,2.2274016E-3,-1.1562284E0,3.6544263E-4,1.5734204E0,-9.570763E-3,-2.23025E-3,-1.3259148E-3,1.7644035E0,8.360929E-1,1.5487565E-2,-8.7275606E-4,1.1723291E-2],"categories":[],"categories_nodes":[],"categories_segments":[],"categories_sizes":[],"default_left":[0,0,0,0,0,0,0,0,0,0,0,0,0,0,0,0,0,0,0],"id":50,"left_children":[1,3,5,7,-1,-1,9,-1,11,-1,13,-1,-1,-1,15,17,-1,-1,-1],"loss_changes":[4.150375E1,1.2317013E1,4.4040356E0,2.6831684E0,0E0,0E0,3.822012E0,0E0,4.7457123E-1,0E0,4.5863686E0,0E0,0E0,0E0,6.82827E-1,2.0102034E0,0E0,0E0,0E0],"parents":[2147483647,0,0,1,1,2,2,3,3,6,6,8,8,10,10,14,14,15,15],"right_children":[2,4,6,8,-1,-1,10,-1,12,-1,14,-1,-1,-1,16,18,-1,-1,-1],"split_conditions":[4.4855312E-1,1.0000781E0,1E0,5.042736E-2,1.0892548E-2,-1.0249267E-3,4.122796E-1,2.2274016E-3,5.632032E-1,3.6544263E-4,7.394317E-2,-9.570763E-3,-2.23025E-3,-1.3259148E-3,5.994806E-2,4.0753403E-1,1.5487565E-2,-8.7275606E-4,1.1723291E-2],"split_indices":[16,43,33,45,0,0,18,0,6,0,45,0,0,0,10,58,0,0,0],"split_type":[0,0,0,0,0,0,0,0,0,0,0,0,0,0,0,0,0,0,0],"sum_hessian":[3.901157E1,2.2610685E1,1.6400885E1,2.0952015E1,1.6586695E0,2.080404E0,1.4320479E1,1.1138545E0,1.983816E1,1.9226693E0,1.2397811E1,1.8710154E1,1.1280073E0,1.2365429E0,1.1161267E1,2.427919E0,8.733349E0,1.2182249E0,1.209694E0],"tree_param":{"num_deleted":"0","num_feature":"60","num_nodes":"19","size_leaf_vector":"1"}},{"base_weights":[1.2582752E-1,-1.0388733E0,1.1492133E0,-9.935473E-3,2.3510405E-1,-4.9292383E-1,1.61452E0,-6.877391E-3,1.0499944E-2,-9.087257E-3,5.6318804E-3,3.3710676E-3,1.734612E0,4.8616645E-3,1.5277816E-2],"categories":[],"categories_nodes":[],"categories_segments":[],"categories_sizes":[],"default_left":[0,0,0,0,0,0,0,0,0,0,0,0,0,0,0],"id":51,"left_children":[1,3,5,-1,7,9,11,-1,-1,-1,-1,-1,13,-1,-1],"loss_changes":[4.445276E1,4.7423954E0,1.5731953E1,0E0,4.425432E0,4.407672E0,1.6884689E0,0E0,0E0,0E0,0E0,0E0,1.8807983E0,0E0,0E0],"parents":[2147483647,0,0,1,1,2,2,4,4,5,5,6,6,12,12],"right_children":[2,4,6,-1,8,10,12,-1,-1,-1,-1,-1,14,-1,-1],"split_conditions":[4.7475302E-1,7.185702E-1,1E0,-9.935473E-3,2.2897662E-1,1E0,1.9245619E-1,-6.877391E-3,1.0499944E-2,-9.087257E-3,5.6318804E-3,3.3710676E-3,7.062148E-2,4.8616645E-3,1.5277816E-2],"split_indices":[2,41,39,0,14,34,5,0,0,0,0,0,46,0,0],"split_type":[0,0,0,0,0,0,0,0,0,0,0,0,0,0,0],"sum_hessian":[3.5793285E1,1.67355E1,1.9057787E1,1.4451003E1,2.2844975E0,4.197978E0,1.4859808E1,1.2082767E0,1.0762208E0,2.7557857E0,1.4421922E0,1.6681414E0,1.3191667E1,2.22514E0,1.0966527E1],"tree_param":{"num_deleted":"0","num_feature":"60","num_nodes":"15","size_leaf_vector":"1"}},{"base_weights":[7.227388E-2,-9.3776315E-1,1.17958E0,-1.0881814E0,9.340779E-3,5.09907E-1,1.7352247E0,-1.2003559E0,-3.0236754E-1,-2.6820385E-1,1.2358778E0,3.782636E-3,1.4796183E-2,-1.648358E-3,-1.00055E-2,7.3603103E-3,-8.029716E-3,9.248792E-3,-8.1699854E-1,-2.976629E-3,1.3984802E-2,-1.0392266E-2,2.355458E-3],"categories":[],"categories_nodes":[],"categories_segments":[],"categories_sizes":[],"default_left":[0,0,0,0,0,0,0,0,0,0,0,0,0,0,0,0,0,0,0,0,0,0,0],"id":52,"left_children":[1,3,5,7,-1,9,11,13,15,17,19,-1,-1,-1,-1,-1,-1,-1,21,-1,-1,-1,-1],"loss_changes":[4.9083965E1,8.230772E0,7.1183834E0,1.6526966E0,0E0,6.2057934E0,9.4831085E-1,7.504215E-1,3.8907652E0,5.1687975E0,5.091465E0,0E0,0E0,0E0,0E0,0E0,0E0,0E0,2.729158E0,0E0,0E0,0E0,0E0],"parents":[2147483647,0,0,1,1,2,2,3,3,5,5,6,6,7,7,8,8,9,9,10,10,18,18],"right_children":[2,4,6,8,-1,10,12,14,16,18,20,-1,-1,-1,-1,-1,-1,-1,22,-1,-1,-1,-1],"split_conditions":[5E-1,8.47153E-1,7.1225274E-1,6.213687E-1,9.340779E-3,1.891053E-1,5.0671875E-1,4.990318E-2,5.3595644E-1,4.7345406E-1,1E0,3.782636E-3,1.4796183E-2,-1.648358E-3,-1.00055E-2,7.3603103E-3,-8.029716E-3,9.248792E-3,6.7064935E-1,-2.976629E-3,1.3984802E-2,-1.0392266E-2,2.355458E-3],"split_indices":[2,43,2,41,0,10,1,48,54,1,37,0,0,0,0,0,0,0,1,0,0,0,0],"split_type":[0,0,0,0,0,0,0,0,0,0,0,0,0,0,0,0,0,0,0,0,0,0,0],"sum_hessian":[4.2395092E1,2.22314E1,2.0163692E1,2.1087172E1,1.1442268E0,9.795837E0,1.0367855E1,1.8106789E1,2.9803836E0,4.9563904E0,4.8394465E0,1.1806344E0,9.187221E0,1.0564638E0,1.7050325E1,1.0013051E0,1.9790785E0,1.1477195E0,3.808671E0,1.2187562E0,3.6206903E0,2.5682213E0,1.2404497E0],"tree_param":{"num_deleted":"0","num_feature":"60","num_nodes":"23","size_leaf_vector":"1"}},{"base_weights":[2.4313491E-3,-1.077121E0,1.1541663E0,-1.1562526E0,1.4390638E-3,-4.653713E-1,1.4953288E0,-9.5946E-3,-2.2871222E-3,1.8238844E-3,-8.132289E-3,2.9920414E-1,1.4515076E-2,-5.654279E-3,1.0087084E-2],"categories":[],"categories_nodes":[],"categories_segments":[],"categories_sizes":[],"default_left":[0,0,0,0,0,0,0,0,0,0,0,0,0,0,0],"id":53,"left_children":[1,3,5,7,-1,9,11,-1,-1,-1,-1,13,-1,-1,-1],"loss_changes":[4.888503E1,2.1747437E0,1.103191E1,4.6240997E-1,0E0,1.6572531E0,5.6569405E0,0E0,0E0,0E0,0E0,4.7742925E0,0E0,0E0,0E0],"parents":[2147483647,0,0,1,1,2,2,3,3,5,5,6,6,11,11],"right_children":[2,4,6,8,-1,10,12,-1,-1,-1,-1,14,-1,-1,-1],"split_conditions":[4.480826E-1,6.7655617E-1,1E0,6.2056005E-1,1.4390638E-3,3.9291915E-1,5.099337E-1,-9.5946E-3,-2.2871222E-3,1.8238844E-3,-8.132289E-3,3.8753566E-1,1.4515076E-2,-5.654279E-3,1.0087084E-2],"split_indices":[2,44,25,10,0,13,2,0,0,0,0,53,0,0,0],"split_type":[0,0,0,0,0,0,0,0,0,0,0,0,0,0,0],"sum_hessian":[3.781704E1,1.9545296E1,1.8271746E1,1.8444292E1,1.1010027E0,3.1317775E0,1.5139968E1,1.7304462E1,1.1398296E0,1.5817403E0,1.5500373E0,3.4940963E0,1.1645871E1,1.8048651E0,1.6892312E0],"tree_param":{"num_deleted":"0","num_feature":"60","num_nodes":"15","size_leaf_vector":"1"}},{"base_weights":[-1.9566844E-1,-9.1294783E-1,1.2222074E0,-9.99921E-1,4.816948E-3,-4.852373E-3,1.4942373E0,-1.0896697E0,2.4099597E-3,2.1152594E-3,1.6177928E0,6.122365E-4,-1.1967162E0,8.2953984E-1,1.5169608E-2,-1.7061954E-3,-1.2390616E0,1.1338693E-2,-1.6492459E-3,-2.7341482E-3,-1.0220998E-2],"categories":[],"categories_nodes":[],"categories_segments":[],"categories_sizes":[],"default_left":[0,0,0,0,0,0,0,0,0,0,0,0,0,0,0,0,0,0,0,0,0],"id":54,"left_children":[1,3,5,7,-1,-1,9,11,-1,-1,13,-1,15,17,-1,-1,19,-1,-1,-1,-1],"loss_changes":[4.096502E1,3.960743E0,7.433346E0,3.2202034E0,0E0,0E0,1.5078297E0,3.0630913E0,0E0,0E0,1.1880226E0,0E0,7.185974E-1,2.7451763E0,0E0,0E0,3.9743805E-1,0E0,0E0,0E0,0E0],"parents":[2147483647,0,0,1,1,2,2,3,3,6,6,7,7,10,10,12,12,13,13,16,16],"right_children":[2,4,6,8,-1,-1,10,12,-1,-1,14,-1,16,18,-1,-1,20,-1,-1,-1,-1],"split_conditions":[5.077024E-1,1.1485535E0,1E0,6.7886114E-1,4.816948E-3,-4.852373E-3,5.6760274E-2,1.5543572E-2,2.4099597E-3,2.1152594E-3,1.7119072E-1,6.122365E-4,3.279566E-2,3.796209E-1,1.5169608E-2,-1.7061954E-3,1.3798373E-2,1.1338693E-2,-1.6492459E-3,-2.7341482E-3,-1.0220998E-2],"split_indices":[18,41,22,6,0,0,46,9,0,0,7,0,44,40,0,0,6,0,0,0,0],"split_type":[0,0,0,0,0,0,0,0,0,0,0,0,0,0,0,0,0,0,0,0,0],"sum_hessian":[3.870687E1,2.588113E1,1.282574E1,2.4717236E1,1.1638949E0,1.5413759E0,1.1284364E1,2.32364E1,1.4808365E0,1.2451867E0,1.0039177E1,1.9715457E0,2.1264854E1,3.3993456E0,6.6398315E0,1.0647277E0,2.0200127E1,1.9922832E0,1.4070624E0,1.1371702E0,1.9062956E1],"tree_param":{"num_deleted":"0","num_feature":"60","num_nodes":"21","size_leaf_vector":"1"}},{"base_weights":[-2.4554202E-1,-9.619017E-1,1.2657316E0,-1.2154216E0,1.17415205E-1,-3.8094334E-3,1.5552213E0,-1.0034418E-2,-3.1739848E-3,1.444445E-2,-6.753137E-1,3.8810836E-3,1.4182476E-2,2.3837653E-3,-8.623627E-3],"categories":[],"categories_nodes":[],"categories_segments":[],"categories_sizes":[],"default_left":[0,0,0,0,0,0,0,0,0,0,0,0,0,0,0],"id":55,"left_children":[1,3,5,7,9,-1,11,-1,-1,-1,13,-1,-1,-1,-1],"loss_changes":[3.7653355E1,6.5234547E0,6.2219143E0,2.3330307E-1,7.798732E0,0E0,1.6394653E0,0E0,0E0,0E0,1.8265831E0,0E0,0E0,0E0,0E0],"parents":[2147483647,0,0,1,1,2,2,3,3,4,4,6,6,10,10],"right_children":[2,4,6,8,10,-1,12,-1,-1,-1,14,-1,-1,-1,-1],"split_conditions":[5.238199E-1,6.15642E-1,4.947665E-1,5.355111E-1,5.7655686E-1,-3.8094334E-3,9.646538E-2,-1.0034418E-2,-3.1739848E-3,1.444445E-2,1.884135E-1,3.8810836E-3,1.4182476E-2,2.3837653E-3,-8.623627E-3],"split_indices":[3,59,2,4,55,0,49,0,0,0,1,0,0,0,0],"split_type":[0,0,0,0,0,0,0,0,0,0,0,0,0,0,0],"sum_hessian":[3.3186535E1,2.2699411E1,1.0487124E1,1.8305153E1,4.3942595E0,1.4255673E0,9.061558E0,1.7094225E1,1.2109271E0,1.0979358E0,3.2963233E0,1.9404988E0,7.1210585E0,1.021664E0,2.2746594E0],"tree_param":{"num_deleted":"0","num_feature":"60","num_nodes":"15","size_leaf_vector":"1"}},{"base_weights":[1.94466E-2,-1.0155387E0,1.020679E0,-9.878393E-3,2.4349345E-1,3.713553E-1,1.42355235E-2,-7.5341556E-3,1.1247988E-2,-5.6023266E-2,1.1049362E0,-5.07392E-1,8.366117E-3,-2.8305403E-3,1.3327197E-2,-9.6127236E-1,6.9225486E-3,-7.1386393E-4,-1.0366021E-2],"categories":[],"categories_nodes":[],"categories_segments":[],"categories_sizes":[],"default_left":[0,0,0,0,0,0,0,0,0,0,0,0,0,0,0,0,0,0,0],"id":56,"left_children":[1,3,5,-1,7,9,-1,-1,-1,11,13,15,-1,-1,-1,17,-1,-1,-1],"loss_changes":[4.151849E1,5.665964E0,9.534235E0,0E0,5.8839045E0,3.782834E0,0E0,0E0,0E0,4.4979634E0,4.061776E0,4.582313E0,0E0,0E0,0E0,1.4095912E0,0E0,0E0,0E0],"parents":[2147483647,0,0,1,1,2,2,4,4,5,5,9,9,10,10,11,11,15,15],"right_children":[2,4,6,-1,8,10,-1,-1,-1,12,14,16,-1,-1,-1,18,-1,-1,-1],"split_conditions":[4.2650628E-1,8.245827E-1,6.8054754E-1,-9.878393E-3,2.7893704E-1,3.261532E-1,1.42355235E-2,-7.5341556E-3,1.1247988E-2,3.694571E-1,1E0,6.4681095E-1,8.366117E-3,-2.8305403E-3,1.3327197E-2,2.3843859E-1,6.9225486E-3,-7.1386393E-4,-1.0366021E-2],"split_indices":[2,58,19,0,5,12,0,0,0,49,20,1,0,0,0,52,0,0,0],"split_type":[0,0,0,0,0,0,0,0,0,0,0,0,0,0,0,0,0,0,0],"sum_hessian":[3.8565475E1,1.8957832E1,1.9607645E1,1.61583E1,2.799533E0,1.1167727E1,8.439917E0,1.4567125E0,1.3428204E0,7.494319E0,3.673409E0,5.6033926E0,1.890926E0,1.0971866E0,2.5762222E0,4.379971E0,1.2234218E0,1.4776375E0,2.9023335E0],"tree_param":{"num_deleted":"0","num_feature":"60","num_nodes":"19","size_leaf_vector":"1"}},{"base_weights":[-3.7617046E-2,-1.0014317E0,1.4138885E0,-1.1471436E0,5.643734E-3,-4.044298E-3,1.6347328E0,-9.978488E-3,-5.3475523E-1,1.4444359E-2,8.247601E-1,2.4816534E-3,-8.658957E-3,-1.1871449E-3,1.074587E-2],"categories":[],"categories_nodes":[],"categories_segments":[],"categories_sizes":[],"default_left":[0,0,0,0,0,0,0,0,0,0,0,0,0,0,0],"id":57,"left_children":[1,3,5,7,-1,-1,9,-1,11,-1,13,-1,-1,-1,-1],"loss_changes":[5.132342E1,6.086092E0,6.8287773E0,7.6231384E-1,0E0,0E0,7.250595E-1,0E0,2.1981115E0,0E0,2.0159879E0,0E0,0E0,0E0,0E0],"parents":[2147483647,0,0,1,1,2,2,3,3,6,6,8,8,10,10],"right_children":[2,4,6,8,-1,-1,10,-1,12,-1,14,-1,-1,-1,-1],"split_conditions":[5.3185797E-1,1.1831905E0,4.0972632E-1,4.3874964E-1,5.643734E-3,-4.044298E-3,3.6566925E-1,-9.978488E-3,2.6747173E-1,1.4444359E-2,3.661575E-1,2.4816534E-3,-8.658957E-3,-1.1871449E-3,1.074587E-2],"split_indices":[2,42,17,2,0,0,44,0,6,0,53,0,0,0,0],"split_type":[0,0,0,0,0,0,0,0,0,0,0,0,0,0,0],"sum_hessian":[3.517718E1,2.1279757E1,1.3897424E1,1.9832664E1,1.4470918E0,1.3342469E0,1.2563176E1,1.6376404E1,3.4562614E0,9.613886E0,2.9492903E0,1.4869951E0,1.9692662E0,1.2112209E0,1.7380694E0],"tree_param":{"num_deleted":"0","num_feature":"60","num_nodes":"15","size_leaf_vector":"1"}},{"base_weights":[-1.2225939E-1,-1.1437676E0,6.776264E-1,-1.1871498E0,-2.1424363E-3,3.7394322E-2,1.3276563E-2,-9.888765E-3,-2.194694E-3,-7.02227E-1,6.6961217E-1,-4.820816E-2,-9.511933E-3,2.623458E-1,1.3422861E-2,-7.396777E-3,8.023878E-3,9.0959203E-1,-8.37993E-3,-1.243827E-3,1.1292317E-2],"categories":[],"categories_nodes":[],"categories_segments":[],"categories_sizes":[],"default_left":[0,0,0,0,0,0,0,0,0,0,0,0,0,0,0,0,0,0,0,0,0],"id":58,"left_children":[1,3,5,7,-1,9,-1,-1,-1,11,13,15,-1,17,-1,-1,-1,19,-1,-1,-1],"loss_changes":[3.1869055E1,4.1119957E-1,1.3750573E1,4.6365738E-1,0E0,6.9234176E0,0E0,0E0,0E0,2.135189E0,2.938439E0,4.105204E0,0E0,6.2750416E0,0E0,0E0,0E0,2.7259579E0,0E0,0E0,0E0],"parents":[2147483647,0,0,1,1,2,2,3,3,5,5,9,9,10,10,11,11,13,13,17,17],"right_children":[2,4,6,8,-1,10,-1,-1,-1,12,14,16,-1,18,-1,-1,-1,20,-1,-1,-1],"split_conditions":[2.7722186E-1,3.4936488E-1,6.8054754E-1,5.879409E-1,-2.1424363E-3,1E0,1.3276563E-2,-9.888765E-3,-2.194694E-3,4.4052175E-1,5.342349E-1,3.9223227E-1,-9.511933E-3,3.10408E-1,1.3422861E-2,-7.396777E-3,8.023878E-3,1.0660498E-1,-8.37993E-3,-1.243827E-3,1.1292317E-2],"split_indices":[4,5,19,16,0,29,0,0,0,4,41,17,0,53,0,0,0,53,0,0,0],"split_type":[0,0,0,0,0,0,0,0,0,0,0,0,0,0,0,0,0,0,0,0,0],"sum_hessian":[3.7541714E1,1.6345266E1,2.1196445E1,1.5320099E1,1.0251676E0,1.3302025E1,7.894421E0,1.4288323E1,1.0317752E0,6.092019E0,7.2100053E0,2.9511373E0,3.140882E0,5.808781E0,1.4012245E0,1.6586385E0,1.2924988E0,4.0410852E0,1.7676959E0,1.4602671E0,2.580818E0],"tree_param":{"num_deleted":"0","num_feature":"60","num_nodes":"21","size_leaf_vector":"1"}},{"base_weights":[2.8119585E-2,-5.9463704E-1,1.3343986E0,-8.1267506E-1,1.34584075E-2,-7.7132396E-3,1.6476811E0,-1.0007241E0,3.3526805E-1,2.7089696E-3,1.430938E-2,-1.1706836E0,-6.119562E-1,-7.144695E-3,1.1072094E-2,-9.74533E-3,-2.824228E-3,-9.122618E-1,4.92722E-3,-1.2478288E-3,-1.0280766E0,-9.02788E-3,-2.9523058E-3],"categories":[],"categories_nodes":[],"categories_segments":[],"categories_sizes":[],"default_left":[0,0,0,0,0,0,0,0,0,0,0,0,0,0,0,0,0,0,0,0,0,0,0],"id":59,"left_children":[1,3,5,7,-1,-1,9,11,13,-1,-1,15,17,-1,-1,-1,-1,19,-1,-1,21,-1,-1],"loss_changes":[3.0208532E1,1.3521026E1,9.820532E0,5.319314E0,0E0,0E0,1.5432453E0,8.0794716E-1,5.9074936E0,0E0,0E0,1.955738E-1,3.2844706E0,0E0,0E0,0E0,0E0,4.5265484E-1,0E0,0E0,5.4141045E-2,0E0,0E0],"parents":[2147483647,0,0,1,1,2,2,3,3,6,6,7,7,8,8,11,11,12,12,17,17,20,20],"right_children":[2,4,6,8,-1,-1,10,12,14,-1,-1,16,18,-1,-1,-1,-1,20,-1,-1,22,-1,-1],"split_conditions":[5.836133E-1,1.1831905E0,1E0,4.9658242E-1,1.34584075E-2,-7.7132396E-3,5.060828E-2,1E0,1E0,2.7089696E-3,1.430938E-2,6.088388E-1,3.0259028E-1,-7.144695E-3,1.1072094E-2,-9.74533E-3,-2.824228E-3,1.2632951E-1,4.92722E-3,-1.2478288E-3,3.9155388E-1,-9.02788E-3,-2.9523058E-3],"split_indices":[1,42,35,7,0,0,57,26,23,0,0,17,7,0,0,0,0,18,0,0,14,0,0],"split_type":[0,0,0,0,0,0,0,0,0,0,0,0,0,0,0,0,0,0,0,0,0,0,0],"sum_hessian":[3.565276E1,2.441955E1,1.1233209E1,2.2725668E1,1.693882E0,1.1604913E0,1.0072717E1,1.9609539E1,3.11613E0,1.2274573E0,8.84526E0,1.2594913E1,7.014626E0,1.4864373E0,1.6296929E0,1.155644E1,1.038472E0,5.791044E0,1.2235819E0,1.0027936E0,4.7882504E0,3.6915774E0,1.0966733E0],"tree_param":{"num_deleted":"0","num_feature":"60","num_nodes":"23","size_leaf_vector":"1"}},{"base_weights":[1.4578094E-1,-9.153009E-1,1.1238778E0,-1.1218834E0,3.0076888E-1,-5.496217E-1,1.4688946E0,-1.3712081E-3,-1.1729447E0,-6.8449858E-3,1.0197575E-2,5.2070194E-3,-9.079695E-3,5.209922E-1,1.5269602E-2,-3.1135404E-3,-9.816023E-3,-9.088467E-1,1.2497399E-2,-2.168902E-3,-8.830262E-3],"categories":[],"categories_nodes":[],"categories_segments":[],"categories_sizes":[],"default_left":[0,0,0,0,0,0,0,0,0,0,0,0,0,0,0,0,0,0,0,0,0],"id":60,"left_children":[1,3,5,7,9,11,13,-1,15,-1,-1,-1,-1,17,-1,-1,-1,19,-1,-1,-1],"loss_changes":[4.3658085E1,5.3362236E0,1.3214975E1,6.963253E-1,4.793184E0,3.5606277E0,6.8876114E0,0E0,3.3821487E-1,0E0,0E0,0E0,0E0,1.1239728E1,0E0,0E0,0E0,1.9252014E-1,0E0,0E0,0E0],"parents":[2147483647,0,0,1,1,2,2,3,3,4,4,5,5,6,6,8,8,13,13,17,17],"right_children":[2,4,6,8,10,12,14,-1,16,-1,-1,-1,-1,18,-1,-1,-1,20,-1,-1,-1],"split_conditions":[4.480826E-1,4.7030264E-1,1E0,3.4139186E-2,2.2642098E-1,3.577709E-1,1.3898386E-1,-1.3712081E-3,4.0625907E-2,-6.8449858E-3,1.0197575E-2,5.2070194E-3,-9.079695E-3,5.8349264E-1,1.5269602E-2,-3.1135404E-3,-9.816023E-3,3.1192514E-1,1.2497399E-2,-2.168902E-3,-8.830262E-3],"split_indices":[2,15,37,53,8,15,10,0,10,0,0,0,0,16,0,0,0,16,0,0,0],"split_type":[0,0,0,0,0,0,0,0,0,0,0,0,0,0,0,0,0,0,0,0,0],"sum_hessian":[4.057288E1,1.9483973E1,2.1088907E1,1.670437E1,2.7796028E0,3.5286188E0,1.7560287E1,1.0182208E0,1.568615E1,1.3124137E0,1.467189E0,1.129043E0,2.3995757E0,6.084645E0,1.1475643E1,1.4089124E0,1.4277238E1,2.6039748E0,3.48067E0,1.0293936E0,1.5745813E0],"tree_param":{"num_deleted":"0","num_feature":"60","num_nodes":"21","size_leaf_vector":"1"}},{"base_weights":[-1.4313814E-1,-6.484617E-1,1.4996837E0,-9.332137E-1,1.1272452E0,3.8219383E-3,1.3488028E-2,-1.2050694E0,-1.3438594E-1,1.4102475E-2,-4.47867E-3,-9.943519E-3,-1.843529E-3,-1.0435079E0,7.609989E-1,-2.7633484E-3,-9.430408E-3,1.3491601E-2,-7.83337E-3],"categories":[],"categories_nodes":[],"categories_segments":[],"categories_sizes":[],"default_left":[0,0,0,0,0,0,0,0,0,0,0,0,0,0,0,0,0,0,0],"id":61,"left_children":[1,3,5,7,9,-1,-1,11,13,-1,-1,-1,-1,15,17,-1,-1,-1,-1],"loss_changes":[3.724292E1,1.8061945E1,1.4090862E0,6.3609905E0,6.166439E0,0E0,0E0,6.037216E-1,7.4523153E0,0E0,0E0,0E0,0E0,1.1923885E-1,8.771258E0,0E0,0E0,0E0,0E0],"parents":[2147483647,0,0,1,1,2,2,3,3,4,4,7,7,8,8,13,13,14,14],"right_children":[2,4,6,8,10,-1,-1,12,14,-1,-1,-1,-1,16,18,-1,-1,-1,-1],"split_conditions":[6.388209E-1,9.6422297E-1,7.0097697E-1,4.1905817E-1,5.046363E-1,3.8219383E-3,1.3488028E-2,4.9008328E-1,4.077058E-1,1.4102475E-2,-4.47867E-3,-9.943519E-3,-1.843529E-3,2.5087035E-1,4.9066573E-1,-2.7633484E-3,-9.430408E-3,1.3491601E-2,-7.83337E-3],"split_indices":[2,43,2,2,2,0,0,15,55,0,0,0,0,56,51,0,0,0,0],"split_type":[0,0,0,0,0,0,0,0,0,0,0,0,0,0,0,0,0,0,0],"sum_hessian":[4.3233936E1,3.3410877E1,9.823057E0,2.9100214E1,4.310663E0,1.926964E0,7.896093E0,2.1426853E1,7.673361E0,3.1066468E0,1.2040167E0,2.0426676E1,1.0001776E0,3.7459092E0,3.9274516E0,1.0407335E0,2.7051759E0,2.5790327E0,1.3484191E0],"tree_param":{"num_deleted":"0","num_feature":"60","num_nodes":"19","size_leaf_vector":"1"}},{"base_weights":[-4.9439933E-2,-9.3442124E-1,1.1038021E0,-1.1214213E0,1.0738214E-1,-4.788858E-1,1.3835986E0,-9.760173E-3,1.7237417E-4,-7.585831E-3,9.2174E-3,-7.2246953E-3,1.0861114E-3,-1.9591661E-4,1.5142847E0,1.3018529E-2,4.3863924E-3],"categories":[],"categories_nodes":[],"categories_segments":[],"categories_sizes":[],"default_left":[0,0,0,0,0,0,0,0,0,0,0,0,0,0,0,0,0],"id":62,"left_children":[1,3,5,7,9,11,13,-1,-1,-1,-1,-1,-1,-1,15,-1,-1],"loss_changes":[3.773171E1,4.161089E0,7.611864E0,2.0235806E0,5.0813365E0,8.665605E-1,2.5757332E0,0E0,0E0,0E0,0E0,0E0,0E0,0E0,7.1552277E-1,0E0,0E0],"parents":[2147483647,0,0,1,1,2,2,3,3,4,4,5,5,6,6,14,14],"right_children":[2,4,6,8,10,12,14,-1,-1,-1,-1,-1,-1,-1,16,-1,-1],"split_conditions":[5E-1,7.380516E-1,1E0,4.4313696E-1,1E0,1E0,6.9181584E-2,-9.760173E-3,1.7237417E-4,-7.585831E-3,9.2174E-3,-7.2246953E-3,1.0861114E-3,-1.9591661E-4,5.803166E-1,1.3018529E-2,4.3863924E-3],"split_indices":[1,59,25,1,24,31,46,0,0,0,0,0,0,0,12,0,0],"split_type":[0,0,0,0,0,0,0,0,0,0,0,0,0,0,0,0,0],"sum_hessian":[3.5462257E1,2.014533E1,1.5316927E1,1.7031006E1,3.1143234E0,2.220853E0,1.3096074E1,1.56319275E1,1.3990793E0,1.583622E0,1.5307014E0,1.1057593E0,1.1150937E0,1.1639934E0,1.193208E1,1.0222472E1,1.7096084E0],"tree_param":{"num_deleted":"0","num_feature":"60","num_nodes":"17","size_leaf_vector":"1"}},{"base_weights":[1.8112348E-1,-6.8690914E-1,1.2636071E0,6.994122E-3,-8.049483E-1,-4.181145E-3,1.4926867E0,-9.476436E-1,4.1665235E-3,-5.842745E-4,1.6276475E0,-1.1104144E0,6.8945415E-2,1.50137255E-2,8.376932E-1,-2.906031E-1,-9.839391E-3,-7.677796E-3,9.251816E-3,-4.908116E-3,1.1723162E-2,-6.1451863E-3,2.6503862E-3],"categories":[],"categories_nodes":[],"categories_segments":[],"categories_sizes":[],"default_left":[0,0,0,0,0,0,0,0,0,0,0,0,0,0,0,0,0,0,0,0,0,0,0],"id":63,"left_children":[1,3,5,-1,7,-1,9,11,-1,-1,13,15,17,-1,19,21,-1,-1,-1,-1,-1,-1,-1],"loss_changes":[3.5082985E1,4.364949E0,7.3661747E0,0E0,4.1063156E0,0E0,3.2340012E0,3.051794E0,0E0,0E0,1.5230675E0,1.2644978E0,4.416446E0,0E0,4.907213E0,1.0735682E0,0E0,0E0,0E0,0E0,0E0,0E0,0E0],"parents":[2147483647,0,0,1,1,2,2,4,4,6,6,7,7,10,10,11,11,12,12,14,14,15,15],"right_children":[2,4,6,-1,8,-1,10,12,-1,-1,14,16,18,-1,20,22,-1,-1,-1,-1,-1,-1,-1],"split_conditions":[5.005271E-1,2.1836754E-2,3.2077137E-1,6.994122E-3,5.469508E-1,-4.181145E-3,3.523682E-2,6.708405E-1,4.1665235E-3,-5.842745E-4,8.8193625E-1,5.6238096E-2,2.228597E-1,1.50137255E-2,6.1893547E-1,2.0936957E-1,-9.839391E-3,-7.677796E-3,9.251816E-3,-4.908116E-3,